svm_type c_svc
kernel_type rbf
gamma 0.0003
nr_class 2
total_sv 394
rho -0.311427016515099
label 1 2
nr_sv 197 197
SV
1 1:238.999 2:-4.7167 3:12.6586 4:3.80729 5:5.27775 6:0.851531 7:-0.0269355 8:-5.67067 9:0.683645 10:-2.10795 11:2.24894 12:-0.192554 13:2.84546 14:238.999 15:-4.7167 16:12.6586 17:3.80729 18:5.27775 19:0.851531 20:-0.0269355 21:-5.67067 22:0.683645 23:-2.10795 24:2.24894 25:-0.192554 26:2.84546
1 1:322.01 2:-22.0701 3:6.48515 4:-1.47066 5:-1.46008 6:-0.104152 7:0.822841 8:-1.03341 9:-1.16169 10:-0.717373 11:1.15334 12:-1.83386 13:1.66496 14:91.0368 15:6.93813 16:0.444834 17:0.840245 18:3.33934 19:-1.78262 20:3.16894 21:-1.63872 22:0.945875 23:-1.47613 24:-0.574746 25:-1.13499 26:2.50104
1 1:319.811 2:-21.747 3:7.19001 4:-2.41853 5:-1.54369 6:0.816559 7:0.313514 8:-0.676381 9:-0.569209 10:-0.303363 11:1.65968 12:-1.51757 13:2.0268 14:91.0368 15:6.93813 16:0.444834 17:0.840245 18:3.33934 19:-1.78262 20:3.16894 21:-1.63872 22:0.945875 23:-1.47613 24:-0.574746 25:-1.13499 26:2.50104
1 1:221.066 2:3.49153 3:8.84567 4:-0.981869 5:4.43106 6:0.313883 7:4.47938 8:-2.78785 9:1.99925 10:-3.37959 11:2.38015 12:-1.31798 13:4.47801 14:91.0368 15:6.93813 16:0.444834 17:0.840245 18:3.33934 19:-1.78262 20:3.16894 21:-1.63872 22:0.945875 23:-1.47613 24:-0.574746 25:-1.13499 26:2.50104
1 1:219.993 2:4.64978 3:10.9534 4:-0.231539 5:5.40688 6:-1.96369 7:2.22231 8:-4.5558 9:1.12705 10:-2.98723 11:3.88905 12:0.105562 13:4.355 14:91.0368 15:6.93813 16:0.444834 17:0.840245 18:3.33934 19:-1.78262 20:3.16894 21:-1.63872 22:0.945875 23:-1.47613 24:-0.574746 25:-1.13499 26:2.50104
1 1:217.19 2:4.07292 3:9.33014 4:-2.13991 5:5.15328 6:-1.64343 7:3.61355 8:-1.21801 9:2.82944 10:-1.63065 11:3.97458 12:-0.112512 13:4.62132 14:91.0368 15:6.93813 16:0.444834 17:0.840245 18:3.33934 19:-1.78262 20:3.16894 21:-1.63872 22:0.945875 23:-1.47613 24:-0.574746 25:-1.13499 26:2.50104
1 1:220.135 2:3.29983 3:9.9687 4:-0.567508 5:3.26291 6:1.19079 7:3.72796 8:-5.31602 9:2.01871 10:-1.55041 11:4.64489 12:-0.0674211 13:3.47114 14:91.0368 15:6.93813 16:0.444834 17:0.840245 18:3.33934 19:-1.78262 20:3.16894 21:-1.63872 22:0.945875 23:-1.47613 24:-0.574746 25:-1.13499 26:2.50104
1 1:216.974 2:2.52864 3:11.994 4:0.502392 5:4.28735 6:1.29358 7:2.92845 8:-6.01801 9:1.85675 10:-1.8435 11:5.25859 12:0.809523 13:0.930613 14:91.0368 15:6.93813 16:0.444834 17:0.840245 18:3.33934 19:-1.78262 20:3.16894 21:-1.63872 22:0.945875 23:-1.47613 24:-0.574746 25:-1.13499 26:2.50104
1 1:222.564 2:3.46533 3:6.98008 4:-0.914443 5:6.02379 6:-1.13879 7:1.85871 8:-3.34692 9:2.642 10:-3.66694 11:1.87135 12:-1.0511 13:4.90315 14:91.0368 15:6.93813 16:0.444834 17:0.840245 18:3.33934 19:-1.78262 20:3.16894 21:-1.63872 22:0.945875 23:-1.47613 24:-0.574746 25:-1.13499 26:2.50104
1 1:218.824 2:2.84231 3:6.38089 4:-3.24757 5:3.75361 6:-1.12484 7:1.63689 8:-2.0895 9:4.78107 10:-1.21336 11:5.49387 12:0.438784 13:5.36074 14:91.0368 15:6.93813 16:0.444834 17:0.840245 18:3.33934 19:-1.78262 20:3.16894 21:-1.63872 22:0.945875 23:-1.47613 24:-0.574746 25:-1.13499 26:2.50104
1 1:222.991 2:5.34235 3:11.8646 4:-1.84472 5:4.30283 6:-0.00835338 7:5.22537 8:-1.98289 9:1.5337 10:-2.6702 11:2.39089 12:1.13147 13:4.13843 14:91.0368 15:6.93813 16:0.444834 17:0.840245 18:3.33934 19:-1.78262 20:3.16894 21:-1.63872 22:0.945875 23:-1.47613 24:-0.574746 25:-1.13499 26:2.50104
1 1:224.77 2:3.30647 3:10.8725 4:-2.21156 5:4.12678 6:1.38028 7:5.99839 8:-1.84399 9:1.61783 10:-2.1958 11:2.09669 12:-0.676062 13:3.90821 14:91.0368 15:6.93813 16:0.444834 17:0.840245 18:3.33934 19:-1.78262 20:3.16894 21:-1.63872 22:0.945875 23:-1.47613 24:-0.574746 25:-1.13499 26:2.50104
1 1:278.016 2:16.0506 3:8.06004 4:0.166971 5:11.3829 6:-0.281653 7:9.93385 8:-3.70599 9:2.43264 10:-4.33824 11:2.47604 12:-4.12922 13:4.07792 14:91.0368 15:6.93813 16:0.444834 17:0.840245 18:3.33934 19:-1.78262 20:3.16894 21:-1.63872 22:0.945875 23:-1.47613 24:-0.574746 25:-1.13499 26:2.50104
1 1:306.824 2:21.1569 3:-1.10629 4:3.11863 5:12.225 6:-3.53127 7:14.1569 8:-4.46333 9:2.29973 10:-3.23529 11:1.68809 12:-5.12464 13:4.39529 14:91.0368 15:6.93813 16:0.444834 17:0.840245 18:3.33934 19:-1.78262 20:3.16894 21:-1.63872 22:0.945875 23:-1.47613 24:-0.574746 25:-1.13499 26:2.50104
1 1:310.561 2:19.5989 3:-1.97541 4:2.80072 5:11.6066 6:-3.91915 7:13.856 8:-3.66858 9:1.5892 10:-3.51733 11:1.99364 12:-4.8017 13:4.12417 14:91.0368 15:6.93813 16:0.444834 17:0.840245 18:3.33934 19:-1.78262 20:3.16894 21:-1.63872 22:0.945875 23:-1.47613 24:-0.574746 25:-1.13499 26:2.50104
0.33700483201938469 1:310.461 2:22.7809 3:-4.03026 4:4.63138 5:12.2957 6:-5.47341 7:13.8138 8:-3.90433 9:2.64263 10:-3.69548 11:2.28716 12:-6.57838 13:4.02267 14:91.0368 15:6.93813 16:0.444834 17:0.840245 18:3.33934 19:-1.78262 20:3.16894 21:-1.63872 22:0.945875 23:-1.47613 24:-0.574746 25:-1.13499 26:2.50104
1 1:332.57 2:30.2773 3:2.18336 4:-3.25405 5:7.19718 6:-11.7723 7:11.774 8:-3.28826 9:-0.777078 10:-2.42128 11:2.58162 12:-8.05478 13:5.50167 14:91.0368 15:6.93813 16:0.444834 17:0.840245 18:3.33934 19:-1.78262 20:3.16894 21:-1.63872 22:0.945875 23:-1.47613 24:-0.574746 25:-1.13499 26:2.50104
1 1:337.474 2:25.6643 3:3.02068 4:-4.50874 5:5.64363 6:-8.78485 7:10.6017 8:-3.01639 9:-0.305893 10:-3.20371 11:4.7329 12:-7.66905 13:5.38127 14:91.0368 15:6.93813 16:0.444834 17:0.840245 18:3.33934 19:-1.78262 20:3.16894 21:-1.63872 22:0.945875 23:-1.47613 24:-0.574746 25:-1.13499 26:2.50104
0.29032939742175323 1:333.854 2:26.9489 3:2.26394 4:-6.71104 5:7.32143 6:-8.17283 7:10.2224 8:-2.24907 9:-3.04418 10:-1.03821 11:4.83417 12:-5.98981 13:6.98829 14:91.0368 15:6.93813 16:0.444834 17:0.840245 18:3.33934 19:-1.78262 20:3.16894 21:-1.63872 22:0.945875 23:-1.47613 24:-0.574746 25:-1.13499 26:2.50104
1 1:276.904 2:25.7504 3:12.6485 4:-2.95751 5:10.5284 6:-2.35622 7:8.20672 8:-4.70147 9:2.30538 10:-2.06604 11:3.45585 12:-7.4536 13:6.64426 14:91.0368 15:6.93813 16:0.444834 17:0.840245 18:3.33934 19:-1.78262 20:3.16894 21:-1.63872 22:0.945875 23:-1.47613 24:-0.574746 25:-1.13499 26:2.50104
1 1:261.801 2:23.938 3:15.8466 4:-2.6773 5:11.4078 6:-1.36509 7:6.03465 8:-3.46279 9:3.46776 10:-2.2432 11:1.1813 12:-7.18869 13:7.38351 14:91.0368 15:6.93813 16:0.444834 17:0.840245 18:3.33934 19:-1.78262 20:3.16894 21:-1.63872 22:0.945875 23:-1.47613 24:-0.574746 25:-1.13499 26:2.50104
1 1:268.19 2:23.1367 3:16.8783 4:0.0626948 5:11.1578 6:-2.42231 7:6.4443 8:-4.97022 9:4.17345 10:-6.53381 11:1.64645 12:-7.51062 13:6.47147 14:91.0368 15:6.93813 16:0.444834 17:0.840245 18:3.33934 19:-1.78262 20:3.16894 21:-1.63872 22:0.945875 23:-1.47613 24:-0.574746 25:-1.13499 26:2.50104
1 1:272.734 2:23.9209 3:16.2683 4:-0.280708 5:9.86686 6:-3.80748 7:6.4832 8:-4.66148 9:4.46669 10:-5.90173 11:2.11961 12:-7.08965 13:6.03566 14:91.0368 15:6.93813 16:0.444834 17:0.840245 18:3.33934 19:-1.78262 20:3.16894 21:-1.63872 22:0.945875 23:-1.47613 24:-0.574746 25:-1.13499 26:2.50104
0.53100037244199072 1:311.331 2:30.3814 3:13.3791 4:-0.775108 5:5.90802 6:-16.6765 7:8.29405 8:-3.49692 9:5.31647 10:-4.42949 11:3.30625 12:-8.72582 13:5.21797 14:91.0368 15:6.93813 16:0.444834 17:0.840245 18:3.33934 19:-1.78262 20:3.16894 21:-1.63872 22:0.945875 23:-1.47613 24:-0.574746 25:-1.13499 26:2.50104
0.90131517476773726 1:321.814 2:28.5214 3:10.8474 4:-1.64934 5:4.70625 6:-15.4213 7:7.45934 8:-2.95264 9:5.21997 10:-4.90789 11:3.24022 12:-8.42746 13:6.31785 14:91.0368 15:6.93813 16:0.444834 17:0.840245 18:3.33934 19:-1.78262 20:3.16894 21:-1.63872 22:0.945875 23:-1.47613 24:-0.574746 25:-1.13499 26:2.50104
0.29005195388251043 1:333 2:27.9858 3:4.44058 4:-3.00656 5:5.92099 6:-10.9713 7:7.92686 8:-2.23815 9:0.842525 10:-5.73707 11:2.52014 12:-8.34217 13:9.07591 14:91.0368 15:6.93813 16:0.444834 17:0.840245 18:3.33934 19:-1.78262 20:3.16894 21:-1.63872 22:0.945875 23:-1.47613 24:-0.574746 25:-1.13499 26:2.50104
1 1:333.89 2:28.051 3:3.44484 4:-3.91172 5:7.17133 6:-10.5059 7:9.54339 8:-3.31851 9:-0.381549 10:-5.41085 11:2.27236 12:-8.1875 13:9.45416 14:91.0368 15:6.93813 16:0.444834 17:0.840245 18:3.33934 19:-1.78262 20:3.16894 21:-1.63872 22:0.945875 23:-1.47613 24:-0.574746 25:-1.13499 26:2.50104
1 1:333.179 2:26.5152 3:2.00493 4:-1.59311 5:8.5994 6:-8.63492 7:9.40555 8:-5.05507 9:-2.26767 10:-3.43751 11:1.91702 12:-6.81836 13:8.23384 14:91.0368 15:6.93813 16:0.444834 17:0.840245 18:3.33934 19:-1.78262 20:3.16894 21:-1.63872 22:0.945875 23:-1.47613 24:-0.574746 25:-1.13499 26:2.50104
1 1:332.301 2:26.2228 3:1.88933 4:-1.36686 5:9.14696 6:-7.76269 7:10.2896 8:-6.19743 9:-3.03798 10:-3.0925 11:1.80732 12:-5.74331 13:7.35551 14:91.0368 15:6.93813 16:0.444834 17:0.840245 18:3.33934 19:-1.78262 20:3.16894 21:-1.63872 22:0.945875 23:-1.47613 24:-0.574746 25:-1.13499 26:2.50104
0.95459001274099464 1:330.661 2:23.8327 3:3.1881 4:-0.840637 5:9.36224 6:-3.9337 7:9.28578 8:-7.53647 9:-3.02681 10:-4.16544 11:3.01286 12:-5.05554 13:5.63584 14:91.0368 15:6.93813 16:0.444834 17:0.840245 18:3.33934 19:-1.78262 20:3.16894 21:-1.63872 22:0.945875 23:-1.47613 24:-0.574746 25:-1.13499 26:2.50104
1 1:313.016 2:13.3309 3:8.05634 4:7.58884 5:10.4533 6:-1.6854 7:6.8455 8:-7.22035 9:-2.34464 10:-3.68697 11:1.24165 12:-5.24234 13:5.07992 14:91.0368 15:6.93813 16:0.444834 17:0.840245 18:3.33934 19:-1.78262 20:3.16894 21:-1.63872 22:0.945875 23:-1.47613 24:-0.574746 25:-1.13499 26:2.50104
1 1:304.701 2:11.1077 3:10.3002 4:8.09261 5:10.659 6:-0.310968 7:6.46136 8:-7.49449 9:-2.39102 10:-2.78696 11:1.23779 12:-5.49423 13:5.56444 14:91.0368 15:6.93813 16:0.444834 17:0.840245 18:3.33934 19:-1.78262 20:3.16894 21:-1.63872 22:0.945875 23:-1.47613 24:-0.574746 25:-1.13499 26:2.50104
1 1:287.458 2:-21.0464 3:23.532 4:8.22092 5:-4.34972 6:8.35643 7:5.52194 8:-5.64247 9:0.591574 10:-4.76008 11:-2.25384 12:-2.23681 13:1.88488 14:91.0368 15:6.93813 16:0.444834 17:0.840245 18:3.33934 19:-1.78262 20:3.16894 21:-1.63872 22:0.945875 23:-1.47613 24:-0.574746 25:-1.13499 26:2.50104
1 1:295.271 2:-26.1443 3:9.4251 4:-0.286161 5:-1.61449 6:5.14236 7:-0.58793 8:-0.84114 9:5.11909 10:-6.34204 11:-2.0184 12:1.02348 13:2.07 14:91.0368 15:6.93813 16:0.444834 17:0.840245 18:3.33934 19:-1.78262 20:3.16894 21:-1.63872 22:0.945875 23:-1.47613 24:-0.574746 25:-1.13499 26:2.50104
1 1:296.98 2:-24.1944 3:10.427 4:-0.904547 5:-1.39763 6:6.23618 7:0.21973 8:-1.83854 9:3.83022 10:-5.8228 11:-1.31001 12:-0.162238 13:1.14564 14:91.0368 15:6.93813 16:0.444834 17:0.840245 18:3.33934 19:-1.78262 20:3.16894 21:-1.63872 22:0.945875 23:-1.47613 24:-0.574746 25:-1.13499 26:2.50104
1 1:301.255 2:-19.2713 3:10.4895 4:-0.564559 5:-1.71084 6:3.99274 7:-1.10603 8:-1.95329 9:1.19234 10:-7.49733 11:-2.14831 12:-1.01538 13:0.562825 14:91.0368 15:6.93813 16:0.444834 17:0.840245 18:3.33934 19:-1.78262 20:3.16894 21:-1.63872 22:0.945875 23:-1.47613 24:-0.574746 25:-1.13499 26:2.50104
1 1:299.371 2:-15.1929 3:9.7823 4:1.9114 5:0.708181 6:1.31629 7:-1.35051 8:-4.08151 9:2.0421 10:-2.97786 11:0.899392 12:-2.86672 13:0.00699708 14:91.0368 15:6.93813 16:0.444834 17:0.840245 18:3.33934 19:-1.78262 20:3.16894 21:-1.63872 22:0.945875 23:-1.47613 24:-0.574746 25:-1.13499 26:2.50104
1 1:292.933 2:-15.6014 3:9.42791 4:3.2999 5:2.01471 6:2.46591 7:-1.07981 8:-2.41386 9:2.86596 10:-3.87552 11:-0.534229 12:-3.47078 13:-0.424783 14:91.0368 15:6.93813 16:0.444834 17:0.840245 18:3.33934 19:-1.78262 20:3.16894 21:-1.63872 22:0.945875 23:-1.47613 24:-0.574746 25:-1.13499 26:2.50104
0.25013188274127079 1:344.239 2:9.71137 3:3.32447 4:7.69594 5:9.777 6:-1.53691 7:6.24477 8:-5.78233 9:-1.95048 10:0.282817 11:1.98597 12:-4.772 13:7.50502 14:91.0368 15:6.93813 16:0.444834 17:0.840245 18:3.33934 19:-1.78262 20:3.16894 21:-1.63872 22:0.945875 23:-1.47613 24:-0.574746 25:-1.13499 26:2.50104
1 1:347.255 2:7.51507 3:3.70791 4:8.24332 5:9.02692 6:-1.19953 7:5.57155 8:-6.05746 9:-4.11982 10:-0.0735213 11:0.447493 12:-4.91162 13:7.3374 14:91.0368 15:6.93813 16:0.444834 17:0.840245 18:3.33934 19:-1.78262 20:3.16894 21:-1.63872 22:0.945875 23:-1.47613 24:-0.574746 25:-1.13499 26:2.50104
1 1:346.202 2:7.25856 3:4.32865 4:8.267 5:9.31212 6:-0.880859 7:6.03341 8:-6.1699 9:-4.35424 10:-0.153975 11:0.334553 12:-4.90978 13:7.46222 14:91.0368 15:6.93813 16:0.444834 17:0.840245 18:3.33934 19:-1.78262 20:3.16894 21:-1.63872 22:0.945875 23:-1.47613 24:-0.574746 25:-1.13499 26:2.50104
0.95519244265108716 1:318.477 2:-19.647 3:25.8543 4:7.38626 5:0.634344 6:9.99283 7:3.39408 8:-2.0901 9:-1.4857 10:-2.69014 11:2.25656 12:-2.30909 13:2.00514 14:91.0368 15:6.93813 16:0.444834 17:0.840245 18:3.33934 19:-1.78262 20:3.16894 21:-1.63872 22:0.945875 23:-1.47613 24:-0.574746 25:-1.13499 26:2.50104
0.57915088172227935 1:312.002 2:-23.0328 3:25.227 4:9.41442 5:-0.538284 6:9.00661 7:2.78271 8:-1.58136 9:2.55467 10:-2.86043 11:3.59195 12:-3.55127 13:2.84951 14:91.0368 15:6.93813 16:0.444834 17:0.840245 18:3.33934 19:-1.78262 20:3.16894 21:-1.63872 22:0.945875 23:-1.47613 24:-0.574746 25:-1.13499 26:2.50104
1 1:298.3 2:14.5707 3:9.84729 4:5.07814 5:4.9454 6:-1.3786 7:8.65102 8:-3.24738 9:1.01538 10:-7.07264 11:0.607197 12:-6.96023 13:7.97167 14:91.0368 15:6.93813 16:0.444834 17:0.840245 18:3.33934 19:-1.78262 20:3.16894 21:-1.63872 22:0.945875 23:-1.47613 24:-0.574746 25:-1.13499 26:2.50104
1 1:329.779 2:22.8705 3:3.87243 4:-0.703462 5:5.40144 6:-7.40894 7:11.6616 8:-7.95888 9:0.140504 10:-1.11517 11:-1.4031 12:-4.90002 13:7.05066 14:91.0368 15:6.93813 16:0.444834 17:0.840245 18:3.33934 19:-1.78262 20:3.16894 21:-1.63872 22:0.945875 23:-1.47613 24:-0.574746 25:-1.13499 26:2.50104
1 1:328.206 2:21.6973 3:2.77564 4:-0.0558089 5:5.9156 6:-8.00745 7:13.4343 8:-9.23438 9:-0.646308 10:0.488904 11:-1.1692 12:-3.90279 13:7.67698 14:91.0368 15:6.93813 16:0.444834 17:0.840245 18:3.33934 19:-1.78262 20:3.16894 21:-1.63872 22:0.945875 23:-1.47613 24:-0.574746 25:-1.13499 26:2.50104
1 1:327.005 2:21.0204 3:2.5109 4:1.4576 5:5.55683 6:-7.95456 7:13.2343 8:-9.29402 9:-0.609831 10:0.857298 11:-0.683505 12:-4.01463 13:7.40861 14:91.0368 15:6.93813 16:0.444834 17:0.840245 18:3.33934 19:-1.78262 20:3.16894 21:-1.63872 22:0.945875 23:-1.47613 24:-0.574746 25:-1.13499 26:2.50104
0.33350070513031732 1:324.049 2:18.9854 3:2.57937 4:4.42729 5:5.62006 6:-7.51743 7:11.7014 8:-8.51818 9:0.653535 10:-0.432121 11:-0.622329 12:-3.27595 13:7.4441 14:91.0368 15:6.93813 16:0.444834 17:0.840245 18:3.33934 19:-1.78262 20:3.16894 21:-1.63872 22:0.945875 23:-1.47613 24:-0.574746 25:-1.13499 26:2.50104
1 1:282.77 2:21.2104 3:10.8619 4:5.99758 5:11.9663 6:-2.05159 7:10.5574 8:-10.4475 9:0.453966 10:-0.415801 11:3.69155 12:-6.93557 13:4.24675 14:91.0368 15:6.93813 16:0.444834 17:0.840245 18:3.33934 19:-1.78262 20:3.16894 21:-1.63872 22:0.945875 23:-1.47613 24:-0.574746 25:-1.13499 26:2.50104
1 1:276.466 2:17.932 3:16.1225 4:3.45858 5:10.883 6:-0.095134 7:6.95076 8:-7.40309 9:2.80134 10:-2.64819 11:3.43642 12:-6.06827 13:3.50541 14:91.0368 15:6.93813 16:0.444834 17:0.840245 18:3.33934 19:-1.78262 20:3.16894 21:-1.63872 22:0.945875 23:-1.47613 24:-0.574746 25:-1.13499 26:2.50104
1 1:249.254 2:15.8354 3:17.0189 4:0.121201 5:11.5282 6:3.36438 7:8.83742 8:-4.9629 9:2.37914 10:-2.41111 11:2.57223 12:-3.3372 13:4.68513 14:91.0368 15:6.93813 16:0.444834 17:0.840245 18:3.33934 19:-1.78262 20:3.16894 21:-1.63872 22:0.945875 23:-1.47613 24:-0.574746 25:-1.13499 26:2.50104
1 1:245.181 2:12.155 3:17.5439 4:2.25727 5:13.2248 6:3.11474 7:7.89849 8:-6.29077 9:1.81843 10:-1.61141 11:3.30508 12:-2.27297 13:4.92802 14:91.0368 15:6.93813 16:0.444834 17:0.840245 18:3.33934 19:-1.78262 20:3.16894 21:-1.63872 22:0.945875 23:-1.47613 24:-0.574746 25:-1.13499 26:2.50104
1 1:236.638 2:8.77308 3:16.0205 4:1.00897 5:11.1078 6:3.60037 7:5.36369 8:-4.96901 9:0.99128 10:-0.363325 11:3.6266 12:-1.92855 13:5.2974 14:91.0368 15:6.93813 16:0.444834 17:0.840245 18:3.33934 19:-1.78262 20:3.16894 21:-1.63872 22:0.945875 23:-1.47613 24:-0.574746 25:-1.13499 26:2.50104
0.67472732334326313 1:295.529 2:26.7472 3:11.1465 4:0.569052 5:2.19085 6:-12.6567 7:10.1529 8:-3.35326 9:3.03054 10:-3.43331 11:3.83386 12:-5.93987 13:7.55269 14:91.0368 15:6.93813 16:0.444834 17:0.840245 18:3.33934 19:-1.78262 20:3.16894 21:-1.63872 22:0.945875 23:-1.47613 24:-0.574746 25:-1.13499 26:2.50104
1 1:324.354 2:24.8214 3:12.083 4:0.766208 5:-0.312992 6:-11.2267 7:8.72467 8:-3.5859 9:2.89763 10:-4.61715 11:3.55467 12:-6.80305 13:6.85155 14:91.0368 15:6.93813 16:0.444834 17:0.840245 18:3.33934 19:-1.78262 20:3.16894 21:-1.63872 22:0.945875 23:-1.47613 24:-0.574746 25:-1.13499 26:2.50104
1 1:338.658 2:22.7721 3:9.16659 4:-4.60363 5:-0.301731 6:-10.3488 7:5.14405 8:-2.95 9:3.28599 10:-6.06245 11:2.6113 12:-6.70005 13:7.21999 14:91.0368 15:6.93813 16:0.444834 17:0.840245 18:3.33934 19:-1.78262 20:3.16894 21:-1.63872 22:0.945875 23:-1.47613 24:-0.574746 25:-1.13499 26:2.50104
1 1:334.117 2:24.1181 3:5.21202 4:-3.3799 5:0.887745 6:-14.2548 7:6.46633 8:-2.17922 9:2.21516 10:-5.06435 11:3.52569 12:-7.631 13:8.4738 14:91.0368 15:6.93813 16:0.444834 17:0.840245 18:3.33934 19:-1.78262 20:3.16894 21:-1.63872 22:0.945875 23:-1.47613 24:-0.574746 25:-1.13499 26:2.50104
1 1:333.116 2:21.1191 3:7.66657 4:-3.05652 5:-0.72442 6:-13.3547 7:5.86209 8:-0.437164 9:2.34499 10:-5.44543 11:4.94144 12:-7.55481 13:8.60413 14:91.0368 15:6.93813 16:0.444834 17:0.840245 18:3.33934 19:-1.78262 20:3.16894 21:-1.63872 22:0.945875 23:-1.47613 24:-0.574746 25:-1.13499 26:2.50104
0.0048893069814831816 1:331.041 2:21.0184 3:7.16751 4:-3.38404 5:-1.50714 6:-12.7187 7:6.55694 8:-1.13279 9:3.00108 10:-5.54446 11:4.5834 12:-6.55582 13:7.71596 14:91.0368 15:6.93813 16:0.444834 17:0.840245 18:3.33934 19:-1.78262 20:3.16894 21:-1.63872 22:0.945875 23:-1.47613 24:-0.574746 25:-1.13499 26:2.50104
1 1:319.393 2:22.03 3:9.21813 4:1.59139 5:-4.03787 6:-11.5252 7:8.87992 8:-4.44043 9:4.20851 10:-6.2413 11:5.3819 12:-6.1573 13:8.05324 14:91.0368 15:6.93813 16:0.444834 17:0.840245 18:3.33934 19:-1.78262 20:3.16894 21:-1.63872 22:0.945875 23:-1.47613 24:-0.574746 25:-1.13499 26:2.50104
1 1:318.632 2:21.1179 3:9.33586 4:3.09781 5:-3.63618 6:-11.657 7:9.28861 8:-4.33712 9:4.29023 10:-6.89488 11:5.01538 12:-5.17069 13:7.7597 14:91.0368 15:6.93813 16:0.444834 17:0.840245 18:3.33934 19:-1.78262 20:3.16894 21:-1.63872 22:0.945875 23:-1.47613 24:-0.574746 25:-1.13499 26:2.50104
0.39217559275497982 1:308.12 2:21.6881 3:11.3387 4:2.74637 5:0.291481 6:-11.5521 7:8.43162 8:-4.67626 9:3.66378 10:-6.02836 11:4.03145 12:-3.87895 13:7.32233 14:91.0368 15:6.93813 16:0.444834 17:0.840245 18:3.33934 19:-1.78262 20:3.16894 21:-1.63872 22:0.945875 23:-1.47613 24:-0.574746 25:-1.13499 26:2.50104
1 1:298.768 2:21.1558 3:12.0152 4:3.43205 5:-0.394291 6:-8.87701 7:8.98359 8:-5.08075 9:3.10747 10:-6.34056 11:4.22931 12:-3.07812 13:6.61013 14:91.0368 15:6.93813 16:0.444834 17:0.840245 18:3.33934 19:-1.78262 20:3.16894 21:-1.63872 22:0.945875 23:-1.47613 24:-0.574746 25:-1.13499 26:2.50104
1 1:281.711 2:19.2553 3:15.7488 4:3.02839 5:0.684268 6:-6.09047 7:8.18404 8:-4.63896 9:4.01651 10:-6.83753 11:2.47321 12:-1.95284 13:7.6155 14:91.0368 15:6.93813 16:0.444834 17:0.840245 18:3.33934 19:-1.78262 20:3.16894 21:-1.63872 22:0.945875 23:-1.47613 24:-0.574746 25:-1.13499 26:2.50104
1 1:274.119 2:16.3884 3:15.9515 4:1.95895 5:1.64944 6:-2.64754 7:9.8163 8:-5.36474 9:2.12604 10:-5.86768 11:2.28027 12:-2.34661 13:6.57246 14:91.0368 15:6.93813 16:0.444834 17:0.840245 18:3.33934 19:-1.78262 20:3.16894 21:-1.63872 22:0.945875 23:-1.47613 24:-0.574746 25:-1.13499 26:2.50104
1 1:284.589 2:-18.3675 3:12.9146 4:9.80154 5:-5.95056 6:0.148647 7:10.3352 8:-7.19657 9:5.88539 10:-0.184618 11:0.0114875 12:3.01004 13:4.15836 14:91.0368 15:6.93813 16:0.444834 17:0.840245 18:3.33934 19:-1.78262 20:3.16894 21:-1.63872 22:0.945875 23:-1.47613 24:-0.574746 25:-1.13499 26:2.50104
1 1:294.014 2:-28.2945 3:14.5305 4:7.13816 5:-8.48312 6:5.09975 7:4.71343 8:-5.49037 9:5.68103 10:-4.9374 11:1.33874 12:-0.893627 13:1.76153 14:91.0368 15:6.93813 16:0.444834 17:0.840245 18:3.33934 19:-1.78262 20:3.16894 21:-1.63872 22:0.945875 23:-1.47613 24:-0.574746 25:-1.13499 26:2.50104
0.46890953900836491 1:298.329 2:-31.8181 3:12.8104 4:5.80846 5:-7.6712 6:4.46223 7:1.62725 8:-7.05537 9:4.1386 10:-6.1507 11:-1.27152 12:-1.8694 13:0.184437 14:91.0368 15:6.93813 16:0.444834 17:0.840245 18:3.33934 19:-1.78262 20:3.16894 21:-1.63872 22:0.945875 23:-1.47613 24:-0.574746 25:-1.13499 26:2.50104
1 1:301.376 2:-25.318 3:17.6169 4:14.3282 5:-3.33255 6:4.7771 7:9.11103 8:-3.59948 9:6.03255 10:0.573709 11:2.70907 12:0.205093 13:3.16859 14:91.0368 15:6.93813 16:0.444834 17:0.840245 18:3.33934 19:-1.78262 20:3.16894 21:-1.63872 22:0.945875 23:-1.47613 24:-0.574746 25:-1.13499 26:2.50104
1 1:300.864 2:-27.4937 3:17.8164 4:14.0975 5:-2.80973 6:5.04085 7:10.0617 8:-0.608505 9:5.9404 10:0.166802 11:3.81864 12:1.06687 13:4.60315 14:91.0368 15:6.93813 16:0.444834 17:0.840245 18:3.33934 19:-1.78262 20:3.16894 21:-1.63872 22:0.945875 23:-1.47613 24:-0.574746 25:-1.13499 26:2.50104
1 1:294.124 2:-30.8703 3:12.8808 4:12.3522 5:-7.85492 6:5.5622 7:9.90337 8:-4.70271 9:4.345 10:-3.84709 11:-1.09095 12:-3.50303 13:4.11477 14:91.0368 15:6.93813 16:0.444834 17:0.840245 18:3.33934 19:-1.78262 20:3.16894 21:-1.63872 22:0.945875 23:-1.47613 24:-0.574746 25:-1.13499 26:2.50104
1 1:295.694 2:-21.4071 3:9.99512 4:12.1923 5:-2.99837 6:3.73811 7:13.7296 8:-5.93062 9:5.15583 10:0.85828 11:-1.10493 12:-0.7687 13:4.81601 14:91.0368 15:6.93813 16:0.444834 17:0.840245 18:3.33934 19:-1.78262 20:3.16894 21:-1.63872 22:0.945875 23:-1.47613 24:-0.574746 25:-1.13499 26:2.50104
1 1:284.745 2:-12.481 3:8.79586 4:9.05296 5:-0.0814751 6:-0.831368 7:10.803 8:-1.15741 9:1.96236 10:-0.358042 11:0.85046 12:-0.184757 13:5.83883 14:91.0368 15:6.93813 16:0.444834 17:0.840245 18:3.33934 19:-1.78262 20:3.16894 21:-1.63872 22:0.945875 23:-1.47613 24:-0.574746 25:-1.13499 26:2.50104
1 1:241.571 2:3.74236 3:11.9946 4:5.05826 5:2.72423 6:4.11923 7:8.58343 8:-5.09245 9:5.81799 10:-4.83923 11:2.03196 12:-0.393042 13:4.93918 14:91.0368 15:6.93813 16:0.444834 17:0.840245 18:3.33934 19:-1.78262 20:3.16894 21:-1.63872 22:0.945875 23:-1.47613 24:-0.574746 25:-1.13499 26:2.50104
1 1:241.786 2:11.4555 3:14.0688 4:1.13097 5:9.07963 6:0.535692 7:10.4651 8:-1.27954 9:4.79229 10:-5.33082 11:1.27548 12:-2.48057 13:4.94877 14:91.0368 15:6.93813 16:0.444834 17:0.840245 18:3.33934 19:-1.78262 20:3.16894 21:-1.63872 22:0.945875 23:-1.47613 24:-0.574746 25:-1.13499 26:2.50104
1 1:240.674 2:9.753 3:15.6607 4:1.51142 5:6.72453 6:1.43386 7:11.4863 8:0.371336 9:5.52682 10:-5.23067 11:0.539628 12:-4.47275 13:4.38682 14:91.0368 15:6.93813 16:0.444834 17:0.840245 18:3.33934 19:-1.78262 20:3.16894 21:-1.63872 22:0.945875 23:-1.47613 24:-0.574746 25:-1.13499 26:2.50104
1 1:233.752 2:9.12546 3:16.3874 4:2.34294 5:8.4841 6:2.12106 7:7.82073 8:-1.51372 9:4.90616 10:-6.15473 11:0.345558 12:-3.38782 13:4.33673 14:91.0368 15:6.93813 16:0.444834 17:0.840245 18:3.33934 19:-1.78262 20:3.16894 21:-1.63872 22:0.945875 23:-1.47613 24:-0.574746 25:-1.13499 26:2.50104
1 1:231.001 2:8.05369 3:15.0218 4:2.27017 5:6.98788 6:0.651528 7:8.23006 8:-1.81114 9:3.64587 10:-6.1611 11:1.45459 12:-2.20435 13:4.13425 14:91.0368 15:6.93813 16:0.444834 17:0.840245 18:3.33934 19:-1.78262 20:3.16894 21:-1.63872 22:0.945875 23:-1.47613 24:-0.574746 25:-1.13499 26:2.50104
1 1:227.388 2:6.83538 3:9.79553 4:0.751438 5:4.69948 6:-0.526473 7:7.86742 8:-1.54466 9:4.92041 10:-6.8785 11:1.30047 12:-0.643811 13:4.32152 14:91.0368 15:6.93813 16:0.444834 17:0.840245 18:3.33934 19:-1.78262 20:3.16894 21:-1.63872 22:0.945875 23:-1.47613 24:-0.574746 25:-1.13499 26:2.50104
1 1:223.812 2:6.48286 3:11.2341 4:0.670023 5:5.90306 6:0.683713 7:5.74797 8:-1.70621 9:5.30254 10:-6.29496 11:-1.59423 12:-3.82178 13:3.15142 14:91.0368 15:6.93813 16:0.444834 17:0.840245 18:3.33934 19:-1.78262 20:3.16894 21:-1.63872 22:0.945875 23:-1.47613 24:-0.574746 25:-1.13499 26:2.50104
1 1:222.802 2:7.54566 3:10.5687 4:0.989545 5:6.62519 6:-0.496598 7:3.9899 8:-3.34452 9:3.55432 10:-4.07101 11:-0.484044 12:-5.0454 13:4.47837 14:91.0368 15:6.93813 16:0.444834 17:0.840245 18:3.33934 19:-1.78262 20:3.16894 21:-1.63872 22:0.945875 23:-1.47613 24:-0.574746 25:-1.13499 26:2.50104
1 1:222.125 2:7.57415 3:9.03753 4:0.663364 5:4.70926 6:-2.91048 7:4.16176 8:-2.43155 9:3.33158 10:-3.8275 11:-0.930972 12:-3.36496 13:4.82769 14:91.0368 15:6.93813 16:0.444834 17:0.840245 18:3.33934 19:-1.78262 20:3.16894 21:-1.63872 22:0.945875 23:-1.47613 24:-0.574746 25:-1.13499 26:2.50104
1 1:221.322 2:5.56032 3:9.293 4:-0.0151028 5:4.23805 6:-0.702786 7:5.1103 8:-0.234079 9:4.07794 10:-5.024 11:1.53959 12:-4.63301 13:0.489386 14:91.0368 15:6.93813 16:0.444834 17:0.840245 18:3.33934 19:-1.78262 20:3.16894 21:-1.63872 22:0.945875 23:-1.47613 24:-0.574746 25:-1.13499 26:2.50104
1 1:222.248 2:5.15068 3:6.45134 4:-0.12417 5:3.31371 6:-0.946641 7:4.00683 8:-2.80098 9:4.70358 10:-5.51744 11:1.17724 12:-4.61533 13:0.823515 14:91.0368 15:6.93813 16:0.444834 17:0.840245 18:3.33934 19:-1.78262 20:3.16894 21:-1.63872 22:0.945875 23:-1.47613 24:-0.574746 25:-1.13499 26:2.50104
1 1:223.356 2:6.90481 3:10.6162 4:0.319181 5:4.17461 6:-1.5632 7:5.56358 8:-2.79221 9:1.93642 10:-3.61873 11:2.09505 12:-3.64371 13:2.46419 14:91.0368 15:6.93813 16:0.444834 17:0.840245 18:3.33934 19:-1.78262 20:3.16894 21:-1.63872 22:0.945875 23:-1.47613 24:-0.574746 25:-1.13499 26:2.50104
0.68744522629101712 1:230.047 2:5.78174 3:5.70976 4:-1.22684 5:1.8992 6:-1.53039 7:9.67116 8:-4.06142 9:3.77565 10:-0.47091 11:0.58625 12:-1.31245 13:4.14744 14:91.0368 15:6.93813 16:0.444834 17:0.840245 18:3.33934 19:-1.78262 20:3.16894 21:-1.63872 22:0.945875 23:-1.47613 24:-0.574746 25:-1.13499 26:2.50104
1 1:228.158 2:6.48915 3:6.23956 4:-2.91538 5:4.50766 6:1.13901 7:10.0603 8:-1.29287 9:4.30707 10:-3.08554 11:0.337938 12:-4.2365 13:3.86336 14:91.0368 15:6.93813 16:0.444834 17:0.840245 18:3.33934 19:-1.78262 20:3.16894 21:-1.63872 22:0.945875 23:-1.47613 24:-0.574746 25:-1.13499 26:2.50104
1 1:222.417 2:9.24278 3:8.22171 4:-7.13301 5:0.683402 6:-2.20982 7:8.48893 8:-0.522114 9:3.20678 10:-0.0592658 11:2.13228 12:-3.71377 13:3.79611 14:91.0368 15:6.93813 16:0.444834 17:0.840245 18:3.33934 19:-1.78262 20:3.16894 21:-1.63872 22:0.945875 23:-1.47613 24:-0.574746 25:-1.13499 26:2.50104
1 1:218.585 2:7.13499 3:7.85025 4:-5.27795 5:1.30195 6:-1.15685 7:7.25837 8:0.0475826 9:3.04632 10:-1.75252 11:2.57388 12:-2.83765 13:2.65431 14:91.0368 15:6.93813 16:0.444834 17:0.840245 18:3.33934 19:-1.78262 20:3.16894 21:-1.63872 22:0.945875 23:-1.47613 24:-0.574746 25:-1.13499 26:2.50104
1 1:212.996 2:5.20378 3:6.67614 4:-3.76759 5:3.90048 6:-1.25365 7:4.48362 8:0.20373 9:3.25322 10:-4.08672 11:2.3638 12:0.271727 13:6.80031 14:91.0368 15:6.93813 16:0.444834 17:0.840245 18:3.33934 19:-1.78262 20:3.16894 21:-1.63872 22:0.945875 23:-1.47613 24:-0.574746 25:-1.13499 26:2.50104
1 1:215.734 2:5.2445 3:8.30665 4:-2.4149 5:2.9129 6:-2.16813 7:5.89101 8:-0.902955 9:2.73409 10:-3.96042 11:1.8979 12:0.181891 13:5.75591 14:91.0368 15:6.93813 16:0.444834 17:0.840245 18:3.33934 19:-1.78262 20:3.16894 21:-1.63872 22:0.945875 23:-1.47613 24:-0.574746 25:-1.13499 26:2.50104
1 1:293.172 2:16.1865 3:17.9467 4:2.72511 5:3.32783 6:-1.67474 7:6.48079 8:-5.49804 9:2.30875 10:-6.79523 11:1.3568 12:-3.5746 13:5.06869 14:91.0368 15:6.93813 16:0.444834 17:0.840245 18:3.33934 19:-1.78262 20:3.16894 21:-1.63872 22:0.945875 23:-1.47613 24:-0.574746 25:-1.13499 26:2.50104
0.44507423954509406 1:291.641 2:31.8541 3:21.2586 4:-3.59346 5:10.8379 6:-3.74267 7:5.6587 8:-7.6691 9:4.78851 10:-5.59352 11:1.34808 12:-4.67473 13:6.55998 14:91.0368 15:6.93813 16:0.444834 17:0.840245 18:3.33934 19:-1.78262 20:3.16894 21:-1.63872 22:0.945875 23:-1.47613 24:-0.574746 25:-1.13499 26:2.50104
1 1:265.579 2:16.1002 3:20.0201 4:-0.5214 5:8.16853 6:-1.79894 7:6.90483 8:-5.57625 9:1.96599 10:0.416946 11:4.10364 12:-2.70184 13:5.56559 14:91.0368 15:6.93813 16:0.444834 17:0.840245 18:3.33934 19:-1.78262 20:3.16894 21:-1.63872 22:0.945875 23:-1.47613 24:-0.574746 25:-1.13499 26:2.50104
1 1:271.957 2:16.4672 3:17.6293 4:0.977415 5:7.03583 6:-2.82103 7:6.82471 8:-6.58023 9:-0.331692 10:-1.19984 11:3.49286 12:-3.97141 13:4.6267 14:91.0368 15:6.93813 16:0.444834 17:0.840245 18:3.33934 19:-1.78262 20:3.16894 21:-1.63872 22:0.945875 23:-1.47613 24:-0.574746 25:-1.13499 26:2.50104
0.25141864183372109 1:299.515 2:22.4796 3:-0.00324482 4:3.97393 5:13.605 6:-6.72745 7:10.1017 8:-4.51294 9:3.20801 10:-4.79564 11:-1.67563 12:-4.24612 13:7.75038 14:299.515 15:22.4796 16:-0.00324482 17:3.97393 18:13.605 19:-6.72745 20:10.1017 21:-4.51294 22:3.20801 23:-4.79564 24:-1.67563 25:-4.24612 26:7.75038
0.62319810248465501 1:298.864 2:23.5295 3:-0.173689 4:3.99536 5:12.6225 6:-6.941 7:10.7285 8:-4.57047 9:3.79992 10:-6.48658 11:-1.79347 12:-3.71024 13:9.12983 14:298.864 15:23.5295 16:-0.173689 17:3.99536 18:12.6225 19:-6.941 20:10.7285 21:-4.57047 22:3.79992 23:-6.48658 24:-1.79347 25:-3.71024 26:9.12983
0.68843212141689303 1:-1500 2:1.44711e-07 3:9.96791e-06 4:-1.45779e-06 5:-1.61451e-05 6:-3.85156e-06 7:3.92767e-06 8:5.21158e-06 9:-7.71489e-06 10:-1.09161e-06 11:-6.57972e-07 12:-5.02876e-07 13:-2.09301e-06 14:-1500 15:1.44711e-07 16:9.96791e-06 17:-1.45779e-06 18:-1.61451e-05 19:-3.85156e-06 20:3.92767e-06 21:5.21158e-06 22:-7.71489e-06 23:-1.09161e-06 24:-6.57972e-07 25:-5.02876e-07 26:-2.09301e-06
1 1:279.647 2:8.55375 3:5.25759 4:-6.7077 5:3.86116 6:-4.68217 7:4.50732 8:-2.45936 9:1.30644 10:-4.76796 11:1.20571 12:-1.12444 13:3.92512 14:279.647 15:8.55375 16:5.25759 17:-6.7077 18:3.86116 19:-4.68217 20:4.50732 21:-2.45936 22:1.30644 23:-4.76796 24:1.20571 25:-1.12444 26:3.92512
1 1:270.384 2:8.61809 3:4.72704 4:-6.04001 5:3.77034 6:-1.87956 7:4.81313 8:-3.91641 9:3.84591 10:-2.13182 11:3.2613 12:-1.89259 13:2.79459 14:66.4328 15:1.74246 16:2.10179 17:-0.581644 18:1.53045 19:-0.551699 20:1.00905 21:-1.32891 22:0.667746 23:-0.314188 24:1.72234 25:-0.46193 26:0.626214
1 1:268.61 2:8.2677 3:4.79905 4:-6.799 5:6.15176 6:-1.14549 7:3.61608 8:-4.84309 9:-0.344477 10:-2.93086 11:3.25705 12:-1.61571 13:3.47094 14:66.4328 15:1.74246 16:2.10179 17:-0.581644 18:1.53045 19:-0.551699 20:1.00905 21:-1.32891 22:0.667746 23:-0.314188 24:1.72234 25:-0.46193 26:0.626214
1 1:259.723 2:9.45393 3:8.68766 4:-5.8403 5:7.42974 6:-0.183761 7:5.083 8:-2.58913 9:3.77769 10:-3.5812 11:3.76617 12:-2.06777 13:2.96396 14:66.4328 15:1.74246 16:2.10179 17:-0.581644 18:1.53045 19:-0.551699 20:1.00905 21:-1.32891 22:0.667746 23:-0.314188 24:1.72234 25:-0.46193 26:0.626214
1 1:251.806 2:9.74661 3:6.30569 4:-7.53432 5:5.43617 6:-0.946452 7:6.3315 8:-2.26832 9:3.91177 10:-4.43955 11:5.08263 12:0.433493 13:4.26132 14:66.4328 15:1.74246 16:2.10179 17:-0.581644 18:1.53045 19:-0.551699 20:1.00905 21:-1.32891 22:0.667746 23:-0.314188 24:1.72234 25:-0.46193 26:0.626214
1 1:246.026 2:8.83107 3:4.20351 4:-6.39844 5:4.15463 6:-0.524245 7:4.65395 8:-5.17812 9:0.341597 10:-3.75372 11:5.6702 12:-1.09379 13:3.32637 14:66.4328 15:1.74246 16:2.10179 17:-0.581644 18:1.53045 19:-0.551699 20:1.00905 21:-1.32891 22:0.667746 23:-0.314188 24:1.72234 25:-0.46193 26:0.626214
1 1:251.034 2:0.54884 3:4.45246 4:-1.20404 5:1.49213 6:-3.81082 7:5.17732 8:-3.33599 9:-0.826892 10:-0.412853 11:2.90922 12:-0.425342 13:4.12085 14:66.4328 15:1.74246 16:2.10179 17:-0.581644 18:1.53045 19:-0.551699 20:1.00905 21:-1.32891 22:0.667746 23:-0.314188 24:1.72234 25:-0.46193 26:0.626214
1 1:248.991 2:-6.22427 3:8.19242 4:0.105463 5:0.307525 6:-1.57997 7:3.87848 8:-2.2216 9:-1.32251 10:-0.00123307 11:1.32118 12:-3.6634 13:2.67567 14:66.4328 15:1.74246 16:2.10179 17:-0.581644 18:1.53045 19:-0.551699 20:1.00905 21:-1.32891 22:0.667746 23:-0.314188 24:1.72234 25:-0.46193 26:0.626214
1 1:238.287 2:-5.45966 3:8.21243 4:-4.31089 5:3.6491 6:2.51211 7:1.34303 8:-0.0593972 9:2.25143 10:0.305288 11:2.36876 12:-2.71115 13:2.99788 14:66.4328 15:1.74246 16:2.10179 17:-0.581644 18:1.53045 19:-0.551699 20:1.00905 21:-1.32891 22:0.667746 23:-0.314188 24:1.72234 25:-0.46193 26:0.626214
1 1:244.016 2:2.16377 3:6.61277 4:-4.50324 5:5.40639 6:0.918807 7:0.90514 8:-4.68796 9:2.08777 10:0.0156475 11:5.58313 12:-2.91034 13:1.35986 14:66.4328 15:1.74246 16:2.10179 17:-0.581644 18:1.53045 19:-0.551699 20:1.00905 21:-1.32891 22:0.667746 23:-0.314188 24:1.72234 25:-0.46193 26:0.626214
1 1:244.117 2:4.09941 3:7.20646 4:-4.30071 5:5.19324 6:1.43271 7:1.16834 8:-3.08933 9:1.65689 10:-2.34379 11:4.41794 12:-3.47759 13:1.13936 14:66.4328 15:1.74246 16:2.10179 17:-0.581644 18:1.53045 19:-0.551699 20:1.00905 21:-1.32891 22:0.667746 23:-0.314188 24:1.72234 25:-0.46193 26:0.626214
1 1:236.542 2:5.13297 3:12.3911 4:-0.830978 5:4.71715 6:-0.488194 7:3.16586 8:-1.24863 9:0.913024 10:-3.56926 11:3.17886 12:-0.866807 13:4.51222 14:66.4328 15:1.74246 16:2.10179 17:-0.581644 18:1.53045 19:-0.551699 20:1.00905 21:-1.32891 22:0.667746 23:-0.314188 24:1.72234 25:-0.46193 26:0.626214
1 1:240.93 2:-1.26847 3:11.9615 4:-0.31797 5:2.41106 6:0.660895 7:0.716774 8:-0.0630396 9:1.25809 10:-2.00921 11:3.93164 12:-0.858636 13:5.06424 14:66.4328 15:1.74246 16:2.10179 17:-0.581644 18:1.53045 19:-0.551699 20:1.00905 21:-1.32891 22:0.667746 23:-0.314188 24:1.72234 25:-0.46193 26:0.626214
1 1:273.339 2:-7.45004 3:13.4723 4:1.87895 5:1.91711 6:1.10238 7:-5.06696 8:-3.18813 9:0.337289 10:-2.08612 11:1.56542 12:-1.37909 13:2.18808 14:66.4328 15:1.74246 16:2.10179 17:-0.581644 18:1.53045 19:-0.551699 20:1.00905 21:-1.32891 22:0.667746 23:-0.314188 24:1.72234 25:-0.46193 26:0.626214
1 1:263.556 2:-8.37731 3:13.6439 4:1.65499 5:2.30091 6:0.550352 7:-3.29384 8:-3.71917 9:1.29165 10:0.417 11:2.13664 12:-1.28395 13:1.01054 14:66.4328 15:1.74246 16:2.10179 17:-0.581644 18:1.53045 19:-0.551699 20:1.00905 21:-1.32891 22:0.667746 23:-0.314188 24:1.72234 25:-0.46193 26:0.626214
1 1:243.078 2:-5.75519 3:11.2703 4:0.678363 5:0.751032 6:0.552812 7:1.79402 8:-0.488008 9:1.00678 10:-1.24585 11:2.45966 12:-2.15353 13:3.14377 14:66.4328 15:1.74246 16:2.10179 17:-0.581644 18:1.53045 19:-0.551699 20:1.00905 21:-1.32891 22:0.667746 23:-0.314188 24:1.72234 25:-0.46193 26:0.626214
1 1:243.34 2:-7.24148 3:8.07672 4:-0.401787 5:0.698559 6:-1.29018 7:2.59354 8:-1.26192 9:0.419991 10:-0.164687 11:3.60956 12:-3.05211 13:1.47979 14:66.4328 15:1.74246 16:2.10179 17:-0.581644 18:1.53045 19:-0.551699 20:1.00905 21:-1.32891 22:0.667746 23:-0.314188 24:1.72234 25:-0.46193 26:0.626214
1 1:246.594 2:-5.12774 3:5.14207 4:-1.68315 5:3.50825 6:-1.13835 7:0.525202 8:-2.76202 9:-1.00655 10:-0.355641 11:3.22514 12:-2.79696 13:2.08575 14:66.4328 15:1.74246 16:2.10179 17:-0.581644 18:1.53045 19:-0.551699 20:1.00905 21:-1.32891 22:0.667746 23:-0.314188 24:1.72234 25:-0.46193 26:0.626214
1 1:245.735 2:-4.23716 3:6.43535 4:-2.3411 5:3.71349 6:0.701001 7:-0.358909 8:-4.28668 9:-0.952687 10:-1.03264 11:1.63201 12:-3.73246 13:4.30221 14:66.4328 15:1.74246 16:2.10179 17:-0.581644 18:1.53045 19:-0.551699 20:1.00905 21:-1.32891 22:0.667746 23:-0.314188 24:1.72234 25:-0.46193 26:0.626214
1 1:248.481 2:2.86312 3:9.13697 4:-0.388719 5:4.92986 6:-0.965721 7:-0.466479 8:-3.21664 9:3.46094 10:-0.176369 11:4.96795 12:-4.11168 13:2.39177 14:66.4328 15:1.74246 16:2.10179 17:-0.581644 18:1.53045 19:-0.551699 20:1.00905 21:-1.32891 22:0.667746 23:-0.314188 24:1.72234 25:-0.46193 26:0.626214
1 1:256.025 2:3.81623 3:9.02851 4:-1.51243 5:6.85542 6:-0.910663 7:0.863416 8:-2.99217 9:3.26969 10:0.899571 11:5.28877 12:-3.4998 13:2.88961 14:66.4328 15:1.74246 16:2.10179 17:-0.581644 18:1.53045 19:-0.551699 20:1.00905 21:-1.32891 22:0.667746 23:-0.314188 24:1.72234 25:-0.46193 26:0.626214
1 1:245.493 2:2.31784 3:7.64795 4:-2.84945 5:1.96089 6:-1.84421 7:0.994313 8:-1.8149 9:2.81334 10:-3.10895 11:1.38538 12:-3.97829 13:4.32585 14:66.4328 15:1.74246 16:2.10179 17:-0.581644 18:1.53045 19:-0.551699 20:1.00905 21:-1.32891 22:0.667746 23:-0.314188 24:1.72234 25:-0.46193 26:0.626214
1 1:245.606 2:2.6804 3:6.01173 4:-3.35393 5:1.79537 6:-4.32628 7:0.64173 8:-1.79673 9:0.878694 10:-2.4484 11:4.14339 12:-2.84201 13:3.69536 14:66.4328 15:1.74246 16:2.10179 17:-0.581644 18:1.53045 19:-0.551699 20:1.00905 21:-1.32891 22:0.667746 23:-0.314188 24:1.72234 25:-0.46193 26:0.626214
1 1:243.398 2:0.733836 3:2.30564 4:-3.0437 5:4.19444 6:-1.64514 7:1.48157 8:-3.42075 9:0.775765 10:-1.26673 11:4.93245 12:-4.22887 13:1.77091 14:66.4328 15:1.74246 16:2.10179 17:-0.581644 18:1.53045 19:-0.551699 20:1.00905 21:-1.32891 22:0.667746 23:-0.314188 24:1.72234 25:-0.46193 26:0.626214
1 1:244.736 2:2.11707 3:1.79526 4:-3.32059 5:4.96797 6:-2.18086 7:0.997203 8:-4.51009 9:0.0294744 10:-2.15175 11:5.69071 12:-3.86753 13:1.66032 14:66.4328 15:1.74246 16:2.10179 17:-0.581644 18:1.53045 19:-0.551699 20:1.00905 21:-1.32891 22:0.667746 23:-0.314188 24:1.72234 25:-0.46193 26:0.626214
1 1:238.066 2:2.25895 3:1.00183 4:-4.21945 5:6.40839 6:0.549746 7:3.22666 8:-1.80141 9:2.03373 10:-1.76264 11:6.72745 12:-1.48085 13:2.94612 14:66.4328 15:1.74246 16:2.10179 17:-0.581644 18:1.53045 19:-0.551699 20:1.00905 21:-1.32891 22:0.667746 23:-0.314188 24:1.72234 25:-0.46193 26:0.626214
1 1:237.015 2:3.59612 3:-0.08868 4:-4.61805 5:5.21302 6:-2.35649 7:1.71994 8:-4.17133 9:1.16441 10:-3.0043 11:5.94424 12:-1.40698 13:2.97147 14:66.4328 15:1.74246 16:2.10179 17:-0.581644 18:1.53045 19:-0.551699 20:1.00905 21:-1.32891 22:0.667746 23:-0.314188 24:1.72234 25:-0.46193 26:0.626214
1 1:237.536 2:5.04746 3:1.74629 4:-3.32447 5:4.72495 6:-1.95819 7:-0.372578 8:-7.97761 9:0.809697 10:-3.60503 11:6.73301 12:-1.4747 13:2.55292 14:66.4328 15:1.74246 16:2.10179 17:-0.581644 18:1.53045 19:-0.551699 20:1.00905 21:-1.32891 22:0.667746 23:-0.314188 24:1.72234 25:-0.46193 26:0.626214
1 1:271.839 2:25.4217 3:11.5824 4:-3.19379 5:7.08148 6:-7.80872 7:1.12761 8:-6.78192 9:4.49612 10:-5.44291 11:7.47114 12:-4.58279 13:2.31192 14:66.4328 15:1.74246 16:2.10179 17:-0.581644 18:1.53045 19:-0.551699 20:1.00905 21:-1.32891 22:0.667746 23:-0.314188 24:1.72234 25:-0.46193 26:0.626214
1 1:290.179 2:34.4482 3:12.9514 4:-3.36285 5:10.9632 6:-7.11818 7:4.36802 8:-6.95686 9:5.21427 10:-6.01039 11:7.88563 12:-6.15477 13:5.14546 14:66.4328 15:1.74246 16:2.10179 17:-0.581644 18:1.53045 19:-0.551699 20:1.00905 21:-1.32891 22:0.667746 23:-0.314188 24:1.72234 25:-0.46193 26:0.626214
1 1:258.682 2:24.898 3:16.8594 4:0.333715 5:10.9363 6:-3.63652 7:4.79544 8:-5.91498 9:5.0931 10:-4.7939 11:7.24685 12:-6.1447 13:5.25794 14:66.4328 15:1.74246 16:2.10179 17:-0.581644 18:1.53045 19:-0.551699 20:1.00905 21:-1.32891 22:0.667746 23:-0.314188 24:1.72234 25:-0.46193 26:0.626214
1 1:233.72 2:8.5364 3:9.14847 4:-0.0520206 5:6.98625 6:-2.667 7:-0.580365 8:-5.72018 9:3.49042 10:-3.23575 11:5.43709 12:-3.20419 13:3.00941 14:66.4328 15:1.74246 16:2.10179 17:-0.581644 18:1.53045 19:-0.551699 20:1.00905 21:-1.32891 22:0.667746 23:-0.314188 24:1.72234 25:-0.46193 26:0.626214
1 1:233.79 2:7.36589 3:7.3157 4:-1.39137 5:4.94469 6:-5.02543 7:-0.878544 8:-4.40326 9:2.63118 10:-3.71443 11:4.21515 12:-2.91313 13:1.43128 14:66.4328 15:1.74246 16:2.10179 17:-0.581644 18:1.53045 19:-0.551699 20:1.00905 21:-1.32891 22:0.667746 23:-0.314188 24:1.72234 25:-0.46193 26:0.626214
1 1:240.01 2:3.59139 3:5.55219 4:-2.54588 5:3.19191 6:-5.1777 7:0.336996 8:-3.59027 9:1.45717 10:-3.14137 11:3.45772 12:-1.89494 13:1.15088 14:66.4328 15:1.74246 16:2.10179 17:-0.581644 18:1.53045 19:-0.551699 20:1.00905 21:-1.32891 22:0.667746 23:-0.314188 24:1.72234 25:-0.46193 26:0.626214
1 1:239.106 2:2.29625 3:6.87481 4:-2.90755 5:4.19858 6:-4.55946 7:-1.41694 8:-2.56065 9:1.85008 10:-2.12635 11:2.73603 12:-2.31579 13:0.923767 14:66.4328 15:1.74246 16:2.10179 17:-0.581644 18:1.53045 19:-0.551699 20:1.00905 21:-1.32891 22:0.667746 23:-0.314188 24:1.72234 25:-0.46193 26:0.626214
1 1:242.061 2:2.41419 3:9.12151 4:-3.03905 5:4.11139 6:-1.54505 7:2.34269 8:-0.941689 9:2.24269 10:-4.67675 11:0.761447 12:-0.552136 13:2.44272 14:66.4328 15:1.74246 16:2.10179 17:-0.581644 18:1.53045 19:-0.551699 20:1.00905 21:-1.32891 22:0.667746 23:-0.314188 24:1.72234 25:-0.46193 26:0.626214
1 1:250.18 2:5.51897 3:7.77111 4:-4.78934 5:3.09422 6:-1.60065 7:2.45752 8:-3.59104 9:2.13463 10:-5.4304 11:0.421818 12:-1.76724 13:2.56137 14:66.4328 15:1.74246 16:2.10179 17:-0.581644 18:1.53045 19:-0.551699 20:1.00905 21:-1.32891 22:0.667746 23:-0.314188 24:1.72234 25:-0.46193 26:0.626214
1 1:246.167 2:4.85969 3:8.55912 4:-2.27231 5:8.40804 6:0.862088 7:1.40979 8:-5.56705 9:-0.0559476 10:-3.88022 11:2.51639 12:-2.46305 13:1.90439 14:66.4328 15:1.74246 16:2.10179 17:-0.581644 18:1.53045 19:-0.551699 20:1.00905 21:-1.32891 22:0.667746 23:-0.314188 24:1.72234 25:-0.46193 26:0.626214
1 1:245.694 2:5.18265 3:8.41912 4:-3.36631 5:7.26138 6:0.603222 7:0.392303 8:-4.76915 9:2.91221 10:-2.44305 11:2.16062 12:-1.55579 13:2.9125 14:66.4328 15:1.74246 16:2.10179 17:-0.581644 18:1.53045 19:-0.551699 20:1.00905 21:-1.32891 22:0.667746 23:-0.314188 24:1.72234 25:-0.46193 26:0.626214
1 1:245.412 2:8.51897 3:9.69106 4:-1.88178 5:9.5009 6:0.235504 7:2.80123 8:-5.21429 9:1.30494 10:-0.00451951 11:2.46839 12:-3.71413 13:1.94308 14:66.4328 15:1.74246 16:2.10179 17:-0.581644 18:1.53045 19:-0.551699 20:1.00905 21:-1.32891 22:0.667746 23:-0.314188 24:1.72234 25:-0.46193 26:0.626214
1 1:241.091 2:9.19354 3:6.78181 4:-0.541128 5:9.8398 6:-0.665679 7:2.33233 8:-6.11322 9:0.529502 10:-1.09878 11:3.64094 12:-3.06462 13:1.70486 14:66.4328 15:1.74246 16:2.10179 17:-0.581644 18:1.53045 19:-0.551699 20:1.00905 21:-1.32891 22:0.667746 23:-0.314188 24:1.72234 25:-0.46193 26:0.626214
1 1:241.489 2:8.58911 3:4.91955 4:-1.09667 5:6.52837 6:-3.71644 7:2.37231 8:-4.91317 9:3.27497 10:-0.423007 11:4.73137 12:-3.78652 13:1.89693 14:66.4328 15:1.74246 16:2.10179 17:-0.581644 18:1.53045 19:-0.551699 20:1.00905 21:-1.32891 22:0.667746 23:-0.314188 24:1.72234 25:-0.46193 26:0.626214
1 1:236.357 2:6.14946 3:5.15666 4:-1.56055 5:6.3106 6:-3.76178 7:0.413414 8:-6.30421 9:3.65687 10:0.4923 11:4.18038 12:-2.77053 13:3.06814 14:66.4328 15:1.74246 16:2.10179 17:-0.581644 18:1.53045 19:-0.551699 20:1.00905 21:-1.32891 22:0.667746 23:-0.314188 24:1.72234 25:-0.46193 26:0.626214
1 1:237.653 2:4.82926 3:4.08262 4:-1.07072 5:7.01642 6:-3.52858 7:1.29272 8:-5.43221 9:0.532613 10:-1.28638 11:3.52042 12:-3.64911 13:4.05152 14:66.4328 15:1.74246 16:2.10179 17:-0.581644 18:1.53045 19:-0.551699 20:1.00905 21:-1.32891 22:0.667746 23:-0.314188 24:1.72234 25:-0.46193 26:0.626214
1 1:232.766 2:1.65956 3:2.0227 4:-1.4247 5:6.90914 6:-1.59826 7:1.91967 8:-4.30449 9:1.24275 10:-0.840451 11:3.2314 12:-4.53507 13:2.79415 14:66.4328 15:1.74246 16:2.10179 17:-0.581644 18:1.53045 19:-0.551699 20:1.00905 21:-1.32891 22:0.667746 23:-0.314188 24:1.72234 25:-0.46193 26:0.626214
1 1:232.667 2:3.43343 3:2.9845 4:-2.74641 5:4.72548 6:-2.34333 7:2.31298 8:-3.83819 9:2.21679 10:0.861062 11:6.83651 12:-1.43958 13:2.49304 14:66.4328 15:1.74246 16:2.10179 17:-0.581644 18:1.53045 19:-0.551699 20:1.00905 21:-1.32891 22:0.667746 23:-0.314188 24:1.72234 25:-0.46193 26:0.626214
1 1:229.269 2:3.36544 3:3.7809 4:0.144498 5:7.04547 6:-1.12509 7:2.08624 8:-4.0598 9:2.48841 10:-0.193019 11:6.39495 12:-3.11103 13:1.07867 14:66.4328 15:1.74246 16:2.10179 17:-0.581644 18:1.53045 19:-0.551699 20:1.00905 21:-1.32891 22:0.667746 23:-0.314188 24:1.72234 25:-0.46193 26:0.626214
1 1:235.745 2:1.65116 3:8.77376 4:-0.782151 5:3.17789 6:-3.01264 7:0.53633 8:-2.32461 9:2.77064 10:-1.25804 11:4.95131 12:-3.45562 13:1.09277 14:66.4328 15:1.74246 16:2.10179 17:-0.581644 18:1.53045 19:-0.551699 20:1.00905 21:-1.32891 22:0.667746 23:-0.314188 24:1.72234 25:-0.46193 26:0.626214
1 1:237.243 2:0.342625 3:8.09661 4:0.919892 5:2.96717 6:-2.3014 7:-0.971862 8:-3.97352 9:0.769147 10:-2.28103 11:4.08381 12:-3.13509 13:3.29218 14:66.4328 15:1.74246 16:2.10179 17:-0.581644 18:1.53045 19:-0.551699 20:1.00905 21:-1.32891 22:0.667746 23:-0.314188 24:1.72234 25:-0.46193 26:0.626214
1 1:235.315 2:1.0733 3:8.63197 4:-1.62113 5:5.22509 6:0.278146 7:-1.03674 8:-4.27257 9:2.41617 10:-1.25875 11:3.99299 12:-2.24527 13:2.49845 14:66.4328 15:1.74246 16:2.10179 17:-0.581644 18:1.53045 19:-0.551699 20:1.00905 21:-1.32891 22:0.667746 23:-0.314188 24:1.72234 25:-0.46193 26:0.626214
1 1:238.273 2:3.24453 3:10.4721 4:-0.992267 5:5.6828 6:0.235765 7:-0.97707 8:-6.18468 9:2.23841 10:-1.31468 11:6.23922 12:-2.02214 13:1.4928 14:66.4328 15:1.74246 16:2.10179 17:-0.581644 18:1.53045 19:-0.551699 20:1.00905 21:-1.32891 22:0.667746 23:-0.314188 24:1.72234 25:-0.46193 26:0.626214
1 1:237.329 2:3.08857 3:9.04228 4:-1.51523 5:3.80925 6:-0.693753 7:1.12867 8:-5.93164 9:2.29126 10:-1.40796 11:3.9203 12:-2.1622 13:0.249949 14:66.4328 15:1.74246 16:2.10179 17:-0.581644 18:1.53045 19:-0.551699 20:1.00905 21:-1.32891 22:0.667746 23:-0.314188 24:1.72234 25:-0.46193 26:0.626214
1 1:234.927 2:4.64982 3:9.87674 4:-3.24908 5:2.425 6:-1.5331 7:0.287903 8:-6.19378 9:1.71404 10:-1.51366 11:4.57758 12:-1.30468 13:1.90204 14:66.4328 15:1.74246 16:2.10179 17:-0.581644 18:1.53045 19:-0.551699 20:1.00905 21:-1.32891 22:0.667746 23:-0.314188 24:1.72234 25:-0.46193 26:0.626214
1 1:229.24 2:7.24587 3:12.6094 4:-1.0627 5:4.24297 6:-0.852753 7:-0.337729 8:-6.09963 9:2.38134 10:-1.81748 11:3.95815 12:-4.2675 13:1.43615 14:66.4328 15:1.74246 16:2.10179 17:-0.581644 18:1.53045 19:-0.551699 20:1.00905 21:-1.32891 22:0.667746 23:-0.314188 24:1.72234 25:-0.46193 26:0.626214
1 1:231.387 2:8.51932 3:12.7177 4:-1.39299 5:6.70951 6:1.03143 7:2.29894 8:-5.32016 9:2.19748 10:-1.33005 11:3.48914 12:-5.53753 13:0.914181 14:66.4328 15:1.74246 16:2.10179 17:-0.581644 18:1.53045 19:-0.551699 20:1.00905 21:-1.32891 22:0.667746 23:-0.314188 24:1.72234 25:-0.46193 26:0.626214
1 1:219.313 2:4.32468 3:11.2215 4:0.528041 5:6.81043 6:-0.0758028 7:0.693007 8:-4.29742 9:1.64738 10:-2.5022 11:3.08131 12:-0.800861 13:4.29032 14:66.4328 15:1.74246 16:2.10179 17:-0.581644 18:1.53045 19:-0.551699 20:1.00905 21:-1.32891 22:0.667746 23:-0.314188 24:1.72234 25:-0.46193 26:0.626214
1 1:221.023 2:4.20607 3:9.78501 4:-0.778472 5:4.78712 6:-2.85229 7:0.731337 8:-2.93572 9:4.09238 10:-1.62585 11:4.01507 12:0.58666 13:5.26916 14:66.4328 15:1.74246 16:2.10179 17:-0.581644 18:1.53045 19:-0.551699 20:1.00905 21:-1.32891 22:0.667746 23:-0.314188 24:1.72234 25:-0.46193 26:0.626214
1 1:222.187 2:3.89644 3:11.5709 4:0.857888 5:6.00941 6:-3.36764 7:-0.268916 8:-5.01154 9:2.14718 10:-4.84903 11:2.98161 12:-0.40237 13:3.15717 14:66.4328 15:1.74246 16:2.10179 17:-0.581644 18:1.53045 19:-0.551699 20:1.00905 21:-1.32891 22:0.667746 23:-0.314188 24:1.72234 25:-0.46193 26:0.626214
1 1:228.558 2:4.93288 3:7.83758 4:-0.84117 5:5.25399 6:-1.72468 7:0.322682 8:-5.49108 9:3.64979 10:-3.28468 11:2.8564 12:-2.17889 13:2.31685 14:66.4328 15:1.74246 16:2.10179 17:-0.581644 18:1.53045 19:-0.551699 20:1.00905 21:-1.32891 22:0.667746 23:-0.314188 24:1.72234 25:-0.46193 26:0.626214
1 1:223.11 2:2.42354 3:5.81781 4:-2.86144 5:4.57916 6:-2.8154 7:-1.89529 8:-5.91411 9:3.94812 10:-1.81402 11:2.57452 12:-0.760067 13:3.26084 14:66.4328 15:1.74246 16:2.10179 17:-0.581644 18:1.53045 19:-0.551699 20:1.00905 21:-1.32891 22:0.667746 23:-0.314188 24:1.72234 25:-0.46193 26:0.626214
1 1:222.231 2:1.81671 3:6.74135 4:-5.15736 5:2.29888 6:-2.20172 7:-1.62264 8:-2.98475 9:3.8502 10:-2.30266 11:4.47006 12:-1.87445 13:3.06674 14:66.4328 15:1.74246 16:2.10179 17:-0.581644 18:1.53045 19:-0.551699 20:1.00905 21:-1.32891 22:0.667746 23:-0.314188 24:1.72234 25:-0.46193 26:0.626214
1 1:217.776 2:4.2796 3:10.262 4:-0.775307 5:3.28667 6:-3.40567 7:-0.903399 8:-5.81027 9:2.63307 10:-1.84238 11:3.71759 12:-2.92754 13:2.30077 14:66.4328 15:1.74246 16:2.10179 17:-0.581644 18:1.53045 19:-0.551699 20:1.00905 21:-1.32891 22:0.667746 23:-0.314188 24:1.72234 25:-0.46193 26:0.626214
1 1:217.93 2:4.19132 3:11.1578 4:-2.20324 5:1.67458 6:-5.04748 7:0.152248 8:-4.62366 9:-0.286642 10:-2.09529 11:4.07493 12:-2.48841 13:1.24057 14:66.4328 15:1.74246 16:2.10179 17:-0.581644 18:1.53045 19:-0.551699 20:1.00905 21:-1.32891 22:0.667746 23:-0.314188 24:1.72234 25:-0.46193 26:0.626214
1 1:217.274 2:3.29095 3:11.0269 4:0.520038 5:4.23799 6:-0.881695 7:-2.28303 8:-6.47707 9:1.51322 10:-1.62021 11:2.43593 12:-1.41104 13:2.6481 14:66.4328 15:1.74246 16:2.10179 17:-0.581644 18:1.53045 19:-0.551699 20:1.00905 21:-1.32891 22:0.667746 23:-0.314188 24:1.72234 25:-0.46193 26:0.626214
1 1:222.073 2:1.08461 3:10.2161 4:0.706811 5:4.5446 6:-1.48105 7:-0.822996 8:-3.8307 9:0.424752 10:-3.36957 11:2.04993 12:-2.36868 13:2.41775 14:66.4328 15:1.74246 16:2.10179 17:-0.581644 18:1.53045 19:-0.551699 20:1.00905 21:-1.32891 22:0.667746 23:-0.314188 24:1.72234 25:-0.46193 26:0.626214
1 1:223.466 2:0.35464 3:9.53563 4:-2.38548 5:3.54547 6:-2.49279 7:-2.66339 8:-3.13776 9:2.97761 10:0.249971 11:2.56985 12:-0.725784 13:4.46518 14:66.4328 15:1.74246 16:2.10179 17:-0.581644 18:1.53045 19:-0.551699 20:1.00905 21:-1.32891 22:0.667746 23:-0.314188 24:1.72234 25:-0.46193 26:0.626214
1 1:226.746 2:0.376267 3:13.0714 4:-0.367028 5:4.29734 6:-1.72653 7:-4.51297 8:-2.6947 9:3.19717 10:0.764997 11:1.91388 12:-0.854062 13:2.81089 14:66.4328 15:1.74246 16:2.10179 17:-0.581644 18:1.53045 19:-0.551699 20:1.00905 21:-1.32891 22:0.667746 23:-0.314188 24:1.72234 25:-0.46193 26:0.626214
1 1:235.117 2:-0.37081 3:12.7923 4:-1.74709 5:7.3347 6:1.24506 7:-0.989885 8:-0.979257 9:2.73515 10:2.36389 11:-1.22954 12:-1.9953 13:4.00692 14:66.4328 15:1.74246 16:2.10179 17:-0.581644 18:1.53045 19:-0.551699 20:1.00905 21:-1.32891 22:0.667746 23:-0.314188 24:1.72234 25:-0.46193 26:0.626214
1 1:248.482 2:-1.16324 3:11.1513 4:0.0340094 5:7.14959 6:1.35645 7:0.637304 8:-0.730905 9:4.8209 10:2.40805 11:-1.98396 12:-1.04782 13:4.37009 14:66.4328 15:1.74246 16:2.10179 17:-0.581644 18:1.53045 19:-0.551699 20:1.00905 21:-1.32891 22:0.667746 23:-0.314188 24:1.72234 25:-0.46193 26:0.626214
1 1:282.238 2:6.19994 3:4.80539 4:1.77321 5:11.4463 6:0.675108 7:3.3799 8:1.50141 9:11.5115 10:2.85112 11:-1.35828 12:-2.94151 13:3.09643 14:66.4328 15:1.74246 16:2.10179 17:-0.581644 18:1.53045 19:-0.551699 20:1.00905 21:-1.32891 22:0.667746 23:-0.314188 24:1.72234 25:-0.46193 26:0.626214
1 1:278.915 2:9.61126 3:9.7296 4:1.94924 5:13.4612 6:1.43596 7:4.05932 8:-0.189302 9:8.63418 10:-0.375671 11:-0.0240428 12:-3.38483 13:5.80948 14:66.4328 15:1.74246 16:2.10179 17:-0.581644 18:1.53045 19:-0.551699 20:1.00905 21:-1.32891 22:0.667746 23:-0.314188 24:1.72234 25:-0.46193 26:0.626214
1 1:286.694 2:8.58781 3:12.864 4:4.44643 5:10.4064 6:1.16345 7:2.91296 8:0.770252 9:8.48374 10:-0.64707 11:1.76218 12:-2.38398 13:8.65223 14:66.4328 15:1.74246 16:2.10179 17:-0.581644 18:1.53045 19:-0.551699 20:1.00905 21:-1.32891 22:0.667746 23:-0.314188 24:1.72234 25:-0.46193 26:0.626214
1 1:291.006 2:8.13679 3:13.189 4:4.63256 5:10.7139 6:1.15946 7:3.66914 8:0.777539 9:8.7034 10:-0.187803 11:2.24409 12:-2.45403 13:6.49111 14:66.4328 15:1.74246 16:2.10179 17:-0.581644 18:1.53045 19:-0.551699 20:1.00905 21:-1.32891 22:0.667746 23:-0.314188 24:1.72234 25:-0.46193 26:0.626214
1 1:301.897 2:10.316 3:15.2149 4:3.01829 5:9.67276 6:-0.282811 7:3.102 8:-2.83011 9:7.73785 10:-0.545874 11:2.87864 12:-2.5827 13:4.85767 14:66.4328 15:1.74246 16:2.10179 17:-0.581644 18:1.53045 19:-0.551699 20:1.00905 21:-1.32891 22:0.667746 23:-0.314188 24:1.72234 25:-0.46193 26:0.626214
1 1:312.403 2:16.6332 3:18.8111 4:1.62677 5:9.16015 6:-4.15738 7:3.08233 8:-4.46599 9:5.90343 10:-2.14341 11:2.43287 12:-5.9363 13:3.7099 14:66.4328 15:1.74246 16:2.10179 17:-0.581644 18:1.53045 19:-0.551699 20:1.00905 21:-1.32891 22:0.667746 23:-0.314188 24:1.72234 25:-0.46193 26:0.626214
1 1:322.833 2:19.1364 3:19.9225 4:-4.05611 5:2.89876 6:-8.41674 7:2.87842 8:-0.766239 9:1.3435 10:-2.4824 11:2.35226 12:-5.97258 13:8.6257 14:66.4328 15:1.74246 16:2.10179 17:-0.581644 18:1.53045 19:-0.551699 20:1.00905 21:-1.32891 22:0.667746 23:-0.314188 24:1.72234 25:-0.46193 26:0.626214
1 1:322.704 2:20.107 3:19.5709 4:-7.45869 5:2.82446 6:-5.95797 7:2.72688 8:-1.83813 9:1.01015 10:-3.01663 11:2.60691 12:-5.43757 13:9.60459 14:66.4328 15:1.74246 16:2.10179 17:-0.581644 18:1.53045 19:-0.551699 20:1.00905 21:-1.32891 22:0.667746 23:-0.314188 24:1.72234 25:-0.46193 26:0.626214
1 1:329.323 2:19.2698 3:19.5907 4:-11.3425 5:5.43063 6:-5.6296 7:1.18078 8:-0.0546391 9:-0.19933 10:-3.75888 11:2.95996 12:-1.5851 13:8.29606 14:66.4328 15:1.74246 16:2.10179 17:-0.581644 18:1.53045 19:-0.551699 20:1.00905 21:-1.32891 22:0.667746 23:-0.314188 24:1.72234 25:-0.46193 26:0.626214
1 1:333.834 2:19.9029 3:20.2897 4:-11.6258 5:5.26811 6:-5.64251 7:1.40014 8:-0.693457 9:0.170288 10:-4.5433 11:2.29126 12:-0.850644 13:8.76967 14:66.4328 15:1.74246 16:2.10179 17:-0.581644 18:1.53045 19:-0.551699 20:1.00905 21:-1.32891 22:0.667746 23:-0.314188 24:1.72234 25:-0.46193 26:0.626214
1 1:344.232 2:15.3949 3:17.401 4:-7.71171 5:5.88608 6:-5.76683 7:0.307153 8:-1.72444 9:-0.685198 10:-4.10673 11:4.11178 12:-1.42007 13:9.86451 14:66.4328 15:1.74246 16:2.10179 17:-0.581644 18:1.53045 19:-0.551699 20:1.00905 21:-1.32891 22:0.667746 23:-0.314188 24:1.72234 25:-0.46193 26:0.626214
1 1:346.463 2:15.0436 3:15.2242 4:-9.91131 5:8.06262 6:-4.36826 7:1.00199 8:-2.7811 9:-0.0605913 10:-3.08467 11:4.98878 12:-1.43058 13:7.70351 14:66.4328 15:1.74246 16:2.10179 17:-0.581644 18:1.53045 19:-0.551699 20:1.00905 21:-1.32891 22:0.667746 23:-0.314188 24:1.72234 25:-0.46193 26:0.626214
1 1:349.183 2:16.0152 3:15.842 4:-9.32388 5:9.36804 6:-4.40394 7:-0.258885 8:-5.18057 9:0.354307 10:-2.57284 11:3.08907 12:0.302769 13:7.11005 14:66.4328 15:1.74246 16:2.10179 17:-0.581644 18:1.53045 19:-0.551699 20:1.00905 21:-1.32891 22:0.667746 23:-0.314188 24:1.72234 25:-0.46193 26:0.626214
1 1:343.632 2:15.9336 3:15.6463 4:-7.55322 5:10.4459 6:-5.43218 7:0.850435 8:-7.2502 9:-1.00953 10:-2.50528 11:3.95147 12:0.659634 13:7.14761 14:66.4328 15:1.74246 16:2.10179 17:-0.581644 18:1.53045 19:-0.551699 20:1.00905 21:-1.32891 22:0.667746 23:-0.314188 24:1.72234 25:-0.46193 26:0.626214
1 1:343.799 2:12.9889 3:15.4429 4:-2.67873 5:10.3665 6:-3.36614 7:-1.88285 8:-6.66054 9:-1.41448 10:-3.06758 11:7.59011 12:-1.53533 13:3.75239 14:66.4328 15:1.74246 16:2.10179 17:-0.581644 18:1.53045 19:-0.551699 20:1.00905 21:-1.32891 22:0.667746 23:-0.314188 24:1.72234 25:-0.46193 26:0.626214
1 1:345.554 2:13.6756 3:15.5172 4:-0.96081 5:11.4776 6:-3.82451 7:-1.58805 8:-7.27629 9:-1.60371 10:-3.28539 11:6.54168 12:-1.72597 13:3.20809 14:66.4328 15:1.74246 16:2.10179 17:-0.581644 18:1.53045 19:-0.551699 20:1.00905 21:-1.32891 22:0.667746 23:-0.314188 24:1.72234 25:-0.46193 26:0.626214
1 1:341.378 2:10.2336 3:18.3963 4:1.03897 5:11.4787 6:-1.91194 7:-0.388103 8:-9.26931 9:-1.07585 10:-3.8036 11:6.00485 12:-2.72797 13:2.42683 14:66.4328 15:1.74246 16:2.10179 17:-0.581644 18:1.53045 19:-0.551699 20:1.00905 21:-1.32891 22:0.667746 23:-0.314188 24:1.72234 25:-0.46193 26:0.626214
1 1:337.615 2:9.39457 3:18.2669 4:2.69571 5:10.6906 6:-0.946233 7:1.27849 8:-7.93988 9:-0.434904 10:-5.31231 11:6.74923 12:-3.05482 13:2.31586 14:66.4328 15:1.74246 16:2.10179 17:-0.581644 18:1.53045 19:-0.551699 20:1.00905 21:-1.32891 22:0.667746 23:-0.314188 24:1.72234 25:-0.46193 26:0.626214
1 1:339.201 2:8.00413 3:17.2481 4:1.30711 5:13.187 6:0.596179 7:0.261659 8:-6.55541 9:-0.508816 10:-2.97757 11:3.36886 12:-3.74513 13:3.39578 14:66.4328 15:1.74246 16:2.10179 17:-0.581644 18:1.53045 19:-0.551699 20:1.00905 21:-1.32891 22:0.667746 23:-0.314188 24:1.72234 25:-0.46193 26:0.626214
1 1:338.766 2:7.30556 3:15.9743 4:2.92153 5:14.3328 6:-1.13874 7:1.05226 8:-8.4372 9:0.354147 10:-3.59593 11:3.11376 12:-2.85677 13:2.00225 14:66.4328 15:1.74246 16:2.10179 17:-0.581644 18:1.53045 19:-0.551699 20:1.00905 21:-1.32891 22:0.667746 23:-0.314188 24:1.72234 25:-0.46193 26:0.626214
1 1:335.23 2:9.38046 3:15.8294 4:4.64772 5:14.4005 6:-0.532174 7:0.283193 8:-9.57549 9:1.21314 10:-4.67788 11:4.34886 12:-3.2608 13:3.38412 14:66.4328 15:1.74246 16:2.10179 17:-0.581644 18:1.53045 19:-0.551699 20:1.00905 21:-1.32891 22:0.667746 23:-0.314188 24:1.72234 25:-0.46193 26:0.626214
1 1:333.633 2:10.0392 3:17.6184 4:4.31799 5:14.7968 6:0.391452 7:-0.483082 8:-9.2525 9:2.17971 10:-4.76983 11:3.08111 12:-3.2301 13:3.48367 14:66.4328 15:1.74246 16:2.10179 17:-0.581644 18:1.53045 19:-0.551699 20:1.00905 21:-1.32891 22:0.667746 23:-0.314188 24:1.72234 25:-0.46193 26:0.626214
1 1:324.928 2:13.6586 3:15.4635 4:3.43192 5:15.2058 6:-0.518523 7:2.58138 8:-9.26333 9:2.42037 10:-4.04205 11:2.7245 12:-4.49969 13:4.46768 14:66.4328 15:1.74246 16:2.10179 17:-0.581644 18:1.53045 19:-0.551699 20:1.00905 21:-1.32891 22:0.667746 23:-0.314188 24:1.72234 25:-0.46193 26:0.626214
1 1:312.842 2:14.2133 3:15.2326 4:1.12701 5:14.4845 6:0.878284 7:2.38301 8:-9.51672 9:2.02429 10:-4.58137 11:3.49998 12:-3.43711 13:5.12249 14:66.4328 15:1.74246 16:2.10179 17:-0.581644 18:1.53045 19:-0.551699 20:1.00905 21:-1.32891 22:0.667746 23:-0.314188 24:1.72234 25:-0.46193 26:0.626214
1 1:300.144 2:13.9521 3:15.9074 4:0.107772 5:15.4353 6:2.25199 7:3.50486 8:-5.67506 9:0.129516 10:-5.74768 11:4.18105 12:-6.13965 13:7.56229 14:66.4328 15:1.74246 16:2.10179 17:-0.581644 18:1.53045 19:-0.551699 20:1.00905 21:-1.32891 22:0.667746 23:-0.314188 24:1.72234 25:-0.46193 26:0.626214
1 1:293.122 2:13.8608 3:16.6517 4:2.05085 5:15.6765 6:1.48973 7:3.96679 8:-4.58099 9:1.00238 10:-6.20482 11:3.18466 12:-5.32613 13:8.28018 14:66.4328 15:1.74246 16:2.10179 17:-0.581644 18:1.53045 19:-0.551699 20:1.00905 21:-1.32891 22:0.667746 23:-0.314188 24:1.72234 25:-0.46193 26:0.626214
1 1:287.637 2:14.5551 3:17.0819 4:0.558744 5:13.0397 6:1.68687 7:2.44707 8:-4.94081 9:4.00985 10:-5.28366 11:1.32076 12:-4.29989 13:8.75024 14:66.4328 15:1.74246 16:2.10179 17:-0.581644 18:1.53045 19:-0.551699 20:1.00905 21:-1.32891 22:0.667746 23:-0.314188 24:1.72234 25:-0.46193 26:0.626214
1 1:288.965 2:13.1947 3:14.8511 4:-0.341858 5:9.87663 6:3.34945 7:4.00602 8:-3.65316 9:4.91295 10:-4.63663 11:1.87714 12:-4.83775 13:8.95964 14:66.4328 15:1.74246 16:2.10179 17:-0.581644 18:1.53045 19:-0.551699 20:1.00905 21:-1.32891 22:0.667746 23:-0.314188 24:1.72234 25:-0.46193 26:0.626214
1 1:291.235 2:10.77 3:14.5089 4:0.288745 5:8.7762 6:2.36847 7:5.15922 8:-1.00583 9:5.31116 10:-4.43525 11:1.09644 12:-4.42662 13:8.46869 14:66.4328 15:1.74246 16:2.10179 17:-0.581644 18:1.53045 19:-0.551699 20:1.00905 21:-1.32891 22:0.667746 23:-0.314188 24:1.72234 25:-0.46193 26:0.626214
1 1:296.678 2:8.51252 3:15.8784 4:3.69543 5:7.96799 6:-0.380209 7:4.95697 8:-2.31637 9:4.86501 10:-3.66132 11:0.252949 12:-3.40424 13:6.44014 14:66.4328 15:1.74246 16:2.10179 17:-0.581644 18:1.53045 19:-0.551699 20:1.00905 21:-1.32891 22:0.667746 23:-0.314188 24:1.72234 25:-0.46193 26:0.626214
-0.86754085611651466 1:350.83 2:13.1273 3:24.9928 4:-2.17497 5:1.65357 6:-4.674 7:0.765251 8:-0.898204 9:2.34081 10:-5.27107 11:-1.30737 12:-4.27666 13:3.97611 14:66.4328 15:1.74246 16:2.10179 17:-0.581644 18:1.53045 19:-0.551699 20:1.00905 21:-1.32891 22:0.667746 23:-0.314188 24:1.72234 25:-0.46193 26:0.626214
-1 1:355.659 2:15.2583 3:17.8432 4:-2.46573 5:8.13861 6:-1.52385 7:1.44577 8:-4.46965 9:1.36341 10:-8.86558 11:1.57476 12:-3.85722 13:6.30289 14:66.4328 15:1.74246 16:2.10179 17:-0.581644 18:1.53045 19:-0.551699 20:1.00905 21:-1.32891 22:0.667746 23:-0.314188 24:1.72234 25:-0.46193 26:0.626214
-1 1:355.637 2:14.0905 3:18.4374 4:-2.19918 5:7.63753 6:0.114636 7:1.34138 8:-5.86032 9:0.175404 10:-6.37486 11:1.61634 12:-3.85743 13:5.08508 14:66.4328 15:1.74246 16:2.10179 17:-0.581644 18:1.53045 19:-0.551699 20:1.00905 21:-1.32891 22:0.667746 23:-0.314188 24:1.72234 25:-0.46193 26:0.626214
-1 1:354.448 2:13.4371 3:16.9089 4:1.46549 5:9.04954 6:0.379237 7:0.625601 8:-5.39546 9:-0.589023 10:-5.09119 11:1.49802 12:-4.38529 13:4.87374 14:66.4328 15:1.74246 16:2.10179 17:-0.581644 18:1.53045 19:-0.551699 20:1.00905 21:-1.32891 22:0.667746 23:-0.314188 24:1.72234 25:-0.46193 26:0.626214
-1 1:352.043 2:12.3129 3:17.1352 4:1.52035 5:10.0753 6:-0.836735 7:1.91191 8:-6.52834 9:-0.424572 10:-5.60027 11:1.516 12:-4.07977 13:3.67721 14:66.4328 15:1.74246 16:2.10179 17:-0.581644 18:1.53045 19:-0.551699 20:1.00905 21:-1.32891 22:0.667746 23:-0.314188 24:1.72234 25:-0.46193 26:0.626214
-1 1:350.705 2:8.93081 3:17.7961 4:3.64686 5:10.1702 6:1.19837 7:1.18967 8:-4.73901 9:-0.680187 10:-4.306 11:1.70734 12:-3.83508 13:2.43609 14:66.4328 15:1.74246 16:2.10179 17:-0.581644 18:1.53045 19:-0.551699 20:1.00905 21:-1.32891 22:0.667746 23:-0.314188 24:1.72234 25:-0.46193 26:0.626214
-1 1:346.992 2:-27.5641 3:7.2972 4:-3.27803 5:2.21698 6:1.9163 7:-3.62212 8:-0.0594091 9:0.974925 10:-0.92716 11:0.826961 12:-1.12657 13:1.13546 14:66.4328 15:1.74246 16:2.10179 17:-0.581644 18:1.53045 19:-0.551699 20:1.00905 21:-1.32891 22:0.667746 23:-0.314188 24:1.72234 25:-0.46193 26:0.626214
-0.97832570503464011 1:346.421 2:-25.1253 3:10.0509 4:-2.59411 5:1.04411 6:0.765673 7:-4.53351 8:0.331728 9:0.431056 10:-2.92685 11:0.790322 12:-1.98506 13:1.1251 14:66.4328 15:1.74246 16:2.10179 17:-0.581644 18:1.53045 19:-0.551699 20:1.00905 21:-1.32891 22:0.667746 23:-0.314188 24:1.72234 25:-0.46193 26:0.626214
-1 1:293.663 2:11.9631 3:20.6164 4:5.87932 5:10.1699 6:3.70201 7:-0.967081 8:-2.2159 9:7.33211 10:-2.05407 11:1.31196 12:-3.20209 13:10.4509 14:66.4328 15:1.74246 16:2.10179 17:-0.581644 18:1.53045 19:-0.551699 20:1.00905 21:-1.32891 22:0.667746 23:-0.314188 24:1.72234 25:-0.46193 26:0.626214
-0.16491307045142425 1:300.853 2:12.9157 3:16.5866 4:5.10908 5:11.8907 6:3.22277 7:-0.776137 8:-2.08359 9:8.46028 10:-2.37555 11:1.90694 12:-3.46875 13:7.78941 14:66.4328 15:1.74246 16:2.10179 17:-0.581644 18:1.53045 19:-0.551699 20:1.00905 21:-1.32891 22:0.667746 23:-0.314188 24:1.72234 25:-0.46193 26:0.626214
-1 1:303.118 2:14.2569 3:18.5756 4:2.64873 5:10.1295 6:3.48101 7:-0.250157 8:-2.68837 9:9.19764 10:-1.89508 11:0.295401 12:-2.6726 13:7.04096 14:66.4328 15:1.74246 16:2.10179 17:-0.581644 18:1.53045 19:-0.551699 20:1.00905 21:-1.32891 22:0.667746 23:-0.314188 24:1.72234 25:-0.46193 26:0.626214
-1 1:303.499 2:14.1977 3:17.9882 4:2.78414 5:9.60001 6:5.10775 7:-0.328059 8:-2.29955 9:11.0807 10:-1.98186 11:-0.395967 12:-5.03572 13:7.93544 14:66.4328 15:1.74246 16:2.10179 17:-0.581644 18:1.53045 19:-0.551699 20:1.00905 21:-1.32891 22:0.667746 23:-0.314188 24:1.72234 25:-0.46193 26:0.626214
-1 1:341.279 2:14.1298 3:16.2354 4:-1.81128 5:8.20422 6:-1.72147 7:0.317809 8:-4.99986 9:1.39284 10:-3.54356 11:4.48332 12:-3.02661 13:7.3583 14:66.4328 15:1.74246 16:2.10179 17:-0.581644 18:1.53045 19:-0.551699 20:1.00905 21:-1.32891 22:0.667746 23:-0.314188 24:1.72234 25:-0.46193 26:0.626214
-1 1:345.496 2:12.8291 3:16.0932 4:-2.03315 5:9.52744 6:-2.4183 7:1.06142 8:-7.55213 9:1.27743 10:-3.70078 11:3.88394 12:-1.43414 13:5.28672 14:66.4328 15:1.74246 16:2.10179 17:-0.581644 18:1.53045 19:-0.551699 20:1.00905 21:-1.32891 22:0.667746 23:-0.314188 24:1.72234 25:-0.46193 26:0.626214
-1 1:249.73 2:17.8873 3:18.4328 4:-0.0962802 5:11.5703 6:1.32166 7:4.75139 8:-5.66298 9:4.89797 10:-3.09446 11:6.99947 12:-5.52144 13:7.51216 14:66.4328 15:1.74246 16:2.10179 17:-0.581644 18:1.53045 19:-0.551699 20:1.00905 21:-1.32891 22:0.667746 23:-0.314188 24:1.72234 25:-0.46193 26:0.626214
-0.95609262724542332 1:241.289 2:14.2575 3:20.3564 4:2.77571 5:10.4479 6:-1.04162 7:5.26594 8:-4.38314 9:6.93624 10:-2.15014 11:8.52034 12:-2.33485 13:7.75572 14:66.4328 15:1.74246 16:2.10179 17:-0.581644 18:1.53045 19:-0.551699 20:1.00905 21:-1.32891 22:0.667746 23:-0.314188 24:1.72234 25:-0.46193 26:0.626214
-1 1:246.821 2:11.5708 3:17.4089 4:3.01645 5:9.16287 6:-0.186782 7:5.01212 8:-3.67718 9:4.0331 10:-3.84248 11:4.72724 12:-2.81273 13:6.24096 14:66.4328 15:1.74246 16:2.10179 17:-0.581644 18:1.53045 19:-0.551699 20:1.00905 21:-1.32891 22:0.667746 23:-0.314188 24:1.72234 25:-0.46193 26:0.626214
-1 1:234.848 2:12.4614 3:19.2704 4:1.87104 5:8.54235 6:-1.00388 7:4.11488 8:-3.82368 9:5.03697 10:-4.6125 11:3.89307 12:-2.52032 13:6.78986 14:66.4328 15:1.74246 16:2.10179 17:-0.581644 18:1.53045 19:-0.551699 20:1.00905 21:-1.32891 22:0.667746 23:-0.314188 24:1.72234 25:-0.46193 26:0.626214
-1 1:227.737 2:11.4226 3:16.1868 4:2.75675 5:7.16348 6:-2.91723 7:4.52812 8:-2.46664 9:5.2092 10:-3.18736 11:4.44234 12:-0.41794 13:6.53569 14:66.4328 15:1.74246 16:2.10179 17:-0.581644 18:1.53045 19:-0.551699 20:1.00905 21:-1.32891 22:0.667746 23:-0.314188 24:1.72234 25:-0.46193 26:0.626214
-1 1:226.904 2:9.61849 3:13.0575 4:1.58581 5:6.27308 6:-2.54194 7:2.51293 8:-5.13561 9:4.0605 10:-1.24381 11:5.40734 12:-1.66454 13:4.82182 14:66.4328 15:1.74246 16:2.10179 17:-0.581644 18:1.53045 19:-0.551699 20:1.00905 21:-1.32891 22:0.667746 23:-0.314188 24:1.72234 25:-0.46193 26:0.626214
-1 1:224.464 2:9.96189 3:16.2552 4:1.92981 5:5.72529 6:-1.75355 7:3.30938 8:-6.06766 9:2.1244 10:-4.02744 11:4.00677 12:-1.71739 13:6.74563 14:66.4328 15:1.74246 16:2.10179 17:-0.581644 18:1.53045 19:-0.551699 20:1.00905 21:-1.32891 22:0.667746 23:-0.314188 24:1.72234 25:-0.46193 26:0.626214
-1 1:224.733 2:8.94549 3:16.6583 4:1.05203 5:6.25826 6:-1.06358 7:3.11137 8:-4.80367 9:1.82032 10:-3.28044 11:5.22173 12:-1.70118 13:6.3984 14:66.4328 15:1.74246 16:2.10179 17:-0.581644 18:1.53045 19:-0.551699 20:1.00905 21:-1.32891 22:0.667746 23:-0.314188 24:1.72234 25:-0.46193 26:0.626214
-0.087711915765381121 1:221.571 2:8.43377 3:14.8196 4:1.36786 5:8.16679 6:-1.79752 7:3.01123 8:-3.87605 9:3.7207 10:-2.49551 11:6.37966 12:-0.464474 13:7.18115 14:66.4328 15:1.74246 16:2.10179 17:-0.581644 18:1.53045 19:-0.551699 20:1.00905 21:-1.32891 22:0.667746 23:-0.314188 24:1.72234 25:-0.46193 26:0.626214
-1 1:346.369 2:30.3767 3:16.8852 4:-9.08131 5:3.96989 6:0.530981 7:7.29665 8:-7.23671 9:6.37816 10:-4.95183 11:5.42065 12:-6.76059 13:7.26132 14:66.4328 15:1.74246 16:2.10179 17:-0.581644 18:1.53045 19:-0.551699 20:1.00905 21:-1.32891 22:0.667746 23:-0.314188 24:1.72234 25:-0.46193 26:0.626214
-1 1:262.039 2:10.5849 3:15.4522 4:4.27227 5:6.26595 6:-0.0190898 7:3.3498 8:-4.03827 9:4.58348 10:-4.85628 11:0.478544 12:-2.94698 13:6.44608 14:66.4328 15:1.74246 16:2.10179 17:-0.581644 18:1.53045 19:-0.551699 20:1.00905 21:-1.32891 22:0.667746 23:-0.314188 24:1.72234 25:-0.46193 26:0.626214
-1 1:242.003 2:10.8132 3:16.1717 4:2.23011 5:9.18216 6:-1.43226 7:4.1515 8:-1.23928 9:3.27921 10:-5.63491 11:3.43202 12:-2.50005 13:6.65296 14:66.4328 15:1.74246 16:2.10179 17:-0.581644 18:1.53045 19:-0.551699 20:1.00905 21:-1.32891 22:0.667746 23:-0.314188 24:1.72234 25:-0.46193 26:0.626214
-1 1:231.055 2:7.16813 3:16.681 4:2.71625 5:9.05589 6:0.0189134 7:5.59243 8:-1.60506 9:5.5198 10:-1.61352 11:4.77588 12:-1.72791 13:6.04868 14:66.4328 15:1.74246 16:2.10179 17:-0.581644 18:1.53045 19:-0.551699 20:1.00905 21:-1.32891 22:0.667746 23:-0.314188 24:1.72234 25:-0.46193 26:0.626214
-1 1:226.673 2:7.97833 3:15.9473 4:1.96951 5:8.57489 6:-0.803428 7:4.63681 8:-2.49422 9:5.8241 10:-2.15845 11:5.23709 12:-1.9153 13:6.45738 14:66.4328 15:1.74246 16:2.10179 17:-0.581644 18:1.53045 19:-0.551699 20:1.00905 21:-1.32891 22:0.667746 23:-0.314188 24:1.72234 25:-0.46193 26:0.626214
-1 1:241.145 2:1.27706 3:14.0618 4:5.03572 5:5.6401 6:1.75614 7:5.26856 8:-1.41367 9:7.1067 10:-2.84901 11:3.57586 12:-1.15661 13:3.82627 14:66.4328 15:1.74246 16:2.10179 17:-0.581644 18:1.53045 19:-0.551699 20:1.00905 21:-1.32891 22:0.667746 23:-0.314188 24:1.72234 25:-0.46193 26:0.626214
-1 1:284.77 2:15.7091 3:18.7612 4:-6.30555 5:7.07736 6:-0.10427 7:0.194305 8:-7.32592 9:2.62578 10:-2.4047 11:1.4556 12:-1.35836 13:7.10431 14:66.4328 15:1.74246 16:2.10179 17:-0.581644 18:1.53045 19:-0.551699 20:1.00905 21:-1.32891 22:0.667746 23:-0.314188 24:1.72234 25:-0.46193 26:0.626214
-1 1:280.164 2:15.4397 3:18.5997 4:-4.38207 5:8.08544 6:-1.91259 7:2.08961 8:-8.8 9:-0.0379091 10:-0.834963 11:-0.370151 12:-3.02558 13:6.44175 14:66.4328 15:1.74246 16:2.10179 17:-0.581644 18:1.53045 19:-0.551699 20:1.00905 21:-1.32891 22:0.667746 23:-0.314188 24:1.72234 25:-0.46193 26:0.626214
-1 1:278.493 2:12.9215 3:18.0653 4:-4.97812 5:10.8073 6:0.777242 7:1.53407 8:-6.79598 9:0.653045 10:-0.858029 11:-1.57998 12:-3.15387 13:6.00966 14:66.4328 15:1.74246 16:2.10179 17:-0.581644 18:1.53045 19:-0.551699 20:1.00905 21:-1.32891 22:0.667746 23:-0.314188 24:1.72234 25:-0.46193 26:0.626214
-1 1:266.011 2:7.72861 3:12.5272 4:-11.1409 5:11.724 6:3.54738 7:-0.557347 8:-3.8701 9:0.61418 10:1.69821 11:1.82402 12:0.5956 13:4.70442 14:66.4328 15:1.74246 16:2.10179 17:-0.581644 18:1.53045 19:-0.551699 20:1.00905 21:-1.32891 22:0.667746 23:-0.314188 24:1.72234 25:-0.46193 26:0.626214
-1 1:262.141 2:8.89149 3:9.69012 4:-12.5676 5:9.65321 6:2.33474 7:3.17059 8:-1.58495 9:2.35814 10:-0.00067337 11:0.98801 12:1.9509 13:6.88882 14:66.4328 15:1.74246 16:2.10179 17:-0.581644 18:1.53045 19:-0.551699 20:1.00905 21:-1.32891 22:0.667746 23:-0.314188 24:1.72234 25:-0.46193 26:0.626214
-1 1:256.976 2:10.1327 3:8.21491 4:-12.0046 5:7.6545 6:-0.319292 7:2.42037 8:-3.36695 9:0.902282 10:-2.52095 11:-1.03767 12:-0.580814 13:6.03755 14:66.4328 15:1.74246 16:2.10179 17:-0.581644 18:1.53045 19:-0.551699 20:1.00905 21:-1.32891 22:0.667746 23:-0.314188 24:1.72234 25:-0.46193 26:0.626214
-1 1:255.279 2:10.5704 3:5.79924 4:-13.1204 5:7.2086 6:1.76101 7:3.97674 8:-3.94321 9:2.56608 10:-0.729562 11:0.732315 12:-2.20709 13:6.18949 14:66.4328 15:1.74246 16:2.10179 17:-0.581644 18:1.53045 19:-0.551699 20:1.00905 21:-1.32891 22:0.667746 23:-0.314188 24:1.72234 25:-0.46193 26:0.626214
-1 1:246.07 2:10.7398 3:3.60968 4:-10.3586 5:5.49328 6:-0.112942 7:4.23837 8:-5.57299 9:1.4117 10:-1.85462 11:1.84402 12:-0.969726 13:4.26278 14:66.4328 15:1.74246 16:2.10179 17:-0.581644 18:1.53045 19:-0.551699 20:1.00905 21:-1.32891 22:0.667746 23:-0.314188 24:1.72234 25:-0.46193 26:0.626214
-1 1:238.405 2:9.37131 3:3.65411 4:-9.59104 5:6.04587 6:1.03976 7:4.899 8:-3.17357 9:0.261901 10:-3.38689 11:1.75368 12:-3.18103 13:3.16032 14:66.4328 15:1.74246 16:2.10179 17:-0.581644 18:1.53045 19:-0.551699 20:1.00905 21:-1.32891 22:0.667746 23:-0.314188 24:1.72234 25:-0.46193 26:0.626214
-1 1:234.25 2:8.30011 3:2.65879 4:-4.89353 5:3.13258 6:0.633684 7:3.51796 8:-5.99566 9:1.6353 10:-1.86408 11:3.76188 12:-2.72133 13:3.49256 14:66.4328 15:1.74246 16:2.10179 17:-0.581644 18:1.53045 19:-0.551699 20:1.00905 21:-1.32891 22:0.667746 23:-0.314188 24:1.72234 25:-0.46193 26:0.626214
-1 1:237.749 2:6.12445 3:0.29938 4:-4.59457 5:1.6704 6:0.50348 7:4.65642 8:-7.12879 9:4.11886 10:-1.19057 11:4.31658 12:-1.86872 13:3.5 14:66.4328 15:1.74246 16:2.10179 17:-0.581644 18:1.53045 19:-0.551699 20:1.00905 21:-1.32891 22:0.667746 23:-0.314188 24:1.72234 25:-0.46193 26:0.626214
-1 1:228.937 2:8.9365 3:5.53179 4:-6.08067 5:1.76966 6:-0.39658 7:2.09372 8:-3.96861 9:4.17521 10:-2.75892 11:4.16759 12:-2.5668 13:5.40217 14:66.4328 15:1.74246 16:2.10179 17:-0.581644 18:1.53045 19:-0.551699 20:1.00905 21:-1.32891 22:0.667746 23:-0.314188 24:1.72234 25:-0.46193 26:0.626214
-1 1:227.264 2:8.51701 3:5.97606 4:-3.6022 5:4.70291 6:-1.39842 7:3.48978 8:-4.23658 9:5.03233 10:-0.47149 11:5.5062 12:-1.54555 13:4.84311 14:66.4328 15:1.74246 16:2.10179 17:-0.581644 18:1.53045 19:-0.551699 20:1.00905 21:-1.32891 22:0.667746 23:-0.314188 24:1.72234 25:-0.46193 26:0.626214
-1 1:223.046 2:8.27326 3:8.19698 4:-5.34326 5:2.59304 6:-1.10584 7:5.8853 8:-0.369991 9:6.87404 10:0.0987023 11:7.16383 12:-0.715534 13:3.59565 14:66.4328 15:1.74246 16:2.10179 17:-0.581644 18:1.53045 19:-0.551699 20:1.00905 21:-1.32891 22:0.667746 23:-0.314188 24:1.72234 25:-0.46193 26:0.626214
-1 1:219.894 2:4.73712 3:7.47842 4:-4.44143 5:1.64451 6:-0.0471563 7:4.57411 8:0.167463 9:6.21959 10:0.386414 11:6.2892 12:-1.6609 13:4.21727 14:66.4328 15:1.74246 16:2.10179 17:-0.581644 18:1.53045 19:-0.551699 20:1.00905 21:-1.32891 22:0.667746 23:-0.314188 24:1.72234 25:-0.46193 26:0.626214
-1 1:216.842 2:5.22351 3:7.62858 4:-1.71085 5:2.44395 6:-1.90751 7:1.40063 8:-2.55766 9:3.69838 10:-1.67813 11:6.14592 12:-1.2798 13:3.42168 14:66.4328 15:1.74246 16:2.10179 17:-0.581644 18:1.53045 19:-0.551699 20:1.00905 21:-1.32891 22:0.667746 23:-0.314188 24:1.72234 25:-0.46193 26:0.626214
-1 1:212.468 2:1.10937 3:8.28933 4:-1.15393 5:4.53815 6:-1.87693 7:1.66682 8:-2.82432 9:2.17325 10:-1.75403 11:2.80917 12:-0.354977 13:4.8988 14:66.4328 15:1.74246 16:2.10179 17:-0.581644 18:1.53045 19:-0.551699 20:1.00905 21:-1.32891 22:0.667746 23:-0.314188 24:1.72234 25:-0.46193 26:0.626214
-1 1:217.488 2:3.57305 3:7.47275 4:-1.21718 5:4.98818 6:-1.41422 7:3.65273 8:-2.63755 9:0.918563 10:-3.38959 11:3.36466 12:-2.31583 13:3.18664 14:66.4328 15:1.74246 16:2.10179 17:-0.581644 18:1.53045 19:-0.551699 20:1.00905 21:-1.32891 22:0.667746 23:-0.314188 24:1.72234 25:-0.46193 26:0.626214
-1 1:220.804 2:1.91667 3:3.46782 4:-4.04937 5:7.67371 6:2.26798 7:4.74319 8:-3.09244 9:3.66864 10:-0.302582 11:4.77955 12:-2.04129 13:1.58239 14:66.4328 15:1.74246 16:2.10179 17:-0.581644 18:1.53045 19:-0.551699 20:1.00905 21:-1.32891 22:0.667746 23:-0.314188 24:1.72234 25:-0.46193 26:0.626214
-1 1:233.008 2:1.3664 3:1.9176 4:-4.2306 5:6.74556 6:2.6472 7:3.13018 8:-6.25022 9:2.48097 10:-0.348934 11:3.42706 12:-0.747372 13:3.34359 14:66.4328 15:1.74246 16:2.10179 17:-0.581644 18:1.53045 19:-0.551699 20:1.00905 21:-1.32891 22:0.667746 23:-0.314188 24:1.72234 25:-0.46193 26:0.626214
-1 1:235.784 2:1.56306 3:2.94595 4:-2.54234 5:5.69366 6:0.967173 7:3.34611 8:-6.3716 9:2.98724 10:-0.422418 11:3.80678 12:0.485383 13:4.71562 14:66.4328 15:1.74246 16:2.10179 17:-0.581644 18:1.53045 19:-0.551699 20:1.00905 21:-1.32891 22:0.667746 23:-0.314188 24:1.72234 25:-0.46193 26:0.626214
-1 1:236.848 2:-0.673316 3:-1.60102 4:-3.47913 5:5.3415 6:0.95843 7:2.50238 8:-6.6004 9:3.66184 10:-1.32796 11:3.20815 12:-1.33514 13:1.9484 14:66.4328 15:1.74246 16:2.10179 17:-0.581644 18:1.53045 19:-0.551699 20:1.00905 21:-1.32891 22:0.667746 23:-0.314188 24:1.72234 25:-0.46193 26:0.626214
-1 1:237.502 2:-0.423906 3:-2.69503 4:-5.35356 5:2.85016 6:-0.497643 7:2.1281 8:-7.10606 9:2.70058 10:-2.23792 11:1.13479 12:-2.56904 13:2.38544 14:66.4328 15:1.74246 16:2.10179 17:-0.581644 18:1.53045 19:-0.551699 20:1.00905 21:-1.32891 22:0.667746 23:-0.314188 24:1.72234 25:-0.46193 26:0.626214
-1 1:246.736 2:0.118856 3:0.425953 4:-3.16905 5:4.49351 6:0.718222 7:1.28113 8:-8.45662 9:-0.925355 10:-4.04737 11:2.15613 12:-1.64261 13:2.608 14:66.4328 15:1.74246 16:2.10179 17:-0.581644 18:1.53045 19:-0.551699 20:1.00905 21:-1.32891 22:0.667746 23:-0.314188 24:1.72234 25:-0.46193 26:0.626214
-1 1:249.011 2:2.76768 3:2.50497 4:-2.56537 5:6.42126 6:1.26451 7:1.25599 8:-8.65199 9:1.91192 10:-4.92488 11:0.203173 12:-1.72376 13:2.83755 14:66.4328 15:1.74246 16:2.10179 17:-0.581644 18:1.53045 19:-0.551699 20:1.00905 21:-1.32891 22:0.667746 23:-0.314188 24:1.72234 25:-0.46193 26:0.626214
-1 1:249.479 2:0.801524 3:0.686138 4:-2.29785 5:4.4364 6:1.77557 7:3.23787 8:-7.7834 9:1.19852 10:-2.13038 11:1.06416 12:-4.06132 13:2.47377 14:66.4328 15:1.74246 16:2.10179 17:-0.581644 18:1.53045 19:-0.551699 20:1.00905 21:-1.32891 22:0.667746 23:-0.314188 24:1.72234 25:-0.46193 26:0.626214
-1 1:248.318 2:2.80129 3:-0.33933 4:-3.0949 5:4.12469 6:-0.691721 7:3.28823 8:-8.0672 9:1.56789 10:-2.87906 11:1.98716 12:-3.09403 13:2.13525 14:66.4328 15:1.74246 16:2.10179 17:-0.581644 18:1.53045 19:-0.551699 20:1.00905 21:-1.32891 22:0.667746 23:-0.314188 24:1.72234 25:-0.46193 26:0.626214
-1 1:244.976 2:2.19534 3:-0.0358798 4:-2.68823 5:6.09623 6:1.41253 7:4.52785 8:-7.76381 9:3.33933 10:0.0472042 11:2.63101 12:-1.12811 13:3.19579 14:66.4328 15:1.74246 16:2.10179 17:-0.581644 18:1.53045 19:-0.551699 20:1.00905 21:-1.32891 22:0.667746 23:-0.314188 24:1.72234 25:-0.46193 26:0.626214
-1 1:240.164 2:1.85923 3:-1.154 4:-5.32866 5:5.66657 6:0.654949 7:3.48369 8:-7.24844 9:2.02873 10:0.27548 11:4.08969 12:-3.05379 13:0.798739 14:66.4328 15:1.74246 16:2.10179 17:-0.581644 18:1.53045 19:-0.551699 20:1.00905 21:-1.32891 22:0.667746 23:-0.314188 24:1.72234 25:-0.46193 26:0.626214
-1 1:238.185 2:2.97071 3:0.587183 4:-2.73356 5:5.01499 6:-1.3059 7:1.83287 8:-6.73578 9:1.27584 10:-2.77532 11:2.81609 12:-3.65124 13:0.820104 14:66.4328 15:1.74246 16:2.10179 17:-0.581644 18:1.53045 19:-0.551699 20:1.00905 21:-1.32891 22:0.667746 23:-0.314188 24:1.72234 25:-0.46193 26:0.626214
-1 1:240.81 2:4.97454 3:4.76427 4:-2.88269 5:5.3835 6:-0.952906 7:1.05385 8:-7.62346 9:1.12403 10:-3.25343 11:1.48621 12:-3.60877 13:1.63465 14:66.4328 15:1.74246 16:2.10179 17:-0.581644 18:1.53045 19:-0.551699 20:1.00905 21:-1.32891 22:0.667746 23:-0.314188 24:1.72234 25:-0.46193 26:0.626214
-1 1:238.399 2:8.44491 3:2.13923 4:-3.30655 5:5.50491 6:-1.07736 7:4.23645 8:-5.3391 9:-0.603805 10:-3.12234 11:4.28095 12:-2.34909 13:3.99893 14:66.4328 15:1.74246 16:2.10179 17:-0.581644 18:1.53045 19:-0.551699 20:1.00905 21:-1.32891 22:0.667746 23:-0.314188 24:1.72234 25:-0.46193 26:0.626214
-1 1:235.944 2:7.36288 3:1.88807 4:-4.99558 5:5.15318 6:-1.23651 7:2.30708 8:-5.69923 9:-0.69429 10:-2.70989 11:4.00309 12:-3.38299 13:2.30637 14:66.4328 15:1.74246 16:2.10179 17:-0.581644 18:1.53045 19:-0.551699 20:1.00905 21:-1.32891 22:0.667746 23:-0.314188 24:1.72234 25:-0.46193 26:0.626214
-1 1:235.597 2:8.198 3:2.23111 4:-2.76213 5:6.6294 6:-1.57066 7:3.56745 8:-7.42886 9:0.076184 10:-1.92933 11:5.86544 12:-2.02951 13:2.74288 14:66.4328 15:1.74246 16:2.10179 17:-0.581644 18:1.53045 19:-0.551699 20:1.00905 21:-1.32891 22:0.667746 23:-0.314188 24:1.72234 25:-0.46193 26:0.626214
-1 1:229.121 2:8.17006 3:2.90327 4:-4.77952 5:5.1858 6:-1.07884 7:3.98369 8:-4.77058 9:2.17622 10:-0.716001 11:7.11612 12:-1.76288 13:2.27813 14:66.4328 15:1.74246 16:2.10179 17:-0.581644 18:1.53045 19:-0.551699 20:1.00905 21:-1.32891 22:0.667746 23:-0.314188 24:1.72234 25:-0.46193 26:0.626214
-1 1:222.315 2:5.78229 3:6.39067 4:-3.73867 5:3.04709 6:-2.3904 7:0.782572 8:-4.21048 9:3.56691 10:-0.567637 11:3.40438 12:-3.58285 13:2.85066 14:66.4328 15:1.74246 16:2.10179 17:-0.581644 18:1.53045 19:-0.551699 20:1.00905 21:-1.32891 22:0.667746 23:-0.314188 24:1.72234 25:-0.46193 26:0.626214
-1 1:220.143 2:5.96216 3:7.07711 4:-3.71404 5:3.35417 6:-1.29844 7:2.37642 8:-4.79405 9:3.24514 10:-0.889177 11:4.46192 12:-2.24243 13:2.01454 14:220.143 15:5.96216 16:7.07711 17:-3.71404 18:3.35417 19:-1.29844 20:2.37642 21:-4.79405 22:3.24514 23:-0.889177 24:4.46192 25:-2.24243 26:2.01454
-1 1:152.633 2:0.800658 3:2.25949 4:-3.99204 5:2.84138 6:-2.68658 7:-1.88816 8:-5.90815 9:4.67102 10:-2.08656 11:3.5036 12:-2.27183 13:-0.924579 14:152.633 15:0.800658 16:2.25949 17:-3.99204 18:2.84138 19:-2.68658 20:-1.88816 21:-5.90815 22:4.67102 23:-2.08656 24:3.5036 25:-2.27183 26:-0.924579
-0.74347201658005346 1:210.957 2:2.36376 3:6.2855 4:-1.70632 5:3.67108 6:-1.71724 7:4.76968 8:-1.67923 9:2.44424 10:-1.49145 11:4.85218 12:-2.47713 13:2.46513 14:210.957 15:2.36376 16:6.2855 17:-1.70632 18:3.67108 19:-1.71724 20:4.76968 21:-1.67923 22:2.44424 23:-1.49145 24:4.85218 25:-2.47713 26:2.46513
-1 1:216.489 2:2.77457 3:4.4401 4:-0.993792 5:2.17761 6:-1.33391 7:4.78378 8:-2.35326 9:2.79733 10:-1.40056 11:3.38627 12:-2.68626 13:1.84006 14:81.0928 15:4.36659 16:4.5553 17:1.11448 18:1.93829 19:0.152746 20:2.35604 21:-1.8385 22:1.44367 23:-1.28496 24:2.20272 25:-0.460238 26:1.42211
-1 1:211.505 2:-2.36205 3:4.46305 4:-1.42439 5:1.5388 6:-0.115412 7:4.12647 8:-2.59803 9:5.74421 10:0.865309 11:0.632187 12:-1.82266 13:3.79898 14:81.0928 15:4.36659 16:4.5553 17:1.11448 18:1.93829 19:0.152746 20:2.35604 21:-1.8385 22:1.44367 23:-1.28496 24:2.20272 25:-0.460238 26:1.42211
-1 1:212.438 2:4.86345 3:7.20976 4:-1.9805 5:3.44381 6:-1.18866 7:3.72823 8:-2.83756 9:2.06733 10:-2.58162 11:2.33055 12:-1.96796 13:1.74893 14:81.0928 15:4.36659 16:4.5553 17:1.11448 18:1.93829 19:0.152746 20:2.35604 21:-1.8385 22:1.44367 23:-1.28496 24:2.20272 25:-0.460238 26:1.42211
-0.83139506098709814 1:212.454 2:0.702898 3:4.65486 4:-2.91548 5:4.17484 6:0.150182 7:4.15148 8:-1.66597 9:1.66929 10:-2.70039 11:2.61954 12:-2.24 13:3.05844 14:81.0928 15:4.36659 16:4.5553 17:1.11448 18:1.93829 19:0.152746 20:2.35604 21:-1.8385 22:1.44367 23:-1.28496 24:2.20272 25:-0.460238 26:1.42211
-1 1:212.611 2:-0.48301 3:7.18325 4:0.382788 5:5.56235 6:-0.317846 7:0.994937 8:-2.36737 9:0.147699 10:-3.59026 11:1.73628 12:-2.04166 13:4.03449 14:81.0928 15:4.36659 16:4.5553 17:1.11448 18:1.93829 19:0.152746 20:2.35604 21:-1.8385 22:1.44367 23:-1.28496 24:2.20272 25:-0.460238 26:1.42211
-1 1:216.956 2:2.45422 3:6.93422 4:-2.47196 5:3.76254 6:-1.28862 7:3.79196 8:-1.55132 9:3.68729 10:-1.7538 11:2.94077 12:-1.95616 13:1.06264 14:81.0928 15:4.36659 16:4.5553 17:1.11448 18:1.93829 19:0.152746 20:2.35604 21:-1.8385 22:1.44367 23:-1.28496 24:2.20272 25:-0.460238 26:1.42211
-1 1:217.152 2:1.59891 3:6.95681 4:-0.581385 5:4.4988 6:0.00837233 7:4.14686 8:-0.741414 9:2.83463 10:-1.20385 11:1.7721 12:-1.30256 13:2.894 14:81.0928 15:4.36659 16:4.5553 17:1.11448 18:1.93829 19:0.152746 20:2.35604 21:-1.8385 22:1.44367 23:-1.28496 24:2.20272 25:-0.460238 26:1.42211
-1 1:221.716 2:-11.0777 3:10.5446 4:3.5847 5:0.395583 6:1.04202 7:2.95226 8:-1.28873 9:3.77507 10:-1.37189 11:3.07615 12:-1.60014 13:3.61344 14:81.0928 15:4.36659 16:4.5553 17:1.11448 18:1.93829 19:0.152746 20:2.35604 21:-1.8385 22:1.44367 23:-1.28496 24:2.20272 25:-0.460238 26:1.42211
-1 1:217.164 2:-8.17795 3:9.54902 4:1.80845 5:1.93701 6:0.87084 7:5.12411 8:-0.814252 9:3.75441 10:-1.92943 11:0.925229 12:-0.949701 13:1.76808 14:81.0928 15:4.36659 16:4.5553 17:1.11448 18:1.93829 19:0.152746 20:2.35604 21:-1.8385 22:1.44367 23:-1.28496 24:2.20272 25:-0.460238 26:1.42211
-1 1:208.482 2:-6.29597 3:8.96835 4:0.483867 5:2.94461 6:-0.0394128 7:2.87694 8:-3.43305 9:2.87638 10:-0.354143 11:2.05503 12:-2.84781 13:-1.11038 14:81.0928 15:4.36659 16:4.5553 17:1.11448 18:1.93829 19:0.152746 20:2.35604 21:-1.8385 22:1.44367 23:-1.28496 24:2.20272 25:-0.460238 26:1.42211
-0.030310075241207286 1:211.089 2:-1.04378 3:9.16775 4:1.04116 5:2.3862 6:-2.7571 7:3.77617 8:-0.298635 9:2.75821 10:-0.615083 11:5.42673 12:-1.6416 13:1.60056 14:81.0928 15:4.36659 16:4.5553 17:1.11448 18:1.93829 19:0.152746 20:2.35604 21:-1.8385 22:1.44367 23:-1.28496 24:2.20272 25:-0.460238 26:1.42211
-1 1:229.656 2:2.21741 3:5.42745 4:-0.932456 5:2.6577 6:-2.17451 7:3.11599 8:-1.48835 9:3.86135 10:-2.29885 11:3.44003 12:-1.72694 13:2.4808 14:81.0928 15:4.36659 16:4.5553 17:1.11448 18:1.93829 19:0.152746 20:2.35604 21:-1.8385 22:1.44367 23:-1.28496 24:2.20272 25:-0.460238 26:1.42211
-1 1:228.383 2:3.24652 3:5.47426 4:-1.1881 5:2.96981 6:-1.39429 7:3.5322 8:-1.46425 9:3.85373 10:-2.07065 11:3.14833 12:-1.66985 13:3.0089 14:81.0928 15:4.36659 16:4.5553 17:1.11448 18:1.93829 19:0.152746 20:2.35604 21:-1.8385 22:1.44367 23:-1.28496 24:2.20272 25:-0.460238 26:1.42211
-1 1:212.311 2:2.01988 3:9.47221 4:1.92387 5:4.80275 6:-2.52611 7:3.61611 8:-2.92615 9:-0.437501 10:-1.22187 11:4.36328 12:-2.49853 13:2.39266 14:81.0928 15:4.36659 16:4.5553 17:1.11448 18:1.93829 19:0.152746 20:2.35604 21:-1.8385 22:1.44367 23:-1.28496 24:2.20272 25:-0.460238 26:1.42211
-1 1:216.115 2:4.52259 3:6.08635 4:-1.17049 5:4.86081 6:-1.02418 7:2.65583 8:-2.81883 9:3.17553 10:-1.76369 11:3.82312 12:-1.72932 13:3.36248 14:81.0928 15:4.36659 16:4.5553 17:1.11448 18:1.93829 19:0.152746 20:2.35604 21:-1.8385 22:1.44367 23:-1.28496 24:2.20272 25:-0.460238 26:1.42211
-1 1:214.504 2:1.12564 3:7.13935 4:1.79385 5:6.75613 6:-3.62061 7:3.81965 8:-0.936805 9:3.0367 10:-2.65635 11:3.11725 12:-1.37343 13:1.26949 14:81.0928 15:4.36659 16:4.5553 17:1.11448 18:1.93829 19:0.152746 20:2.35604 21:-1.8385 22:1.44367 23:-1.28496 24:2.20272 25:-0.460238 26:1.42211
-1 1:212.642 2:2.65333 3:7.70524 4:0.215416 5:5.4845 6:-1.16962 7:2.41344 8:-2.52242 9:2.59163 10:-2.93086 11:1.65281 12:-3.85486 13:1.90894 14:81.0928 15:4.36659 16:4.5553 17:1.11448 18:1.93829 19:0.152746 20:2.35604 21:-1.8385 22:1.44367 23:-1.28496 24:2.20272 25:-0.460238 26:1.42211
-1 1:216.613 2:-1.06981 3:6.61357 4:-0.253042 5:7.97766 6:-1.59763 7:2.73844 8:-1.36825 9:3.90784 10:-0.567131 11:2.94098 12:-2.68952 13:3.49142 14:81.0928 15:4.36659 16:4.5553 17:1.11448 18:1.93829 19:0.152746 20:2.35604 21:-1.8385 22:1.44367 23:-1.28496 24:2.20272 25:-0.460238 26:1.42211
-1 1:219.424 2:-1.18268 3:7.37348 4:1.97851 5:8.66349 6:-3.04254 7:1.31208 8:-2.89725 9:2.46631 10:-0.988875 11:2.01593 12:0.139927 13:2.85389 14:81.0928 15:4.36659 16:4.5553 17:1.11448 18:1.93829 19:0.152746 20:2.35604 21:-1.8385 22:1.44367 23:-1.28496 24:2.20272 25:-0.460238 26:1.42211
-1 1:225.922 2:-0.477272 3:5.75189 4:0.616064 5:6.49039 6:-3.64284 7:1.03361 8:-2.53458 9:1.25703 10:-3.25564 11:1.2843 12:-1.05085 13:3.30649 14:81.0928 15:4.36659 16:4.5553 17:1.11448 18:1.93829 19:0.152746 20:2.35604 21:-1.8385 22:1.44367 23:-1.28496 24:2.20272 25:-0.460238 26:1.42211
-1 1:217.135 2:2.05328 3:7.81102 4:0.319586 5:5.65587 6:-2.95941 7:0.184538 8:-2.91837 9:2.49049 10:-3.17215 11:3.46203 12:-0.468507 13:2.21975 14:81.0928 15:4.36659 16:4.5553 17:1.11448 18:1.93829 19:0.152746 20:2.35604 21:-1.8385 22:1.44367 23:-1.28496 24:2.20272 25:-0.460238 26:1.42211
-1 1:217.345 2:-1.48869 3:5.72539 4:1.36772 5:8.32392 6:-2.1399 7:2.49859 8:0.403268 9:2.89949 10:-2.85958 11:3.32128 12:-1.12017 13:0.98874 14:81.0928 15:4.36659 16:4.5553 17:1.11448 18:1.93829 19:0.152746 20:2.35604 21:-1.8385 22:1.44367 23:-1.28496 24:2.20272 25:-0.460238 26:1.42211
-1 1:217.628 2:3.44436 3:8.20026 4:-0.615164 5:5.32755 6:-2.28203 7:2.61035 8:-1.45107 9:1.66464 10:-3.22063 11:1.80726 12:-2.87425 13:2.77943 14:81.0928 15:4.36659 16:4.5553 17:1.11448 18:1.93829 19:0.152746 20:2.35604 21:-1.8385 22:1.44367 23:-1.28496 24:2.20272 25:-0.460238 26:1.42211
-1 1:214.701 2:1.94627 3:9.35319 4:-0.50102 5:4.10521 6:-2.48619 7:2.64109 8:-1.85174 9:2.28369 10:-0.948422 11:4.07382 12:-1.52001 13:3.46494 14:81.0928 15:4.36659 16:4.5553 17:1.11448 18:1.93829 19:0.152746 20:2.35604 21:-1.8385 22:1.44367 23:-1.28496 24:2.20272 25:-0.460238 26:1.42211
-1 1:248.478 2:18.1891 3:13.0739 4:-2.57864 5:10.9693 6:1.60643 7:5.88631 8:-6.48765 9:6.07239 10:-2.57317 11:3.37448 12:-4.76861 13:5.04742 14:81.0928 15:4.36659 16:4.5553 17:1.11448 18:1.93829 19:0.152746 20:2.35604 21:-1.8385 22:1.44367 23:-1.28496 24:2.20272 25:-0.460238 26:1.42211
-1 1:256.194 2:23.0831 3:14.5638 4:-3.7709 5:10.2349 6:0.945509 7:6.75011 8:-7.12365 9:5.49235 10:-3.69635 11:3.49356 12:-5.70594 13:5.21401 14:81.0928 15:4.36659 16:4.5553 17:1.11448 18:1.93829 19:0.152746 20:2.35604 21:-1.8385 22:1.44367 23:-1.28496 24:2.20272 25:-0.460238 26:1.42211
-0.20374270414749354 1:256.105 2:25.4917 3:15.8818 4:-5.48283 5:10.4446 6:1.73558 7:7.38302 8:-6.97007 9:6.75634 10:-3.75433 11:3.89919 12:-6.52199 13:6.60667 14:81.0928 15:4.36659 16:4.5553 17:1.11448 18:1.93829 19:0.152746 20:2.35604 21:-1.8385 22:1.44367 23:-1.28496 24:2.20272 25:-0.460238 26:1.42211
-1 1:263.093 2:23.862 3:14.7187 4:-4.64774 5:9.8881 6:1.54359 7:6.47355 8:-5.18135 9:6.59219 10:-3.00712 11:4.21046 12:-6.90335 13:5.99315 14:81.0928 15:4.36659 16:4.5553 17:1.11448 18:1.93829 19:0.152746 20:2.35604 21:-1.8385 22:1.44367 23:-1.28496 24:2.20272 25:-0.460238 26:1.42211
-1 1:262.912 2:25.2434 3:13.1005 4:-5.22778 5:11.2343 6:1.34907 7:8.08693 8:-6.07983 9:5.42968 10:-3.45085 11:4.01474 12:-7.59671 13:6.67915 14:81.0928 15:4.36659 16:4.5553 17:1.11448 18:1.93829 19:0.152746 20:2.35604 21:-1.8385 22:1.44367 23:-1.28496 24:2.20272 25:-0.460238 26:1.42211
-1 1:267.717 2:22.4341 3:13.5582 4:-2.89219 5:10.5792 6:0.528816 7:7.30392 8:-5.00873 9:6.34622 10:-2.99861 11:3.95444 12:-6.48812 13:5.99886 14:81.0928 15:4.36659 16:4.5553 17:1.11448 18:1.93829 19:0.152746 20:2.35604 21:-1.8385 22:1.44367 23:-1.28496 24:2.20272 25:-0.460238 26:1.42211
-1 1:266.466 2:24.0131 3:13.1525 4:-4.65605 5:10.8091 6:0.672646 7:8.40622 8:-4.66018 9:6.65589 10:-3.17547 11:3.77934 12:-6.28486 13:6.30348 14:81.0928 15:4.36659 16:4.5553 17:1.11448 18:1.93829 19:0.152746 20:2.35604 21:-1.8385 22:1.44367 23:-1.28496 24:2.20272 25:-0.460238 26:1.42211
-0.9357295722350002 1:265.543 2:26.46 3:12.7504 4:-6.0228 5:12.1244 6:0.472882 7:8.90292 8:-5.73364 9:5.75471 10:-3.22856 11:2.57478 12:-6.85054 13:6.5091 14:81.0928 15:4.36659 16:4.5553 17:1.11448 18:1.93829 19:0.152746 20:2.35604 21:-1.8385 22:1.44367 23:-1.28496 24:2.20272 25:-0.460238 26:1.42211
-1 1:272.776 2:20.842 3:12.3279 4:-3.22295 5:10.035 6:0.797942 7:7.8696 8:-4.28294 9:5.2987 10:-3.81646 11:3.24176 12:-5.89563 13:6.49728 14:81.0928 15:4.36659 16:4.5553 17:1.11448 18:1.93829 19:0.152746 20:2.35604 21:-1.8385 22:1.44367 23:-1.28496 24:2.20272 25:-0.460238 26:1.42211
-0.71129899551284115 1:309.293 2:13.5286 3:3.36099 4:6.08398 5:11.6482 6:-4.15386 7:6.06782 8:-11.3535 9:-0.0869555 10:-0.0026941 11:3.10104 12:-1.56074 13:7.17331 14:81.0928 15:4.36659 16:4.5553 17:1.11448 18:1.93829 19:0.152746 20:2.35604 21:-1.8385 22:1.44367 23:-1.28496 24:2.20272 25:-0.460238 26:1.42211
-1 1:324.371 2:23.3001 3:11.9482 4:-5.44347 5:8.14965 6:-10.0501 7:10.3918 8:-5.01836 9:-0.943027 10:-3.16149 11:-4.05546 12:-4.68997 13:7.80186 14:81.0928 15:4.36659 16:4.5553 17:1.11448 18:1.93829 19:0.152746 20:2.35604 21:-1.8385 22:1.44367 23:-1.28496 24:2.20272 25:-0.460238 26:1.42211
-1 1:325.411 2:22.3785 3:10.5665 4:-5.161 5:6.85049 6:-8.46814 7:9.55361 8:-5.54929 9:-0.654462 10:-3.69848 11:-2.14707 12:-4.60226 13:7.55207 14:81.0928 15:4.36659 16:4.5553 17:1.11448 18:1.93829 19:0.152746 20:2.35604 21:-1.8385 22:1.44367 23:-1.28496 24:2.20272 25:-0.460238 26:1.42211
-1 1:329.445 2:22.0613 3:9.28347 4:-5.70248 5:7.44827 6:-7.29618 7:10.0739 8:-6.14733 9:-1.29269 10:-4.55893 11:-1.6191 12:-3.62551 13:8.04868 14:81.0928 15:4.36659 16:4.5553 17:1.11448 18:1.93829 19:0.152746 20:2.35604 21:-1.8385 22:1.44367 23:-1.28496 24:2.20272 25:-0.460238 26:1.42211
-1 1:326.725 2:22.4853 3:9.57452 4:-5.521 5:8.17399 6:-6.89321 7:10.4922 8:-6.59725 9:-2.41523 10:-5.01339 11:-2.29102 12:-3.80908 13:8.77776 14:81.0928 15:4.36659 16:4.5553 17:1.11448 18:1.93829 19:0.152746 20:2.35604 21:-1.8385 22:1.44367 23:-1.28496 24:2.20272 25:-0.460238 26:1.42211
-1 1:329.105 2:21.2464 3:8.69379 4:-5.5834 5:9.67554 6:-4.79126 7:10.0384 8:-7.91997 9:-4.20183 10:-3.60828 11:-0.877633 12:-3.61479 13:8.62723 14:81.0928 15:4.36659 16:4.5553 17:1.11448 18:1.93829 19:0.152746 20:2.35604 21:-1.8385 22:1.44367 23:-1.28496 24:2.20272 25:-0.460238 26:1.42211
-1 1:331.688 2:21.3407 3:8.22766 4:-4.63752 5:10.3541 6:-4.45963 7:10.4044 8:-8.53247 9:-4.37148 10:-2.3191 11:-0.924797 12:-3.54244 13:8.67301 14:81.0928 15:4.36659 16:4.5553 17:1.11448 18:1.93829 19:0.152746 20:2.35604 21:-1.8385 22:1.44367 23:-1.28496 24:2.20272 25:-0.460238 26:1.42211
-1 1:332.145 2:18.2979 3:8.24512 4:-2.07553 5:11.1907 6:-2.8658 7:10.4735 8:-9.77007 9:-5.82268 10:-0.739678 11:1.19964 12:-4.85039 13:7.25924 14:81.0928 15:4.36659 16:4.5553 17:1.11448 18:1.93829 19:0.152746 20:2.35604 21:-1.8385 22:1.44367 23:-1.28496 24:2.20272 25:-0.460238 26:1.42211
-1 1:335.94 2:15.3031 3:8.23652 4:-1.06983 5:11.3626 6:-1.49482 7:9.93221 8:-9.26143 9:-6.68006 10:0.660069 11:3.01365 12:-5.19151 13:5.13198 14:81.0928 15:4.36659 16:4.5553 17:1.11448 18:1.93829 19:0.152746 20:2.35604 21:-1.8385 22:1.44367 23:-1.28496 24:2.20272 25:-0.460238 26:1.42211
-0.99190855325853466 1:326.997 2:14.5568 3:8.16465 4:0.783527 5:13.51 6:-2.386 7:11.1443 8:-7.69493 9:-5.71542 10:0.195351 11:4.17078 12:-4.18431 13:3.86749 14:81.0928 15:4.36659 16:4.5553 17:1.11448 18:1.93829 19:0.152746 20:2.35604 21:-1.8385 22:1.44367 23:-1.28496 24:2.20272 25:-0.460238 26:1.42211
-1 1:299.82 2:-30.2783 3:12.9117 4:10.5592 5:1.44904 6:1.42392 7:1.14329 8:-0.530586 9:2.29864 10:-5.20099 11:3.4905 12:0.459435 13:-1.37742 14:81.0928 15:4.36659 16:4.5553 17:1.11448 18:1.93829 19:0.152746 20:2.35604 21:-1.8385 22:1.44367 23:-1.28496 24:2.20272 25:-0.460238 26:1.42211
-1 1:303.478 2:-31.4199 3:15.1251 4:11.1537 5:-0.0279625 6:1.69638 7:-1.64719 8:-2.45016 9:1.12649 10:-6.87678 11:1.32855 12:-0.741214 13:-0.00984957 14:81.0928 15:4.36659 16:4.5553 17:1.11448 18:1.93829 19:0.152746 20:2.35604 21:-1.8385 22:1.44367 23:-1.28496 24:2.20272 25:-0.460238 26:1.42211
-1 1:300.851 2:-31.0414 3:15.0954 4:9.82686 5:-1.40754 6:0.501469 7:-0.501903 8:0.467448 9:-0.798009 10:-7.7422 11:0.269213 12:-1.02827 13:-1.09282 14:81.0928 15:4.36659 16:4.5553 17:1.11448 18:1.93829 19:0.152746 20:2.35604 21:-1.8385 22:1.44367 23:-1.28496 24:2.20272 25:-0.460238 26:1.42211
-1 1:298.871 2:-29.8147 3:11.7361 4:9.78583 5:-0.930295 6:3.45976 7:2.30906 8:-0.548763 9:1.78196 10:-6.82959 11:2.6337 12:0.387615 13:-0.678763 14:81.0928 15:4.36659 16:4.5553 17:1.11448 18:1.93829 19:0.152746 20:2.35604 21:-1.8385 22:1.44367 23:-1.28496 24:2.20272 25:-0.460238 26:1.42211
-1 1:286.139 2:-11.9551 3:3.41011 4:5.86734 5:4.34879 6:-1.66345 7:0.14169 8:-2.16872 9:2.17187 10:-8.49334 11:2.50656 12:-0.726234 13:1.43573 14:81.0928 15:4.36659 16:4.5553 17:1.11448 18:1.93829 19:0.152746 20:2.35604 21:-1.8385 22:1.44367 23:-1.28496 24:2.20272 25:-0.460238 26:1.42211
-1 1:322.908 2:4.17067 3:8.80045 4:7.12239 5:16.385 6:0.0369103 7:5.13501 8:-2.67806 9:0.148013 10:-1.16849 11:4.25834 12:-5.50298 13:3.25231 14:81.0928 15:4.36659 16:4.5553 17:1.11448 18:1.93829 19:0.152746 20:2.35604 21:-1.8385 22:1.44367 23:-1.28496 24:2.20272 25:-0.460238 26:1.42211
-1 1:322.416 2:7.26949 3:6.38567 4:7.21159 5:17.6741 6:-0.772146 7:5.1037 8:-2.16927 9:0.384245 10:-1.24721 11:4.95183 12:-6.0701 13:4.72216 14:81.0928 15:4.36659 16:4.5553 17:1.11448 18:1.93829 19:0.152746 20:2.35604 21:-1.8385 22:1.44367 23:-1.28496 24:2.20272 25:-0.460238 26:1.42211
-1 1:321.828 2:6.97696 3:6.38849 4:6.54452 5:18.8603 6:-0.84805 7:4.79223 8:-1.83934 9:-0.0836126 10:-1.11482 11:5.16886 12:-6.20204 13:4.80859 14:81.0928 15:4.36659 16:4.5553 17:1.11448 18:1.93829 19:0.152746 20:2.35604 21:-1.8385 22:1.44367 23:-1.28496 24:2.20272 25:-0.460238 26:1.42211
-1 1:313.966 2:8.07944 3:7.20229 4:5.25549 5:19.6092 6:0.838727 7:4.53167 8:-2.45993 9:2.00852 10:-1.06241 11:5.3376 12:-6.06294 13:4.32578 14:81.0928 15:4.36659 16:4.5553 17:1.11448 18:1.93829 19:0.152746 20:2.35604 21:-1.8385 22:1.44367 23:-1.28496 24:2.20272 25:-0.460238 26:1.42211
-0.35428293812996864 1:311.105 2:7.00932 3:7.8879 4:5.67975 5:18.0245 6:2.81768 7:4.31504 8:-3.46717 9:2.46984 10:-3.08996 11:4.58792 12:-4.34159 13:3.60026 14:81.0928 15:4.36659 16:4.5553 17:1.11448 18:1.93829 19:0.152746 20:2.35604 21:-1.8385 22:1.44367 23:-1.28496 24:2.20272 25:-0.460238 26:1.42211
-1 1:303.844 2:-2.56482 3:16.3531 4:5.49301 5:11.2336 6:10.9384 7:3.01377 8:-4.15199 9:4.00243 10:-1.88259 11:3.35503 12:-3.29929 13:2.82119 14:81.0928 15:4.36659 16:4.5553 17:1.11448 18:1.93829 19:0.152746 20:2.35604 21:-1.8385 22:1.44367 23:-1.28496 24:2.20272 25:-0.460238 26:1.42211
-0.98846005707245688 1:301.724 2:-7.02255 3:19.1987 4:5.41634 5:8.97768 6:11.4974 7:3.07417 8:-3.73215 9:2.30799 10:-3.50859 11:2.38815 12:-3.21138 13:1.66499 14:81.0928 15:4.36659 16:4.5553 17:1.11448 18:1.93829 19:0.152746 20:2.35604 21:-1.8385 22:1.44367 23:-1.28496 24:2.20272 25:-0.460238 26:1.42211
-0.75491165477594036 1:285.47 2:-15.8822 3:22.3622 4:9.57981 5:8.13049 6:7.31042 7:4.39026 8:-4.74154 9:2.39837 10:0.146731 11:2.57391 12:-1.07051 13:-0.434845 14:81.0928 15:4.36659 16:4.5553 17:1.11448 18:1.93829 19:0.152746 20:2.35604 21:-1.8385 22:1.44367 23:-1.28496 24:2.20272 25:-0.460238 26:1.42211
-1 1:278.911 2:-17.3269 3:23.6783 4:8.10783 5:6.1494 6:9.41667 7:4.89092 8:-4.0044 9:3.36842 10:-0.44532 11:0.636857 12:-0.197362 13:-0.0755424 14:81.0928 15:4.36659 16:4.5553 17:1.11448 18:1.93829 19:0.152746 20:2.35604 21:-1.8385 22:1.44367 23:-1.28496 24:2.20272 25:-0.460238 26:1.42211
-0.94320287927660496 1:290.344 2:-24.9572 3:16.3133 4:10.3036 5:2.75669 6:5.35182 7:5.25183 8:0.526858 9:4.1288 10:-1.61432 11:4.50684 12:0.621404 13:0.879343 14:81.0928 15:4.36659 16:4.5553 17:1.11448 18:1.93829 19:0.152746 20:2.35604 21:-1.8385 22:1.44367 23:-1.28496 24:2.20272 25:-0.460238 26:1.42211
-1 1:256.58 2:7.24576 3:12.6981 4:0.598588 5:6.07171 6:0.532438 7:9.5147 8:-0.0987349 9:0.608688 10:-6.68331 11:5.43694 12:-0.668309 13:5.3609 14:81.0928 15:4.36659 16:4.5553 17:1.11448 18:1.93829 19:0.152746 20:2.35604 21:-1.8385 22:1.44367 23:-1.28496 24:2.20272 25:-0.460238 26:1.42211
-1 1:257.213 2:13.7852 3:18.1275 4:0.389031 5:6.74467 6:-0.139502 7:6.94097 8:-1.8534 9:2.40199 10:-5.70608 11:5.0339 12:-1.78299 13:4.31548 14:81.0928 15:4.36659 16:4.5553 17:1.11448 18:1.93829 19:0.152746 20:2.35604 21:-1.8385 22:1.44367 23:-1.28496 24:2.20272 25:-0.460238 26:1.42211
-0.70860509534591443 1:284.179 2:26.43 3:11.9584 4:-7.01256 5:11.2153 6:1.08249 7:9.38557 8:-2.99422 9:5.47607 10:-4.07426 11:5.18668 12:-6.95261 13:6.00548 14:81.0928 15:4.36659 16:4.5553 17:1.11448 18:1.93829 19:0.152746 20:2.35604 21:-1.8385 22:1.44367 23:-1.28496 24:2.20272 25:-0.460238 26:1.42211
-1 1:322.059 2:16.7244 3:2.23293 4:5.63781 5:14.3088 6:-8.15495 7:8.23272 8:-5.11404 9:-0.196358 10:-0.186692 11:7.26631 12:-4.58844 13:6.65593 14:81.0928 15:4.36659 16:4.5553 17:1.11448 18:1.93829 19:0.152746 20:2.35604 21:-1.8385 22:1.44367 23:-1.28496 24:2.20272 25:-0.460238 26:1.42211
-1 1:318.76 2:15.9578 3:2.12553 4:7.64671 5:14.9727 6:-7.84593 7:7.43278 8:-6.02388 9:1.2523 10:0.454553 11:6.94281 12:-4.81193 13:5.42396 14:81.0928 15:4.36659 16:4.5553 17:1.11448 18:1.93829 19:0.152746 20:2.35604 21:-1.8385 22:1.44367 23:-1.28496 24:2.20272 25:-0.460238 26:1.42211
-1 1:314.165 2:16.9732 3:1.28928 4:8.19134 5:15.9092 6:-7.69057 7:6.60365 8:-7.26382 9:0.582196 10:0.685984 11:7.64124 12:-5.34146 13:5.63251 14:81.0928 15:4.36659 16:4.5553 17:1.11448 18:1.93829 19:0.152746 20:2.35604 21:-1.8385 22:1.44367 23:-1.28496 24:2.20272 25:-0.460238 26:1.42211
-1 1:305.915 2:21.2666 3:0.845041 4:5.38997 5:17.0784 6:-5.59884 7:8.83031 8:-7.71682 9:-0.96842 10:-0.63549 11:7.19115 12:-5.00438 13:6.91249 14:81.0928 15:4.36659 16:4.5553 17:1.11448 18:1.93829 19:0.152746 20:2.35604 21:-1.8385 22:1.44367 23:-1.28496 24:2.20272 25:-0.460238 26:1.42211
-1 1:223.254 2:7.85859 3:7.47171 4:1.75308 5:9.51095 6:-0.951037 7:5.6947 8:-2.26608 9:1.36103 10:-0.275716 11:7.13555 12:-1.18231 13:4.58953 14:81.0928 15:4.36659 16:4.5553 17:1.11448 18:1.93829 19:0.152746 20:2.35604 21:-1.8385 22:1.44367 23:-1.28496 24:2.20272 25:-0.460238 26:1.42211
-0.54353579519072226 1:222.513 2:9.58221 3:10.5029 4:0.97219 5:8.20519 6:-1.11148 7:6.21186 8:1.19775 9:0.874853 10:-5.18446 11:6.10711 12:-3.77232 13:2.09184 14:81.0928 15:4.36659 16:4.5553 17:1.11448 18:1.93829 19:0.152746 20:2.35604 21:-1.8385 22:1.44367 23:-1.28496 24:2.20272 25:-0.460238 26:1.42211
-1 1:219.388 2:8.3333 3:9.57143 4:0.14969 5:9.23308 6:-1.57611 7:4.13614 8:0.349427 9:2.84004 10:-2.3822 11:4.66943 12:-2.98566 13:3.20344 14:81.0928 15:4.36659 16:4.5553 17:1.11448 18:1.93829 19:0.152746 20:2.35604 21:-1.8385 22:1.44367 23:-1.28496 24:2.20272 25:-0.460238 26:1.42211
-0.27545296074063103 1:300.357 2:4.27705 3:1.71066 4:-5.83167 5:0.812805 6:0.708196 7:4.22707 8:-3.46584 9:2.57151 10:-5.81907 11:2.96533 12:-3.86018 13:3.13991 14:81.0928 15:4.36659 16:4.5553 17:1.11448 18:1.93829 19:0.152746 20:2.35604 21:-1.8385 22:1.44367 23:-1.28496 24:2.20272 25:-0.460238 26:1.42211
-1 1:265.355 2:11.4051 3:11.1672 4:-2.93185 5:1.32381 6:-4.99959 7:2.96967 8:-2.68321 9:2.83838 10:-4.4724 11:3.12575 12:-2.21481 13:3.25814 14:81.0928 15:4.36659 16:4.5553 17:1.11448 18:1.93829 19:0.152746 20:2.35604 21:-1.8385 22:1.44367 23:-1.28496 24:2.20272 25:-0.460238 26:1.42211
-1 1:298.198 2:25.1119 3:11.9873 4:-4.04149 5:2.62097 6:-8.92958 7:8.19287 8:-5.69322 9:2.02062 10:-5.72653 11:0.828727 12:-3.7269 13:6.43978 14:81.0928 15:4.36659 16:4.5553 17:1.11448 18:1.93829 19:0.152746 20:2.35604 21:-1.8385 22:1.44367 23:-1.28496 24:2.20272 25:-0.460238 26:1.42211
-1 1:334.598 2:23.9425 3:8.39126 4:-2.39781 5:2.35195 6:-12.7424 7:8.70466 8:-4.63944 9:1.67405 10:-5.73781 11:0.492524 12:-2.83219 13:6.35981 14:81.0928 15:4.36659 16:4.5553 17:1.11448 18:1.93829 19:0.152746 20:2.35604 21:-1.8385 22:1.44367 23:-1.28496 24:2.20272 25:-0.460238 26:1.42211
-0.94637305241524938 1:327.857 2:25.3938 3:9.14949 4:-1.90658 5:1.70518 6:-13.511 7:9.17184 8:-5.23934 9:1.78597 10:-6.12258 11:0.0191589 12:-2.8503 13:6.70735 14:81.0928 15:4.36659 16:4.5553 17:1.11448 18:1.93829 19:0.152746 20:2.35604 21:-1.8385 22:1.44367 23:-1.28496 24:2.20272 25:-0.460238 26:1.42211
