svm_type c_svc
kernel_type rbf
gamma 0.003
nr_class 2
total_sv 247
rho 0.118489175714901
label 1 2
nr_sv 133 114
SV
0.71404565601816372 1:228.602 2:7.31302 3:5.35105 4:-4.97041 5:4.18861 6:-0.588925 7:2.86131 8:-4.30864 9:3.70205 10:0.0487007 11:5.19986 12:-2.12482 13:2.93355 14:228.602 15:7.31302 16:5.35105 17:-4.97041 18:4.18861 19:-0.588925 20:2.86131 21:-4.30864 22:3.70205 23:0.0487007 24:5.19986 25:-2.12482 26:2.93355
0.2499206475221224 1:225.392 2:1.34771 3:2.16626 4:-3.97859 5:-0.264904 6:-1.45372 7:6.61263 8:-0.358583 9:1.45047 10:-4.69029 11:2.77322 12:-2.24004 13:1.77859 14:75.5365 15:5.13829 16:3.64124 17:-0.208089 18:1.27448 19:-1.47906 20:0.966567 21:-2.01366 22:1.38106 23:-0.448046 24:1.44824 25:-0.906919 26:1.79978
0.18516654259399473 1:226.059 2:4.43805 3:2.58541 4:-1.84345 5:4.03813 6:-2.66531 7:3.78561 8:-2.49584 9:3.02359 10:-1.77545 11:2.53802 12:-5.546 13:0.855969 14:75.5365 15:5.13829 16:3.64124 17:-0.208089 18:1.27448 19:-1.47906 20:0.966567 21:-2.01366 22:1.38106 23:-0.448046 24:1.44824 25:-0.906919 26:1.79978
0.073411817627990344 1:259.519 2:16.8308 3:14.0051 4:1.45072 5:3.36408 6:-1.97108 7:11.6175 8:-1.61495 9:7.9072 10:-4.40358 11:2.41875 12:-5.72818 13:3.00855 14:75.5365 15:5.13829 16:3.64124 17:-0.208089 18:1.27448 19:-1.47906 20:0.966567 21:-2.01366 22:1.38106 23:-0.448046 24:1.44824 25:-0.906919 26:1.79978
0.045959334110309925 1:266.688 2:20.088 3:12.2182 4:-0.88143 5:3.91053 6:-1.97944 7:9.60099 8:-3.02835 9:9.82664 10:-2.99738 11:2.31405 12:-4.19591 13:3.77757 14:75.5365 15:5.13829 16:3.64124 17:-0.208089 18:1.27448 19:-1.47906 20:0.966567 21:-2.01366 22:1.38106 23:-0.448046 24:1.44824 25:-0.906919 26:1.79978
0.13361539424430038 1:315.212 2:26.9673 3:0.600378 4:-3.85149 5:-0.411085 6:-10.0164 7:9.21149 8:-2.94162 9:8.1824 10:-8.30556 11:4.65572 12:-5.32975 13:4.35493 14:75.5365 15:5.13829 16:3.64124 17:-0.208089 18:1.27448 19:-1.47906 20:0.966567 21:-2.01366 22:1.38106 23:-0.448046 24:1.44824 25:-0.906919 26:1.79978
0.46520062009866442 1:329.762 2:21.9858 3:-4.97738 4:-8.25503 5:7.95174 6:-6.6049 7:5.24767 8:-3.69661 9:4.17052 10:-7.26266 11:5.63188 12:-1.94992 13:4.99333 14:75.5365 15:5.13829 16:3.64124 17:-0.208089 18:1.27448 19:-1.47906 20:0.966567 21:-2.01366 22:1.38106 23:-0.448046 24:1.44824 25:-0.906919 26:1.79978
0.14736510514976783 1:330.303 2:20.1685 3:-9.03738 4:0.164737 5:13.7962 6:-6.98576 7:1.21396 8:-8.19999 9:5.53263 10:-8.49627 11:6.20723 12:-1.92757 13:3.54819 14:75.5365 15:5.13829 16:3.64124 17:-0.208089 18:1.27448 19:-1.47906 20:0.966567 21:-2.01366 22:1.38106 23:-0.448046 24:1.44824 25:-0.906919 26:1.79978
0.17857112980629344 1:301.428 2:32.4648 3:6.30408 4:-2.25752 5:10.9963 6:-9.93142 7:-3.12936 8:-9.86118 9:6.79915 10:-7.6924 11:5.27994 12:-4.62952 13:7.84698 14:75.5365 15:5.13829 16:3.64124 17:-0.208089 18:1.27448 19:-1.47906 20:0.966567 21:-2.01366 22:1.38106 23:-0.448046 24:1.44824 25:-0.906919 26:1.79978
0.092002986275372609 1:313.106 2:34.7426 3:1.1465 4:-8.50208 5:6.26276 6:-12.7593 7:2.41948 8:-5.41189 9:11.6047 10:-7.47682 11:1.72595 12:-5.4632 13:7.21337 14:75.5365 15:5.13829 16:3.64124 17:-0.208089 18:1.27448 19:-1.47906 20:0.966567 21:-2.01366 22:1.38106 23:-0.448046 24:1.44824 25:-0.906919 26:1.79978
0.30655976802089591 1:320.606 2:30.2181 3:0.991173 4:-10.5689 5:4.87731 6:-9.80487 7:1.5553 8:-3.12523 9:11.8992 10:-8.88123 11:1.55663 12:-5.30956 13:6.45212 14:75.5365 15:5.13829 16:3.64124 17:-0.208089 18:1.27448 19:-1.47906 20:0.966567 21:-2.01366 22:1.38106 23:-0.448046 24:1.44824 25:-0.906919 26:1.79978
0.48891802348101965 1:321.944 2:14.1849 3:-5.08229 4:12.8278 5:13.8369 6:-4.17157 7:5.45414 8:-9.66578 9:8.01379 10:-8.31986 11:0.782783 12:-1.42524 13:1.42684 14:75.5365 15:5.13829 16:3.64124 17:-0.208089 18:1.27448 19:-1.47906 20:0.966567 21:-2.01366 22:1.38106 23:-0.448046 24:1.44824 25:-0.906919 26:1.79978
0.23819014203795241 1:312.955 2:3.49407 3:2.81441 4:6.17362 5:8.7973 6:0.793936 7:4.82662 8:-4.50777 9:8.4222 10:-5.69827 11:-2.15416 12:0.670042 13:0.207855 14:75.5365 15:5.13829 16:3.64124 17:-0.208089 18:1.27448 19:-1.47906 20:0.966567 21:-2.01366 22:1.38106 23:-0.448046 24:1.44824 25:-0.906919 26:1.79978
0.19963713012883147 1:309.745 2:-3.04813 3:8.02215 4:2.51809 5:3.53857 6:0.706219 7:0.698156 8:-4.44182 9:4.83416 10:-5.13808 11:0.0544604 12:2.02874 13:-1.45563 14:75.5365 15:5.13829 16:3.64124 17:-0.208089 18:1.27448 19:-1.47906 20:0.966567 21:-2.01366 22:1.38106 23:-0.448046 24:1.44824 25:-0.906919 26:1.79978
0.24793803475627105 1:310.331 2:-11.6857 3:10.4168 4:2.85255 5:4.08987 6:4.74983 7:0.128655 8:-4.22583 9:4.1584 10:-2.60853 11:-0.78981 12:0.242171 13:1.03941 14:75.5365 15:5.13829 16:3.64124 17:-0.208089 18:1.27448 19:-1.47906 20:0.966567 21:-2.01366 22:1.38106 23:-0.448046 24:1.44824 25:-0.906919 26:1.79978
0.2742686824850849 1:306.801 2:-16.8649 3:14.8484 4:1.74297 5:1.59167 6:6.01017 7:-0.0795152 8:-2.79695 9:4.22394 10:-3.06362 11:-2.04332 12:0.0805659 13:-1.32869 14:75.5365 15:5.13829 16:3.64124 17:-0.208089 18:1.27448 19:-1.47906 20:0.966567 21:-2.01366 22:1.38106 23:-0.448046 24:1.44824 25:-0.906919 26:1.79978
0.12800545031494906 1:298.699 2:-22.7765 3:10.7275 4:3.55679 5:1.41389 6:2.91128 7:-3.18253 8:-4.41646 9:5.92905 10:-1.61765 11:-1.62177 12:1.20878 13:0.59267 14:75.5365 15:5.13829 16:3.64124 17:-0.208089 18:1.27448 19:-1.47906 20:0.966567 21:-2.01366 22:1.38106 23:-0.448046 24:1.44824 25:-0.906919 26:1.79978
0.15790015055755391 1:297.805 2:-21.2857 3:8.81926 4:-0.263298 5:0.0373763 6:3.92009 7:-3.53168 8:-4.70361 9:4.47247 10:-1.79652 11:-2.81893 12:-1.12115 13:0.563448 14:75.5365 15:5.13829 16:3.64124 17:-0.208089 18:1.27448 19:-1.47906 20:0.966567 21:-2.01366 22:1.38106 23:-0.448046 24:1.44824 25:-0.906919 26:1.79978
0.22009006496727648 1:279.804 2:-17.9386 3:6.8631 4:5.87123 5:4.54064 6:1.02583 7:-1.31846 8:-3.90355 9:3.55774 10:-4.24395 11:-0.2702 12:2.94697 13:-0.491834 14:75.5365 15:5.13829 16:3.64124 17:-0.208089 18:1.27448 19:-1.47906 20:0.966567 21:-2.01366 22:1.38106 23:-0.448046 24:1.44824 25:-0.906919 26:1.79978
0.14570001676383573 1:306.226 2:1.47053 3:5.37537 4:10.7419 5:16.4443 6:-0.781208 7:-0.775925 8:-3.79429 9:7.71153 10:-3.63016 11:0.0560354 12:-2.30939 13:1.60187 14:75.5365 15:5.13829 16:3.64124 17:-0.208089 18:1.27448 19:-1.47906 20:0.966567 21:-2.01366 22:1.38106 23:-0.448046 24:1.44824 25:-0.906919 26:1.79978
0.071169529322892389 1:294.718 2:7.41161 3:7.38566 4:6.36684 5:17.8037 6:4.40368 7:0.712954 8:-5.80983 9:6.95293 10:-6.56393 11:-0.156037 12:-2.15364 13:1.76942 14:75.5365 15:5.13829 16:3.64124 17:-0.208089 18:1.27448 19:-1.47906 20:0.966567 21:-2.01366 22:1.38106 23:-0.448046 24:1.44824 25:-0.906919 26:1.79978
0.29750081916479593 1:297.733 2:-3.15547 3:14.7586 4:4.09714 5:13.5009 6:9.33591 7:0.652654 8:-5.41787 9:9.11388 10:-2.68766 11:-1.09593 12:1.46451 13:-0.338527 14:75.5365 15:5.13829 16:3.64124 17:-0.208089 18:1.27448 19:-1.47906 20:0.966567 21:-2.01366 22:1.38106 23:-0.448046 24:1.44824 25:-0.906919 26:1.79978
0.0014288185273461441 1:291.149 2:-1.48317 3:13.453 4:9.18883 5:7.56332 6:4.11532 7:6.39067 8:-4.27826 9:3.10132 10:-3.51929 11:0.789759 12:-0.890865 13:0.749056 14:75.5365 15:5.13829 16:3.64124 17:-0.208089 18:1.27448 19:-1.47906 20:0.966567 21:-2.01366 22:1.38106 23:-0.448046 24:1.44824 25:-0.906919 26:1.79978
0.15832458530581095 1:281.031 2:6.86567 3:12.6393 4:6.01929 5:9.6386 6:0.892854 7:8.22484 8:-3.2822 9:1.75016 10:-4.4538 11:2.39984 12:-2.3205 13:3.2794 14:75.5365 15:5.13829 16:3.64124 17:-0.208089 18:1.27448 19:-1.47906 20:0.966567 21:-2.01366 22:1.38106 23:-0.448046 24:1.44824 25:-0.906919 26:1.79978
0.60286869958980227 1:256.776 2:7.71701 3:20.2069 4:6.21303 5:9.83071 6:4.04935 7:8.32727 8:-5.52728 9:4.37879 10:-4.47557 11:4.30507 12:-2.92868 13:1.99241 14:75.5365 15:5.13829 16:3.64124 17:-0.208089 18:1.27448 19:-1.47906 20:0.966567 21:-2.01366 22:1.38106 23:-0.448046 24:1.44824 25:-0.906919 26:1.79978
0.016376127044296602 1:317.87 2:21.3049 3:-7.14815 4:4.34937 5:19.5356 6:-11.046 7:2.79355 8:-4.47064 9:5.899 10:-7.46012 11:3.04925 12:-4.71689 13:3.79488 14:75.5365 15:5.13829 16:3.64124 17:-0.208089 18:1.27448 19:-1.47906 20:0.966567 21:-2.01366 22:1.38106 23:-0.448046 24:1.44824 25:-0.906919 26:1.79978
0.30658416731120219 1:308.902 2:16.5571 3:-6.26569 4:7.9877 5:20.847 6:-5.35777 7:4.61564 8:-5.52765 9:6.24239 10:-6.03256 11:2.28004 12:-5.77486 13:4.11073 14:75.5365 15:5.13829 16:3.64124 17:-0.208089 18:1.27448 19:-1.47906 20:0.966567 21:-2.01366 22:1.38106 23:-0.448046 24:1.44824 25:-0.906919 26:1.79978
0.56266600761257624 1:269.275 2:17.5275 3:-3.54937 4:-1.56709 5:15.3114 6:-2.89973 7:4.03939 8:-4.44689 9:1.83029 10:-5.30819 11:5.72789 12:-4.17028 13:6.91792 14:75.5365 15:5.13829 16:3.64124 17:-0.208089 18:1.27448 19:-1.47906 20:0.966567 21:-2.01366 22:1.38106 23:-0.448046 24:1.44824 25:-0.906919 26:1.79978
0.022201412153240913 1:263.313 2:15.6143 3:-0.928721 4:-2.40162 5:13.1979 6:-1.11956 7:7.16183 8:-0.36728 9:4.02262 10:-3.59771 11:2.78742 12:-6.1791 13:5.68072 14:75.5365 15:5.13829 16:3.64124 17:-0.208089 18:1.27448 19:-1.47906 20:0.966567 21:-2.01366 22:1.38106 23:-0.448046 24:1.44824 25:-0.906919 26:1.79978
0.16098359856170841 1:303.111 2:30.6298 3:1.28713 4:-13.1786 5:4.03433 6:-9.0992 7:2.01835 8:-2.85461 9:9.26262 10:-7.39625 11:3.45558 12:-7.22994 13:8.12077 14:75.5365 15:5.13829 16:3.64124 17:-0.208089 18:1.27448 19:-1.47906 20:0.966567 21:-2.01366 22:1.38106 23:-0.448046 24:1.44824 25:-0.906919 26:1.79978
0.24587354070288125 1:292.461 2:20.1927 3:3.1313 4:-4.08796 5:-0.615126 6:-8.08123 7:5.43072 8:0.0693588 9:6.98121 10:-9.46839 11:7.98224 12:-1.7177 13:4.66577 14:75.5365 15:5.13829 16:3.64124 17:-0.208089 18:1.27448 19:-1.47906 20:0.966567 21:-2.01366 22:1.38106 23:-0.448046 24:1.44824 25:-0.906919 26:1.79978
0.043344578604274937 1:285.423 2:20.584 3:5.45929 4:-4.40861 5:-2.49615 6:-6.80295 7:5.20984 8:-2.31624 9:7.62548 10:-9.57081 11:6.49239 12:-3.09347 13:3.4651 14:75.5365 15:5.13829 16:3.64124 17:-0.208089 18:1.27448 19:-1.47906 20:0.966567 21:-2.01366 22:1.38106 23:-0.448046 24:1.44824 25:-0.906919 26:1.79978
0.065298494079666161 1:276.423 2:10.044 3:6.06549 4:-9.67164 5:-1.17216 6:-2.46586 7:3.17302 8:-0.244832 9:8.80821 10:-6.41327 11:4.62702 12:-0.621394 13:0.398708 14:75.5365 15:5.13829 16:3.64124 17:-0.208089 18:1.27448 19:-1.47906 20:0.966567 21:-2.01366 22:1.38106 23:-0.448046 24:1.44824 25:-0.906919 26:1.79978
0.36164549397824208 1:284.455 2:3.65956 3:12.1378 4:-7.5994 5:-4.62 6:-2.58445 7:1.06501 8:0.791782 9:8.29533 10:-5.39883 11:2.02438 12:0.372874 13:-2.25607 14:75.5365 15:5.13829 16:3.64124 17:-0.208089 18:1.27448 19:-1.47906 20:0.966567 21:-2.01366 22:1.38106 23:-0.448046 24:1.44824 25:-0.906919 26:1.79978
0.004323545932491445 1:287.022 2:-12.3255 3:16.2933 4:-5.03001 5:-7.89561 6:-1.00613 7:-0.475289 8:-2.12579 9:5.00444 10:-0.747314 11:0.747398 12:0.250211 13:-0.200649 14:75.5365 15:5.13829 16:3.64124 17:-0.208089 18:1.27448 19:-1.47906 20:0.966567 21:-2.01366 22:1.38106 23:-0.448046 24:1.44824 25:-0.906919 26:1.79978
0.11196478857004644 1:284.098 2:-20.4585 3:11.3931 4:0.49737 5:-10.3197 6:-0.894718 7:4.343 8:-0.99086 9:7.31305 10:-1.60545 11:-1.22251 12:2.18583 13:0.0775413 14:75.5365 15:5.13829 16:3.64124 17:-0.208089 18:1.27448 19:-1.47906 20:0.966567 21:-2.01366 22:1.38106 23:-0.448046 24:1.44824 25:-0.906919 26:1.79978
0.32433458677724381 1:278.795 2:-22.3504 3:13.2921 4:1.9674 5:-8.53072 6:0.0318815 7:6.12645 8:-2.48869 9:3.40026 10:-0.523416 11:0.569655 12:2.59005 13:-0.0859688 14:75.5365 15:5.13829 16:3.64124 17:-0.208089 18:1.27448 19:-1.47906 20:0.966567 21:-2.01366 22:1.38106 23:-0.448046 24:1.44824 25:-0.906919 26:1.79978
0.044434431295854393 1:284.798 2:-18.9154 3:8.92423 4:5.17674 5:-6.47984 6:-4.80781 7:4.21678 8:-1.10543 9:1.30253 10:1.83641 11:2.10931 12:0.830588 13:2.92616 14:75.5365 15:5.13829 16:3.64124 17:-0.208089 18:1.27448 19:-1.47906 20:0.966567 21:-2.01366 22:1.38106 23:-0.448046 24:1.44824 25:-0.906919 26:1.79978
0.22167684198988685 1:273.499 2:-17.5458 3:2.86675 4:2.70918 5:-1.8583 6:-6.03738 7:2.76894 8:2.41182 9:-0.450977 10:-1.08514 11:1.85609 12:-0.814311 13:0.143983 14:75.5365 15:5.13829 16:3.64124 17:-0.208089 18:1.27448 19:-1.47906 20:0.966567 21:-2.01366 22:1.38106 23:-0.448046 24:1.44824 25:-0.906919 26:1.79978
0.14135983484554868 1:266.361 2:-9.59201 3:2.54913 4:4.00453 5:2.19243 6:-5.7777 7:2.47842 8:0.519014 9:1.36637 10:-2.26895 11:4.36241 12:-0.119898 13:0.640312 14:75.5365 15:5.13829 16:3.64124 17:-0.208089 18:1.27448 19:-1.47906 20:0.966567 21:-2.01366 22:1.38106 23:-0.448046 24:1.44824 25:-0.906919 26:1.79978
0.19984005171648667 1:276.602 2:26.5671 3:9.0795 4:-4.4256 5:9.74375 6:-4.17594 7:4.07152 8:-1.90275 9:6.71029 10:-11.1694 11:-1.07102 12:-6.48608 13:5.44574 14:75.5365 15:5.13829 16:3.64124 17:-0.208089 18:1.27448 19:-1.47906 20:0.966567 21:-2.01366 22:1.38106 23:-0.448046 24:1.44824 25:-0.906919 26:1.79978
0.45105928540621376 1:282.3 2:5.48461 3:0.404222 4:-6.21977 5:11.7232 6:-7.4179 7:-1.89398 8:1.63614 9:-0.588075 10:-4.03559 11:0.274756 12:-1.3721 13:0.264403 14:75.5365 15:5.13829 16:3.64124 17:-0.208089 18:1.27448 19:-1.47906 20:0.966567 21:-2.01366 22:1.38106 23:-0.448046 24:1.44824 25:-0.906919 26:1.79978
0.22569357803334406 1:245.315 2:8.3614 3:3.67607 4:-6.9229 5:1.75886 6:2.55102 7:10.5586 8:-0.646629 9:2.43992 10:-2.74164 11:5.33032 12:0.929558 13:3.73314 14:75.5365 15:5.13829 16:3.64124 17:-0.208089 18:1.27448 19:-1.47906 20:0.966567 21:-2.01366 22:1.38106 23:-0.448046 24:1.44824 25:-0.906919 26:1.79978
0.0089884033556452275 1:245.232 2:2.41637 3:2.59175 4:-1.12091 5:7.74183 6:-2.07976 7:0.417341 8:0.933412 9:5.69219 10:-3.93217 11:0.85871 12:0.373126 13:3.66911 14:75.5365 15:5.13829 16:3.64124 17:-0.208089 18:1.27448 19:-1.47906 20:0.966567 21:-2.01366 22:1.38106 23:-0.448046 24:1.44824 25:-0.906919 26:1.79978
0.050308486170401609 1:225.492 2:-0.035291 3:5.16075 4:-1.28907 5:2.38239 6:-1.10269 7:4.02506 8:-1.64849 9:3.27077 10:-1.76611 11:4.40409 12:0.827419 13:3.2567 14:75.5365 15:5.13829 16:3.64124 17:-0.208089 18:1.27448 19:-1.47906 20:0.966567 21:-2.01366 22:1.38106 23:-0.448046 24:1.44824 25:-0.906919 26:1.79978
0.54775990848852041 1:252.641 2:-8.13935 3:5.75301 4:-0.874744 5:-0.37126 6:0.274138 7:6.11664 8:5.71701 9:3.85954 10:-0.558679 11:3.33961 12:-3.72334 13:2.11196 14:75.5365 15:5.13829 16:3.64124 17:-0.208089 18:1.27448 19:-1.47906 20:0.966567 21:-2.01366 22:1.38106 23:-0.448046 24:1.44824 25:-0.906919 26:1.79978
0.22586969627222581 1:229.1 2:2.86444 3:2.49055 4:-6.00091 5:-1.86935 6:-4.7569 7:3.97873 8:0.0278813 9:6.95014 10:0.85569 11:4.12836 12:-0.505772 13:4.68823 14:75.5365 15:5.13829 16:3.64124 17:-0.208089 18:1.27448 19:-1.47906 20:0.966567 21:-2.01366 22:1.38106 23:-0.448046 24:1.44824 25:-0.906919 26:1.79978
0.029391443779718356 1:260.079 2:21.5795 3:13.3883 4:-1.65967 5:3.27821 6:-7.30544 7:3.8484 8:-5.70615 9:4.84373 10:-2.99942 11:5.53089 12:-4.44918 13:4.86106 14:75.5365 15:5.13829 16:3.64124 17:-0.208089 18:1.27448 19:-1.47906 20:0.966567 21:-2.01366 22:1.38106 23:-0.448046 24:1.44824 25:-0.906919 26:1.79978
0.25124136105948175 1:304.108 2:25.4218 3:12.3853 4:1.26409 5:6.95739 6:-7.71089 7:1.60252 8:-8.73657 9:6.3479 10:-4.62094 11:4.48703 12:-6.0446 13:5.75474 14:75.5365 15:5.13829 16:3.64124 17:-0.208089 18:1.27448 19:-1.47906 20:0.966567 21:-2.01366 22:1.38106 23:-0.448046 24:1.44824 25:-0.906919 26:1.79978
0.10167845228399593 1:293.038 2:23.6661 3:14.6908 4:2.89731 5:7.61422 6:-6.57363 7:2.79879 8:-7.63654 9:6.23082 10:-4.34239 11:3.78007 12:-5.27061 13:6.73557 14:75.5365 15:5.13829 16:3.64124 17:-0.208089 18:1.27448 19:-1.47906 20:0.966567 21:-2.01366 22:1.38106 23:-0.448046 24:1.44824 25:-0.906919 26:1.79978
0.091255975959509919 1:284.254 2:23.4322 3:14.5038 4:3.46406 5:6.96317 6:-6.32512 7:4.37555 8:-6.46033 9:6.95623 10:-4.41688 11:4.01759 12:-5.55399 13:6.1982 14:75.5365 15:5.13829 16:3.64124 17:-0.208089 18:1.27448 19:-1.47906 20:0.966567 21:-2.01366 22:1.38106 23:-0.448046 24:1.44824 25:-0.906919 26:1.79978
0.39384002289027398 1:245.57 2:14.9992 3:11.6181 4:0.188871 5:4.58633 6:-7.14844 7:1.25639 8:-7.02897 9:1.81746 10:-1.00075 11:5.22004 12:-3.72156 13:5.89947 14:75.5365 15:5.13829 16:3.64124 17:-0.208089 18:1.27448 19:-1.47906 20:0.966567 21:-2.01366 22:1.38106 23:-0.448046 24:1.44824 25:-0.906919 26:1.79978
0.41786795037235319 1:248.564 2:15.6183 3:10.8273 4:-1.35114 5:3.98136 6:-5.55345 7:2.74941 8:-7.60293 9:4.0276 10:-0.809846 11:6.22073 12:-2.72577 13:6.34239 14:248.564 15:15.6183 16:10.8273 17:-1.35114 18:3.98136 19:-5.55345 20:2.74941 21:-7.60293 22:4.0276 23:-0.809846 24:6.22073 25:-2.72577 26:6.34239
0.79148293121590974 1:250.793 2:16.4514 3:12.8824 4:-1.54096 5:2.89 6:-4.63476 7:3.92042 8:-6.35174 9:4.16854 10:-1.03042 11:4.59974 12:-2.28047 13:5.54086 14:250.793 15:16.4514 16:12.8824 17:-1.54096 18:2.89 19:-4.63476 20:3.92042 21:-6.35174 22:4.16854 23:-1.03042 24:4.59974 25:-2.28047 26:5.54086
1.1180473227919103 1:-1500 2:1.44711e-07 3:9.96791e-06 4:-1.45779e-06 5:-1.61451e-05 6:-3.85156e-06 7:3.92767e-06 8:5.21158e-06 9:-7.71489e-06 10:-1.09161e-06 11:-6.57972e-07 12:-5.02876e-07 13:-2.09301e-06 14:-1500 15:1.44711e-07 16:9.96791e-06 17:-1.45779e-06 18:-1.61451e-05 19:-3.85156e-06 20:3.92767e-06 21:5.21158e-06 22:-7.71489e-06 23:-1.09161e-06 24:-6.57972e-07 25:-5.02876e-07 26:-2.09301e-06
0.7648793153934339 1:225.481 2:-0.173326 3:2.98284 4:-4.25336 5:4.21922 6:1.11868 7:4.52237 8:-0.71323 9:0.645604 10:-3.22497 11:2.69907 12:-2.11761 13:4.0766 14:225.481 15:-0.173326 16:2.98284 17:-4.25336 18:4.21922 19:1.11868 20:4.52237 21:-0.71323 22:0.645604 23:-3.22497 24:2.69907 25:-2.11761 26:4.0766
0.13915565314246614 1:233.29 2:4.55348 3:4.07123 4:-4.11507 5:-0.386384 6:-4.07647 7:4.60485 8:-3.10571 9:2.04703 10:-4.294 11:2.50915 12:-2.51446 13:3.78284 14:94.3306 15:5.83495 16:-1.76971 17:0.937757 18:3.56369 19:-1.51299 20:2.00047 21:-1.69579 22:1.80203 23:-1.88073 24:2.44404 25:-1.27155 26:0.813335
0.60135680447424511 1:231.807 2:0.795356 3:2.29731 4:-1.97547 5:2.06493 6:-4.85328 7:0.0226368 8:-6.03858 9:-0.319133 10:-2.22772 11:4.88457 12:-2.1092 13:1.43785 14:94.3306 15:5.83495 16:-1.76971 17:0.937757 18:3.56369 19:-1.51299 20:2.00047 21:-1.69579 22:1.80203 23:-1.88073 24:2.44404 25:-1.27155 26:0.813335
0.27801120938235335 1:283.18 2:15.4393 3:4.96944 4:0.145619 5:9.03558 6:-2.41634 7:10.8727 8:-1.09038 9:7.74531 10:-4.80313 11:1.46915 12:-4.44589 13:3.74142 14:94.3306 15:5.83495 16:-1.76971 17:0.937757 18:3.56369 19:-1.51299 20:2.00047 21:-1.69579 22:1.80203 23:-1.88073 24:2.44404 25:-1.27155 26:0.813335
0.59043589567313881 1:292.536 2:17.4188 3:7.05694 4:-0.482226 5:6.81404 6:-5.39898 7:8.06995 8:-3.73439 9:6.54862 10:-3.64011 11:1.83402 12:-4.60718 13:4.02772 14:94.3306 15:5.83495 16:-1.76971 17:0.937757 18:3.56369 19:-1.51299 20:2.00047 21:-1.69579 22:1.80203 23:-1.88073 24:2.44404 25:-1.27155 26:0.813335
0.55862903994061752 1:305.062 2:26.5847 3:3.4174 4:-4.30893 5:4.19874 6:-8.84355 7:8.62082 8:-4.1889 9:7.36662 10:-6.09146 11:3.65412 12:-4.93066 13:3.41735 14:94.3306 15:5.83495 16:-1.76971 17:0.937757 18:3.56369 19:-1.51299 20:2.00047 21:-1.69579 22:1.80203 23:-1.88073 24:2.44404 25:-1.27155 26:0.813335
0.048230098981749646 1:309.768 2:25.7387 3:1.02608 4:-5.33294 5:2.89788 6:-9.55233 7:9.24518 8:-3.31788 9:8.90825 10:-6.17409 11:4.6786 12:-4.12228 13:4.21547 14:94.3306 15:5.83495 16:-1.76971 17:0.937757 18:3.56369 19:-1.51299 20:2.00047 21:-1.69579 22:1.80203 23:-1.88073 24:2.44404 25:-1.27155 26:0.813335
0.37963935038274016 1:312.998 2:26.4811 3:0.232064 4:-7.945 5:2.69218 6:-9.44818 7:7.66133 8:-3.15037 9:7.46821 10:-7.58301 11:5.88176 12:-3.68184 13:4.57982 14:94.3306 15:5.83495 16:-1.76971 17:0.937757 18:3.56369 19:-1.51299 20:2.00047 21:-1.69579 22:1.80203 23:-1.88073 24:2.44404 25:-1.27155 26:0.813335
0.45408380500064061 1:329.823 2:24.9199 3:-8.34953 4:-6.67879 5:5.23002 6:-7.93058 7:5.83638 8:-5.17888 9:7.10877 10:-7.63482 11:8.33667 12:-1.85845 13:5.36281 14:94.3306 15:5.83495 16:-1.76971 17:0.937757 18:3.56369 19:-1.51299 20:2.00047 21:-1.69579 22:1.80203 23:-1.88073 24:2.44404 25:-1.27155 26:0.813335
0.59446214551644816 1:332.661 2:20.9359 3:-9.75269 4:-5.67479 5:12.4924 6:-6.76544 7:1.02435 8:-8.42122 9:6.08267 10:-5.60126 11:8.7749 12:-0.624897 13:3.55992 14:94.3306 15:5.83495 16:-1.76971 17:0.937757 18:3.56369 19:-1.51299 20:2.00047 21:-1.69579 22:1.80203 23:-1.88073 24:2.44404 25:-1.27155 26:0.813335
0.22007596678635027 1:323.937 2:17.0074 3:-7.37877 4:5.19909 5:21.3046 6:-4.84253 7:-0.358105 8:-10.0607 9:4.49943 10:-8.83856 11:5.72073 12:-3.25641 13:2.27397 14:94.3306 15:5.83495 16:-1.76971 17:0.937757 18:3.56369 19:-1.51299 20:2.00047 21:-1.69579 22:1.80203 23:-1.88073 24:2.44404 25:-1.27155 26:0.813335
0.0016764658634128684 1:315.105 2:19.8043 3:-9.62663 4:6.37543 5:21.5214 6:-6.6392 7:3.0318 8:-7.46227 9:9.10744 10:-5.8055 11:7.57452 12:-3.43141 13:2.41283 14:94.3306 15:5.83495 16:-1.76971 17:0.937757 18:3.56369 19:-1.51299 20:2.00047 21:-1.69579 22:1.80203 23:-1.88073 24:2.44404 25:-1.27155 26:0.813335
0.13992585740268107 1:302.448 2:18.784 3:-2.04004 4:-0.782433 5:17.9399 6:-1.54279 7:2.92628 8:-6.44255 9:4.34352 10:-3.92033 11:4.59547 12:-5.47662 13:3.80297 14:94.3306 15:5.83495 16:-1.76971 17:0.937757 18:3.56369 19:-1.51299 20:2.00047 21:-1.69579 22:1.80203 23:-1.88073 24:2.44404 25:-1.27155 26:0.813335
0.93055377727888222 1:295.245 2:17.5651 3:0.0763603 4:-1.99972 5:18.8788 6:-1.61362 7:3.36617 8:-8.09692 9:3.58548 10:-4.29417 11:4.05807 12:-2.89836 13:4.17136 14:94.3306 15:5.83495 16:-1.76971 17:0.937757 18:3.56369 19:-1.51299 20:2.00047 21:-1.69579 22:1.80203 23:-1.88073 24:2.44404 25:-1.27155 26:0.813335
0.62031548119851576 1:294.267 2:10.1816 3:4.98742 4:-1.63539 5:16.8442 6:-4.54055 7:3.00738 8:-4.20744 9:1.02692 10:-2.44082 11:2.73721 12:0.323519 13:3.83162 14:94.3306 15:5.83495 16:-1.76971 17:0.937757 18:3.56369 19:-1.51299 20:2.00047 21:-1.69579 22:1.80203 23:-1.88073 24:2.44404 25:-1.27155 26:0.813335
0.0041764439969018052 1:284.537 2:11.0829 3:4.19663 4:-3.42782 5:16.5616 6:-1.9198 7:2.27351 8:-4.37651 9:4.01683 10:-2.18816 11:4.26917 12:-0.0574108 13:2.41972 14:94.3306 15:5.83495 16:-1.76971 17:0.937757 18:3.56369 19:-1.51299 20:2.00047 21:-1.69579 22:1.80203 23:-1.88073 24:2.44404 25:-1.27155 26:0.813335
0.28375902024893285 1:294.788 2:16.4283 3:10.0339 4:-5.52215 5:8.90954 6:-1.20601 7:3.64777 8:-3.8178 9:6.97775 10:-6.30473 11:-1.04347 12:-4.31607 13:3.70784 14:94.3306 15:5.83495 16:-1.76971 17:0.937757 18:3.56369 19:-1.51299 20:2.00047 21:-1.69579 22:1.80203 23:-1.88073 24:2.44404 25:-1.27155 26:0.813335
0.53545070439957465 1:308.271 2:28.0004 3:8.11517 4:-2.98161 5:10.8906 6:-12.4182 7:-4.68946 8:-6.64443 9:6.33656 10:-7.64429 11:5.37026 12:-2.36317 13:5.68133 14:94.3306 15:5.83495 16:-1.76971 17:0.937757 18:3.56369 19:-1.51299 20:2.00047 21:-1.69579 22:1.80203 23:-1.88073 24:2.44404 25:-1.27155 26:0.813335
0.04060492648959739 1:305.402 2:27.4181 3:10.2218 4:-2.30871 5:8.84574 6:-13.513 7:-3.24336 8:-5.27503 9:7.22063 10:-7.79314 11:4.101 12:-2.13624 13:6.35813 14:94.3306 15:5.83495 16:-1.76971 17:0.937757 18:3.56369 19:-1.51299 20:2.00047 21:-1.69579 22:1.80203 23:-1.88073 24:2.44404 25:-1.27155 26:0.813335
0.94252488620063679 1:317.7 2:25.724 3:-0.188359 4:-8.0396 5:8.9142 6:-4.0391 7:4.06291 8:-7.50427 9:4.13251 10:-9.90956 11:1.66858 12:-0.928785 13:8.27381 14:94.3306 15:5.83495 16:-1.76971 17:0.937757 18:3.56369 19:-1.51299 20:2.00047 21:-1.69579 22:1.80203 23:-1.88073 24:2.44404 25:-1.27155 26:0.813335
0.50831933957496789 1:317.373 2:9.65685 3:-6.19026 4:11.1899 5:18.4624 6:-4.68738 7:3.4229 8:-7.86156 9:10.2374 10:-4.79944 11:3.41957 12:-1.84158 13:0.945069 14:94.3306 15:5.83495 16:-1.76971 17:0.937757 18:3.56369 19:-1.51299 20:2.00047 21:-1.69579 22:1.80203 23:-1.88073 24:2.44404 25:-1.27155 26:0.813335
0.84409138452277777 1:306.736 2:-0.724767 3:6.11186 4:2.99432 5:8.94251 6:-1.33244 7:0.324932 8:-2.76011 9:6.47828 10:-3.93552 11:-0.397332 12:-1.62924 13:0.407945 14:94.3306 15:5.83495 16:-1.76971 17:0.937757 18:3.56369 19:-1.51299 20:2.00047 21:-1.69579 22:1.80203 23:-1.88073 24:2.44404 25:-1.27155 26:0.813335
0.21360513032206921 1:304.974 2:-4.51296 3:11.7816 4:1.67091 5:4.32326 6:3.18214 7:2.23266 8:-2.87122 9:5.70092 10:-5.22961 11:0.390795 12:-0.654858 13:0.300659 14:94.3306 15:5.83495 16:-1.76971 17:0.937757 18:3.56369 19:-1.51299 20:2.00047 21:-1.69579 22:1.80203 23:-1.88073 24:2.44404 25:-1.27155 26:0.813335
0.019457619361099562 1:303.303 2:-10.443 3:11.213 4:-2.12004 5:2.67311 6:-0.316894 7:-3.41904 8:-1.87119 9:4.23942 10:-3.54405 11:-1.2166 12:-0.462334 13:-1.49969 14:94.3306 15:5.83495 16:-1.76971 17:0.937757 18:3.56369 19:-1.51299 20:2.00047 21:-1.69579 22:1.80203 23:-1.88073 24:2.44404 25:-1.27155 26:0.813335
0.16204682296255496 1:303.981 2:-10.7074 3:11.8642 4:-3.41602 5:3.48665 6:2.21991 7:-1.57881 8:-0.957381 9:5.96462 10:-2.05501 11:0.465328 12:-0.794905 13:-3.07713 14:94.3306 15:5.83495 16:-1.76971 17:0.937757 18:3.56369 19:-1.51299 20:2.00047 21:-1.69579 22:1.80203 23:-1.88073 24:2.44404 25:-1.27155 26:0.813335
0.28721106939045149 1:297.206 2:-19.419 3:9.05011 4:-2.52275 5:0.719094 6:0.155972 7:0.0109101 8:-1.88719 9:3.36856 10:-2.60098 11:-2.1136 12:0.833262 13:-0.963518 14:94.3306 15:5.83495 16:-1.76971 17:0.937757 18:3.56369 19:-1.51299 20:2.00047 21:-1.69579 22:1.80203 23:-1.88073 24:2.44404 25:-1.27155 26:0.813335
0.12008911203809118 1:295.553 2:-19.7836 3:10.4688 4:1.8271 5:5.46249 6:1.33814 7:-1.4707 8:-3.92302 9:1.52212 10:0.0112664 11:-0.262242 12:-0.624436 13:-0.386848 14:94.3306 15:5.83495 16:-1.76971 17:0.937757 18:3.56369 19:-1.51299 20:2.00047 21:-1.69579 22:1.80203 23:-1.88073 24:2.44404 25:-1.27155 26:0.813335
0.13534777484998992 1:298.88 2:-20.3563 3:10.1341 4:2.34974 5:5.57191 6:0.424755 7:-4.0161 8:-1.66867 9:4.54128 10:-2.85223 11:0.505491 12:0.29169 13:-1.60234 14:94.3306 15:5.83495 16:-1.76971 17:0.937757 18:3.56369 19:-1.51299 20:2.00047 21:-1.69579 22:1.80203 23:-1.88073 24:2.44404 25:-1.27155 26:0.813335
0.054925057483021546 1:284.625 2:-14.404 3:6.9607 4:4.82874 5:5.08203 6:-0.783805 7:-2.54351 8:-2.68358 9:6.21603 10:-3.69721 11:-1.63575 12:1.29859 13:0.0442393 14:94.3306 15:5.83495 16:-1.76971 17:0.937757 18:3.56369 19:-1.51299 20:2.00047 21:-1.69579 22:1.80203 23:-1.88073 24:2.44404 25:-1.27155 26:0.813335
0.14038308174516004 1:303.188 2:-0.756053 3:4.92035 4:12.5412 5:17.972 6:0.565829 7:1.28463 8:-3.76862 9:6.77366 10:-5.07528 11:0.0643082 12:-3.1109 13:2.16423 14:94.3306 15:5.83495 16:-1.76971 17:0.937757 18:3.56369 19:-1.51299 20:2.00047 21:-1.69579 22:1.80203 23:-1.88073 24:2.44404 25:-1.27155 26:0.813335
0.10137892515437863 1:303.289 2:2.43115 3:2.69971 4:11.669 5:19.5119 6:-2.14508 7:0.893852 8:-3.83014 9:7.60334 10:-4.10378 11:1.32117 12:-2.58297 13:3.15798 14:94.3306 15:5.83495 16:-1.76971 17:0.937757 18:3.56369 19:-1.51299 20:2.00047 21:-1.69579 22:1.80203 23:-1.88073 24:2.44404 25:-1.27155 26:0.813335
0.55544072200340178 1:286.87 2:-7.84548 3:15.6625 4:3.00251 5:10.1754 6:7.14241 7:1.90072 8:-4.5763 9:1.84991 10:-5.21546 11:0.711392 12:-0.282818 13:-1.33275 14:94.3306 15:5.83495 16:-1.76971 17:0.937757 18:3.56369 19:-1.51299 20:2.00047 21:-1.69579 22:1.80203 23:-1.88073 24:2.44404 25:-1.27155 26:0.813335
1.0829094035094051 1:289.571 2:-3.8902 3:12.7387 4:7.19993 5:7.22189 6:2.97819 7:3.73603 8:-6.77318 9:1.51944 10:-0.294843 11:3.59971 12:-1.50606 13:0.268899 14:94.3306 15:5.83495 16:-1.76971 17:0.937757 18:3.56369 19:-1.51299 20:2.00047 21:-1.69579 22:1.80203 23:-1.88073 24:2.44404 25:-1.27155 26:0.813335
0.75293696989710635 1:273.321 2:2.51312 3:9.41211 4:4.96736 5:9.57807 6:1.03023 7:6.88773 8:-3.94768 9:1.07562 10:-3.37777 11:2.93683 12:-0.12313 13:2.37211 14:94.3306 15:5.83495 16:-1.76971 17:0.937757 18:3.56369 19:-1.51299 20:2.00047 21:-1.69579 22:1.80203 23:-1.88073 24:2.44404 25:-1.27155 26:0.813335
0.52719729117850889 1:262.749 2:4.28081 3:14.5452 4:4.54764 5:9.56375 6:3.02041 7:7.75161 8:-3.25801 9:2.77639 10:-5.53731 11:-0.280276 12:-2.79487 13:2.40815 14:94.3306 15:5.83495 16:-1.76971 17:0.937757 18:3.56369 19:-1.51299 20:2.00047 21:-1.69579 22:1.80203 23:-1.88073 24:2.44404 25:-1.27155 26:0.813335
0.074575834233572558 1:286.508 2:15.6503 3:7.1803 4:-0.96164 5:11.9476 6:1.49797 7:5.46514 8:-2.54062 9:6.17149 10:-6.29403 11:0.538707 12:-4.07208 13:8.73632 14:94.3306 15:5.83495 16:-1.76971 17:0.937757 18:3.56369 19:-1.51299 20:2.00047 21:-1.69579 22:1.80203 23:-1.88073 24:2.44404 25:-1.27155 26:0.813335
0.16618221969590113 1:299.435 2:15.8728 3:1.99086 4:2.16817 5:16.4061 6:-2.67953 7:3.01957 8:-4.88331 9:2.75588 10:-5.12255 11:4.78047 12:-4.75681 13:3.4529 14:94.3306 15:5.83495 16:-1.76971 17:0.937757 18:3.56369 19:-1.51299 20:2.00047 21:-1.69579 22:1.80203 23:-1.88073 24:2.44404 25:-1.27155 26:0.813335
0.37682723587244771 1:271.018 2:7.26673 3:1.35206 4:-1.94139 5:7.73884 6:0.863545 7:4.21053 8:-3.09311 9:2.12954 10:-2.84541 11:5.92579 12:-3.32592 13:2.67459 14:94.3306 15:5.83495 16:-1.76971 17:0.937757 18:3.56369 19:-1.51299 20:2.00047 21:-1.69579 22:1.80203 23:-1.88073 24:2.44404 25:-1.27155 26:0.813335
0.19637550547437335 1:259.841 2:2.91029 3:1.47083 4:-3.19139 5:7.20312 6:0.523144 7:5.31351 8:-1.65664 9:4.95277 10:-0.309268 11:3.66955 12:-0.752459 13:7.48719 14:94.3306 15:5.83495 16:-1.76971 17:0.937757 18:3.56369 19:-1.51299 20:2.00047 21:-1.69579 22:1.80203 23:-1.88073 24:2.44404 25:-1.27155 26:0.813335
0.43433637293741362 1:305.669 2:29.3355 3:5.61674 4:-14.185 5:4.34424 6:-8.60476 7:-1.77178 8:-7.96387 9:11.0973 10:-4.96247 11:1.66412 12:-5.33564 13:6.7693 14:94.3306 15:5.83495 16:-1.76971 17:0.937757 18:3.56369 19:-1.51299 20:2.00047 21:-1.69579 22:1.80203 23:-1.88073 24:2.44404 25:-1.27155 26:0.813335
0.92738711403196572 1:292.518 2:27.5209 3:7.60857 4:-13.2948 5:2.83318 6:-6.91679 7:-1.16485 8:-6.63705 9:9.2508 10:-2.97592 11:5.28258 12:-5.86012 13:6.20655 14:94.3306 15:5.83495 16:-1.76971 17:0.937757 18:3.56369 19:-1.51299 20:2.00047 21:-1.69579 22:1.80203 23:-1.88073 24:2.44404 25:-1.27155 26:0.813335
0.88575298414173553 1:279.792 2:-0.663201 3:11.1783 4:-6.2133 5:-2.98109 6:-0.548005 7:1.93716 8:-2.02847 9:9.10456 10:-2.97595 11:0.682477 12:-1.50993 13:-0.571306 14:94.3306 15:5.83495 16:-1.76971 17:0.937757 18:3.56369 19:-1.51299 20:2.00047 21:-1.69579 22:1.80203 23:-1.88073 24:2.44404 25:-1.27155 26:0.813335
0.87487670857821953 1:294.201 2:-7.51886 3:15.756 4:-3.73496 5:-7.23783 6:-2.90345 7:0.714973 8:-0.887041 9:5.44159 10:-2.96065 11:2.66091 12:0.143281 13:0.853027 14:94.3306 15:5.83495 16:-1.76971 17:0.937757 18:3.56369 19:-1.51299 20:2.00047 21:-1.69579 22:1.80203 23:-1.88073 24:2.44404 25:-1.27155 26:0.813335
0.2777757599441481 1:286.836 2:-15.8391 3:17.3564 4:-4.86592 5:-4.27964 6:2.56348 7:-0.647228 8:-3.20863 9:2.80792 10:-1.55268 11:2.37761 12:3.06969 13:0.984231 14:94.3306 15:5.83495 16:-1.76971 17:0.937757 18:3.56369 19:-1.51299 20:2.00047 21:-1.69579 22:1.80203 23:-1.88073 24:2.44404 25:-1.27155 26:0.813335
0.56341545110718072 1:284.541 2:-22.1135 3:17.883 4:0.0942476 5:-5.28808 6:0.577626 7:2.74524 8:-1.43648 9:2.37484 10:-1.62795 11:0.836875 12:-0.355946 13:-1.91864 14:94.3306 15:5.83495 16:-1.76971 17:0.937757 18:3.56369 19:-1.51299 20:2.00047 21:-1.69579 22:1.80203 23:-1.88073 24:2.44404 25:-1.27155 26:0.813335
0.066807001960515894 1:283.79 2:-20.7191 3:15.9826 4:-1.64887 5:-5.87012 6:-0.617922 7:0.567325 8:-0.61385 9:3.56661 10:-1.90569 11:1.13634 12:-0.476184 13:-2.81656 14:94.3306 15:5.83495 16:-1.76971 17:0.937757 18:3.56369 19:-1.51299 20:2.00047 21:-1.69579 22:1.80203 23:-1.88073 24:2.44404 25:-1.27155 26:0.813335
0.89454381873359035 1:284.415 2:-17.0398 3:8.40508 4:1.77009 5:-0.765612 6:-2.42887 7:5.1288 8:-2.82513 9:0.928654 10:2.01918 11:3.21506 12:1.41663 13:2.65782 14:94.3306 15:5.83495 16:-1.76971 17:0.937757 18:3.56369 19:-1.51299 20:2.00047 21:-1.69579 22:1.80203 23:-1.88073 24:2.44404 25:-1.27155 26:0.813335
0.046437364541559653 1:278.1 2:-16.7031 3:4.92487 4:3.47125 5:-0.670499 6:-5.69106 7:5.86645 8:-2.82194 9:-0.404203 10:3.22603 11:3.13674 12:-0.0193804 13:2.60364 14:94.3306 15:5.83495 16:-1.76971 17:0.937757 18:3.56369 19:-1.51299 20:2.00047 21:-1.69579 22:1.80203 23:-1.88073 24:2.44404 25:-1.27155 26:0.813335
0.8029550978146589 1:276.941 2:-17.4962 3:4.59164 4:0.110455 5:-3.76295 6:-6.94924 7:5.92784 8:-1.91606 9:0.993083 10:2.2434 11:3.71364 12:0.530784 13:1.13644 14:94.3306 15:5.83495 16:-1.76971 17:0.937757 18:3.56369 19:-1.51299 20:2.00047 21:-1.69579 22:1.80203 23:-1.88073 24:2.44404 25:-1.27155 26:0.813335
0.5921880000374935 1:270.392 2:-17.8696 3:2.69129 4:3.91646 5:1.84506 6:-8.29608 7:1.04315 8:-1.50582 9:-1.09169 10:-2.12085 11:1.62929 12:-1.12112 13:2.08138 14:94.3306 15:5.83495 16:-1.76971 17:0.937757 18:3.56369 19:-1.51299 20:2.00047 21:-1.69579 22:1.80203 23:-1.88073 24:2.44404 25:-1.27155 26:0.813335
0.18363497971638723 1:264.572 2:-9.33351 3:4.05678 4:-1.6565 5:1.6212 6:-2.39115 7:2.58588 8:-2.86351 9:2.23253 10:-0.566531 11:4.97703 12:1.42765 13:1.15644 14:94.3306 15:5.83495 16:-1.76971 17:0.937757 18:3.56369 19:-1.51299 20:2.00047 21:-1.69579 22:1.80203 23:-1.88073 24:2.44404 25:-1.27155 26:0.813335
0.27003648988393725 1:252.428 2:-5.06666 3:4.88725 4:-0.346888 5:0.341306 6:-2.37333 7:6.90656 8:-0.834468 9:-0.38475 10:-0.958935 11:3.40146 12:-3.17916 13:1.27626 14:94.3306 15:5.83495 16:-1.76971 17:0.937757 18:3.56369 19:-1.51299 20:2.00047 21:-1.69579 22:1.80203 23:-1.88073 24:2.44404 25:-1.27155 26:0.813335
0.14772232922144954 1:276.747 2:19.1583 3:14.1629 4:-3.26562 5:5.66863 6:-3.56696 7:6.03419 8:-4.46275 9:2.41962 10:-5.01089 11:1.24226 12:-7.03896 13:2.4211 14:94.3306 15:5.83495 16:-1.76971 17:0.937757 18:3.56369 19:-1.51299 20:2.00047 21:-1.69579 22:1.80203 23:-1.88073 24:2.44404 25:-1.27155 26:0.813335
0.41729517280760092 1:282.956 2:25.1046 3:7.12499 4:-9.14424 5:6.80307 6:-2.99574 7:2.70108 8:-5.76806 9:3.47607 10:-5.77631 11:2.10207 12:-7.35026 13:3.57725 14:94.3306 15:5.83495 16:-1.76971 17:0.937757 18:3.56369 19:-1.51299 20:2.00047 21:-1.69579 22:1.80203 23:-1.88073 24:2.44404 25:-1.27155 26:0.813335
0.49949834690769357 1:274.77 2:23.3499 3:8.91497 4:-8.30264 5:6.21626 6:-0.37375 7:3.6494 8:-4.11972 9:6.25062 10:-7.05375 11:2.86606 12:-5.42339 13:2.99921 14:94.3306 15:5.83495 16:-1.76971 17:0.937757 18:3.56369 19:-1.51299 20:2.00047 21:-1.69579 22:1.80203 23:-1.88073 24:2.44404 25:-1.27155 26:0.813335
0.51762655357317267 1:240.371 2:9.28479 3:10.1471 4:1.61789 5:6.72981 6:-0.546117 7:4.351 8:-1.40985 9:5.00282 10:-2.61429 11:4.68087 12:-2.53657 13:2.73166 14:94.3306 15:5.83495 16:-1.76971 17:0.937757 18:3.56369 19:-1.51299 20:2.00047 21:-1.69579 22:1.80203 23:-1.88073 24:2.44404 25:-1.27155 26:0.813335
0.56892990470895255 1:261.368 2:16.4769 3:8.0933 4:1.10364 5:10.2807 6:1.00175 7:6.53371 8:-5.71087 9:2.83025 10:-9.64307 11:2.5842 12:-1.45243 13:3.37281 14:94.3306 15:5.83495 16:-1.76971 17:0.937757 18:3.56369 19:-1.51299 20:2.00047 21:-1.69579 22:1.80203 23:-1.88073 24:2.44404 25:-1.27155 26:0.813335
0.52122780322794016 1:253.623 2:14.9536 3:10.0083 4:2.01729 5:8.48974 6:-3.43167 7:5.41404 8:-3.58474 9:0.921747 10:-5.87599 11:3.25311 12:-4.61558 13:3.60312 14:94.3306 15:5.83495 16:-1.76971 17:0.937757 18:3.56369 19:-1.51299 20:2.00047 21:-1.69579 22:1.80203 23:-1.88073 24:2.44404 25:-1.27155 26:0.813335
0.47557410474833828 1:248.913 2:11.8675 3:10.4315 4:0.941786 5:7.83586 6:1.59922 7:7.18189 8:-4.66735 9:2.79259 10:-5.79422 11:1.97973 12:-2.28215 13:3.30201 14:94.3306 15:5.83495 16:-1.76971 17:0.937757 18:3.56369 19:-1.51299 20:2.00047 21:-1.69579 22:1.80203 23:-1.88073 24:2.44404 25:-1.27155 26:0.813335
0.063083731567297061 1:245.574 2:9.85948 3:10.3689 4:2.84056 5:6.70962 6:1.46734 7:6.81389 8:-3.3157 9:3.25203 10:-5.95369 11:2.03962 12:-1.98133 13:3.47662 14:94.3306 15:5.83495 16:-1.76971 17:0.937757 18:3.56369 19:-1.51299 20:2.00047 21:-1.69579 22:1.80203 23:-1.88073 24:2.44404 25:-1.27155 26:0.813335
0.23563822380076166 1:243.876 2:-0.633163 3:2.03526 4:1.22793 5:-1.60982 6:-0.0923051 7:5.18396 8:-4.9027 9:5.09852 10:-2.22565 11:3.49991 12:-2.38509 13:2.32903 14:94.3306 15:5.83495 16:-1.76971 17:0.937757 18:3.56369 19:-1.51299 20:2.00047 21:-1.69579 22:1.80203 23:-1.88073 24:2.44404 25:-1.27155 26:0.813335
0.098272602835816847 1:236.575 2:-1.81898 3:4.3975 4:-0.854445 5:5.22528 6:0.487276 7:4.32741 8:-3.01295 9:4.72821 10:-0.241372 11:0.354273 12:-4.12207 13:1.0512 14:94.3306 15:5.83495 16:-1.76971 17:0.937757 18:3.56369 19:-1.51299 20:2.00047 21:-1.69579 22:1.80203 23:-1.88073 24:2.44404 25:-1.27155 26:0.813335
0.71278597312042247 1:231.321 2:2.89452 3:3.82396 4:-1.29458 5:5.69285 6:-1.55562 7:4.12993 8:-4.97544 9:3.8869 10:-2.32045 11:3.67589 12:-0.0599922 13:3.518 14:94.3306 15:5.83495 16:-1.76971 17:0.937757 18:3.56369 19:-1.51299 20:2.00047 21:-1.69579 22:1.80203 23:-1.88073 24:2.44404 25:-1.27155 26:0.813335
0.44567842081560732 1:230.988 2:3.91142 3:5.77231 4:-1.37421 5:5.61815 6:-1.77816 7:3.3986 8:-0.753227 9:0.988966 10:-0.763488 11:5.53357 12:-4.10089 13:3.92034 14:94.3306 15:5.83495 16:-1.76971 17:0.937757 18:3.56369 19:-1.51299 20:2.00047 21:-1.69579 22:1.80203 23:-1.88073 24:2.44404 25:-1.27155 26:0.813335
0.0700226013999702 1:229.143 2:1.57056 3:3.44157 4:-3.43513 5:0.0216017 6:0.244936 7:4.18263 8:-5.10664 9:1.55823 10:-2.62508 11:3.34742 12:-2.85256 13:4.71306 14:94.3306 15:5.83495 16:-1.76971 17:0.937757 18:3.56369 19:-1.51299 20:2.00047 21:-1.69579 22:1.80203 23:-1.88073 24:2.44404 25:-1.27155 26:0.813335
0.25477049762631415 1:228.289 2:3.42514 3:5.71168 4:-2.18617 5:5.20845 6:0.190942 7:4.32052 8:-1.92956 9:2.86963 10:-2.21517 11:6.14707 12:-1.65512 13:1.5295 14:94.3306 15:5.83495 16:-1.76971 17:0.937757 18:3.56369 19:-1.51299 20:2.00047 21:-1.69579 22:1.80203 23:-1.88073 24:2.44404 25:-1.27155 26:0.813335
0.52421589097216259 1:225.684 2:0.393795 3:-0.346129 4:-4.37393 5:4.30901 6:0.978923 7:6.98174 8:0.639027 9:5.82828 10:-0.101529 11:4.50173 12:-2.14541 13:2.50711 14:94.3306 15:5.83495 16:-1.76971 17:0.937757 18:3.56369 19:-1.51299 20:2.00047 21:-1.69579 22:1.80203 23:-1.88073 24:2.44404 25:-1.27155 26:0.813335
0.15687194620016931 1:292.122 2:31.6486 3:10.7073 4:-3.99567 5:9.84901 6:-10.8486 7:-0.769907 8:-5.94338 9:5.74557 10:-4.69772 11:5.63291 12:-6.47069 13:6.6451 14:94.3306 15:5.83495 16:-1.76971 17:0.937757 18:3.56369 19:-1.51299 20:2.00047 21:-1.69579 22:1.80203 23:-1.88073 24:2.44404 25:-1.27155 26:0.813335
1.0369378216935126 1:279.848 2:29.0395 3:14.4644 4:-2.35978 5:10.1033 6:-7.65196 7:0.883508 8:-7.91246 9:5.12151 10:-5.10476 11:6.02643 12:-5.34622 13:5.57191 14:94.3306 15:5.83495 16:-1.76971 17:0.937757 18:3.56369 19:-1.51299 20:2.00047 21:-1.69579 22:1.80203 23:-1.88073 24:2.44404 25:-1.27155 26:0.813335
1.5104745643985953 1:261.763 2:23.4331 3:17.4631 4:-1.87525 5:7.41835 6:-6.75502 7:2.61541 8:-4.82351 9:6.62954 10:-2.27244 11:4.62133 12:-6.06104 13:4.88797 14:94.3306 15:5.83495 16:-1.76971 17:0.937757 18:3.56369 19:-1.51299 20:2.00047 21:-1.69579 22:1.80203 23:-1.88073 24:2.44404 25:-1.27155 26:0.813335
0.098395563702902103 1:253.436 2:19.1784 3:15.4705 4:-0.461175 5:4.57799 6:-5.54543 7:4.59905 8:-4.14569 9:6.00048 10:-3.22531 11:3.82554 12:-5.35646 13:1.66429 14:94.3306 15:5.83495 16:-1.76971 17:0.937757 18:3.56369 19:-1.51299 20:2.00047 21:-1.69579 22:1.80203 23:-1.88073 24:2.44404 25:-1.27155 26:0.813335
0.93372923225113247 1:244.184 2:13.3596 3:9.18797 4:-0.338005 5:3.35798 6:-8.86292 7:0.770495 8:-1.64195 9:7.65056 10:-1.36153 11:5.66466 12:-5.75447 13:2.3457 14:94.3306 15:5.83495 16:-1.76971 17:0.937757 18:3.56369 19:-1.51299 20:2.00047 21:-1.69579 22:1.80203 23:-1.88073 24:2.44404 25:-1.27155 26:0.813335
0.18958504147858377 1:246.281 2:16.4994 3:9.16528 4:-1.58211 5:1.49944 6:-8.31663 7:0.0319333 8:-4.46471 9:5.29508 10:-4.0521 11:4.94834 12:-4.36621 13:3.02564 14:94.3306 15:5.83495 16:-1.76971 17:0.937757 18:3.56369 19:-1.51299 20:2.00047 21:-1.69579 22:1.80203 23:-1.88073 24:2.44404 25:-1.27155 26:0.813335
0.38918045184649458 1:268.87 2:10.0678 3:7.5287 4:-3.59592 5:6.60764 6:-7.52178 7:3.45576 8:-5.09865 9:4.72744 10:-2.63662 11:5.31824 12:1.00867 13:1.44167 14:94.3306 15:5.83495 16:-1.76971 17:0.937757 18:3.56369 19:-1.51299 20:2.00047 21:-1.69579 22:1.80203 23:-1.88073 24:2.44404 25:-1.27155 26:0.813335
0.18036686252893577 1:304.362 2:24.9201 3:-4.81564 4:-2.40435 5:8.89906 6:-7.33812 7:6.902 8:-7.26022 9:3.06941 10:-5.70551 11:4.91181 12:-4.85865 13:6.34909 14:94.3306 15:5.83495 16:-1.76971 17:0.937757 18:3.56369 19:-1.51299 20:2.00047 21:-1.69579 22:1.80203 23:-1.88073 24:2.44404 25:-1.27155 26:0.813335
0.50719703947897665 1:325.262 2:18.4221 3:-5.10831 4:1.83997 5:10.9794 6:-6.16619 7:5.54115 8:-6.2278 9:5.33447 10:-3.23024 11:7.96785 12:-5.3415 13:1.24187 14:94.3306 15:5.83495 16:-1.76971 17:0.937757 18:3.56369 19:-1.51299 20:2.00047 21:-1.69579 22:1.80203 23:-1.88073 24:2.44404 25:-1.27155 26:0.813335
0.87213796458990689 1:317.546 2:19.8394 3:-3.66496 4:1.09028 5:10.9662 6:-4.35418 7:5.25439 8:-5.55984 9:5.54686 10:-5.97927 11:8.61541 12:-4.3613 13:1.34419 14:317.546 15:19.8394 16:-3.66496 17:1.09028 18:10.9662 19:-4.35418 20:5.25439 21:-5.55984 22:5.54686 23:-5.97927 24:8.61541 25:-4.3613 26:1.34419
0.81860415151072419 1:305.943 2:19.0524 3:-6.55361 4:4.46214 5:12.9006 6:-4.23381 7:7.37375 8:-4.74563 9:6.32052 10:-8.03949 11:7.956 12:-3.50408 13:4.06179 14:305.943 15:19.0524 16:-6.55361 17:4.46214 18:12.9006 19:-4.23381 20:7.37375 21:-4.74563 22:6.32052 23:-8.03949 24:7.956 25:-3.50408 26:4.06179
-0.63248305734237287 1:116.15 2:0.686042 3:1.55541 4:-3.7914 5:1.83337 6:-3.07795 7:-2.49966 8:-5.65282 9:1.43961 10:-3.086 11:1.54987 12:-3.26787 13:0.32456 14:116.15 15:0.686042 16:1.55541 17:-3.7914 18:1.83337 19:-3.07795 20:-2.49966 21:-5.65282 22:1.43961 23:-3.086 24:1.54987 25:-3.26787 26:0.32456
-0.94677545332389901 1:270.886 2:18.4577 3:7.40943 4:-2.6369 5:5.05871 6:-4.42047 7:4.21321 8:-4.44082 9:4.81736 10:-3.78765 11:4.60158 12:-4.29169 13:4.89358 14:270.886 15:18.4577 16:7.40943 17:-2.6369 18:5.05871 19:-4.42047 20:4.21321 21:-4.44082 22:4.81736 23:-3.78765 24:4.60158 25:-4.29169 26:4.89358
-0.43023810421530684 1:291.133 2:18.3077 3:8.93531 4:-2.8246 5:6.19436 6:-4.8389 7:4.98184 8:-4.85501 9:5.5619 10:-4.18193 11:5.07272 12:-4.68048 13:5.28233 14:99.9392 15:4.0376 16:1.98839 17:-2.02282 18:1.42832 19:-0.896325 20:-0.145553 21:-2.71052 22:1.18889 23:0.267001 24:1.15533 25:-1.23753 26:1.67942
-2.6074055507835943 1:233.893 2:1.96236 3:7.66524 4:-3.88305 5:5.45519 6:-4.53883 7:4.4879 8:-4.49472 9:5.03911 10:-3.89837 11:4.52423 12:-4.49645 13:4.72704 14:99.9392 15:4.0376 16:1.98839 17:-2.02282 18:1.42832 19:-0.896325 20:-0.145553 21:-2.71052 22:1.18889 23:0.267001 24:1.15533 25:-1.23753 26:1.67942
-0.15186549955895454 1:180.521 2:3.9952 3:10.9865 4:-3.95201 5:7.74609 6:-4.69364 7:6.75973 8:-4.31466 9:6.0163 10:-4.55044 11:5.44045 12:-5.92662 13:5.39977 14:99.9392 15:4.0376 16:1.98839 17:-2.02282 18:1.42832 19:-0.896325 20:-0.145553 21:-2.71052 22:1.18889 23:0.267001 24:1.15533 25:-1.23753 26:1.67942
-0.16157267587049026 1:170.425 2:8.30105 3:10.7172 4:-1.64828 5:7.91152 6:-5.24474 7:3.35634 8:-5.36873 9:4.0967 10:-7.90728 11:5.96858 12:-6.0256 13:4.34694 14:99.9392 15:4.0376 16:1.98839 17:-2.02282 18:1.42832 19:-0.896325 20:-0.145553 21:-2.71052 22:1.18889 23:0.267001 24:1.15533 25:-1.23753 26:1.67942
-0.054797545708236563 1:156.819 2:7.82295 3:10.9473 4:-0.898974 5:3.37046 6:-6.92939 7:3.38391 8:0.161787 9:5.10772 10:-4.47323 11:4.94104 12:-2.79234 13:3.07089 14:99.9392 15:4.0376 16:1.98839 17:-2.02282 18:1.42832 19:-0.896325 20:-0.145553 21:-2.71052 22:1.18889 23:0.267001 24:1.15533 25:-1.23753 26:1.67942
-0.051493444645550536 1:142.268 2:8.29668 3:8.53734 4:-2.05239 5:4.83063 6:-2.05039 7:-0.565273 8:-4.08645 9:5.45126 10:-2.26619 11:3.20349 12:-6.55801 13:2.87701 14:99.9392 15:4.0376 16:1.98839 17:-2.02282 18:1.42832 19:-0.896325 20:-0.145553 21:-2.71052 22:1.18889 23:0.267001 24:1.15533 25:-1.23753 26:1.67942
-0.39807657521426776 1:131.989 2:7.51089 3:12.9378 4:-2.63777 5:1.7937 6:-1.56408 7:4.16314 8:-0.87394 9:3.9176 10:-1.6071 11:3.00388 12:-4.87748 13:3.65065 14:99.9392 15:4.0376 16:1.98839 17:-2.02282 18:1.42832 19:-0.896325 20:-0.145553 21:-2.71052 22:1.18889 23:0.267001 24:1.15533 25:-1.23753 26:1.67942
-0.54816900070254004 1:143.403 2:-10.1957 3:9.80333 4:-1.79338 5:2.22136 6:0.0415627 7:-0.341119 8:-4.68232 9:0.90617 10:2.55267 11:-0.155608 12:-1.84465 13:2.08356 14:99.9392 15:4.0376 16:1.98839 17:-2.02282 18:1.42832 19:-0.896325 20:-0.145553 21:-2.71052 22:1.18889 23:0.267001 24:1.15533 25:-1.23753 26:1.67942
-0.67978798652792183 1:204.405 2:-0.474373 3:4.48738 4:-2.76465 5:5.51942 6:0.100682 7:-1.53856 8:-9.90109 9:-0.759227 10:1.74861 11:3.36504 12:-1.52027 13:3.71672 14:99.9392 15:4.0376 16:1.98839 17:-2.02282 18:1.42832 19:-0.896325 20:-0.145553 21:-2.71052 22:1.18889 23:0.267001 24:1.15533 25:-1.23753 26:1.67942
-0.63577383967485324 1:176.116 2:-10.588 3:11.2043 4:-5.38065 5:5.18968 6:-0.977619 7:2.83214 8:-2.59512 9:0.855136 10:5.09988 11:0.735449 12:0.873519 13:1.6397 14:99.9392 15:4.0376 16:1.98839 17:-2.02282 18:1.42832 19:-0.896325 20:-0.145553 21:-2.71052 22:1.18889 23:0.267001 24:1.15533 25:-1.23753 26:1.67942
-0.23575312036116758 1:149.511 2:0.0967795 3:1.22312 4:-6.08628 5:2.2844 6:-1.42537 7:3.4431 8:-3.01736 9:3.54108 10:-1.48489 11:2.52588 12:-2.16119 13:0.131061 14:99.9392 15:4.0376 16:1.98839 17:-2.02282 18:1.42832 19:-0.896325 20:-0.145553 21:-2.71052 22:1.18889 23:0.267001 24:1.15533 25:-1.23753 26:1.67942
-0.17137556418880895 1:118.102 2:-0.803203 3:1.65159 4:-5.69585 5:2.92959 6:-0.965194 7:2.10897 8:-3.47271 9:2.28768 10:0.227696 11:6.50782 12:-1.58851 13:2.67667 14:99.9392 15:4.0376 16:1.98839 17:-2.02282 18:1.42832 19:-0.896325 20:-0.145553 21:-2.71052 22:1.18889 23:0.267001 24:1.15533 25:-1.23753 26:1.67942
-0.04224533144820404 1:109.657 2:-1.54644 3:5.86272 4:-3.58642 5:2.87707 6:-1.44981 7:4.0243 8:-4.19768 9:-0.873681 10:-5.39033 11:-0.709071 12:-2.83873 13:1.66631 14:99.9392 15:4.0376 16:1.98839 17:-2.02282 18:1.42832 19:-0.896325 20:-0.145553 21:-2.71052 22:1.18889 23:0.267001 24:1.15533 25:-1.23753 26:1.67942
-0.58741533159621895 1:101.68 2:-0.471696 3:2.94155 4:-2.85149 5:6.15845 6:3.60698 7:2.50416 8:-4.55746 9:5.6921 10:-3.14048 11:0.420185 12:-2.35293 13:2.77707 14:99.9392 15:4.0376 16:1.98839 17:-2.02282 18:1.42832 19:-0.896325 20:-0.145553 21:-2.71052 22:1.18889 23:0.267001 24:1.15533 25:-1.23753 26:1.67942
-0.011909609171961285 1:107.509 2:-2.89623 3:3.23259 4:-1.3033 5:4.41533 6:-3.84251 7:3.96808 8:-2.30871 9:2.46992 10:-1.51948 11:0.193844 12:-2.44436 13:3.29264 14:99.9392 15:4.0376 16:1.98839 17:-2.02282 18:1.42832 19:-0.896325 20:-0.145553 21:-2.71052 22:1.18889 23:0.267001 24:1.15533 25:-1.23753 26:1.67942
-0.23436344790013103 1:113.25 2:5.64683 3:9.21503 4:0.946794 5:5.40258 6:-2.14408 7:4.2095 8:-2.94143 9:2.63506 10:-1.8915 11:3.74658 12:-2.52942 13:4.70413 14:99.9392 15:4.0376 16:1.98839 17:-2.02282 18:1.42832 19:-0.896325 20:-0.145553 21:-2.71052 22:1.18889 23:0.267001 24:1.15533 25:-1.23753 26:1.67942
-0.31493905680860412 1:150.343 2:8.52894 3:14.5104 4:-1.13206 5:5.95791 6:-3.50185 7:6.19724 8:-5.90244 9:4.33915 10:-3.00074 11:5.02402 12:-4.77327 13:-0.303973 14:99.9392 15:4.0376 16:1.98839 17:-2.02282 18:1.42832 19:-0.896325 20:-0.145553 21:-2.71052 22:1.18889 23:0.267001 24:1.15533 25:-1.23753 26:1.67942
-0.21550701686238588 1:166.498 2:10.9763 3:12.4388 4:-2.54516 5:4.96925 6:-4.95506 7:4.27339 8:-6.0059 9:2.75792 10:-3.97541 11:2.56997 12:-4.90687 13:3.26287 14:99.9392 15:4.0376 16:1.98839 17:-2.02282 18:1.42832 19:-0.896325 20:-0.145553 21:-2.71052 22:1.18889 23:0.267001 24:1.15533 25:-1.23753 26:1.67942
-0.12899959689157486 1:165.658 2:1.98956 3:0.800135 4:1.35188 5:3.58207 6:-6.96282 7:3.50252 8:-1.8919 9:7.60463 10:-1.73871 11:4.89506 12:-3.33762 13:2.85079 14:99.9392 15:4.0376 16:1.98839 17:-2.02282 18:1.42832 19:-0.896325 20:-0.145553 21:-2.71052 22:1.18889 23:0.267001 24:1.15533 25:-1.23753 26:1.67942
-0.041072544671590376 1:168.446 2:0.966667 3:-0.131549 4:1.19839 5:5.01314 6:-6.93135 7:4.68186 8:-2.6579 9:7.13411 10:0.399087 11:0.874499 12:-7.44548 13:3.38897 14:99.9392 15:4.0376 16:1.98839 17:-2.02282 18:1.42832 19:-0.896325 20:-0.145553 21:-2.71052 22:1.18889 23:0.267001 24:1.15533 25:-1.23753 26:1.67942
-0.39843567572632377 1:178.502 2:3.37647 3:-0.67107 4:6.35615 5:7.74877 6:-7.23076 7:1.59941 8:-3.97452 9:6.60234 10:-0.234791 11:0.270818 12:-7.87589 13:7.67618 14:99.9392 15:4.0376 16:1.98839 17:-2.02282 18:1.42832 19:-0.896325 20:-0.145553 21:-2.71052 22:1.18889 23:0.267001 24:1.15533 25:-1.23753 26:1.67942
-0.36440057113552715 1:195.262 2:5.15299 3:-1.80075 4:5.13577 5:10.7746 6:-2.68712 7:5.08842 8:-1.73204 9:3.88408 10:-3.12888 11:5.91046 12:-5.19244 13:6.27014 14:99.9392 15:4.0376 16:1.98839 17:-2.02282 18:1.42832 19:-0.896325 20:-0.145553 21:-2.71052 22:1.18889 23:0.267001 24:1.15533 25:-1.23753 26:1.67942
-0.19020535806751454 1:222.622 2:9.43525 3:8.14196 4:1.60288 5:12.2841 6:-1.51345 7:4.08256 8:-3.59482 9:6.3761 10:-3.17894 11:5.13539 12:-4.57849 13:4.82717 14:99.9392 15:4.0376 16:1.98839 17:-2.02282 18:1.42832 19:-0.896325 20:-0.145553 21:-2.71052 22:1.18889 23:0.267001 24:1.15533 25:-1.23753 26:1.67942
-0.6148599985530312 1:253.213 2:10.7584 3:9.71397 4:5.68733 5:13.8718 6:-3.33008 7:5.78926 8:-3.63309 9:6.2072 10:-3.23266 11:4.95892 12:-6.5161 13:6.75056 14:99.9392 15:4.0376 16:1.98839 17:-2.02282 18:1.42832 19:-0.896325 20:-0.145553 21:-2.71052 22:1.18889 23:0.267001 24:1.15533 25:-1.23753 26:1.67942
-0.92925047164406638 1:289.491 2:19.6544 3:3.45226 4:1.63552 5:15.5109 6:-2.14134 7:5.90507 8:-8.58625 9:2.4212 10:-5.57016 11:8.05856 12:-4.99002 13:6.48533 14:99.9392 15:4.0376 16:1.98839 17:-2.02282 18:1.42832 19:-0.896325 20:-0.145553 21:-2.71052 22:1.18889 23:0.267001 24:1.15533 25:-1.23753 26:1.67942
-0.94083056144995325 1:303.85 2:15.7355 3:4.27343 4:-0.994098 5:15.5821 6:-2.79106 7:5.9203 8:-7.704 9:2.16186 10:-4.63688 11:5.73741 12:-3.83394 13:4.74465 14:99.9392 15:4.0376 16:1.98839 17:-2.02282 18:1.42832 19:-0.896325 20:-0.145553 21:-2.71052 22:1.18889 23:0.267001 24:1.15533 25:-1.23753 26:1.67942
-0.18747847625968184 1:337.302 2:18.9061 3:3.8157 4:-14.7472 5:8.94035 6:-4.03576 7:2.28442 8:-3.41541 9:-3.1997 10:0.636451 11:4.97501 12:-5.32424 13:5.13306 14:99.9392 15:4.0376 16:1.98839 17:-2.02282 18:1.42832 19:-0.896325 20:-0.145553 21:-2.71052 22:1.18889 23:0.267001 24:1.15533 25:-1.23753 26:1.67942
-0.27765767266264013 1:273.568 2:17.9412 3:12.7828 4:8.45453 5:9.34569 6:-9.41169 7:6.35262 8:-8.70755 9:4.58698 10:-0.803215 11:4.49459 12:-6.71084 13:3.50551 14:99.9392 15:4.0376 16:1.98839 17:-2.02282 18:1.42832 19:-0.896325 20:-0.145553 21:-2.71052 22:1.18889 23:0.267001 24:1.15533 25:-1.23753 26:1.67942
-0.83651729742106584 1:263.312 2:6.65139 3:5.44518 4:5.38051 5:13.24 6:-1.23484 7:8.88334 8:-7.04821 9:1.62492 10:3.358 11:5.26119 12:-4.08197 13:2.02145 14:99.9392 15:4.0376 16:1.98839 17:-2.02282 18:1.42832 19:-0.896325 20:-0.145553 21:-2.71052 22:1.18889 23:0.267001 24:1.15533 25:-1.23753 26:1.67942
-1.2190926716096468 1:265.166 2:20.6223 3:11.5791 4:-5.08096 5:6.51684 6:-2.69525 7:6.43604 8:-8.33111 9:3.38601 10:-3.52928 11:4.85987 12:-3.40913 13:5.10877 14:99.9392 15:4.0376 16:1.98839 17:-2.02282 18:1.42832 19:-0.896325 20:-0.145553 21:-2.71052 22:1.18889 23:0.267001 24:1.15533 25:-1.23753 26:1.67942
-0.03961732625106465 1:312.949 2:27.4005 3:14.2525 4:-14.7461 5:2.72767 6:-2.59242 7:6.06584 8:-9.43296 9:-1.0645 10:-0.124834 11:4.51852 12:-1.11262 13:4.88635 14:99.9392 15:4.0376 16:1.98839 17:-2.02282 18:1.42832 19:-0.896325 20:-0.145553 21:-2.71052 22:1.18889 23:0.267001 24:1.15533 25:-1.23753 26:1.67942
-0.58943663681451708 1:285.874 2:-4.75596 3:15.3904 4:5.56745 5:3.40686 6:-1.55134 7:7.81685 8:-4.59803 9:4.49913 10:-3.06186 11:3.24586 12:-1.40122 13:0.00842517 14:99.9392 15:4.0376 16:1.98839 17:-2.02282 18:1.42832 19:-0.896325 20:-0.145553 21:-2.71052 22:1.18889 23:0.267001 24:1.15533 25:-1.23753 26:1.67942
-0.083098903410832453 1:281.394 2:-14.7636 3:9.86391 4:-0.107608 5:4.98334 6:-0.796004 7:3.47868 8:-5.60309 9:-2.84295 10:-1.67014 11:2.78615 12:0.182446 13:1.17419 14:99.9392 15:4.0376 16:1.98839 17:-2.02282 18:1.42832 19:-0.896325 20:-0.145553 21:-2.71052 22:1.18889 23:0.267001 24:1.15533 25:-1.23753 26:1.67942
-0.754184955454548 1:283.436 2:-16.2089 3:10.5632 4:-1.04483 5:1.038 6:-3.3077 7:0.547185 8:-6.51215 9:1.39572 10:1.43545 11:2.97633 12:0.242646 13:-1.21348 14:99.9392 15:4.0376 16:1.98839 17:-2.02282 18:1.42832 19:-0.896325 20:-0.145553 21:-2.71052 22:1.18889 23:0.267001 24:1.15533 25:-1.23753 26:1.67942
-0.76031194215295683 1:285.525 2:-14.9203 3:9.26118 4:-4.95953 5:-6.07935 6:-6.06736 7:3.42524 8:-4.77846 9:-1.31203 10:-1.14928 11:3.18661 12:1.45766 13:-1.16864 14:99.9392 15:4.0376 16:1.98839 17:-2.02282 18:1.42832 19:-0.896325 20:-0.145553 21:-2.71052 22:1.18889 23:0.267001 24:1.15533 25:-1.23753 26:1.67942
-0.53723043906134771 1:289.621 2:-14.1113 3:11.6615 4:0.208906 5:-3.0736 6:-1.90095 7:3.19139 8:-6.91591 9:-0.618801 10:-2.3491 11:2.24099 12:-0.437702 13:-3.25823 14:99.9392 15:4.0376 16:1.98839 17:-2.02282 18:1.42832 19:-0.896325 20:-0.145553 21:-2.71052 22:1.18889 23:0.267001 24:1.15533 25:-1.23753 26:1.67942
-0.43680818254676329 1:285.066 2:-9.82533 3:14.1849 4:1.54821 5:-2.68888 6:-5.37347 7:3.5579 8:-1.8166 9:2.34154 10:-0.350578 11:2.48758 12:-1.28562 13:-2.44868 14:99.9392 15:4.0376 16:1.98839 17:-2.02282 18:1.42832 19:-0.896325 20:-0.145553 21:-2.71052 22:1.18889 23:0.267001 24:1.15533 25:-1.23753 26:1.67942
-0.037160696833573433 1:282.409 2:-5.09097 3:16.2255 4:-0.462454 5:0.5111 6:-1.87805 7:5.68366 8:-3.70966 9:4.81672 10:-2.92437 11:4.15884 12:1.10823 13:0.797553 14:99.9392 15:4.0376 16:1.98839 17:-2.02282 18:1.42832 19:-0.896325 20:-0.145553 21:-2.71052 22:1.18889 23:0.267001 24:1.15533 25:-1.23753 26:1.67942
-0.59564250449336864 1:278.72 2:-1.3121 3:16.3515 4:5.97663 5:3.10816 6:-1.08099 7:8.08492 8:-6.03193 9:4.1889 10:-5.83394 11:3.19568 12:-1.015 13:-3.56394 14:99.9392 15:4.0376 16:1.98839 17:-2.02282 18:1.42832 19:-0.896325 20:-0.145553 21:-2.71052 22:1.18889 23:0.267001 24:1.15533 25:-1.23753 26:1.67942
-0.026301600332621956 1:336.165 2:3.68912 3:18.1509 4:6.67607 5:4.20729 6:-8.20923 7:5.95788 8:-6.65568 9:-1.18231 10:-3.2939 11:1.28692 12:-1.13338 13:1.13064 14:99.9392 15:4.0376 16:1.98839 17:-2.02282 18:1.42832 19:-0.896325 20:-0.145553 21:-2.71052 22:1.18889 23:0.267001 24:1.15533 25:-1.23753 26:1.67942
-0.26052880677942525 1:331.042 2:3.99137 3:14.9513 4:5.37051 5:6.69175 6:-9.05829 7:6.41316 8:-6.04539 9:-0.329808 10:-4.75359 11:2.3963 12:2.80019 13:-0.817791 14:99.9392 15:4.0376 16:1.98839 17:-2.02282 18:1.42832 19:-0.896325 20:-0.145553 21:-2.71052 22:1.18889 23:0.267001 24:1.15533 25:-1.23753 26:1.67942
-0.17292535711120297 1:320.189 2:5.49873 3:14.7407 4:6.05621 5:8.83191 6:-9.09296 7:4.96938 8:-7.16885 9:2.82696 10:-5.6453 11:0.908151 12:2.71354 13:1.22156 14:99.9392 15:4.0376 16:1.98839 17:-2.02282 18:1.42832 19:-0.896325 20:-0.145553 21:-2.71052 22:1.18889 23:0.267001 24:1.15533 25:-1.23753 26:1.67942
-0.26464464845214897 1:302.375 2:9.73992 3:14.2605 4:1.55407 5:11.6012 6:-5.77601 7:3.60019 8:-8.96684 9:3.63817 10:-6.46214 11:1.81941 12:2.3311 13:3.45352 14:99.9392 15:4.0376 16:1.98839 17:-2.02282 18:1.42832 19:-0.896325 20:-0.145553 21:-2.71052 22:1.18889 23:0.267001 24:1.15533 25:-1.23753 26:1.67942
-0.75406065422224933 1:315.057 2:17.5019 3:3.96162 4:1.6965 5:12.4868 6:-5.51286 7:4.76688 8:-7.87651 9:1.6643 10:-1.63134 11:4.11428 12:-3.50505 13:6.58748 14:99.9392 15:4.0376 16:1.98839 17:-2.02282 18:1.42832 19:-0.896325 20:-0.145553 21:-2.71052 22:1.18889 23:0.267001 24:1.15533 25:-1.23753 26:1.67942
-0.43299865865392662 1:334.423 2:17.7932 3:1.30716 4:-5.15144 5:7.95452 6:-1.52248 7:2.19522 8:-7.23849 9:0.760075 10:-2.57765 11:6.43822 12:-6.69893 13:6.37118 14:99.9392 15:4.0376 16:1.98839 17:-2.02282 18:1.42832 19:-0.896325 20:-0.145553 21:-2.71052 22:1.18889 23:0.267001 24:1.15533 25:-1.23753 26:1.67942
-0.60437389498931005 1:280.148 2:21.4924 3:12.5812 4:3.46081 5:11.4165 6:-7.13143 7:6.05991 8:-8.27085 9:3.03617 10:-2.09745 11:4.32783 12:-3.59008 13:6.43775 14:99.9392 15:4.0376 16:1.98839 17:-2.02282 18:1.42832 19:-0.896325 20:-0.145553 21:-2.71052 22:1.18889 23:0.267001 24:1.15533 25:-1.23753 26:1.67942
-0.7632138186082108 1:245.353 2:16.0794 3:6.2924 4:3.41785 5:6.20372 6:-3.06974 7:4.30135 8:-9.59381 9:7.61403 10:-1.30781 11:3.93327 12:-5.63059 13:3.43779 14:99.9392 15:4.0376 16:1.98839 17:-2.02282 18:1.42832 19:-0.896325 20:-0.145553 21:-2.71052 22:1.18889 23:0.267001 24:1.15533 25:-1.23753 26:1.67942
-0.18139620553819685 1:235.678 2:15.9364 3:10.3311 4:3.31648 5:7.91889 6:-6.1439 7:4.59134 8:-7.74476 9:7.81571 10:-0.329821 11:2.21992 12:-5.53182 13:1.33074 14:99.9392 15:4.0376 16:1.98839 17:-2.02282 18:1.42832 19:-0.896325 20:-0.145553 21:-2.71052 22:1.18889 23:0.267001 24:1.15533 25:-1.23753 26:1.67942
-0.19712241534510491 1:228.119 2:15.725 3:10.2526 4:4.62939 5:7.70716 6:-3.89587 7:1.9948 8:-5.60829 9:6.12037 10:-0.538896 11:3.84928 12:-5.7422 13:3.30041 14:99.9392 15:4.0376 16:1.98839 17:-2.02282 18:1.42832 19:-0.896325 20:-0.145553 21:-2.71052 22:1.18889 23:0.267001 24:1.15533 25:-1.23753 26:1.67942
-0.22004085873044762 1:228.763 2:15.0768 3:6.22394 4:6.05002 5:12.4561 6:-4.71203 7:2.00785 8:-7.87576 9:4.6173 10:1.67472 11:3.462 12:-6.95909 13:4.95035 14:99.9392 15:4.0376 16:1.98839 17:-2.02282 18:1.42832 19:-0.896325 20:-0.145553 21:-2.71052 22:1.18889 23:0.267001 24:1.15533 25:-1.23753 26:1.67942
-0.14932032584063362 1:217.74 2:11.9555 3:10.1041 4:7.05246 5:8.38593 6:-5.44012 7:6.57858 8:-6.45373 9:2.76719 10:0.33506 11:2.94238 12:-5.42007 13:2.11061 14:99.9392 15:4.0376 16:1.98839 17:-2.02282 18:1.42832 19:-0.896325 20:-0.145553 21:-2.71052 22:1.18889 23:0.267001 24:1.15533 25:-1.23753 26:1.67942
-0.4225635383129509 1:207.941 2:12.219 3:10.1599 4:5.7289 5:8.41506 6:-3.61532 7:6.3072 8:-2.38534 9:8.92243 10:-2.47324 11:0.514016 12:-6.67295 13:2.05299 14:99.9392 15:4.0376 16:1.98839 17:-2.02282 18:1.42832 19:-0.896325 20:-0.145553 21:-2.71052 22:1.18889 23:0.267001 24:1.15533 25:-1.23753 26:1.67942
-0.67320832178219514 1:297.656 2:-0.774031 3:-0.70266 4:-1.94975 5:0.803396 6:-3.15544 7:-0.619481 8:-5.45382 9:3.02792 10:-1.35396 11:1.99833 12:-4.74732 13:1.38435 14:99.9392 15:4.0376 16:1.98839 17:-2.02282 18:1.42832 19:-0.896325 20:-0.145553 21:-2.71052 22:1.18889 23:0.267001 24:1.15533 25:-1.23753 26:1.67942
-0.44018543005079047 1:358.485 2:10.7876 3:3.86778 4:-2.03768 5:3.93866 6:-1.48164 7:3.54252 8:-1.75189 9:4.24982 10:-4.42999 11:1.66375 12:-2.72548 13:4.83946 14:99.9392 15:4.0376 16:1.98839 17:-2.02282 18:1.42832 19:-0.896325 20:-0.145553 21:-2.71052 22:1.18889 23:0.267001 24:1.15533 25:-1.23753 26:1.67942
-0.18357265753742663 1:341.919 2:13.4389 3:-0.688521 4:-1.87599 5:8.3864 6:-3.01195 7:2.96608 8:-4.40158 9:6.10603 10:-0.800567 11:4.46155 12:-5.14234 13:3.09987 14:99.9392 15:4.0376 16:1.98839 17:-2.02282 18:1.42832 19:-0.896325 20:-0.145553 21:-2.71052 22:1.18889 23:0.267001 24:1.15533 25:-1.23753 26:1.67942
-1.7073611130218338 1:299.729 2:27.9534 3:6.72377 4:-9.25908 5:5.76763 6:-4.27455 7:4.96098 8:-4.95484 9:5.42222 10:-4.15772 11:5.78443 12:-2.91982 13:6.99804 14:99.9392 15:4.0376 16:1.98839 17:-2.02282 18:1.42832 19:-0.896325 20:-0.145553 21:-2.71052 22:1.18889 23:0.267001 24:1.15533 25:-1.23753 26:1.67942
-0.13312238942584526 1:319.062 2:22.4427 3:4.09438 4:-16.0303 5:2.6651 6:-0.300364 7:7.72153 8:-8.32146 9:4.68174 10:1.40742 11:4.50005 12:-3.04939 13:2.33089 14:99.9392 15:4.0376 16:1.98839 17:-2.02282 18:1.42832 19:-0.896325 20:-0.145553 21:-2.71052 22:1.18889 23:0.267001 24:1.15533 25:-1.23753 26:1.67942
-0.1342629331402734 1:333.702 2:15.9213 3:1.62638 4:-18.9933 5:-0.96373 6:-0.389461 7:5.59068 8:-7.52097 9:3.81817 10:1.71231 11:3.32749 12:-2.78984 13:0.955858 14:99.9392 15:4.0376 16:1.98839 17:-2.02282 18:1.42832 19:-0.896325 20:-0.145553 21:-2.71052 22:1.18889 23:0.267001 24:1.15533 25:-1.23753 26:1.67942
-0.15032456436783195 1:338.071 2:10.8967 3:3.01028 4:-17.4699 5:-1.53163 6:0.887439 7:5.13197 8:-6.37895 9:3.68389 10:3.00619 11:3.72995 12:-2.62553 13:-0.851312 14:99.9392 15:4.0376 16:1.98839 17:-2.02282 18:1.42832 19:-0.896325 20:-0.145553 21:-2.71052 22:1.18889 23:0.267001 24:1.15533 25:-1.23753 26:1.67942
-0.83381373118299673 1:287.602 2:6.96702 3:7.46941 4:-9.99732 5:8.40205 6:1.71719 7:1.18291 8:-6.54906 9:6.38339 10:-0.0353318 11:2.98355 12:-2.30182 13:0.881184 14:99.9392 15:4.0376 16:1.98839 17:-2.02282 18:1.42832 19:-0.896325 20:-0.145553 21:-2.71052 22:1.18889 23:0.267001 24:1.15533 25:-1.23753 26:1.67942
-0.2919466047761744 1:302.818 2:4.65051 3:21.167 4:-8.12944 5:10.1983 6:-4.71717 7:1.42999 8:-0.739119 9:3.89249 10:0.39234 11:0.979256 12:1.08237 13:0.130251 14:99.9392 15:4.0376 16:1.98839 17:-2.02282 18:1.42832 19:-0.896325 20:-0.145553 21:-2.71052 22:1.18889 23:0.267001 24:1.15533 25:-1.23753 26:1.67942
-0.76825167786815562 1:296.356 2:-2.36258 3:21.1934 4:-5.68665 5:13.7061 6:2.55436 7:2.43344 8:-0.23464 9:0.00401146 10:1.99346 11:-1.13227 12:-1.39185 13:-0.0181144 14:99.9392 15:4.0376 16:1.98839 17:-2.02282 18:1.42832 19:-0.896325 20:-0.145553 21:-2.71052 22:1.18889 23:0.267001 24:1.15533 25:-1.23753 26:1.67942
-0.26125150521811552 1:276.18 2:-13.6733 3:13.1026 4:-12.3832 5:5.10907 6:1.10449 7:0.973934 8:0.840443 9:2.02853 10:5.46677 11:-0.343469 12:-0.645537 13:-3.55706 14:99.9392 15:4.0376 16:1.98839 17:-2.02282 18:1.42832 19:-0.896325 20:-0.145553 21:-2.71052 22:1.18889 23:0.267001 24:1.15533 25:-1.23753 26:1.67942
-0.78931759072932817 1:273.897 2:-14.2371 3:10.0668 4:-6.83105 5:7.93899 6:2.14419 7:2.64672 8:-1.38054 9:-0.59219 10:2.55413 11:0.847352 12:2.10943 13:0.767592 14:99.9392 15:4.0376 16:1.98839 17:-2.02282 18:1.42832 19:-0.896325 20:-0.145553 21:-2.71052 22:1.18889 23:0.267001 24:1.15533 25:-1.23753 26:1.67942
-0.02078567653068342 1:276.173 2:-8.83676 3:14.7298 4:-6.61284 5:8.39474 6:3.84391 7:3.10448 8:0.403137 9:-1.1674 10:3.78904 11:2.20915 12:1.49235 13:3.69403 14:99.9392 15:4.0376 16:1.98839 17:-2.02282 18:1.42832 19:-0.896325 20:-0.145553 21:-2.71052 22:1.18889 23:0.267001 24:1.15533 25:-1.23753 26:1.67942
-0.27064982868607801 1:278.693 2:-5.71497 3:16.2254 4:-0.686869 5:8.50588 6:0.950158 7:0.416645 8:-3.39649 9:-0.100884 10:0.92003 11:1.02765 12:-0.0266094 13:2.97963 14:99.9392 15:4.0376 16:1.98839 17:-2.02282 18:1.42832 19:-0.896325 20:-0.145553 21:-2.71052 22:1.18889 23:0.267001 24:1.15533 25:-1.23753 26:1.67942
-1.2779489028941944 1:321.312 2:28.9175 3:5.99891 4:-9.10371 5:5.70461 6:-4.21602 7:6.35489 8:-5.1164 9:6.71795 10:-4.54205 11:5.61863 12:-4.84376 13:7.51555 14:99.9392 15:4.0376 16:1.98839 17:-2.02282 18:1.42832 19:-0.896325 20:-0.145553 21:-2.71052 22:1.18889 23:0.267001 24:1.15533 25:-1.23753 26:1.67942
-1.4273829383713654 1:278.317 2:31.4921 3:6.79765 4:-11.8785 5:9.87787 6:-4.85051 7:5.84035 8:-4.33341 9:7.47293 10:-4.96124 11:6.27398 12:-6.09794 13:7.02015 14:99.9392 15:4.0376 16:1.98839 17:-2.02282 18:1.42832 19:-0.896325 20:-0.145553 21:-2.71052 22:1.18889 23:0.267001 24:1.15533 25:-1.23753 26:1.67942
-0.12500005377555717 1:256.597 2:17.4856 3:20.4839 4:-0.179995 5:11.1879 6:-1.83655 7:4.84212 8:-6.14401 9:5.61848 10:-0.727966 11:7.0044 12:-4.59562 13:5.68357 14:99.9392 15:4.0376 16:1.98839 17:-2.02282 18:1.42832 19:-0.896325 20:-0.145553 21:-2.71052 22:1.18889 23:0.267001 24:1.15533 25:-1.23753 26:1.67942
-1.249961261943312 1:257.299 2:19.7996 3:20.1628 4:-0.352533 5:9.52513 6:-1.13104 7:7.62878 8:-5.18732 9:4.3448 10:-3.54977 11:6.34333 12:-4.40372 13:4.71224 14:99.9392 15:4.0376 16:1.98839 17:-2.02282 18:1.42832 19:-0.896325 20:-0.145553 21:-2.71052 22:1.18889 23:0.267001 24:1.15533 25:-1.23753 26:1.67942
-0.69791789056909714 1:342.5 2:12.6172 3:5.17691 4:-6.68272 5:4.02741 6:-2.37813 7:-0.764199 8:-8.91826 9:3.67776 10:0.565578 11:3.60153 12:-4.85902 13:4.92582 14:342.5 15:12.6172 16:5.17691 17:-6.68272 18:4.02741 19:-2.37813 20:-0.764199 21:-8.91826 22:3.67776 23:0.565578 24:3.60153 25:-4.85902 26:4.92582
-0.74852276094827086 1:327.632 2:11.8015 3:7.13252 4:-6.4913 5:5.26355 6:-2.74484 7:-0.554866 8:-8.31666 9:5.0341 10:0.76057 11:3.29195 12:-3.60057 13:5.84668 14:327.632 15:11.8015 16:7.13252 17:-6.4913 18:5.26355 19:-2.74484 20:-0.554866 21:-8.31666 22:5.0341 23:0.76057 24:3.29195 25:-3.60057 26:5.84668
-0.63943670007954245 1:343.746 2:15.8676 3:-3.83703 4:-11.2692 5:6.09945 6:-7.58873 7:3.64685 8:-4.60683 9:10.5454 10:-4.76648 11:0.415931 12:-0.825677 13:4.18365 14:93.9977 15:-0.929743 16:8.52654 17:2.90124 18:0.595095 19:0.0742366 20:2.2219 21:-1.80864 22:1.26487 23:1.22089 24:0.403582 25:-0.504197 26:0.933877
-0.24025934229641185 1:354.92 2:6.81898 3:1.74809 4:-1.65646 5:-1.22554 6:-8.97016 7:1.6847 8:-1.11625 9:7.78777 10:-4.28034 11:4.67898 12:-1.242 13:1.92693 14:93.9977 15:-0.929743 16:8.52654 17:2.90124 18:0.595095 19:0.0742366 20:2.2219 21:-1.80864 22:1.26487 23:1.22089 24:0.403582 25:-0.504197 26:0.933877
-0.17777670385899708 1:347.597 2:4.72837 3:16.6623 4:4.65745 5:-7.47376 6:-5.9232 7:0.760669 8:-4.28741 9:3.7064 10:-3.7655 11:3.26654 12:-5.61254 13:6.07965 14:93.9977 15:-0.929743 16:8.52654 17:2.90124 18:0.595095 19:0.0742366 20:2.2219 21:-1.80864 22:1.26487 23:1.22089 24:0.403582 25:-0.504197 26:0.933877
-0.10330695044216429 1:341.349 2:4.19316 3:20.1713 4:7.28149 5:-6.55941 6:-5.92093 7:1.17137 8:-6.28902 9:2.00803 10:-2.75155 11:2.49925 12:-6.94542 13:5.68214 14:93.9977 15:-0.929743 16:8.52654 17:2.90124 18:0.595095 19:0.0742366 20:2.2219 21:-1.80864 22:1.26487 23:1.22089 24:0.403582 25:-0.504197 26:0.933877
-0.849607389312098 1:276.042 2:8.12848 3:5.92091 4:0.471563 5:3.42801 6:0.924277 7:6.52853 8:-3.85496 9:2.2016 10:-3.38937 11:2.82745 12:-6.02575 13:2.53729 14:93.9977 15:-0.929743 16:8.52654 17:2.90124 18:0.595095 19:0.0742366 20:2.2219 21:-1.80864 22:1.26487 23:1.22089 24:0.403582 25:-0.504197 26:0.933877
-0.052307321755642712 1:291.648 2:10.9146 3:6.43415 4:-4.64166 5:1.68315 6:-0.310229 7:5.29737 8:-6.64241 9:2.78084 10:-0.883102 11:3.90436 12:-3.42841 13:2.46676 14:93.9977 15:-0.929743 16:8.52654 17:2.90124 18:0.595095 19:0.0742366 20:2.2219 21:-1.80864 22:1.26487 23:1.22089 24:0.403582 25:-0.504197 26:0.933877
-0.2718900180315062 1:306.384 2:15.7248 3:9.05951 4:-7.28188 5:-2.27708 6:0.56755 7:6.35882 8:-10.0231 9:0.808431 10:0.631894 11:3.57035 12:-3.39657 13:4.04719 14:93.9977 15:-0.929743 16:8.52654 17:2.90124 18:0.595095 19:0.0742366 20:2.2219 21:-1.80864 22:1.26487 23:1.22089 24:0.403582 25:-0.504197 26:0.933877
-0.0030589358204257517 1:333.698 2:18.5888 3:11.7554 4:-11.2383 5:-8.55885 6:-1.84905 7:6.80688 8:-10.5704 9:0.298086 10:0.135983 11:3.78246 12:-1.53222 13:6.13078 14:93.9977 15:-0.929743 16:8.52654 17:2.90124 18:0.595095 19:0.0742366 20:2.2219 21:-1.80864 22:1.26487 23:1.22089 24:0.403582 25:-0.504197 26:0.933877
-0.33087854976999742 1:334.74 2:16.2164 3:15.3167 4:-12.1351 5:-9.41018 6:-1.01391 7:4.66836 8:-9.42802 9:4.35388 10:-2.1034 11:0.284248 12:-2.44063 13:5.9519 14:93.9977 15:-0.929743 16:8.52654 17:2.90124 18:0.595095 19:0.0742366 20:2.2219 21:-1.80864 22:1.26487 23:1.22089 24:0.403582 25:-0.504197 26:0.933877
-0.043164372713866354 1:342.439 2:13.9937 3:10.0747 4:-13.7362 5:-8.77325 6:1.83231 7:6.7884 8:-10.2239 9:0.713584 10:-1.55334 11:4.87988 12:-1.53709 13:3.10619 14:93.9977 15:-0.929743 16:8.52654 17:2.90124 18:0.595095 19:0.0742366 20:2.2219 21:-1.80864 22:1.26487 23:1.22089 24:0.403582 25:-0.504197 26:0.933877
-0.21117147126175337 1:344.967 2:11.586 3:8.29754 4:-13.8735 5:-8.48115 6:0.20538 7:4.23742 8:-11.4607 9:0.195983 10:0.126936 11:3.46314 12:-1.55471 13:3.32812 14:93.9977 15:-0.929743 16:8.52654 17:2.90124 18:0.595095 19:0.0742366 20:2.2219 21:-1.80864 22:1.26487 23:1.22089 24:0.403582 25:-0.504197 26:0.933877
-0.082005806515765847 1:345.947 2:6.03134 3:3.32915 4:-1.09556 5:-1.60162 6:-7.06515 7:-3.5358 8:-9.10255 9:6.92233 10:0.94311 11:-0.377484 12:-5.90209 13:5.56316 14:93.9977 15:-0.929743 16:8.52654 17:2.90124 18:0.595095 19:0.0742366 20:2.2219 21:-1.80864 22:1.26487 23:1.22089 24:0.403582 25:-0.504197 26:0.933877
-0.43456900402014581 1:341.834 2:-0.706762 3:17.7342 4:8.57847 5:-0.00694966 6:-0.183278 7:6.2872 8:-9.51283 9:-2.4026 10:-1.85461 11:4.67516 12:-6.9918 13:1.38912 14:93.9977 15:-0.929743 16:8.52654 17:2.90124 18:0.595095 19:0.0742366 20:2.2219 21:-1.80864 22:1.26487 23:1.22089 24:0.403582 25:-0.504197 26:0.933877
-0.050861959913693258 1:324.788 2:2.14165 3:18.9166 4:13.9551 5:0.77792 6:-4.88235 7:4.00629 8:-9.95405 9:2.27395 10:-3.72135 11:3.84911 12:-7.55002 13:1.68093 14:93.9977 15:-0.929743 16:8.52654 17:2.90124 18:0.595095 19:0.0742366 20:2.2219 21:-1.80864 22:1.26487 23:1.22089 24:0.403582 25:-0.504197 26:0.933877
-0.23006843508696317 1:308.795 2:2.08477 3:18.7852 4:10.9286 5:-1.77399 6:2.2281 7:4.43 8:-6.06724 9:1.31351 10:-4.54971 11:4.04691 12:-10.1375 13:1.30912 14:93.9977 15:-0.929743 16:8.52654 17:2.90124 18:0.595095 19:0.0742366 20:2.2219 21:-1.80864 22:1.26487 23:1.22089 24:0.403582 25:-0.504197 26:0.933877
-0.021245784226066246 1:304.215 2:-1.01588 3:16.4248 4:12.1695 5:-0.329236 6:-0.905132 7:4.14845 8:-6.40967 9:-0.310135 10:-4.77537 11:3.12214 12:-10.0596 13:3.21879 14:93.9977 15:-0.929743 16:8.52654 17:2.90124 18:0.595095 19:0.0742366 20:2.2219 21:-1.80864 22:1.26487 23:1.22089 24:0.403582 25:-0.504197 26:0.933877
-0.01745689767192999 1:306.801 2:-5.36811 3:12.1435 4:7.70867 5:-1.36897 6:0.243895 7:4.37092 8:-6.0019 9:-1.50873 10:-7.53373 11:4.55719 12:-4.79497 13:1.86117 14:93.9977 15:-0.929743 16:8.52654 17:2.90124 18:0.595095 19:0.0742366 20:2.2219 21:-1.80864 22:1.26487 23:1.22089 24:0.403582 25:-0.504197 26:0.933877
-0.17109967462476938 1:300.756 2:-6.68766 3:5.97294 4:7.75952 5:0.00433969 6:1.78569 7:5.70366 8:-5.22253 9:0.257337 10:-3.416 11:6.98909 12:-8.25707 13:-0.592317 14:93.9977 15:-0.929743 16:8.52654 17:2.90124 18:0.595095 19:0.0742366 20:2.2219 21:-1.80864 22:1.26487 23:1.22089 24:0.403582 25:-0.504197 26:0.933877
-0.35496371763502449 1:305.182 2:-11.6646 3:-1.00531 4:4.92473 5:1.99038 6:1.04316 7:2.0279 8:-4.42085 9:-0.889146 10:-5.2714 11:5.1493 12:-4.22979 13:2.49295 14:93.9977 15:-0.929743 16:8.52654 17:2.90124 18:0.595095 19:0.0742366 20:2.2219 21:-1.80864 22:1.26487 23:1.22089 24:0.403582 25:-0.504197 26:0.933877
-0.6317114989101944 1:313.458 2:-7.43738 3:2.451 4:3.33187 5:1.15845 6:-3.02802 7:1.23876 8:-3.50784 9:-0.0624451 10:-2.85061 11:0.209327 12:-4.03426 13:2.73861 14:93.9977 15:-0.929743 16:8.52654 17:2.90124 18:0.595095 19:0.0742366 20:2.2219 21:-1.80864 22:1.26487 23:1.22089 24:0.403582 25:-0.504197 26:0.933877
-0.0094540127237100827 1:306.126 2:-10.5535 3:3.90742 4:-0.302161 5:-1.75414 6:-1.84107 7:4.99976 8:-1.95886 9:-0.0976791 10:-3.1856 11:3.02085 12:-4.94175 13:-0.249696 14:93.9977 15:-0.929743 16:8.52654 17:2.90124 18:0.595095 19:0.0742366 20:2.2219 21:-1.80864 22:1.26487 23:1.22089 24:0.403582 25:-0.504197 26:0.933877
-0.26935197283236312 1:289.136 2:-15.0966 3:3.62101 4:3.35733 5:-3.69922 6:-5.54189 7:2.94722 8:-2.11176 9:2.00899 10:-4.03461 11:4.53813 12:-1.81989 13:0.781996 14:93.9977 15:-0.929743 16:8.52654 17:2.90124 18:0.595095 19:0.0742366 20:2.2219 21:-1.80864 22:1.26487 23:1.22089 24:0.403582 25:-0.504197 26:0.933877
-0.73391496750765028 1:283.553 2:-14.8977 3:-0.399706 4:1.69959 5:-0.0111414 6:-2.72807 7:5.70107 8:-2.15217 9:-1.0014 10:-3.39451 11:2.73088 12:-1.74266 13:0.28834 14:93.9977 15:-0.929743 16:8.52654 17:2.90124 18:0.595095 19:0.0742366 20:2.2219 21:-1.80864 22:1.26487 23:1.22089 24:0.403582 25:-0.504197 26:0.933877
-0.064981535671780499 1:291.544 2:-15.8546 3:-5.05866 4:-3.20239 5:-0.680072 6:-4.44235 7:4.6918 8:-1.14238 9:-0.345853 10:-5.17334 11:1.22446 12:-1.99899 13:-1.4072 14:93.9977 15:-0.929743 16:8.52654 17:2.90124 18:0.595095 19:0.0742366 20:2.2219 21:-1.80864 22:1.26487 23:1.22089 24:0.403582 25:-0.504197 26:0.933877
-0.42343778831790796 1:313.792 2:13.4747 3:11.2229 4:8.30146 5:4.5793 6:-6.22873 7:-1.71902 8:-7.63082 9:5.81257 10:-9.93763 11:6.69193 12:-3.42439 13:3.53427 14:93.9977 15:-0.929743 16:8.52654 17:2.90124 18:0.595095 19:0.0742366 20:2.2219 21:-1.80864 22:1.26487 23:1.22089 24:0.403582 25:-0.504197 26:0.933877
-0.22954347100099814 1:325.256 2:13.0126 3:10.2484 4:7.38979 5:3.14464 6:-8.78261 7:1.65957 8:-7.04365 9:6.82149 10:-9.4307 11:4.83095 12:-1.59551 13:1.94024 14:93.9977 15:-0.929743 16:8.52654 17:2.90124 18:0.595095 19:0.0742366 20:2.2219 21:-1.80864 22:1.26487 23:1.22089 24:0.403582 25:-0.504197 26:0.933877
-0.13914418311579191 1:342.968 2:7.62099 3:14.5148 4:6.02449 5:-0.456375 6:-10.9846 7:0.753734 8:-6.23962 9:4.15983 10:-9.81654 11:6.4296 12:-0.865202 13:1.05251 14:93.9977 15:-0.929743 16:8.52654 17:2.90124 18:0.595095 19:0.0742366 20:2.2219 21:-1.80864 22:1.26487 23:1.22089 24:0.403582 25:-0.504197 26:0.933877
-0.16963675409429038 1:301.846 2:8.00551 3:17.007 4:10.0862 5:3.56074 6:-11.6093 7:-0.0240602 8:-7.57464 9:0.900572 10:-7.02344 11:5.3721 12:-5.74399 13:3.94292 14:93.9977 15:-0.929743 16:8.52654 17:2.90124 18:0.595095 19:0.0742366 20:2.2219 21:-1.80864 22:1.26487 23:1.22089 24:0.403582 25:-0.504197 26:0.933877
-0.2103390736462033 1:282.459 2:8.48959 3:11.0866 4:4.0283 5:5.71004 6:-7.23008 7:-0.212132 8:-7.46737 9:0.576592 10:-8.98957 11:7.01324 12:-1.40292 13:3.79745 14:93.9977 15:-0.929743 16:8.52654 17:2.90124 18:0.595095 19:0.0742366 20:2.2219 21:-1.80864 22:1.26487 23:1.22089 24:0.403582 25:-0.504197 26:0.933877
-0.30629928732851591 1:267.378 2:2.77693 3:10.7217 4:4.43315 5:2.64438 6:-8.53295 7:-0.535635 8:-4.25123 9:0.782434 10:-4.84202 11:6.07539 12:-1.60936 13:3.56448 14:93.9977 15:-0.929743 16:8.52654 17:2.90124 18:0.595095 19:0.0742366 20:2.2219 21:-1.80864 22:1.26487 23:1.22089 24:0.403582 25:-0.504197 26:0.933877
-0.11869326808778247 1:263.888 2:5.69192 3:11.2348 4:3.84558 5:6.16533 6:-8.89791 7:-0.455544 8:-5.10427 9:-0.138605 10:-7.16565 11:6.40596 12:-1.566 13:0.994555 14:93.9977 15:-0.929743 16:8.52654 17:2.90124 18:0.595095 19:0.0742366 20:2.2219 21:-1.80864 22:1.26487 23:1.22089 24:0.403582 25:-0.504197 26:0.933877
-0.11253703377432567 1:258.689 2:4.59148 3:11.9689 4:5.96895 5:4.94797 6:-4.05247 7:-1.35748 8:-6.99745 9:0.802409 10:-9.04425 11:6.60806 12:-1.30779 13:2.0761 14:93.9977 15:-0.929743 16:8.52654 17:2.90124 18:0.595095 19:0.0742366 20:2.2219 21:-1.80864 22:1.26487 23:1.22089 24:0.403582 25:-0.504197 26:0.933877
-0.24370788039969679 1:257.713 2:7.10607 3:9.36394 4:2.40625 5:0.0681627 6:-5.28041 7:2.98697 8:-4.76657 9:-0.690139 10:-7.09499 11:5.00904 12:-3.86058 13:2.18959 14:93.9977 15:-0.929743 16:8.52654 17:2.90124 18:0.595095 19:0.0742366 20:2.2219 21:-1.80864 22:1.26487 23:1.22089 24:0.403582 25:-0.504197 26:0.933877
-1.0385429024557558 1:248.648 2:7.63817 3:5.70708 4:4.42216 5:2.15979 6:-3.9816 7:2.53648 8:-6.56083 9:1.34598 10:-7.56087 11:6.00424 12:-2.22923 13:0.493528 14:93.9977 15:-0.929743 16:8.52654 17:2.90124 18:0.595095 19:0.0742366 20:2.2219 21:-1.80864 22:1.26487 23:1.22089 24:0.403582 25:-0.504197 26:0.933877
-0.38036473988618158 1:288.924 2:6.80371 3:26.6373 4:9.42894 5:4.15309 6:-2.94142 7:5.24798 8:-8.80234 9:1.90958 10:-2.3805 11:1.13732 12:-1.56769 13:3.32505 14:93.9977 15:-0.929743 16:8.52654 17:2.90124 18:0.595095 19:0.0742366 20:2.2219 21:-1.80864 22:1.26487 23:1.22089 24:0.403582 25:-0.504197 26:0.933877
-0.58317260599032938 1:306.792 2:-5.37288 3:32.5338 4:10.3049 5:-0.506494 6:-1.49406 7:7.99726 8:-5.68399 9:2.2049 10:3.32208 11:-0.768595 12:0.957854 13:2.25924 14:93.9977 15:-0.929743 16:8.52654 17:2.90124 18:0.595095 19:0.0742366 20:2.2219 21:-1.80864 22:1.26487 23:1.22089 24:0.403582 25:-0.504197 26:0.933877
-0.018838139786371572 1:307.146 2:-4.73826 3:27.489 4:8.2808 5:1.75043 6:0.25539 7:7.68208 8:-5.27029 9:4.83471 10:4.14053 11:2.11525 12:0.144208 13:2.32508 14:93.9977 15:-0.929743 16:8.52654 17:2.90124 18:0.595095 19:0.0742366 20:2.2219 21:-1.80864 22:1.26487 23:1.22089 24:0.403582 25:-0.504197 26:0.933877
-0.19492092559123486 1:315.468 2:-2.0672 3:25.5818 4:7.79578 5:4.03127 6:0.466274 7:8.04827 8:-5.70847 9:4.1316 10:3.00922 11:-0.0509023 12:-0.50007 13:3.10018 14:93.9977 15:-0.929743 16:8.52654 17:2.90124 18:0.595095 19:0.0742366 20:2.2219 21:-1.80864 22:1.26487 23:1.22089 24:0.403582 25:-0.504197 26:0.933877
-0.49834618323238511 1:315.468 2:-2.0672 3:25.5818 4:7.79578 5:4.03127 6:0.466274 7:8.04827 8:-5.70847 9:4.1316 10:3.00922 11:-0.0509023 12:-0.50007 13:3.10018 14:315.468 15:-2.0672 16:25.5818 17:7.79578 18:4.03127 19:0.466274 20:8.04827 21:-5.70847 22:4.1316 23:3.00922 24:-0.0509023 25:-0.50007 26:3.10018
-0.50378318544803957 1:315.343 2:-3.07444 3:28.8604 4:10.9916 5:0.614538 6:0.948229 7:6.78042 8:-5.90232 9:4.9442 10:3.70309 11:1.94453 12:-2.77796 13:3.66325 14:315.343 15:-3.07444 16:28.8604 17:10.9916 18:0.614538 19:0.948229 20:6.78042 21:-5.90232 22:4.9442 23:3.70309 24:1.94453 25:-2.77796 26:3.66325
