svm_type c_svc
kernel_type rbf
gamma 0.0003
nr_class 2
total_sv 235
rho 0.272660815283279
label 1 2
nr_sv 83 152
SV
1.7137331402188511 1:121.687 2:-3.37071 3:-3.80402 4:-7.31549 5:0.595312 6:0.491174 7:3.28461 8:-5.39324 9:5.41638 10:1.33155 11:2.01003 12:-3.17454 13:2.9394 14:121.687 15:-3.37071 16:-3.80402 17:-7.31549 18:0.595312 19:0.491174 20:3.28461 21:-5.39324 22:5.41638 23:1.33155 24:2.01003 25:-3.17454 26:2.9394
1.279996262146851 1:283.373 2:19.9421 3:6.09472 4:-3.11279 5:4.36771 6:-4.78676 7:4.35236 8:-4.71609 9:5.17646 10:-4.11005 11:4.75039 12:-4.82121 13:5.03159 14:283.373 15:19.9421 16:6.09472 17:-3.11279 18:4.36771 19:-4.78676 20:4.35236 21:-4.71609 22:5.17646 23:-4.11005 24:4.75039 25:-4.82121 26:5.03159
0.50163726766041172 1:294.525 2:18.6849 3:8.22173 4:-3.52666 5:5.36399 6:-4.84623 7:4.93247 8:-4.6221 9:5.66507 10:-4.08622 11:5.03438 12:-4.84275 13:5.31757 14:95.6447 15:4.23739 16:3.30026 17:-1.34935 18:1.75879 19:-0.746538 20:-0.359177 21:-2.62019 22:1.14591 23:-0.640064 24:0.769095 25:-0.323419 26:1.16464
3.1962147159207239 1:229.18 2:1.74836 3:7.51115 4:-4.33835 5:5.25934 6:-4.94169 7:4.21703 8:-5.09975 9:4.63518 10:-4.62662 11:4.00361 12:-5.1064 13:4.4418 14:95.6447 15:4.23739 16:3.30026 17:-1.34935 18:1.75879 19:-0.746538 20:-0.359177 21:-2.62019 22:1.14591 23:-0.640064 24:0.769095 25:-0.323419 26:1.16464
0.036840464840685358 1:181.242 2:11.3699 3:12.9153 4:-4.62673 5:7.32656 6:-6.01853 7:3.48292 8:-6.3361 9:6.63684 10:-4.22268 11:5.44628 12:-6.24423 13:7.54149 14:95.6447 15:4.23739 16:3.30026 17:-1.34935 18:1.75879 19:-0.746538 20:-0.359177 21:-2.62019 22:1.14591 23:-0.640064 24:0.769095 25:-0.323419 26:1.16464
0.0056473058368220414 1:157.553 2:10.1965 3:6.86176 4:-3.56334 5:7.14236 6:-1.07537 7:2.48429 8:-3.86229 9:4.85672 10:-2.48772 11:4.37069 12:-2.43175 13:5.11155 14:95.6447 15:4.23739 16:3.30026 17:-1.34935 18:1.75879 19:-0.746538 20:-0.359177 21:-2.62019 22:1.14591 23:-0.640064 24:0.769095 25:-0.323419 26:1.16464
0.40012021642913431 1:161.002 2:11.6715 3:10.6451 4:-2.33482 5:6.10679 6:-0.88346 7:4.68731 8:-3.6773 9:-0.0702898 10:-5.56975 11:2.82186 12:-3.53401 13:5.29788 14:95.6447 15:4.23739 16:3.30026 17:-1.34935 18:1.75879 19:-0.746538 20:-0.359177 21:-2.62019 22:1.14591 23:-0.640064 24:0.769095 25:-0.323419 26:1.16464
0.10833388393370215 1:161.13 2:5.72171 3:11.555 4:3.00509 5:2.56378 6:-4.27035 7:3.0638 8:-7.91688 9:4.01663 10:-0.34012 11:4.18882 12:-4.55751 13:2.35837 14:95.6447 15:4.23739 16:3.30026 17:-1.34935 18:1.75879 19:-0.746538 20:-0.359177 21:-2.62019 22:1.14591 23:-0.640064 24:0.769095 25:-0.323419 26:1.16464
0.0096936887154613158 1:208.88 2:0.80344 3:14.2236 4:0.605408 5:-3.6095 6:-8.01828 7:4.87937 8:-6.90729 9:-0.199828 10:2.57756 11:0.536203 12:-4.0629 13:1.92111 14:95.6447 15:4.23739 16:3.30026 17:-1.34935 18:1.75879 19:-0.746538 20:-0.359177 21:-2.62019 22:1.14591 23:-0.640064 24:0.769095 25:-0.323419 26:1.16464
0.91838188257198883 1:224.96 2:7.52613 3:15.673 4:2.66739 5:-2.87453 6:-11.0268 7:5.06455 8:-7.6439 9:-1.53232 10:1.1413 11:3.33657 12:-3.52711 13:4.17777 14:95.6447 15:4.23739 16:3.30026 17:-1.34935 18:1.75879 19:-0.746538 20:-0.359177 21:-2.62019 22:1.14591 23:-0.640064 24:0.769095 25:-0.323419 26:1.16464
0.34829808501514276 1:195.143 2:1.46266 3:11.658 4:-1.39495 5:-2.82263 6:-7.14771 7:7.95089 8:-4.89634 9:-2.68302 10:0.975618 11:1.63959 12:-3.64235 13:3.30742 14:95.6447 15:4.23739 16:3.30026 17:-1.34935 18:1.75879 19:-0.746538 20:-0.359177 21:-2.62019 22:1.14591 23:-0.640064 24:0.769095 25:-0.323419 26:1.16464
0.6126729116047237 1:201.827 2:-0.859553 3:15.9404 4:0.882143 5:-5.0433 6:-7.07215 7:4.93309 8:-7.57325 9:0.247743 10:3.60389 11:2.74557 12:-2.1336 13:5.2313 14:95.6447 15:4.23739 16:3.30026 17:-1.34935 18:1.75879 19:-0.746538 20:-0.359177 21:-2.62019 22:1.14591 23:-0.640064 24:0.769095 25:-0.323419 26:1.16464
0.33801659600136635 1:174.548 2:1.36873 3:11.2094 4:1.31348 5:2.78137 6:-5.93465 7:5.47643 8:-2.53759 9:1.81507 10:0.475399 11:2.13464 12:-1.99881 13:2.74026 14:95.6447 15:4.23739 16:3.30026 17:-1.34935 18:1.75879 19:-0.746538 20:-0.359177 21:-2.62019 22:1.14591 23:-0.640064 24:0.769095 25:-0.323419 26:1.16464
0.27510024128542676 1:158.105 2:4.56495 3:7.02532 4:-1.78199 5:-0.378643 6:-4.60242 7:1.79893 8:-2.91218 9:4.95882 10:-0.510043 11:4.88905 12:-5.49525 13:3.54255 14:95.6447 15:4.23739 16:3.30026 17:-1.34935 18:1.75879 19:-0.746538 20:-0.359177 21:-2.62019 22:1.14591 23:-0.640064 24:0.769095 25:-0.323419 26:1.16464
0.60723311286949233 1:134.464 2:0.274629 3:8.62676 4:0.437143 5:-0.62216 6:-6.15444 7:1.68684 8:-6.2323 9:2.08077 10:1.00253 11:3.82507 12:-1.56944 13:3.58879 14:95.6447 15:4.23739 16:3.30026 17:-1.34935 18:1.75879 19:-0.746538 20:-0.359177 21:-2.62019 22:1.14591 23:-0.640064 24:0.769095 25:-0.323419 26:1.16464
0.12904359904795787 1:122.082 2:-0.542203 3:8.02707 4:1.71543 5:2.21091 6:-8.44795 7:3.49804 8:-1.73949 9:4.20257 10:-1.42549 11:3.82362 12:-2.11381 13:3.44286 14:95.6447 15:4.23739 16:3.30026 17:-1.34935 18:1.75879 19:-0.746538 20:-0.359177 21:-2.62019 22:1.14591 23:-0.640064 24:0.769095 25:-0.323419 26:1.16464
0.47857268871133585 1:119.11 2:-0.491239 3:11.1693 4:-4.1462 5:1.08936 6:-4.63154 7:1.85711 8:-2.31397 9:1.41439 10:2.14915 11:-0.892527 12:1.19494 13:2.62591 14:95.6447 15:4.23739 16:3.30026 17:-1.34935 18:1.75879 19:-0.746538 20:-0.359177 21:-2.62019 22:1.14591 23:-0.640064 24:0.769095 25:-0.323419 26:1.16464
0.3834436344162217 1:105.612 2:-3.88726 3:1.75806 4:-0.478436 5:0.821606 6:-4.25389 7:2.5474 8:-2.35076 9:-0.5569 10:-0.449136 11:3.57948 12:-1.87538 13:6.31347 14:95.6447 15:4.23739 16:3.30026 17:-1.34935 18:1.75879 19:-0.746538 20:-0.359177 21:-2.62019 22:1.14591 23:-0.640064 24:0.769095 25:-0.323419 26:1.16464
0.16402969534656928 1:99.4529 2:-3.49328 3:6.21543 4:-0.14595 5:4.22022 6:-4.7591 7:2.31348 8:-1.20005 9:3.46822 10:-0.921167 11:4.24467 12:-2.06653 13:2.50778 14:95.6447 15:4.23739 16:3.30026 17:-1.34935 18:1.75879 19:-0.746538 20:-0.359177 21:-2.62019 22:1.14591 23:-0.640064 24:0.769095 25:-0.323419 26:1.16464
0.065526385806898638 1:102.225 2:1.43671 3:6.35681 4:-2.35319 5:0.358939 6:-0.438429 7:6.19622 8:-3.37021 9:1.49071 10:-2.96062 11:2.74215 12:-1.96187 13:2.81756 14:95.6447 15:4.23739 16:3.30026 17:-1.34935 18:1.75879 19:-0.746538 20:-0.359177 21:-2.62019 22:1.14591 23:-0.640064 24:0.769095 25:-0.323419 26:1.16464
0.59994450309841507 1:98.9199 2:-2.3151 3:10.097 4:2.15546 5:1.43947 6:-1.23074 7:5.93923 8:-0.872237 9:4.25569 10:0.0924054 11:1.18466 12:-3.46768 13:2.69129 14:95.6447 15:4.23739 16:3.30026 17:-1.34935 18:1.75879 19:-0.746538 20:-0.359177 21:-2.62019 22:1.14591 23:-0.640064 24:0.769095 25:-0.323419 26:1.16464
0.23367225499563471 1:108.487 2:2.19231 3:9.9162 4:1.96489 5:6.57134 6:-1.28561 7:4.39081 8:-2.03695 9:5.54824 10:-2.53272 11:4.39903 12:-1.14412 13:4.6156 14:95.6447 15:4.23739 16:3.30026 17:-1.34935 18:1.75879 19:-0.746538 20:-0.359177 21:-2.62019 22:1.14591 23:-0.640064 24:0.769095 25:-0.323419 26:1.16464
0.58550231953896537 1:143.15 2:2.47082 3:9.43149 4:0.5787 5:8.82881 6:-1.92616 7:7.14443 8:-2.53 9:7.3293 10:-2.55877 11:3.29271 12:-4.97312 13:6.68711 14:95.6447 15:4.23739 16:3.30026 17:-1.34935 18:1.75879 19:-0.746538 20:-0.359177 21:-2.62019 22:1.14591 23:-0.640064 24:0.769095 25:-0.323419 26:1.16464
0.31757165511398455 1:156.3 2:1.55914 3:13.3894 4:-2.54774 5:6.63388 6:-2.3403 7:7.85302 8:1.90779 9:4.87029 10:-2.01905 11:5.28499 12:-4.53074 13:4.45186 14:95.6447 15:4.23739 16:3.30026 17:-1.34935 18:1.75879 19:-0.746538 20:-0.359177 21:-2.62019 22:1.14591 23:-0.640064 24:0.769095 25:-0.323419 26:1.16464
0.70396802502719802 1:181.395 2:11.9197 3:17.509 4:2.66802 5:9.69723 6:-1.51508 7:8.82922 8:-1.78652 9:8.24576 10:-5.97707 11:6.01292 12:-6.02086 13:5.11213 14:95.6447 15:4.23739 16:3.30026 17:-1.34935 18:1.75879 19:-0.746538 20:-0.359177 21:-2.62019 22:1.14591 23:-0.640064 24:0.769095 25:-0.323419 26:1.16464
0.18728248045593893 1:199.057 2:5.39723 3:12.6676 4:-1.37518 5:8.83833 6:-2.01577 7:7.47831 8:-2.37254 9:8.35051 10:-3.05743 11:6.89961 12:-4.69171 13:5.94541 14:95.6447 15:4.23739 16:3.30026 17:-1.34935 18:1.75879 19:-0.746538 20:-0.359177 21:-2.62019 22:1.14591 23:-0.640064 24:0.769095 25:-0.323419 26:1.16464
0.66761941391932966 1:176.698 2:4.76611 3:0.473794 4:-0.0124561 5:10.2252 6:-5.17065 7:0.263037 8:-6.08053 9:5.74411 10:-6.95457 11:5.96751 12:-5.3846 13:6.3466 14:95.6447 15:4.23739 16:3.30026 17:-1.34935 18:1.75879 19:-0.746538 20:-0.359177 21:-2.62019 22:1.14591 23:-0.640064 24:0.769095 25:-0.323419 26:1.16464
0.66190250594568212 1:198.468 2:9.4655 3:0.0798503 4:6.9333 5:9.25 6:-8.43376 7:-1.80736 8:-2.74023 9:8.24499 10:-4.87349 11:6.15625 12:-7.14535 13:4.27937 14:95.6447 15:4.23739 16:3.30026 17:-1.34935 18:1.75879 19:-0.746538 20:-0.359177 21:-2.62019 22:1.14591 23:-0.640064 24:0.769095 25:-0.323419 26:1.16464
0.2460679440259585 1:215.994 2:7.8499 3:2.88693 4:2.91593 5:11.8065 6:-3.10775 7:2.45827 8:-4.25056 9:7.94737 10:-1.83695 11:5.35461 12:-5.04153 13:6.2035 14:95.6447 15:4.23739 16:3.30026 17:-1.34935 18:1.75879 19:-0.746538 20:-0.359177 21:-2.62019 22:1.14591 23:-0.640064 24:0.769095 25:-0.323419 26:1.16464
0.67693058374880077 1:227.053 2:17.1555 3:3.96943 4:7.80128 5:18.5845 6:-3.80501 7:7.31056 8:-5.89972 9:6.52861 10:-6.59799 11:7.57407 12:-8.0687 13:4.94507 14:95.6447 15:4.23739 16:3.30026 17:-1.34935 18:1.75879 19:-0.746538 20:-0.359177 21:-2.62019 22:1.14591 23:-0.640064 24:0.769095 25:-0.323419 26:1.16464
1.018888789750219 1:285.698 2:16.6991 3:9.31339 4:1.36193 5:13.0203 6:-2.51873 7:3.7838 8:-6.30005 9:4.11163 10:-4.60456 11:6.65042 12:-3.98744 13:6.24521 14:95.6447 15:4.23739 16:3.30026 17:-1.34935 18:1.75879 19:-0.746538 20:-0.359177 21:-2.62019 22:1.14591 23:-0.640064 24:0.769095 25:-0.323419 26:1.16464
1.2401587635595561 1:299.496 2:14.9208 3:5.59312 4:2.35196 5:15.6736 6:-1.99431 7:4.359 8:-7.44993 9:2.3018 10:-6.73373 11:6.50443 12:-4.12344 13:5.19002 14:95.6447 15:4.23739 16:3.30026 17:-1.34935 18:1.75879 19:-0.746538 20:-0.359177 21:-2.62019 22:1.14591 23:-0.640064 24:0.769095 25:-0.323419 26:1.16464
0.6647821495958437 1:307.1 2:14.0333 3:4.2307 4:1.22314 5:14.3888 6:-3.79831 7:5.69665 8:-7.65977 9:2.66493 10:-5.16363 11:6.90419 12:-3.77316 13:3.11658 14:95.6447 15:4.23739 16:3.30026 17:-1.34935 18:1.75879 19:-0.746538 20:-0.359177 21:-2.62019 22:1.14591 23:-0.640064 24:0.769095 25:-0.323419 26:1.16464
0.42521056397485341 1:313.865 2:13.4124 3:4.95141 4:0.675115 5:12.7918 6:-2.851 7:5.09795 8:-5.91254 9:1.41651 10:-4.82614 11:6.48618 12:-3.64071 13:4.14277 14:95.6447 15:4.23739 16:3.30026 17:-1.34935 18:1.75879 19:-0.746538 20:-0.359177 21:-2.62019 22:1.14591 23:-0.640064 24:0.769095 25:-0.323419 26:1.16464
0.47357365573178256 1:334.76 2:21.5327 3:4.44877 4:-14.5989 5:8.65621 6:-4.52258 7:2.73584 8:-2.89562 9:-3.49585 10:0.403838 11:5.57333 12:-5.96451 13:6.33778 14:95.6447 15:4.23739 16:3.30026 17:-1.34935 18:1.75879 19:-0.746538 20:-0.359177 21:-2.62019 22:1.14591 23:-0.640064 24:0.769095 25:-0.323419 26:1.16464
0.1505806616514451 1:333.37 2:19.4135 3:2.62206 4:-15.95 5:9.90369 6:-2.80437 7:1.64387 8:-2.9373 9:0.542277 10:0.744829 11:4.56654 12:-8.19549 13:3.76035 14:95.6447 15:4.23739 16:3.30026 17:-1.34935 18:1.75879 19:-0.746538 20:-0.359177 21:-2.62019 22:1.14591 23:-0.640064 24:0.769095 25:-0.323419 26:1.16464
0.15547039024185041 1:339.272 2:14.9688 3:2.22785 4:-10.7889 5:9.87512 6:-5.58913 7:0.319083 8:-2.55667 9:4.33458 10:-0.459856 11:1.86469 12:-4.80964 13:2.13421 14:95.6447 15:4.23739 16:3.30026 17:-1.34935 18:1.75879 19:-0.746538 20:-0.359177 21:-2.62019 22:1.14591 23:-0.640064 24:0.769095 25:-0.323419 26:1.16464
0.17316016479833463 1:336.083 2:13.4228 3:6.48968 4:-5.50635 5:9.07859 6:-9.3252 7:0.492044 8:-2.72443 9:5.2859 10:-2.59873 11:0.780976 12:-0.291522 13:0.971959 14:95.6447 15:4.23739 16:3.30026 17:-1.34935 18:1.75879 19:-0.746538 20:-0.359177 21:-2.62019 22:1.14591 23:-0.640064 24:0.769095 25:-0.323419 26:1.16464
0.30515738008252263 1:311.622 2:16.9136 3:10.3233 4:2.92373 5:13.7915 6:-12.4895 7:1.9896 8:-5.08034 9:-0.719162 10:-2.99498 11:1.52788 12:-0.78741 13:5.17214 14:95.6447 15:4.23739 16:3.30026 17:-1.34935 18:1.75879 19:-0.746538 20:-0.359177 21:-2.62019 22:1.14591 23:-0.640064 24:0.769095 25:-0.323419 26:1.16464
1.0621489791562946 1:277.051 2:24.0118 3:11.8555 4:-2.59883 5:9.92945 6:-6.04589 7:2.37986 8:-7.59966 9:5.01867 10:1.25569 11:3.3291 12:-6.56064 13:4.77828 14:95.6447 15:4.23739 16:3.30026 17:-1.34935 18:1.75879 19:-0.746538 20:-0.359177 21:-2.62019 22:1.14591 23:-0.640064 24:0.769095 25:-0.323419 26:1.16464
1.806088264076835 1:273.544 2:24.3913 3:10.1831 4:-4.35578 5:10.054 6:-3.92772 7:4.0053 8:-9.14588 9:4.80322 10:-1.25757 11:5.76945 12:-5.92045 13:5.03824 14:95.6447 15:4.23739 16:3.30026 17:-1.34935 18:1.75879 19:-0.746538 20:-0.359177 21:-2.62019 22:1.14591 23:-0.640064 24:0.769095 25:-0.323419 26:1.16464
0.46696566280732005 1:318.833 2:25.9209 3:12.2629 4:-13.3954 5:3.68411 6:-3.02979 7:4.81655 8:-9.4824 9:-2.01611 10:-1.07318 11:4.68823 12:-2.25259 13:6.4746 14:95.6447 15:4.23739 16:3.30026 17:-1.34935 18:1.75879 19:-0.746538 20:-0.359177 21:-2.62019 22:1.14591 23:-0.640064 24:0.769095 25:-0.323419 26:1.16464
0.22877025492906258 1:325.046 2:21.6258 3:14.6082 4:-14.9597 5:-0.763701 6:-2.34333 7:3.09133 8:-6.31466 9:0.934416 10:-1.94201 11:1.59236 12:-1.09863 13:5.33532 14:95.6447 15:4.23739 16:3.30026 17:-1.34935 18:1.75879 19:-0.746538 20:-0.359177 21:-2.62019 22:1.14591 23:-0.640064 24:0.769095 25:-0.323419 26:1.16464
0.029804047176513398 1:283.076 2:6.44296 3:14.4248 4:1.54887 5:7.67732 6:-5.46009 7:4.65377 8:-5.70962 9:6.40537 10:-2.45997 11:4.95866 12:-1.85276 13:2.31685 14:95.6447 15:4.23739 16:3.30026 17:-1.34935 18:1.75879 19:-0.746538 20:-0.359177 21:-2.62019 22:1.14591 23:-0.640064 24:0.769095 25:-0.323419 26:1.16464
0.026189598141336378 1:270.803 2:-4.11311 3:9.56448 4:0.812572 5:10.7024 6:-4.75576 7:3.63443 8:-2.65644 9:3.00361 10:2.01413 11:0.374366 12:-1.83951 13:-0.579087 14:95.6447 15:4.23739 16:3.30026 17:-1.34935 18:1.75879 19:-0.746538 20:-0.359177 21:-2.62019 22:1.14591 23:-0.640064 24:0.769095 25:-0.323419 26:1.16464
0.32715170829935042 1:273.6 2:-7.24889 3:8.18112 4:-0.42255 5:5.70675 6:-7.34634 7:4.05733 8:-2.1579 9:0.240535 10:-0.0294108 11:1.54412 12:-0.274404 13:0.993685 14:95.6447 15:4.23739 16:3.30026 17:-1.34935 18:1.75879 19:-0.746538 20:-0.359177 21:-2.62019 22:1.14591 23:-0.640064 24:0.769095 25:-0.323419 26:1.16464
0.032395780606054907 1:274.061 2:-9.50961 3:7.72283 4:-2.0989 5:3.00572 6:-3.77899 7:2.44155 8:-5.73358 9:-0.239066 10:1.0604 11:2.91387 12:0.21637 13:0.467806 14:95.6447 15:4.23739 16:3.30026 17:-1.34935 18:1.75879 19:-0.746538 20:-0.359177 21:-2.62019 22:1.14591 23:-0.640064 24:0.769095 25:-0.323419 26:1.16464
1.859227403499865 1:284.796 2:-10.7026 3:7.15142 4:0.758592 5:1.97821 6:-3.00562 7:4.86282 8:-6.98847 9:2.7368 10:-1.25021 11:2.22548 12:0.000484506 13:-3.71651 14:95.6447 15:4.23739 16:3.30026 17:-1.34935 18:1.75879 19:-0.746538 20:-0.359177 21:-2.62019 22:1.14591 23:-0.640064 24:0.769095 25:-0.323419 26:1.16464
1.7212833637847442 1:259.863 2:-4.50392 3:8.82073 4:-0.439007 5:-3.80958 6:-4.7493 7:4.36938 8:-7.87467 9:4.02263 10:-1.83638 11:0.272263 12:0.399164 13:-0.554392 14:95.6447 15:4.23739 16:3.30026 17:-1.34935 18:1.75879 19:-0.746538 20:-0.359177 21:-2.62019 22:1.14591 23:-0.640064 24:0.769095 25:-0.323419 26:1.16464
1.4673493797735822 1:256.884 2:-2.59582 3:12.0006 4:5.69616 5:7.82191 6:-3.04753 7:8.87923 8:-4.2135 9:2.65997 10:-2.36387 11:3.39065 12:-0.0184835 13:-0.267767 14:95.6447 15:4.23739 16:3.30026 17:-1.34935 18:1.75879 19:-0.746538 20:-0.359177 21:-2.62019 22:1.14591 23:-0.640064 24:0.769095 25:-0.323419 26:1.16464
0.30492253681239778 1:329.204 2:7.4261 3:17.7583 4:4.42922 5:6.21901 6:-8.39658 7:6.69081 8:-7.52345 9:-0.438119 10:-4.31901 11:1.33761 12:0.610984 13:-1.36847 14:95.6447 15:4.23739 16:3.30026 17:-1.34935 18:1.75879 19:-0.746538 20:-0.359177 21:-2.62019 22:1.14591 23:-0.640064 24:0.769095 25:-0.323419 26:1.16464
0.447720596265895 1:308.542 2:8.71167 3:13.9651 4:5.20671 5:11.6578 6:-9.30778 7:4.57017 8:-7.64421 9:2.15614 10:-4.90771 11:1.90408 12:2.55336 13:3.07578 14:95.6447 15:4.23739 16:3.30026 17:-1.34935 18:1.75879 19:-0.746538 20:-0.359177 21:-2.62019 22:1.14591 23:-0.640064 24:0.769095 25:-0.323419 26:1.16464
0.31573824862613747 1:296.625 2:9.27167 3:18.9185 4:0.275368 5:11.049 6:-4.01758 7:0.755786 8:-5.51649 9:4.11648 10:-4.8298 11:2.2448 12:-5.00035 13:3.31331 14:95.6447 15:4.23739 16:3.30026 17:-1.34935 18:1.75879 19:-0.746538 20:-0.359177 21:-2.62019 22:1.14591 23:-0.640064 24:0.769095 25:-0.323419 26:1.16464
0.64615069740211262 1:292.872 2:22.0568 3:6.53171 4:3.83315 5:12.2065 6:-10.1873 7:10.5237 8:-12.6203 9:2.7206 10:1.0971 11:2.6896 12:-3.236 13:6.04487 14:95.6447 15:4.23739 16:3.30026 17:-1.34935 18:1.75879 19:-0.746538 20:-0.359177 21:-2.62019 22:1.14591 23:-0.640064 24:0.769095 25:-0.323419 26:1.16464
0.37768015272119565 1:319.299 2:16.5608 3:3.7938 4:1.17487 5:10.2142 6:-4.67385 7:4.44978 8:-8.39146 9:2.14534 10:-0.221589 11:2.5437 12:-6.35861 13:7.49676 14:95.6447 15:4.23739 16:3.30026 17:-1.34935 18:1.75879 19:-0.746538 20:-0.359177 21:-2.62019 22:1.14591 23:-0.640064 24:0.769095 25:-0.323419 26:1.16464
0.35879605187415448 1:334.463 2:5.60375 3:16.2867 4:4.15441 5:1.10689 6:-6.72656 7:4.03521 8:-6.69554 9:0.148879 10:-2.40972 11:2.68847 12:-1.67596 13:0.615295 14:95.6447 15:4.23739 16:3.30026 17:-1.34935 18:1.75879 19:-0.746538 20:-0.359177 21:-2.62019 22:1.14591 23:-0.640064 24:0.769095 25:-0.323419 26:1.16464
0.24572871580254305 1:326.305 2:6.73032 3:18.2542 4:5.37802 5:2.18545 6:-7.26886 7:3.70873 8:-6.96254 9:0.32676 10:-3.34528 11:2.51177 12:-1.61945 13:1.66349 14:95.6447 15:4.23739 16:3.30026 17:-1.34935 18:1.75879 19:-0.746538 20:-0.359177 21:-2.62019 22:1.14591 23:-0.640064 24:0.769095 25:-0.323419 26:1.16464
0.25820257804769364 1:263.735 2:15.1235 3:15.3912 4:8.02347 5:12.9656 6:-6.76752 7:6.63792 8:-7.17826 9:0.990223 10:0.133001 11:6.10352 12:-4.45729 13:5.12782 14:95.6447 15:4.23739 16:3.30026 17:-1.34935 18:1.75879 19:-0.746538 20:-0.359177 21:-2.62019 22:1.14591 23:-0.640064 24:0.769095 25:-0.323419 26:1.16464
2.6012505717321668 1:259.627 2:13.0637 3:15.3569 4:5.06389 5:9.61134 6:-2.02618 7:7.0281 8:-7.1718 9:4.75195 10:-3.33225 11:3.4244 12:-4.9923 13:5.00278 14:95.6447 15:4.23739 16:3.30026 17:-1.34935 18:1.75879 19:-0.746538 20:-0.359177 21:-2.62019 22:1.14591 23:-0.640064 24:0.769095 25:-0.323419 26:1.16464
0.32372396068923787 1:250.393 2:12.6063 3:9.49102 4:6.08908 5:10.1689 6:-4.11116 7:4.43104 8:-9.82979 9:5.08642 10:-0.60203 11:2.10064 12:-7.34491 13:5.95906 14:95.6447 15:4.23739 16:3.30026 17:-1.34935 18:1.75879 19:-0.746538 20:-0.359177 21:-2.62019 22:1.14591 23:-0.640064 24:0.769095 25:-0.323419 26:1.16464
1.1363904342378384 1:240.204 2:9.87168 3:5.84271 4:6.01854 5:10.7623 6:-3.3374 7:5.21916 8:-7.6376 9:4.4976 10:0.793712 11:2.47593 12:-5.06731 13:3.11823 14:95.6447 15:4.23739 16:3.30026 17:-1.34935 18:1.75879 19:-0.746538 20:-0.359177 21:-2.62019 22:1.14591 23:-0.640064 24:0.769095 25:-0.323419 26:1.16464
0.56675755599118471 1:225.634 2:15.6091 3:7.30671 4:4.61467 5:6.82791 6:-6.32704 7:3.12285 8:-6.09773 9:5.8629 10:1.60309 11:2.579 12:-4.88665 13:2.95612 14:95.6447 15:4.23739 16:3.30026 17:-1.34935 18:1.75879 19:-0.746538 20:-0.359177 21:-2.62019 22:1.14591 23:-0.640064 24:0.769095 25:-0.323419 26:1.16464
0.76743676685865969 1:210.16 2:7.91544 3:3.60746 4:1.37408 5:5.59978 6:-4.91238 7:5.44957 8:-5.49374 9:3.68364 10:3.77505 11:3.18239 12:-3.43584 13:1.56792 14:95.6447 15:4.23739 16:3.30026 17:-1.34935 18:1.75879 19:-0.746538 20:-0.359177 21:-2.62019 22:1.14591 23:-0.640064 24:0.769095 25:-0.323419 26:1.16464
1.8421551098542053 1:277.352 2:0.115867 3:2.69806 4:-0.763942 5:1.94951 6:-1.58995 7:1.9651 8:-2.78413 9:2.79454 10:-0.467021 11:2.57783 12:-2.70174 13:3.34479 14:95.6447 15:4.23739 16:3.30026 17:-1.34935 18:1.75879 19:-0.746538 20:-0.359177 21:-2.62019 22:1.14591 23:-0.640064 24:0.769095 25:-0.323419 26:1.16464
0.31617390651151089 1:333.703 2:2.36984 3:2.50338 4:-5.94601 5:3.61197 6:-0.721454 7:3.51251 8:-1.98532 9:3.42018 10:-1.25831 11:1.79745 12:-3.54414 13:2.03733 14:95.6447 15:4.23739 16:3.30026 17:-1.34935 18:1.75879 19:-0.746538 20:-0.359177 21:-2.62019 22:1.14591 23:-0.640064 24:0.769095 25:-0.323419 26:1.16464
1.1804682101886543 1:363.767 2:5.05308 3:2.59661 4:-0.613918 5:5.98492 6:-3.6308 7:3.02897 8:-1.3133 9:1.84429 10:-3.94584 11:2.68697 12:-5.19557 13:4.72024 14:95.6447 15:4.23739 16:3.30026 17:-1.34935 18:1.75879 19:-0.746538 20:-0.359177 21:-2.62019 22:1.14591 23:-0.640064 24:0.769095 25:-0.323419 26:1.16464
0.32338552567911333 1:344.573 2:9.27434 3:5.15324 4:0.653006 5:1.74871 6:-6.25741 7:1.64578 8:-5.19844 9:0.112624 10:-3.94499 11:4.62988 12:-4.62386 13:4.00545 14:95.6447 15:4.23739 16:3.30026 17:-1.34935 18:1.75879 19:-0.746538 20:-0.359177 21:-2.62019 22:1.14591 23:-0.640064 24:0.769095 25:-0.323419 26:1.16464
0.53207122731235046 1:303.977 2:19.8184 3:4.97713 4:-4.70909 5:8.07535 6:-5.62354 7:4.95863 8:-4.01184 9:3.29873 10:-2.82066 11:6.9743 12:-4.6322 13:4.07803 14:95.6447 15:4.23739 16:3.30026 17:-1.34935 18:1.75879 19:-0.746538 20:-0.359177 21:-2.62019 22:1.14591 23:-0.640064 24:0.769095 25:-0.323419 26:1.16464
0.76689196053631581 1:337.182 2:12.5899 3:1.77225 4:-18.9809 5:-0.714998 6:2.14011 7:4.79713 8:-5.64191 9:5.18796 10:0.569522 11:3.05725 12:-2.13205 13:0.461743 14:95.6447 15:4.23739 16:3.30026 17:-1.34935 18:1.75879 19:-0.746538 20:-0.359177 21:-2.62019 22:1.14591 23:-0.640064 24:0.769095 25:-0.323419 26:1.16464
0.96009378725171635 1:298.77 2:13.0819 3:6.12198 4:-10.9986 5:6.53235 6:-0.250668 7:4.3091 8:-4.91348 9:8.80308 10:-0.483207 11:2.61176 12:-0.371729 13:0.257974 14:95.6447 15:4.23739 16:3.30026 17:-1.34935 18:1.75879 19:-0.746538 20:-0.359177 21:-2.62019 22:1.14591 23:-0.640064 24:0.769095 25:-0.323419 26:1.16464
0.9141033408823197 1:279.798 2:7.76805 3:6.25349 4:-3.76881 5:7.83671 6:-1.55464 7:1.75407 8:-4.84049 9:7.78716 10:-1.719 11:3.40726 12:-2.6513 13:2.54866 14:95.6447 15:4.23739 16:3.30026 17:-1.34935 18:1.75879 19:-0.746538 20:-0.359177 21:-2.62019 22:1.14591 23:-0.640064 24:0.769095 25:-0.323419 26:1.16464
0.27752462449048165 1:286.191 2:-5.44088 3:23.3112 4:-6.58538 5:14.1078 6:-0.386938 7:2.83222 8:-0.0746216 9:3.26245 10:6.08946 11:0.310939 12:-0.30185 13:-1.17315 14:95.6447 15:4.23739 16:3.30026 17:-1.34935 18:1.75879 19:-0.746538 20:-0.359177 21:-2.62019 22:1.14591 23:-0.640064 24:0.769095 25:-0.323419 26:1.16464
0.22571737657038021 1:282.306 2:-10.3067 3:13.0679 4:-14.8569 5:9.67718 6:1.24887 7:4.19921 8:1.37703 9:7.89926 10:3.60251 11:0.353638 12:0.568778 13:-4.46759 14:95.6447 15:4.23739 16:3.30026 17:-1.34935 18:1.75879 19:-0.746538 20:-0.359177 21:-2.62019 22:1.14591 23:-0.640064 24:0.769095 25:-0.323419 26:1.16464
0.6685024680793511 1:280.813 2:-14.0199 3:11.032 4:-14.7523 5:7.31551 6:2.31695 7:-0.601221 8:-4.13359 9:0.231433 10:2.01837 11:-0.40187 12:0.414234 13:-1.89513 14:95.6447 15:4.23739 16:3.30026 17:-1.34935 18:1.75879 19:-0.746538 20:-0.359177 21:-2.62019 22:1.14591 23:-0.640064 24:0.769095 25:-0.323419 26:1.16464
0.31745836014803236 1:289.65 2:-3.41707 3:29.5697 4:-6.81483 5:11.9971 6:-5.5974 7:2.44038 8:-4.2155 9:1.17796 10:2.19485 11:-1.51789 12:0.133812 13:-1.36842 14:95.6447 15:4.23739 16:3.30026 17:-1.34935 18:1.75879 19:-0.746538 20:-0.359177 21:-2.62019 22:1.14591 23:-0.640064 24:0.769095 25:-0.323419 26:1.16464
0.80466073369587987 1:271.263 2:-13.481 3:25.3925 4:-9.53043 5:10.4006 6:-2.1721 7:8.31285 8:2.39245 9:0.265546 10:1.90561 11:-1.55926 12:3.6871 13:-3.28749 14:95.6447 15:4.23739 16:3.30026 17:-1.34935 18:1.75879 19:-0.746538 20:-0.359177 21:-2.62019 22:1.14591 23:-0.640064 24:0.769095 25:-0.323419 26:1.16464
0.94458084539151665 1:300.347 2:-2.49182 3:23.0087 4:-5.45122 5:9.71414 6:-4.55693 7:0.209946 8:-0.286837 9:0.349776 10:0.663425 11:-0.842249 12:1.03075 13:0.228179 14:95.6447 15:4.23739 16:3.30026 17:-1.34935 18:1.75879 19:-0.746538 20:-0.359177 21:-2.62019 22:1.14591 23:-0.640064 24:0.769095 25:-0.323419 26:1.16464
0.36730659872325577 1:315.172 2:18.9944 3:21.2524 4:-10.4141 5:10.8853 6:-1.31095 7:4.75678 8:-2.02498 9:4.32686 10:-1.36558 11:1.37365 12:-1.95314 13:-0.314981 14:95.6447 15:4.23739 16:3.30026 17:-1.34935 18:1.75879 19:-0.746538 20:-0.359177 21:-2.62019 22:1.14591 23:-0.640064 24:0.769095 25:-0.323419 26:1.16464
0.16695739170264204 1:290.13 2:25.1052 3:15.7094 4:-9.65045 5:5.483 6:-4.48816 7:4.92185 8:-5.83961 9:4.57371 10:-3.30358 11:3.5701 12:-4.15633 13:5.63753 14:95.6447 15:4.23739 16:3.30026 17:-1.34935 18:1.75879 19:-0.746538 20:-0.359177 21:-2.62019 22:1.14591 23:-0.640064 24:0.769095 25:-0.323419 26:1.16464
1.3219861014316532 1:295.708 2:29.1339 3:17.8567 4:-12.1644 5:7.74392 6:-4.93297 7:3.46868 8:-7.05374 9:4.91158 10:-2.12639 11:3.54225 12:-3.36606 13:6.02302 14:95.6447 15:4.23739 16:3.30026 17:-1.34935 18:1.75879 19:-0.746538 20:-0.359177 21:-2.62019 22:1.14591 23:-0.640064 24:0.769095 25:-0.323419 26:1.16464
0.27567508997286155 1:326.843 2:15.9177 3:4.94075 4:-2.77703 5:4.0728 6:-4.77388 7:0.0488435 8:-10.9759 9:5.44123 10:-3.02233 11:4.40791 12:-3.93309 13:6.34578 14:95.6447 15:4.23739 16:3.30026 17:-1.34935 18:1.75879 19:-0.746538 20:-0.359177 21:-2.62019 22:1.14591 23:-0.640064 24:0.769095 25:-0.323419 26:1.16464
0.74438020894647272 1:318.962 2:14.8598 3:10.1275 4:-4.28392 5:5.55939 6:-2.84098 7:-1.65232 8:-8.42815 9:3.84097 10:-2.54247 11:3.23668 12:-1.94511 13:4.87269 14:318.962 15:14.8598 16:10.1275 17:-4.28392 18:5.55939 19:-2.84098 20:-1.65232 21:-8.42815 22:3.84097 23:-2.54247 24:3.23668 25:-1.94511 26:4.87269
0.70937519652595704 1:315.313 2:13.4297 3:13.5735 4:-5.46858 5:6.7374 6:-1.88969 7:-1.89701 8:-7.75627 9:3.29351 10:-2.31096 11:2.71401 12:-0.0686167 13:2.661 14:315.313 15:13.4297 16:13.5735 17:-5.46858 18:6.7374 19:-1.88969 20:-1.89701 21:-7.75627 22:3.29351 23:-2.31096 24:2.71401 25:-0.0686167 26:2.661
-1.3820532895744906 1:122.541 2:-7.61345 3:3.25529 4:-3.08855 5:7.86354 6:1.24317 7:1.57861 8:-4.41298 9:0.448575 10:2.59112 11:0.702954 12:-2.13479 13:2.03204 14:122.541 15:-7.61345 16:3.25529 17:-3.08855 18:7.86354 19:1.24317 20:1.57861 21:-4.41298 22:0.448575 23:2.59112 24:0.702954 25:-2.13479 26:2.03204
-0.72708077929318327 1:163.369 2:1.81307 3:6.72256 4:1.17279 5:7.50809 6:-0.614475 7:1.54126 8:-2.66347 9:2.91805 10:2.13519 11:5.03068 12:-2.54967 13:1.42683 14:163.369 15:1.81307 16:6.72256 17:1.17279 18:7.50809 19:-0.614475 20:1.54126 21:-2.66347 22:2.91805 23:2.13519 24:5.03068 25:-2.54967 26:1.42683
-0.13804269358960319 1:170.642 2:6.59915 3:9.00099 4:-2.96042 5:3.35521 6:-0.138472 7:3.31471 8:-4.36449 9:3.02884 10:-1.08831 11:4.44326 12:-3.31855 13:2.09952 14:66.8122 15:5.12618 16:3.33069 17:-0.251926 18:2.86108 19:-0.894815 20:-0.0102016 21:-2.20716 22:0.918008 23:-0.997251 24:1.34928 25:-1.41392 26:0.989982
-0.088197482828173232 1:162.59 2:-0.770146 3:1.66516 4:-4.55822 5:-0.0552687 6:-1.26839 7:5.50679 8:-2.66308 9:3.87778 10:-2.53233 11:1.25368 12:-1.60933 13:2.77132 14:66.8122 15:5.12618 16:3.33069 17:-0.251926 18:2.86108 19:-0.894815 20:-0.0102016 21:-2.20716 22:0.918008 23:-0.997251 24:1.34928 25:-1.41392 26:0.989982
-0.28574120089445437 1:165.394 2:5.98456 3:9.57452 4:1.84792 5:5.34509 6:-4.22969 7:5.38353 8:-0.570164 9:7.10006 10:-0.933185 11:1.99221 12:-3.84871 13:3.51788 14:66.8122 15:5.12618 16:3.33069 17:-0.251926 18:2.86108 19:-0.894815 20:-0.0102016 21:-2.20716 22:0.918008 23:-0.997251 24:1.34928 25:-1.41392 26:0.989982
-0.17583090101751025 1:156.213 2:-2.52171 3:6.82926 4:2.02477 5:6.48693 6:-1.38958 7:2.10168 8:-2.25132 9:0.0113239 10:-3.22472 11:4.19105 12:-0.52233 13:3.1204 14:66.8122 15:5.12618 16:3.33069 17:-0.251926 18:2.86108 19:-0.894815 20:-0.0102016 21:-2.20716 22:0.918008 23:-0.997251 24:1.34928 25:-1.41392 26:0.989982
-0.02389746812480428 1:158.113 2:2.37453 3:7.48694 4:-0.0364924 5:7.39739 6:2.57028 7:5.29659 8:-1.00872 9:2.99638 10:-1.3099 11:1.07032 12:-2.67248 13:4.44465 14:66.8122 15:5.12618 16:3.33069 17:-0.251926 18:2.86108 19:-0.894815 20:-0.0102016 21:-2.20716 22:0.918008 23:-0.997251 24:1.34928 25:-1.41392 26:0.989982
-0.40107789006591898 1:153.85 2:-3.43803 3:4.65682 4:-2.21495 5:2.90406 6:-0.156409 7:2.38901 8:0.671211 9:4.45671 10:-0.314313 11:2.70307 12:0.882091 13:3.07364 14:66.8122 15:5.12618 16:3.33069 17:-0.251926 18:2.86108 19:-0.894815 20:-0.0102016 21:-2.20716 22:0.918008 23:-0.997251 24:1.34928 25:-1.41392 26:0.989982
-0.010064875696492078 1:161.311 2:3.3801 3:7.32468 4:-1.09159 5:8.75454 6:-0.313597 7:3.38629 8:-0.47123 9:-0.542523 10:-3.7108 11:2.35195 12:-3.39342 13:2.71833 14:66.8122 15:5.12618 16:3.33069 17:-0.251926 18:2.86108 19:-0.894815 20:-0.0102016 21:-2.20716 22:0.918008 23:-0.997251 24:1.34928 25:-1.41392 26:0.989982
-0.020706889458500959 1:172.23 2:0.737951 3:4.48011 4:2.55977 5:6.03475 6:-6.54045 7:2.6131 8:-2.55375 9:3.90085 10:0.706271 11:3.81618 12:-3.16217 13:3.25264 14:66.8122 15:5.12618 16:3.33069 17:-0.251926 18:2.86108 19:-0.894815 20:-0.0102016 21:-2.20716 22:0.918008 23:-0.997251 24:1.34928 25:-1.41392 26:0.989982
-0.48335045057483439 1:205.709 2:15.0353 3:12.8949 4:4.42269 5:9.08198 6:-4.6892 7:4.43473 8:-6.33449 9:-0.0344932 10:-3.85815 11:6.26863 12:-4.17019 13:3.10109 14:66.8122 15:5.12618 16:3.33069 17:-0.251926 18:2.86108 19:-0.894815 20:-0.0102016 21:-2.20716 22:0.918008 23:-0.997251 24:1.34928 25:-1.41392 26:0.989982
-0.33004198016292691 1:246.087 2:22.0342 3:9.22833 4:-1.88459 5:15.5619 6:-6.11533 7:8.52047 8:-5.24326 9:-1.27738 10:-3.06435 11:5.6955 12:-1.06795 13:6.08663 14:66.8122 15:5.12618 16:3.33069 17:-0.251926 18:2.86108 19:-0.894815 20:-0.0102016 21:-2.20716 22:0.918008 23:-0.997251 24:1.34928 25:-1.41392 26:0.989982
-0.0011297295239722888 1:284.104 2:18.8332 3:7.17203 4:-9.37582 5:8.34002 6:-3.77937 7:6.21229 8:0.784299 9:-0.199364 10:-1.13634 11:4.31038 12:-4.68136 13:4.4122 14:66.8122 15:5.12618 16:3.33069 17:-0.251926 18:2.86108 19:-0.894815 20:-0.0102016 21:-2.20716 22:0.918008 23:-0.997251 24:1.34928 25:-1.41392 26:0.989982
-0.0033044913953458235 1:305.972 2:12.5827 3:5.76555 4:-11.2982 5:6.33111 6:-2.02219 7:1.69705 8:1.55901 9:1.14992 10:0.882398 11:3.52879 12:-4.62789 13:1.63528 14:66.8122 15:5.12618 16:3.33069 17:-0.251926 18:2.86108 19:-0.894815 20:-0.0102016 21:-2.20716 22:0.918008 23:-0.997251 24:1.34928 25:-1.41392 26:0.989982
-0.13878488454475801 1:313.641 2:1.86357 3:9.29263 4:-2.56237 5:1.68927 6:-5.61548 7:1.25303 8:4.77353 9:3.80809 10:-4.31101 11:1.93331 12:1.3834 13:-0.489329 14:66.8122 15:5.12618 16:3.33069 17:-0.251926 18:2.86108 19:-0.894815 20:-0.0102016 21:-2.20716 22:0.918008 23:-0.997251 24:1.34928 25:-1.41392 26:0.989982
-0.15781325498177998 1:303.031 2:-0.503636 3:14.9886 4:6.59704 5:0.870234 6:-8.57841 7:2.7643 8:1.24352 9:1.36286 10:-3.10032 11:2.34159 12:-1.32554 13:0.182305 14:66.8122 15:5.12618 16:3.33069 17:-0.251926 18:2.86108 19:-0.894815 20:-0.0102016 21:-2.20716 22:0.918008 23:-0.997251 24:1.34928 25:-1.41392 26:0.989982
-0.0081835986048991935 1:303.187 2:2.53306 3:11.9567 4:7.06987 5:3.18726 6:-10.1199 7:3.63432 8:0.688807 9:0.0807106 10:-3.03974 11:1.24422 12:-1.11488 13:1.93371 14:66.8122 15:5.12618 16:3.33069 17:-0.251926 18:2.86108 19:-0.894815 20:-0.0102016 21:-2.20716 22:0.918008 23:-0.997251 24:1.34928 25:-1.41392 26:0.989982
-0.092506133650713668 1:287.605 2:6.93193 3:9.86118 4:7.15794 5:7.48191 6:-9.69061 7:3.43781 8:-0.683523 9:0.816325 10:-2.05449 11:-0.0707757 12:-1.25434 13:2.1652 14:66.8122 15:5.12618 16:3.33069 17:-0.251926 18:2.86108 19:-0.894815 20:-0.0102016 21:-2.20716 22:0.918008 23:-0.997251 24:1.34928 25:-1.41392 26:0.989982
-0.26354660164122573 1:299.953 2:19.2532 3:10.1964 4:-12.3597 5:5.14535 6:-7.89731 7:6.40878 8:-4.57874 9:-2.48192 10:0.69379 11:3.82498 12:-1.99355 13:4.34671 14:66.8122 15:5.12618 16:3.33069 17:-0.251926 18:2.86108 19:-0.894815 20:-0.0102016 21:-2.20716 22:0.918008 23:-0.997251 24:1.34928 25:-1.41392 26:0.989982
-0.31355217668949659 1:318.614 2:11.7593 3:6.39142 4:-8.87439 5:8.58517 6:-12.2181 7:-3.06607 8:-2.69309 9:-0.493503 10:4.68075 11:2.55401 12:-3.84232 13:5.97543 14:66.8122 15:5.12618 16:3.33069 17:-0.251926 18:2.86108 19:-0.894815 20:-0.0102016 21:-2.20716 22:0.918008 23:-0.997251 24:1.34928 25:-1.41392 26:0.989982
-0.12193718396769131 1:315.536 2:6.95456 3:10.0936 4:-0.733855 5:9.69799 6:-13.1385 7:-5.62669 8:-0.249642 9:2.44617 10:-4.21768 11:0.324128 12:-0.95217 13:2.70419 14:66.8122 15:5.12618 16:3.33069 17:-0.251926 18:2.86108 19:-0.894815 20:-0.0102016 21:-2.20716 22:0.918008 23:-0.997251 24:1.34928 25:-1.41392 26:0.989982
-0.365016744240794 1:237.412 2:-11.1819 3:12.4417 4:0.713845 5:-4.09345 6:-8.73728 7:-0.941735 8:-0.968542 9:3.05617 10:-4.02468 11:3.80134 12:-1.27735 13:0.352752 14:66.8122 15:5.12618 16:3.33069 17:-0.251926 18:2.86108 19:-0.894815 20:-0.0102016 21:-2.20716 22:0.918008 23:-0.997251 24:1.34928 25:-1.41392 26:0.989982
-0.0057246475317798253 1:221.531 2:-7.71672 3:8.30006 4:1.09085 5:2.4062 6:1.069 7:-1.29705 8:-4.27457 9:3.81104 10:-3.3182 11:3.16776 12:-3.73349 13:0.101942 14:66.8122 15:5.12618 16:3.33069 17:-0.251926 18:2.86108 19:-0.894815 20:-0.0102016 21:-2.20716 22:0.918008 23:-0.997251 24:1.34928 25:-1.41392 26:0.989982
-0.16588172115610336 1:268.483 2:0.603979 3:23.3917 4:12.4126 5:7.78544 6:-7.27977 7:2.08674 8:0.882503 9:-0.619623 10:-2.21543 11:4.80101 12:-2.04409 13:0.598225 14:66.8122 15:5.12618 16:3.33069 17:-0.251926 18:2.86108 19:-0.894815 20:-0.0102016 21:-2.20716 22:0.918008 23:-0.997251 24:1.34928 25:-1.41392 26:0.989982
-0.31079204720222031 1:267.478 2:2.39522 3:21.7555 4:15.3456 5:7.70728 6:-9.44025 7:0.877746 8:0.451851 9:1.8942 10:-2.37731 11:3.55871 12:-2.79269 13:1.7206 14:66.8122 15:5.12618 16:3.33069 17:-0.251926 18:2.86108 19:-0.894815 20:-0.0102016 21:-2.20716 22:0.918008 23:-0.997251 24:1.34928 25:-1.41392 26:0.989982
-0.047535733030944383 1:262.874 2:5.12611 3:20.0819 4:13.7706 5:8.76501 6:-8.66714 7:2.3595 8:-0.559207 9:-0.32909 10:-6.33598 11:3.97744 12:-0.208932 13:2.84567 14:66.8122 15:5.12618 16:3.33069 17:-0.251926 18:2.86108 19:-0.894815 20:-0.0102016 21:-2.20716 22:0.918008 23:-0.997251 24:1.34928 25:-1.41392 26:0.989982
-0.0071071749808171904 1:247.887 2:11.2427 3:18.7074 4:8.45504 5:13.0513 6:-7.01908 7:2.60238 8:-0.996959 9:1.55818 10:-5.88265 11:4.85836 12:-2.48076 13:0.976559 14:66.8122 15:5.12618 16:3.33069 17:-0.251926 18:2.86108 19:-0.894815 20:-0.0102016 21:-2.20716 22:0.918008 23:-0.997251 24:1.34928 25:-1.41392 26:0.989982
-0.14185396214182727 1:235.135 2:6.89008 3:19.5532 4:10.1868 5:12.2844 6:-6.09392 7:1.7461 8:-2.67389 9:0.58496 10:-6.10284 11:2.7249 12:-1.0748 13:1.83273 14:66.8122 15:5.12618 16:3.33069 17:-0.251926 18:2.86108 19:-0.894815 20:-0.0102016 21:-2.20716 22:0.918008 23:-0.997251 24:1.34928 25:-1.41392 26:0.989982
-0.094154423293150255 1:230.492 2:-3.92792 3:16.6316 4:7.16428 5:7.42022 6:-6.87342 7:-3.18622 8:0.639405 9:-0.753108 10:-7.00484 11:1.03477 12:-1.98293 13:-1.53671 14:66.8122 15:5.12618 16:3.33069 17:-0.251926 18:2.86108 19:-0.894815 20:-0.0102016 21:-2.20716 22:0.918008 23:-0.997251 24:1.34928 25:-1.41392 26:0.989982
-0.17211489395335439 1:223.155 2:1.64592 3:18.2831 4:3.55266 5:15.2632 6:-1.00811 7:0.952206 8:-3.65212 9:0.854583 10:-4.71091 11:-0.00755509 12:0.452334 13:0.707781 14:66.8122 15:5.12618 16:3.33069 17:-0.251926 18:2.86108 19:-0.894815 20:-0.0102016 21:-2.20716 22:0.918008 23:-0.997251 24:1.34928 25:-1.41392 26:0.989982
-0.26394354455529828 1:265.608 2:1.60777 3:2.09774 4:-2.30857 5:3.78426 6:-9.63284 7:-0.841125 8:-1.65344 9:5.1958 10:2.28186 11:2.44869 12:-3.93003 13:4.21687 14:66.8122 15:5.12618 16:3.33069 17:-0.251926 18:2.86108 19:-0.894815 20:-0.0102016 21:-2.20716 22:0.918008 23:-0.997251 24:1.34928 25:-1.41392 26:0.989982
-0.040141190064069639 1:300.468 2:18.579 3:7.61576 4:-14.4503 5:3.66801 6:-4.56246 7:0.417696 8:-5.91165 9:4.0007 10:-3.0323 11:4.83514 12:-0.65685 13:0.493261 14:66.8122 15:5.12618 16:3.33069 17:-0.251926 18:2.86108 19:-0.894815 20:-0.0102016 21:-2.20716 22:0.918008 23:-0.997251 24:1.34928 25:-1.41392 26:0.989982
-0.20790012507235681 1:273.158 2:22.7173 3:11.3837 4:-13.8194 5:6.63951 6:-4.57985 7:-2.61702 8:-7.37381 9:6.23706 10:-4.38047 11:3.31076 12:-2.82028 13:2.86878 14:66.8122 15:5.12618 16:3.33069 17:-0.251926 18:2.86108 19:-0.894815 20:-0.0102016 21:-2.20716 22:0.918008 23:-0.997251 24:1.34928 25:-1.41392 26:0.989982
-0.061343381007619498 1:260.706 2:18.367 3:9.27705 4:-11.5678 5:3.7831 6:-1.83402 7:-1.00313 8:-5.75635 9:3.40303 10:-5.45289 11:5.78416 12:-3.71649 13:1.41081 14:66.8122 15:5.12618 16:3.33069 17:-0.251926 18:2.86108 19:-0.894815 20:-0.0102016 21:-2.20716 22:0.918008 23:-0.997251 24:1.34928 25:-1.41392 26:0.989982
-0.044123370340297889 1:239.127 2:-3.3483 3:9.71391 4:-17.0929 5:5.20185 6:-3.5049 7:0.812708 8:-2.90069 9:-3.9371 10:-0.623828 11:0.754361 12:2.44952 13:-0.0726453 14:66.8122 15:5.12618 16:3.33069 17:-0.251926 18:2.86108 19:-0.894815 20:-0.0102016 21:-2.20716 22:0.918008 23:-0.997251 24:1.34928 25:-1.41392 26:0.989982
-0.36374726166647714 1:242.189 2:-4.5032 3:11.4756 4:-15.8787 5:6.281 6:-5.19288 7:-2.02051 8:-5.30609 9:-4.0562 10:0.627037 11:-1.04213 12:1.24993 13:-0.726303 14:66.8122 15:5.12618 16:3.33069 17:-0.251926 18:2.86108 19:-0.894815 20:-0.0102016 21:-2.20716 22:0.918008 23:-0.997251 24:1.34928 25:-1.41392 26:0.989982
-0.088734320634148281 1:230.681 2:-11.7015 3:19.062 4:-8.87632 5:8.92535 6:-5.78671 7:-3.26864 8:2.13535 9:-1.48088 10:3.21925 11:-2.86862 12:1.85617 13:-0.377497 14:66.8122 15:5.12618 16:3.33069 17:-0.251926 18:2.86108 19:-0.894815 20:-0.0102016 21:-2.20716 22:0.918008 23:-0.997251 24:1.34928 25:-1.41392 26:0.989982
-0.30618117612019735 1:228.891 2:-15.3827 3:14.898 4:-8.81959 5:8.45481 6:-0.305112 7:-3.87487 8:5.30043 9:-0.608584 10:2.38099 11:-0.31576 12:0.163822 13:-0.176007 14:66.8122 15:5.12618 16:3.33069 17:-0.251926 18:2.86108 19:-0.894815 20:-0.0102016 21:-2.20716 22:0.918008 23:-0.997251 24:1.34928 25:-1.41392 26:0.989982
-0.19729763804068445 1:216.602 2:-8.76038 3:6.5873 4:-7.21104 5:7.88685 6:-2.84079 7:-3.88129 8:4.08368 9:-0.851467 10:0.991128 11:-2.41204 12:-2.36057 13:-0.388571 14:66.8122 15:5.12618 16:3.33069 17:-0.251926 18:2.86108 19:-0.894815 20:-0.0102016 21:-2.20716 22:0.918008 23:-0.997251 24:1.34928 25:-1.41392 26:0.989982
-0.30292196581949504 1:200.507 2:-0.527733 3:10.5603 4:-7.16496 5:6.60959 6:-0.918439 7:0.519121 8:-1.38062 9:-0.556298 10:-0.0972024 11:2.16513 12:-0.118401 13:0.387046 14:66.8122 15:5.12618 16:3.33069 17:-0.251926 18:2.86108 19:-0.894815 20:-0.0102016 21:-2.20716 22:0.918008 23:-0.997251 24:1.34928 25:-1.41392 26:0.989982
-0.037928842430826129 1:245.139 2:15.6526 3:19.0616 4:-7.082 5:9.13649 6:-5.01578 7:-0.336878 8:-4.4342 9:-0.854635 10:0.32553 11:1.65963 12:-3.31024 13:-0.497441 14:66.8122 15:5.12618 16:3.33069 17:-0.251926 18:2.86108 19:-0.894815 20:-0.0102016 21:-2.20716 22:0.918008 23:-0.997251 24:1.34928 25:-1.41392 26:0.989982
-0.07170506395089167 1:277.894 2:16.5734 3:19.3916 4:-6.83657 5:9.76376 6:-2.07323 7:1.49607 8:-4.80828 9:-2.04195 10:-0.431605 11:0.178961 12:-2.601 13:1.56752 14:66.8122 15:5.12618 16:3.33069 17:-0.251926 18:2.86108 19:-0.894815 20:-0.0102016 21:-2.20716 22:0.918008 23:-0.997251 24:1.34928 25:-1.41392 26:0.989982
-0.10616441755883817 1:268.846 2:23.0267 3:17.7059 4:-9.05664 5:7.69535 6:-2.78801 7:3.55125 8:-7.63054 9:-2.18183 10:-2.95791 11:1.47617 12:-2.89877 13:3.6786 14:66.8122 15:5.12618 16:3.33069 17:-0.251926 18:2.86108 19:-0.894815 20:-0.0102016 21:-2.20716 22:0.918008 23:-0.997251 24:1.34928 25:-1.41392 26:0.989982
-0.092512363916994064 1:284.73 2:21.3977 3:16.303 4:-10.8069 5:6.82504 6:-3.72424 7:0.615261 8:-7.01928 9:-2.30905 10:-3.31702 11:2.95923 12:-2.04348 13:2.33478 14:66.8122 15:5.12618 16:3.33069 17:-0.251926 18:2.86108 19:-0.894815 20:-0.0102016 21:-2.20716 22:0.918008 23:-0.997251 24:1.34928 25:-1.41392 26:0.989982
-0.046239090533570115 1:258.383 2:23.9125 3:13.9098 4:-5.22133 5:10.5468 6:-6.01401 7:-1.35627 8:-8.89138 9:1.76008 10:-2.76783 11:4.4766 12:-4.78067 13:1.44865 14:66.8122 15:5.12618 16:3.33069 17:-0.251926 18:2.86108 19:-0.894815 20:-0.0102016 21:-2.20716 22:0.918008 23:-0.997251 24:1.34928 25:-1.41392 26:0.989982
-0.23966016846231053 1:231.147 2:20.0772 3:14.4495 4:-3.30718 5:11.0762 6:-2.15163 7:-1.58109 8:-9.47105 9:5.20264 10:-0.359305 11:2.43379 12:-5.19694 13:5.45779 14:66.8122 15:5.12618 16:3.33069 17:-0.251926 18:2.86108 19:-0.894815 20:-0.0102016 21:-2.20716 22:0.918008 23:-0.997251 24:1.34928 25:-1.41392 26:0.989982
-0.13058882077672565 1:222.101 2:19.909 3:12.3448 4:-0.903297 5:9.66358 6:-0.990734 7:1.06626 8:-7.18266 9:4.26603 10:-4.17301 11:4.08598 12:-4.61685 13:5.88687 14:66.8122 15:5.12618 16:3.33069 17:-0.251926 18:2.86108 19:-0.894815 20:-0.0102016 21:-2.20716 22:0.918008 23:-0.997251 24:1.34928 25:-1.41392 26:0.989982
-0.46958178116831739 1:222.101 2:19.909 3:12.3448 4:-0.903297 5:9.66358 6:-0.990734 7:1.06626 8:-7.18266 9:4.26603 10:-4.17301 11:4.08598 12:-4.61685 13:5.88687 14:222.101 15:19.909 16:12.3448 17:-0.903297 18:9.66358 19:-0.990734 20:1.06626 21:-7.18266 22:4.26603 23:-4.17301 24:4.08598 25:-4.61685 26:5.88687
-0.32293647051866214 1:220.444 2:14.8612 3:8.71249 4:0.0308222 5:9.54215 6:-4.66898 7:-0.527299 8:-7.60455 9:2.38938 10:-3.31264 11:4.39747 12:-5.1 13:1.99519 14:220.444 15:14.8612 16:8.71249 17:0.0308222 18:9.54215 19:-4.66898 20:-0.527299 21:-7.60455 22:2.38938 23:-3.31264 24:4.39747 25:-5.1 26:1.99519
-0.72731287550499024 1:-1500 2:1.44711e-07 3:9.96791e-06 4:-1.45779e-06 5:-1.61451e-05 6:-3.85156e-06 7:3.92767e-06 8:5.21158e-06 9:-7.71489e-06 10:-1.09161e-06 11:-6.57972e-07 12:-5.02876e-07 13:-2.09301e-06 14:-1500 15:1.44711e-07 16:9.96791e-06 17:-1.45779e-06 18:-1.61451e-05 19:-3.85156e-06 20:3.92767e-06 21:5.21158e-06 22:-7.71489e-06 23:-1.09161e-06 24:-6.57972e-07 25:-5.02876e-07 26:-2.09301e-06
-0.64823148867641378 1:226.021 2:2.06153 3:3.94278 4:-3.91428 5:2.18888 6:-1.02092 7:4.39876 8:-3.9609 9:1.45566 10:-0.824974 11:5.85084 12:0.128086 13:3.01868 14:226.021 15:2.06153 16:3.94278 17:-3.91428 18:2.18888 19:-1.02092 20:4.39876 21:-3.9609 22:1.45566 23:-0.824974 24:5.85084 25:0.128086 26:3.01868
-0.35560804021401321 1:224.109 2:2.65688 3:4.04867 4:-3.719 5:1.28896 6:-3.40367 7:2.79115 8:-3.24846 9:3.06859 10:-0.0493555 11:3.8745 12:-3.08989 13:3.47792 14:90.7026 15:6.08407 16:0.661571 17:-0.30861 18:3.4507 19:-0.597162 20:1.16653 21:-1.78564 22:1.40929 23:-3.23493 24:0.695903 25:-0.587647 26:1.15586
-0.36742790302442446 1:237.648 2:2.39119 3:-2.31492 4:1.38568 5:6.50354 6:-4.90741 7:0.829027 8:-3.30457 9:3.92934 10:-5.57705 11:4.07695 12:-0.91316 13:0.565668 14:90.7026 15:6.08407 16:0.661571 17:-0.30861 18:3.4507 19:-0.597162 20:1.16653 21:-1.78564 22:1.40929 23:-3.23493 24:0.695903 25:-0.587647 26:1.15586
-0.84281901210763366 1:250.726 2:11.9051 3:11.7443 4:2.86573 5:7.46345 6:0.193984 7:8.79448 8:-3.40918 9:4.89038 10:-3.81251 11:1.9375 12:-3.56676 13:2.73904 14:90.7026 15:6.08407 16:0.661571 17:-0.30861 18:3.4507 19:-0.597162 20:1.16653 21:-1.78564 22:1.40929 23:-3.23493 24:0.695903 25:-0.587647 26:1.15586
-0.29073934149934683 1:262.423 2:17.1645 3:8.57304 4:1.59172 5:6.72115 6:-0.33907 7:11.2587 8:-3.34198 9:5.37262 10:-3.31644 11:2.05958 12:-6.06732 13:4.06137 14:90.7026 15:6.08407 16:0.661571 17:-0.30861 18:3.4507 19:-0.597162 20:1.16653 21:-1.78564 22:1.40929 23:-3.23493 24:0.695903 25:-0.587647 26:1.15586
-0.22041065007782273 1:292.99 2:23.7173 3:6.45199 4:-3.08512 5:6.15672 6:-5.31837 7:4.54298 8:-5.95453 9:8.27981 10:-5.25165 11:4.86156 12:-2.419 13:4.4798 14:90.7026 15:6.08407 16:0.661571 17:-0.30861 18:3.4507 19:-0.597162 20:1.16653 21:-1.78564 22:1.40929 23:-3.23493 24:0.695903 25:-0.587647 26:1.15586
-0.29676282756031108 1:310.952 2:27.178 3:0.854242 4:-5.93199 5:2.08574 6:-13.2714 7:5.85224 8:-1.46911 9:7.78211 10:-6.16034 11:6.40105 12:-4.35148 13:4.29005 14:90.7026 15:6.08407 16:0.661571 17:-0.30861 18:3.4507 19:-0.597162 20:1.16653 21:-1.78564 22:1.40929 23:-3.23493 24:0.695903 25:-0.587647 26:1.15586
-0.09387132036113581 1:325.939 2:26.6744 3:-6.33959 4:-6.75942 5:4.23888 6:-11.0009 7:5.32901 8:-3.36123 9:7.41522 10:-8.4265 11:7.07522 12:-1.60146 13:5.38108 14:90.7026 15:6.08407 16:0.661571 17:-0.30861 18:3.4507 19:-0.597162 20:1.16653 21:-1.78564 22:1.40929 23:-3.23493 24:0.695903 25:-0.587647 26:1.15586
-0.80761580469952043 1:335.089 2:23.176 3:-11.2513 4:-6.40263 5:10.0259 6:-8.86961 7:1.97456 8:-5.84203 9:7.32867 10:-6.91291 11:8.54586 12:-1.60589 13:4.18275 14:90.7026 15:6.08407 16:0.661571 17:-0.30861 18:3.4507 19:-0.597162 20:1.16653 21:-1.78564 22:1.40929 23:-3.23493 24:0.695903 25:-0.587647 26:1.15586
-0.38773665131318624 1:302 2:18.2191 3:-2.5069 4:-3.12168 5:17.6204 6:-2.00708 7:6.52108 8:-3.80619 9:5.78766 10:-2.70797 11:4.15852 12:-3.32756 13:1.90645 14:90.7026 15:6.08407 16:0.661571 17:-0.30861 18:3.4507 19:-0.597162 20:1.16653 21:-1.78564 22:1.40929 23:-3.23493 24:0.695903 25:-0.587647 26:1.15586
-0.35554159564310039 1:285.415 2:13.2012 3:1.29594 4:-4.04919 5:12.0928 6:-1.41336 7:3.48113 8:-2.91703 9:2.92072 10:-3.5878 11:4.15513 12:-1.49918 13:2.86456 14:90.7026 15:6.08407 16:0.661571 17:-0.30861 18:3.4507 19:-0.597162 20:1.16653 21:-1.78564 22:1.40929 23:-3.23493 24:0.695903 25:-0.587647 26:1.15586
-0.76424596480175899 1:293.968 2:19.3417 3:6.45271 4:-6.58752 5:10.5189 6:-3.21335 7:2.22587 8:-2.14621 9:6.61756 10:-7.28321 11:3.70133 12:-4.6853 13:1.91438 14:90.7026 15:6.08407 16:0.661571 17:-0.30861 18:3.4507 19:-0.597162 20:1.16653 21:-1.78564 22:1.40929 23:-3.23493 24:0.695903 25:-0.587647 26:1.15586
-0.22035743855646103 1:309.766 2:28.3023 3:7.64508 4:-6.20017 5:9.29876 6:-9.71653 7:-3.82244 8:-6.7669 9:8.82325 10:-5.31499 11:3.85732 12:-4.58222 13:4.89623 14:90.7026 15:6.08407 16:0.661571 17:-0.30861 18:3.4507 19:-0.597162 20:1.16653 21:-1.78564 22:1.40929 23:-3.23493 24:0.695903 25:-0.587647 26:1.15586
-0.39643383724760867 1:312.939 2:28.627 3:1.22183 4:-10.322 5:6.10961 6:-5.73727 7:5.19627 8:-6.90892 9:6.90685 10:-9.13378 11:1.29119 12:0.490912 13:5.36365 14:90.7026 15:6.08407 16:0.661571 17:-0.30861 18:3.4507 19:-0.597162 20:1.16653 21:-1.78564 22:1.40929 23:-3.23493 24:0.695903 25:-0.587647 26:1.15586
-0.36497645873902018 1:311.177 2:15.4453 3:-4.17784 4:12.0879 5:17.5349 6:-5.53763 7:4.48706 8:-7.83125 9:7.00924 10:-8.18729 11:4.012 12:-2.51635 13:2.65191 14:90.7026 15:6.08407 16:0.661571 17:-0.30861 18:3.4507 19:-0.597162 20:1.16653 21:-1.78564 22:1.40929 23:-3.23493 24:0.695903 25:-0.587647 26:1.15586
-0.43957930223973835 1:308.681 2:10.7893 3:4.96643 4:5.40829 5:13.0186 6:-2.45884 7:2.50362 8:-5.97409 9:9.03401 10:-5.83335 11:-0.271393 12:-1.09521 13:1.23645 14:90.7026 15:6.08407 16:0.661571 17:-0.30861 18:3.4507 19:-0.597162 20:1.16653 21:-1.78564 22:1.40929 23:-3.23493 24:0.695903 25:-0.587647 26:1.15586
-0.71063258755207459 1:304.289 2:-1.39905 3:13.385 4:2.84339 5:4.17402 6:1.53205 7:0.222179 8:-3.94994 9:5.93101 10:-3.68301 11:-0.780771 12:-1.13765 13:-0.801863 14:90.7026 15:6.08407 16:0.661571 17:-0.30861 18:3.4507 19:-0.597162 20:1.16653 21:-1.78564 22:1.40929 23:-3.23493 24:0.695903 25:-0.587647 26:1.15586
-0.24574301694335551 1:293.725 2:-20.4889 3:14.4508 4:6.01731 5:2.78172 6:3.34311 7:0.663081 8:-2.77744 9:1.60797 10:-2.94588 11:-0.207626 12:-0.621771 13:-2.67987 14:90.7026 15:6.08407 16:0.661571 17:-0.30861 18:3.4507 19:-0.597162 20:1.16653 21:-1.78564 22:1.40929 23:-3.23493 24:0.695903 25:-0.587647 26:1.15586
-0.12356243791503138 1:296.418 2:-18.5065 3:11.7535 4:1.88009 5:-0.205168 6:0.168328 7:-0.341508 8:0.318821 9:5.09148 10:0.118526 11:1.60759 12:0.759554 13:-0.333832 14:90.7026 15:6.08407 16:0.661571 17:-0.30861 18:3.4507 19:-0.597162 20:1.16653 21:-1.78564 22:1.40929 23:-3.23493 24:0.695903 25:-0.587647 26:1.15586
-0.44499864014002682 1:286.869 2:-18.6776 3:8.20188 4:1.61713 5:4.73179 6:2.27211 7:-3.12522 8:-0.135743 9:5.86239 10:-1.15367 11:0.563818 12:0.00537978 13:-2.73125 14:90.7026 15:6.08407 16:0.661571 17:-0.30861 18:3.4507 19:-0.597162 20:1.16653 21:-1.78564 22:1.40929 23:-3.23493 24:0.695903 25:-0.587647 26:1.15586
-0.21143885227036593 1:271.47 2:-10.8933 3:8.12534 4:2.22219 5:3.52952 6:-1.18455 7:-1.9134 8:-0.4305 9:4.15586 10:-3.18848 11:1.03137 12:0.844421 13:0.55047 14:90.7026 15:6.08407 16:0.661571 17:-0.30861 18:3.4507 19:-0.597162 20:1.16653 21:-1.78564 22:1.40929 23:-3.23493 24:0.695903 25:-0.587647 26:1.15586
-0.086461498406238332 1:296.292 2:8.92022 3:-0.81235 4:9.27271 5:22.0302 6:0.688772 7:-0.818427 8:-6.21464 9:8.26734 10:-7.95137 11:3.46331 12:-0.74664 13:4.18804 14:90.7026 15:6.08407 16:0.661571 17:-0.30861 18:3.4507 19:-0.597162 20:1.16653 21:-1.78564 22:1.40929 23:-3.23493 24:0.695903 25:-0.587647 26:1.15586
-0.0385061487156542 1:298.731 2:4.32935 3:3.93267 4:6.7809 5:21.8326 6:1.20291 7:-2.50923 8:-5.94666 9:7.1377 10:-3.25165 11:3.2443 12:-2.04788 13:1.11585 14:90.7026 15:6.08407 16:0.661571 17:-0.30861 18:3.4507 19:-0.597162 20:1.16653 21:-1.78564 22:1.40929 23:-3.23493 24:0.695903 25:-0.587647 26:1.15586
-0.053422219205964371 1:292.43 2:-4.94867 3:14.5885 4:0.677404 5:13.7242 6:7.5307 7:0.55696 8:-4.62073 9:4.05373 10:-0.322279 11:-0.129289 12:0.00171485 13:-2.17016 14:90.7026 15:6.08407 16:0.661571 17:-0.30861 18:3.4507 19:-0.597162 20:1.16653 21:-1.78564 22:1.40929 23:-3.23493 24:0.695903 25:-0.587647 26:1.15586
-0.91810410521819896 1:288.509 2:-5.04141 3:14.9616 4:1.13253 5:13.9614 6:7.96671 7:-0.224323 8:-4.73171 9:3.09653 10:0.00178219 11:1.47686 12:-0.309522 13:-1.06507 14:90.7026 15:6.08407 16:0.661571 17:-0.30861 18:3.4507 19:-0.597162 20:1.16653 21:-1.78564 22:1.40929 23:-3.23493 24:0.695903 25:-0.587647 26:1.15586
-0.12565069797617365 1:282.718 2:0.149322 3:8.87622 4:6.60931 5:10.3853 6:2.8037 7:4.22358 8:-4.17365 9:1.31305 10:-3.39581 11:4.03289 12:-1.26706 13:1.52879 14:90.7026 15:6.08407 16:0.661571 17:-0.30861 18:3.4507 19:-0.597162 20:1.16653 21:-1.78564 22:1.40929 23:-3.23493 24:0.695903 25:-0.587647 26:1.15586
-0.12622589363374107 1:274.149 2:5.32397 3:11.347 4:4.42852 5:10.1176 6:0.271307 7:4.37398 8:-3.49707 9:3.20839 10:-2.83203 11:3.24355 12:-2.92625 13:2.05895 14:90.7026 15:6.08407 16:0.661571 17:-0.30861 18:3.4507 19:-0.597162 20:1.16653 21:-1.78564 22:1.40929 23:-3.23493 24:0.695903 25:-0.587647 26:1.15586
-1.7745062843140753 1:263.81 2:7.22341 3:13.0369 4:4.27046 5:11.4596 6:2.16518 7:4.89289 8:-6.06672 9:2.2915 10:-3.82544 11:4.41429 12:-1.87558 13:0.703428 14:90.7026 15:6.08407 16:0.661571 17:-0.30861 18:3.4507 19:-0.597162 20:1.16653 21:-1.78564 22:1.40929 23:-3.23493 24:0.695903 25:-0.587647 26:1.15586
-0.59273792641013445 1:289.393 2:16.2099 3:4.20231 4:0.25472 5:12.942 6:-2.024 7:7.05812 8:-2.34368 9:5.92513 10:-5.57972 11:0.821649 12:-3.94952 13:7.11099 14:90.7026 15:6.08407 16:0.661571 17:-0.30861 18:3.4507 19:-0.597162 20:1.16653 21:-1.78564 22:1.40929 23:-3.23493 24:0.695903 25:-0.587647 26:1.15586
-0.17658560436628676 1:312.44 2:13.4022 3:-6.08301 4:7.59494 5:18.2117 6:-6.08051 7:4.63064 8:-2.72719 9:6.75775 10:-5.88311 11:3.92228 12:-5.81568 13:3.09347 14:90.7026 15:6.08407 16:0.661571 17:-0.30861 18:3.4507 19:-0.597162 20:1.16653 21:-1.78564 22:1.40929 23:-3.23493 24:0.695903 25:-0.587647 26:1.15586
-0.30606251099465004 1:287.465 2:19.9014 3:-4.4102 4:4.725 5:18.6928 6:-3.7427 7:5.72119 8:-6.35886 9:4.77915 10:-2.99202 11:7.41788 12:-5.43209 13:4.81759 14:90.7026 15:6.08407 16:0.661571 17:-0.30861 18:3.4507 19:-0.597162 20:1.16653 21:-1.78564 22:1.40929 23:-3.23493 24:0.695903 25:-0.587647 26:1.15586
-0.98284152033838013 1:276.57 2:16.7453 3:-0.755893 4:0.342576 5:12.9644 6:-3.32002 7:6.18721 8:-7.39133 9:2.03171 10:-2.48162 11:5.94728 12:-4.89846 13:4.73729 14:90.7026 15:6.08407 16:0.661571 17:-0.30861 18:3.4507 19:-0.597162 20:1.16653 21:-1.78564 22:1.40929 23:-3.23493 24:0.695903 25:-0.587647 26:1.15586
-0.038722004496388608 1:263.378 2:11.3239 3:-4.04645 4:-0.535383 5:14.003 6:-4.61616 7:1.93504 8:-4.07327 9:4.75148 10:-1.32425 11:6.14673 12:-1.92828 13:5.48137 14:90.7026 15:6.08407 16:0.661571 17:-0.30861 18:3.4507 19:-0.597162 20:1.16653 21:-1.78564 22:1.40929 23:-3.23493 24:0.695903 25:-0.587647 26:1.15586
-0.43678997095163852 1:274.96 2:5.26091 3:1.5247 4:-2.24494 5:9.5937 6:-1.40421 7:1.73749 8:-2.95803 9:5.17523 10:-4.35613 11:4.9538 12:0.474552 13:1.69558 14:90.7026 15:6.08407 16:0.661571 17:-0.30861 18:3.4507 19:-0.597162 20:1.16653 21:-1.78564 22:1.40929 23:-3.23493 24:0.695903 25:-0.587647 26:1.15586
-0.29160057172420473 1:297.75 2:36.1921 3:4.44753 4:-13.7231 5:8.11416 6:-13.1073 7:-0.379844 8:-5.36526 9:11.0469 10:-6.19029 11:2.13672 12:-6.39933 13:6.9417 14:90.7026 15:6.08407 16:0.661571 17:-0.30861 18:3.4507 19:-0.597162 20:1.16653 21:-1.78564 22:1.40929 23:-3.23493 24:0.695903 25:-0.587647 26:1.15586
-0.16708926433605523 1:290.438 2:30.9862 3:6.28716 4:-12.3044 5:2.93428 6:-8.4929 7:1.27658 8:-4.14912 9:11.8303 10:-6.19585 11:3.4024 12:-4.0628 13:6.19035 14:90.7026 15:6.08407 16:0.661571 17:-0.30861 18:3.4507 19:-0.597162 20:1.16653 21:-1.78564 22:1.40929 23:-3.23493 24:0.695903 25:-0.587647 26:1.15586
-0.16309973196817865 1:292.209 2:23.2932 3:8.23264 4:-9.13254 5:4.87259 6:-10.4021 7:4.04008 8:-0.975704 9:7.09848 10:-7.22026 11:3.7388 12:-1.27145 13:2.48942 14:90.7026 15:6.08407 16:0.661571 17:-0.30861 18:3.4507 19:-0.597162 20:1.16653 21:-1.78564 22:1.40929 23:-3.23493 24:0.695903 25:-0.587647 26:1.15586
-1.2164183215661866 1:278.009 2:1.90227 3:10.3728 4:-3.31967 5:-3.35347 6:-0.0329769 7:1.56094 8:-3.80079 9:6.63245 10:-4.95242 11:2.1467 12:3.17542 13:3.31497 14:90.7026 15:6.08407 16:0.661571 17:-0.30861 18:3.4507 19:-0.597162 20:1.16653 21:-1.78564 22:1.40929 23:-3.23493 24:0.695903 25:-0.587647 26:1.15586
-0.19438002388618608 1:287.657 2:-10.4247 3:14.1122 4:-0.92195 5:-6.99452 6:-1.01872 7:0.354775 8:-0.13831 9:4.93231 10:0.939342 11:2.98814 12:-0.602052 13:1.54914 14:90.7026 15:6.08407 16:0.661571 17:-0.30861 18:3.4507 19:-0.597162 20:1.16653 21:-1.78564 22:1.40929 23:-3.23493 24:0.695903 25:-0.587647 26:1.15586
-0.38876136210794027 1:289.952 2:-11.7795 3:17.6286 4:-3.87564 5:-10.5813 6:-0.37308 7:0.660352 8:-1.98027 9:3.51411 10:-1.62387 11:1.38744 12:1.0274 13:0.553676 14:90.7026 15:6.08407 16:0.661571 17:-0.30861 18:3.4507 19:-0.597162 20:1.16653 21:-1.78564 22:1.40929 23:-3.23493 24:0.695903 25:-0.587647 26:1.15586
-0.025723517866513033 1:280.453 2:-16.1408 3:15.3963 4:-2.09074 5:-9.26872 6:0.55414 7:2.84321 8:-1.48884 9:4.39477 10:-0.238822 11:0.693378 12:0.86195 13:-0.927567 14:90.7026 15:6.08407 16:0.661571 17:-0.30861 18:3.4507 19:-0.597162 20:1.16653 21:-1.78564 22:1.40929 23:-3.23493 24:0.695903 25:-0.587647 26:1.15586
-0.43923467504832725 1:277.991 2:-21.7679 3:11.0324 4:-2.76317 5:-8.53713 6:0.0923409 7:2.40003 8:-1.70877 9:3.83187 10:-0.0996964 11:-1.13766 12:-0.227602 13:-1.32535 14:90.7026 15:6.08407 16:0.661571 17:-0.30861 18:3.4507 19:-0.597162 20:1.16653 21:-1.78564 22:1.40929 23:-3.23493 24:0.695903 25:-0.587647 26:1.15586
-0.071954370012619992 1:276.029 2:-19.7235 3:8.93154 4:5.43212 5:-6.24012 6:-3.37142 7:4.98949 8:-3.23149 9:3.48575 10:2.26786 11:1.63288 12:1.86727 13:0.987046 14:90.7026 15:6.08407 16:0.661571 17:-0.30861 18:3.4507 19:-0.597162 20:1.16653 21:-1.78564 22:1.40929 23:-3.23493 24:0.695903 25:-0.587647 26:1.15586
-1.5021780195282548 1:273.515 2:-12.2649 3:2.75406 4:4.39733 5:0.74679 6:-4.44703 7:2.10355 8:-2.71548 9:0.622919 10:-0.949896 11:1.96408 12:-0.295674 13:0.638244 14:90.7026 15:6.08407 16:0.661571 17:-0.30861 18:3.4507 19:-0.597162 20:1.16653 21:-1.78564 22:1.40929 23:-3.23493 24:0.695903 25:-0.587647 26:1.15586
-0.9074909715877213 1:260.43 2:-5.1628 3:3.28505 4:0.787318 5:-0.655122 6:-4.7766 7:5.19043 8:-1.25443 9:-0.421161 10:-2.13884 11:2.42171 12:-0.453313 13:3.1638 14:90.7026 15:6.08407 16:0.661571 17:-0.30861 18:3.4507 19:-0.597162 20:1.16653 21:-1.78564 22:1.40929 23:-3.23493 24:0.695903 25:-0.587647 26:1.15586
-0.34929062028609681 1:255.381 2:-3.55103 3:4.30854 4:1.36567 5:1.89987 6:-0.0997556 7:6.10255 8:-3.00306 9:1.02137 10:-1.75402 11:3.00584 12:-1.65859 13:2.25165 14:90.7026 15:6.08407 16:0.661571 17:-0.30861 18:3.4507 19:-0.597162 20:1.16653 21:-1.78564 22:1.40929 23:-3.23493 24:0.695903 25:-0.587647 26:1.15586
-0.54379002473194249 1:250.598 2:-2.36521 3:4.74848 4:2.75947 5:2.0923 6:-0.784249 7:6.35591 8:-2.59788 9:1.26826 10:-2.2987 11:2.77885 12:-3.06142 13:2.56218 14:90.7026 15:6.08407 16:0.661571 17:-0.30861 18:3.4507 19:-0.597162 20:1.16653 21:-1.78564 22:1.40929 23:-3.23493 24:0.695903 25:-0.587647 26:1.15586
-0.16678397080164276 1:258.307 2:6.2645 3:9.6914 4:3.97542 5:3.54404 6:-2.85889 7:5.77651 8:-1.84604 9:3.86672 10:-4.77737 11:2.79696 12:-4.34168 13:3.03867 14:90.7026 15:6.08407 16:0.661571 17:-0.30861 18:3.4507 19:-0.597162 20:1.16653 21:-1.78564 22:1.40929 23:-3.23493 24:0.695903 25:-0.587647 26:1.15586
-0.77986047810709602 1:271.661 2:25.7278 3:10.5693 4:-7.6315 5:7.1769 6:-3.81844 7:4.54632 8:-4.38727 9:4.90668 10:-6.69939 11:2.2297 12:-5.80783 13:5.97663 14:90.7026 15:6.08407 16:0.661571 17:-0.30861 18:3.4507 19:-0.597162 20:1.16653 21:-1.78564 22:1.40929 23:-3.23493 24:0.695903 25:-0.587647 26:1.15586
-0.76786473979912728 1:238.358 2:10.8084 3:12.299 4:-0.233141 5:7.38801 6:0.160181 7:7.71083 8:-1.20525 9:4.94101 10:-4.12625 11:4.45298 12:-3.08564 13:2.88032 14:90.7026 15:6.08407 16:0.661571 17:-0.30861 18:3.4507 19:-0.597162 20:1.16653 21:-1.78564 22:1.40929 23:-3.23493 24:0.695903 25:-0.587647 26:1.15586
-0.36722886367341995 1:226.768 2:0.22291 3:3.39514 4:-0.997591 5:4.88837 6:0.539731 7:4.23238 8:-4.68329 9:1.95473 10:-2.50604 11:1.72358 12:-2.30738 13:3.78714 14:90.7026 15:6.08407 16:0.661571 17:-0.30861 18:3.4507 19:-0.597162 20:1.16653 21:-1.78564 22:1.40929 23:-3.23493 24:0.695903 25:-0.587647 26:1.15586
-0.40176052890669467 1:224.683 2:0.803456 3:2.45006 4:0.00301554 5:6.80894 6:1.46572 7:6.35978 8:0.225369 9:6.09365 10:-0.43394 11:2.78009 12:-3.12445 13:3.11388 14:90.7026 15:6.08407 16:0.661571 17:-0.30861 18:3.4507 19:-0.597162 20:1.16653 21:-1.78564 22:1.40929 23:-3.23493 24:0.695903 25:-0.587647 26:1.15586
-2.2524427356788692 1:225.303 2:5.07261 3:3.9645 4:-2.8663 5:3.62573 6:-4.78718 7:2.7609 8:-3.34517 9:2.25369 10:-0.758152 11:1.88787 12:-3.62408 13:2.50053 14:90.7026 15:6.08407 16:0.661571 17:-0.30861 18:3.4507 19:-0.597162 20:1.16653 21:-1.78564 22:1.40929 23:-3.23493 24:0.695903 25:-0.587647 26:1.15586
-0.55694333233183602 1:231.071 2:8.24142 3:7.93958 4:-3.60209 5:2.20646 6:-4.2735 7:4.0879 8:-3.01801 9:3.36987 10:-1.52857 11:3.99113 12:-2.25225 13:1.84326 14:90.7026 15:6.08407 16:0.661571 17:-0.30861 18:3.4507 19:-0.597162 20:1.16653 21:-1.78564 22:1.40929 23:-3.23493 24:0.695903 25:-0.587647 26:1.15586
-0.893956110749619 1:274.072 2:21.3857 3:19.9377 4:-2.25318 5:2.8708 6:-9.34948 7:4.00378 8:-5.3831 9:3.84607 10:-0.764326 11:4.33389 12:-4.86233 13:4.16826 14:90.7026 15:6.08407 16:0.661571 17:-0.30861 18:3.4507 19:-0.597162 20:1.16653 21:-1.78564 22:1.40929 23:-3.23493 24:0.695903 25:-0.587647 26:1.15586
-0.3020643895296834 1:281.361 2:30.2457 3:14.8403 4:-1.63511 5:8.62637 6:-10.2504 7:-1.89522 8:-8.94689 9:8.25853 10:-4.5163 11:6.097 12:-6.08989 13:5.90074 14:90.7026 15:6.08407 16:0.661571 17:-0.30861 18:3.4507 19:-0.597162 20:1.16653 21:-1.78564 22:1.40929 23:-3.23493 24:0.695903 25:-0.587647 26:1.15586
-1.4503278395409531 1:296.48 2:24.4151 3:15.1586 4:-0.437875 5:8.309 6:-8.7422 7:-2.60271 8:-8.22611 9:6.58551 10:-3.49356 11:4.78614 12:-4.56387 13:5.60177 14:90.7026 15:6.08407 16:0.661571 17:-0.30861 18:3.4507 19:-0.597162 20:1.16653 21:-1.78564 22:1.40929 23:-3.23493 24:0.695903 25:-0.587647 26:1.15586
-0.96227317312791427 1:279.777 2:23.9135 3:12.5976 4:0.47422 5:9.33341 6:-6.8815 7:1.87877 8:-4.95955 9:8.69108 10:-2.98588 11:3.6456 12:-5.79573 13:6.12849 14:90.7026 15:6.08407 16:0.661571 17:-0.30861 18:3.4507 19:-0.597162 20:1.16653 21:-1.78564 22:1.40929 23:-3.23493 24:0.695903 25:-0.587647 26:1.15586
-1.1228145036462434 1:257.958 2:18.7648 3:14.1196 4:-0.851636 5:7.06842 6:-5.23311 7:2.23263 8:-6.4576 9:6.48007 10:-1.21071 11:3.77484 12:-5.46877 13:5.284 14:90.7026 15:6.08407 16:0.661571 17:-0.30861 18:3.4507 19:-0.597162 20:1.16653 21:-1.78564 22:1.40929 23:-3.23493 24:0.695903 25:-0.587647 26:1.15586
-0.38051873407138109 1:244.654 2:13.2921 3:11.42 4:-1.59567 5:3.41162 6:-6.36179 7:0.874464 8:-4.97324 9:5.64039 10:1.29904 11:5.57601 12:-3.16254 13:5.50305 14:90.7026 15:6.08407 16:0.661571 17:-0.30861 18:3.4507 19:-0.597162 20:1.16653 21:-1.78564 22:1.40929 23:-3.23493 24:0.695903 25:-0.587647 26:1.15586
-0.0203313492332074 1:270.144 2:11.4164 3:3.62695 4:-7.53383 5:4.65003 6:-3.05907 7:0.279443 8:-3.6519 9:6.12138 10:-3.49952 11:5.36598 12:-0.620295 13:4.23661 14:90.7026 15:6.08407 16:0.661571 17:-0.30861 18:3.4507 19:-0.597162 20:1.16653 21:-1.78564 22:1.40929 23:-3.23493 24:0.695903 25:-0.587647 26:1.15586
-0.3917038074453667 1:315.061 2:26.5777 3:-2.36518 4:0.204763 5:10.455 6:-3.35618 7:7.57486 8:-8.58559 9:4.64391 10:-8.59233 11:2.67041 12:-5.21945 13:6.84929 14:90.7026 15:6.08407 16:0.661571 17:-0.30861 18:3.4507 19:-0.597162 20:1.16653 21:-1.78564 22:1.40929 23:-3.23493 24:0.695903 25:-0.587647 26:1.15586
-0.024279758916990097 1:322.055 2:26.1315 3:-6.50688 4:1.54091 5:10.7534 6:-4.40878 7:8.26108 8:-10.8038 9:5.77617 10:-8.36118 11:3.67585 12:-3.83921 13:5.59925 14:90.7026 15:6.08407 16:0.661571 17:-0.30861 18:3.4507 19:-0.597162 20:1.16653 21:-1.78564 22:1.40929 23:-3.23493 24:0.695903 25:-0.587647 26:1.15586
-0.088748816331288671 1:322.013 2:22.428 3:-7.606 4:0.525248 5:13.6034 6:-5.59351 7:5.01425 8:-7.67779 9:6.21681 10:-4.4472 11:6.96107 12:-4.81141 13:3.33343 14:90.7026 15:6.08407 16:0.661571 17:-0.30861 18:3.4507 19:-0.597162 20:1.16653 21:-1.78564 22:1.40929 23:-3.23493 24:0.695903 25:-0.587647 26:1.15586
-0.25116631601714645 1:303.165 2:22.8177 3:-2.00154 4:-2.89427 5:9.31155 6:-4.98919 7:7.28696 8:-4.92292 9:4.94051 10:-6.29447 11:7.91456 12:-2.22093 13:3.36194 14:90.7026 15:6.08407 16:0.661571 17:-0.30861 18:3.4507 19:-0.597162 20:1.16653 21:-1.78564 22:1.40929 23:-3.23493 24:0.695903 25:-0.587647 26:1.15586
-0.5827907488417795 1:304.216 2:9.36513 3:6.1708 4:0.902336 5:13.0152 6:0.687447 7:-0.132438 8:-4.29191 9:4.22388 10:-4.27641 11:5.66291 12:2.02057 13:-0.207324 14:90.7026 15:6.08407 16:0.661571 17:-0.30861 18:3.4507 19:-0.597162 20:1.16653 21:-1.78564 22:1.40929 23:-3.23493 24:0.695903 25:-0.587647 26:1.15586
-0.84381760660819161 1:310.283 2:13.1616 3:3.90987 4:0.0150944 5:15.8206 6:1.19456 7:0.680946 8:-4.314 9:3.58583 10:-7.45975 11:5.29167 12:1.14084 13:0.570418 14:90.7026 15:6.08407 16:0.661571 17:-0.30861 18:3.4507 19:-0.597162 20:1.16653 21:-1.78564 22:1.40929 23:-3.23493 24:0.695903 25:-0.587647 26:1.15586
-0.023684927874143578 1:318.347 2:22.4599 3:-2.96303 4:1.40488 5:16.9175 6:-2.30952 7:1.77015 8:-8.46317 9:2.87861 10:-13.1124 11:6.03366 12:-0.857646 13:1.04615 14:90.7026 15:6.08407 16:0.661571 17:-0.30861 18:3.4507 19:-0.597162 20:1.16653 21:-1.78564 22:1.40929 23:-3.23493 24:0.695903 25:-0.587647 26:1.15586
-0.56027521698251503 1:287.521 2:5.7685 3:6.70087 4:2.96609 5:5.35412 6:2.25749 7:4.35351 8:-4.84632 9:4.9665 10:-4.89017 11:3.34615 12:-0.0735712 13:1.27285 14:90.7026 15:6.08407 16:0.661571 17:-0.30861 18:3.4507 19:-0.597162 20:1.16653 21:-1.78564 22:1.40929 23:-3.23493 24:0.695903 25:-0.587647 26:1.15586
-0.36724591683951996 1:304.063 2:25.5972 3:-1.59553 4:-1.37258 5:14.4353 6:-2.84641 7:3.82896 8:-7.29925 9:4.83393 10:-13.7829 11:3.17345 12:-1.67671 13:4.47403 14:304.063 15:25.5972 16:-1.59553 17:-1.37258 18:14.4353 19:-2.84641 20:3.82896 21:-7.29925 22:4.83393 23:-13.7829 24:3.17345 25:-1.67671 26:4.47403
-0.5138317941883781 1:308.123 2:26.0357 3:1.5243 4:-2.87909 5:13.0506 6:-4.46713 7:3.79398 8:-6.1544 9:4.6826 10:-12.2368 11:1.25442 12:-3.57597 13:5.12026 14:308.123 15:26.0357 16:1.5243 17:-2.87909 18:13.0506 19:-4.46713 20:3.79398 21:-6.1544 22:4.6826 23:-12.2368 24:1.25442 25:-3.57597 26:5.12026
-0.62764863983294938 1:180.028 2:0.569643 3:7.02923 4:1.39282 5:4.33454 6:-1.11081 7:-6.39086 8:-3.27156 9:3.47759 10:-4.10009 11:2.78209 12:-2.56623 13:6.14815 14:72.1786 15:2.81854 16:4.03008 17:2.23068 18:1.37026 19:-1.93691 20:-0.0186654 21:-2.03668 22:0.519122 23:-2.95656 24:1.33747 25:-1.41636 26:1.47752
-0.30680573020328944 1:204.819 2:3.3632 3:3.8463 4:-1.13205 5:3.42786 6:-2.78367 7:1.61329 8:-4.94406 9:0.804874 10:-1.25986 11:2.28542 12:-1.87516 13:4.20882 14:72.1786 15:2.81854 16:4.03008 17:2.23068 18:1.37026 19:-1.93691 20:-0.0186654 21:-2.03668 22:0.519122 23:-2.95656 24:1.33747 25:-1.41636 26:1.47752
-0.012373453361998642 1:247.668 2:19.3623 3:14.028 4:4.35786 5:6.3754 6:1.46297 7:5.37039 8:-10.5196 9:4.16926 10:-4.60391 11:8.93455 12:-4.76223 13:2.50042 14:72.1786 15:2.81854 16:4.03008 17:2.23068 18:1.37026 19:-1.93691 20:-0.0186654 21:-2.03668 22:0.519122 23:-2.95656 24:1.33747 25:-1.41636 26:1.47752
-0.34774144340790653 1:325.647 2:25.9736 3:5.79463 4:-13.5397 5:6.55867 6:-3.2402 7:5.37478 8:-7.9619 9:3.86037 10:0.0623641 11:3.86463 12:-3.75058 13:0.521119 14:72.1786 15:2.81854 16:4.03008 17:2.23068 18:1.37026 19:-1.93691 20:-0.0186654 21:-2.03668 22:0.519122 23:-2.95656 24:1.33747 25:-1.41636 26:1.47752
-0.20902559350068051 1:330.368 2:15.4671 3:-4.18072 4:-12.476 5:6.05163 6:-3.97902 7:3.6708 8:-4.13854 9:10.9672 10:-2.39222 11:1.63713 12:-3.07806 13:2.98191 14:72.1786 15:2.81854 16:4.03008 17:2.23068 18:1.37026 19:-1.93691 20:-0.0186654 21:-2.03668 22:0.519122 23:-2.95656 24:1.33747 25:-1.41636 26:1.47752
-0.0046805402902178848 1:333.724 2:16.5995 3:-3.23364 4:-10.3936 5:6.80916 6:-4.06229 7:2.77545 8:-3.80322 9:10.8513 10:-4.86258 11:-0.503013 12:-3.26561 13:2.97894 14:72.1786 15:2.81854 16:4.03008 17:2.23068 18:1.37026 19:-1.93691 20:-0.0186654 21:-2.03668 22:0.519122 23:-2.95656 24:1.33747 25:-1.41636 26:1.47752
-0.30626423779450962 1:341.564 2:8.30673 3:-2.23348 4:-3.47405 5:3.2844 6:-7.88486 7:3.42592 8:-0.53103 9:8.54166 10:-5.17829 11:2.98394 12:-2.38941 13:-0.192759 14:72.1786 15:2.81854 16:4.03008 17:2.23068 18:1.37026 19:-1.93691 20:-0.0186654 21:-2.03668 22:0.519122 23:-2.95656 24:1.33747 25:-1.41636 26:1.47752
-0.18195377340546628 1:337.381 2:7.27603 3:4.11139 4:-0.0332517 5:-1.12486 6:-8.40522 7:3.13473 8:0.0589153 9:3.92668 10:-2.26527 11:6.82411 12:-5.28866 13:1.62172 14:72.1786 15:2.81854 16:4.03008 17:2.23068 18:1.37026 19:-1.93691 20:-0.0186654 21:-2.03668 22:0.519122 23:-2.95656 24:1.33747 25:-1.41636 26:1.47752
-0.14988075583791791 1:301.018 2:18.2437 3:10.5128 4:-8.4034 5:0.433817 6:-0.480172 7:5.49192 8:-8.71456 9:-0.351627 10:-0.667036 11:3.2034 12:-1.96548 13:3.23199 14:72.1786 15:2.81854 16:4.03008 17:2.23068 18:1.37026 19:-1.93691 20:-0.0186654 21:-2.03668 22:0.519122 23:-2.95656 24:1.33747 25:-1.41636 26:1.47752
-0.034355401681784754 1:318.58 2:17.5932 3:12.0494 4:-9.6176 5:-1.50444 6:-2.10622 7:4.26373 8:-8.81992 9:-0.656031 10:-1.33357 11:2.58353 12:0.29254 13:5.17152 14:72.1786 15:2.81854 16:4.03008 17:2.23068 18:1.37026 19:-1.93691 20:-0.0186654 21:-2.03668 22:0.519122 23:-2.95656 24:1.33747 25:-1.41636 26:1.47752
-0.15972755591815316 1:326.825 2:17.4702 3:13.3197 4:-15.4316 5:-4.95227 6:-1.30347 7:2.00138 8:-8.19059 9:1.43087 10:-1.98436 11:4.71688 12:2.95084 13:5.36102 14:72.1786 15:2.81854 16:4.03008 17:2.23068 18:1.37026 19:-1.93691 20:-0.0186654 21:-2.03668 22:0.519122 23:-2.95656 24:1.33747 25:-1.41636 26:1.47752
-0.39152445287842141 1:333.464 2:16.9889 3:15.4168 4:-17.4675 5:-8.48447 6:0.175177 7:3.16243 8:-7.20104 9:3.24211 10:-1.04487 11:4.45792 12:-0.872292 13:2.97978 14:72.1786 15:2.81854 16:4.03008 17:2.23068 18:1.37026 19:-1.93691 20:-0.0186654 21:-2.03668 22:0.519122 23:-2.95656 24:1.33747 25:-1.41636 26:1.47752
-0.37747456896687293 1:347.189 2:13.9762 3:7.1928 4:-13.5519 5:-1.32573 6:-0.428624 7:0.918207 8:-9.18708 9:3.94215 10:2.63828 11:4.04718 12:-2.12735 13:1.19549 14:72.1786 15:2.81854 16:4.03008 17:2.23068 18:1.37026 19:-1.93691 20:-0.0186654 21:-2.03668 22:0.519122 23:-2.95656 24:1.33747 25:-1.41636 26:1.47752
-0.065548479399286722 1:350.508 2:10.3679 3:7.82862 4:-6.68501 5:4.63075 6:-4.80815 7:-3.78982 8:-5.08714 9:4.63253 10:0.09642 11:0.794422 12:-2.78538 13:4.52948 14:72.1786 15:2.81854 16:4.03008 17:2.23068 18:1.37026 19:-1.93691 20:-0.0186654 21:-2.03668 22:0.519122 23:-2.95656 24:1.33747 25:-1.41636 26:1.47752
-0.53669752430616902 1:355.506 2:5.14453 3:11.6852 4:1.6252 5:3.98331 6:-5.76571 7:-4.1564 8:-5.28353 9:3.75838 10:-6.92683 11:1.3556 12:1.27911 13:1.95874 14:72.1786 15:2.81854 16:4.03008 17:2.23068 18:1.37026 19:-1.93691 20:-0.0186654 21:-2.03668 22:0.519122 23:-2.95656 24:1.33747 25:-1.41636 26:1.47752
-0.29250019802295091 1:345.73 2:1.80146 3:19.2037 4:5.53105 5:2.24853 6:-0.903826 7:2.12732 8:-8.58491 9:1.79975 10:0.914396 11:2.92629 12:-4.51909 13:1.59777 14:72.1786 15:2.81854 16:4.03008 17:2.23068 18:1.37026 19:-1.93691 20:-0.0186654 21:-2.03668 22:0.519122 23:-2.95656 24:1.33747 25:-1.41636 26:1.47752
-0.43145530840576135 1:330.978 2:-0.368564 3:25.1853 4:8.56092 5:9.06962 6:2.77563 7:2.21732 8:-6.4483 9:1.978 10:-2.38068 11:-0.474228 12:-3.86245 13:3.79951 14:72.1786 15:2.81854 16:4.03008 17:2.23068 18:1.37026 19:-1.93691 20:-0.0186654 21:-2.03668 22:0.519122 23:-2.95656 24:1.33747 25:-1.41636 26:1.47752
-0.0071824210387329288 1:328.234 2:1.02809 3:25.8984 4:9.92727 5:6.46589 6:1.22059 7:2.29419 8:-7.7473 9:0.76478 10:-1.49342 11:1.03857 12:-7.28772 13:3.30408 14:72.1786 15:2.81854 16:4.03008 17:2.23068 18:1.37026 19:-1.93691 20:-0.0186654 21:-2.03668 22:0.519122 23:-2.95656 24:1.33747 25:-1.41636 26:1.47752
-0.10838031429321611 1:320.939 2:6.17799 3:23.419 4:11.005 5:3.70558 6:-0.150013 7:5.19956 8:-8.22392 9:0.163602 10:-5.61772 11:5.30783 12:-6.82139 13:3.64782 14:72.1786 15:2.81854 16:4.03008 17:2.23068 18:1.37026 19:-1.93691 20:-0.0186654 21:-2.03668 22:0.519122 23:-2.95656 24:1.33747 25:-1.41636 26:1.47752
-0.19388060883964001 1:315.469 2:9.96157 3:22.7896 4:10.0086 5:2.80466 6:0.227718 7:2.73669 8:-7.54789 9:2.2208 10:-7.54815 11:6.54757 12:-7.03669 13:4.1422 14:72.1786 15:2.81854 16:4.03008 17:2.23068 18:1.37026 19:-1.93691 20:-0.0186654 21:-2.03668 22:0.519122 23:-2.95656 24:1.33747 25:-1.41636 26:1.47752
-0.15802755000608978 1:300.953 2:-3.68434 3:15.0429 4:-1.0959 5:4.15401 6:2.5009 7:4.27966 8:0.991872 9:-2.42714 10:-3.89214 11:1.90828 12:-4.79216 13:2.53482 14:72.1786 15:2.81854 16:4.03008 17:2.23068 18:1.37026 19:-1.93691 20:-0.0186654 21:-2.03668 22:0.519122 23:-2.95656 24:1.33747 25:-1.41636 26:1.47752
-0.23022796456159239 1:287.459 2:-6.32883 3:6.117 4:-4.4075 5:-2.79949 6:-5.05076 7:-1.16217 8:0.0484709 9:2.50017 10:-4.31248 11:6.07745 12:-0.366986 13:-1.35839 14:72.1786 15:2.81854 16:4.03008 17:2.23068 18:1.37026 19:-1.93691 20:-0.0186654 21:-2.03668 22:0.519122 23:-2.95656 24:1.33747 25:-1.41636 26:1.47752
-0.042904734751932162 1:323.991 2:15.4147 3:20.2477 4:5.75176 5:1.26061 6:-4.49983 7:0.677441 8:-7.75986 9:4.45061 10:-9.10174 11:6.06053 12:-3.2014 13:3.8973 14:72.1786 15:2.81854 16:4.03008 17:2.23068 18:1.37026 19:-1.93691 20:-0.0186654 21:-2.03668 22:0.519122 23:-2.95656 24:1.33747 25:-1.41636 26:1.47752
-0.097237705477578401 1:329.703 2:13.7189 3:18.209 4:4.20533 5:3.35768 6:-5.07385 7:-2.88343 8:-5.18698 9:3.3328 10:-9.24746 11:7.66481 12:-3.36356 13:3.37649 14:72.1786 15:2.81854 16:4.03008 17:2.23068 18:1.37026 19:-1.93691 20:-0.0186654 21:-2.03668 22:0.519122 23:-2.95656 24:1.33747 25:-1.41636 26:1.47752
-0.16402172619288283 1:326.541 2:8.98229 3:20.7597 4:6.1945 5:0.641314 6:-10.4377 7:-2.36663 8:-5.53735 9:4.41898 10:-7.96094 11:3.73623 12:-3.24631 13:2.8602 14:72.1786 15:2.81854 16:4.03008 17:2.23068 18:1.37026 19:-1.93691 20:-0.0186654 21:-2.03668 22:0.519122 23:-2.95656 24:1.33747 25:-1.41636 26:1.47752
-0.023482503684801537 1:306.222 2:11.0837 3:13.5802 4:6.10988 5:4.68711 6:-9.97155 7:-2.2785 8:-9.2695 9:0.460491 10:-7.34696 11:7.13226 12:-5.81779 13:2.73004 14:72.1786 15:2.81854 16:4.03008 17:2.23068 18:1.37026 19:-1.93691 20:-0.0186654 21:-2.03668 22:0.519122 23:-2.95656 24:1.33747 25:-1.41636 26:1.47752
-0.17835051847346775 1:309.897 2:5.64344 3:19.8327 4:3.1287 5:-5.16817 6:-8.55564 7:-2.90044 8:-7.10614 9:1.96701 10:-7.4241 11:4.17228 12:-4.07402 13:2.95161 14:72.1786 15:2.81854 16:4.03008 17:2.23068 18:1.37026 19:-1.93691 20:-0.0186654 21:-2.03668 22:0.519122 23:-2.95656 24:1.33747 25:-1.41636 26:1.47752
-0.10858937264330099 1:277.706 2:6.43266 3:17.3461 4:6.67877 5:2.73585 6:-9.58001 7:-0.568312 8:-8.31714 9:-1.69715 10:-9.58032 11:6.05021 12:-5.3715 13:2.40527 14:72.1786 15:2.81854 16:4.03008 17:2.23068 18:1.37026 19:-1.93691 20:-0.0186654 21:-2.03668 22:0.519122 23:-2.95656 24:1.33747 25:-1.41636 26:1.47752
-0.30578559372460185 1:240.31 2:12.3681 3:13.8658 4:9.09956 5:6.63123 6:-10.3259 7:-0.468754 8:-9.24035 9:1.81585 10:-9.71327 11:2.67148 12:-4.42609 13:6.00017 14:72.1786 15:2.81854 16:4.03008 17:2.23068 18:1.37026 19:-1.93691 20:-0.0186654 21:-2.03668 22:0.519122 23:-2.95656 24:1.33747 25:-1.41636 26:1.47752
-0.51577539583411069 1:240.31 2:12.3681 3:13.8658 4:9.09956 5:6.63123 6:-10.3259 7:-0.468754 8:-9.24035 9:1.81585 10:-9.71327 11:2.67148 12:-4.42609 13:6.00017 14:240.31 15:12.3681 16:13.8658 17:9.09956 18:6.63123 19:-10.3259 20:-0.468754 21:-9.24035 22:1.81585 23:-9.71327 24:2.67148 25:-4.42609 26:6.00017
-0.35075142764899947 1:235.015 2:7.47373 3:13.0754 4:6.00163 5:3.5503 6:-6.97899 7:0.252828 8:-5.47116 9:0.9206 10:-9.12755 11:4.29153 12:-4.27998 13:4.76372 14:235.015 15:7.47373 16:13.0754 17:6.00163 18:3.5503 19:-6.97899 20:0.252828 21:-5.47116 22:0.9206 23:-9.12755 24:4.29153 25:-4.27998 26:4.76372
