svm_type c_svc
kernel_type rbf
gamma 0.0008
nr_class 2
total_sv 148
rho 0.828259619829326
label 1 2
nr_sv 52 96
SV
25.828079650319655 1:-1500 2:1.44711e-07 3:9.96791e-06 4:-1.45779e-06 5:-1.61451e-05 6:-3.85156e-06 7:3.92767e-06 8:5.21158e-06 9:-7.71489e-06 10:-1.09161e-06 11:-6.57972e-07 12:-5.02876e-07 13:-2.09301e-06 14:-1500 15:1.44711e-07 16:9.96791e-06 17:-1.45779e-06 18:-1.61451e-05 19:-3.85156e-06 20:3.92767e-06 21:5.21158e-06 22:-7.71489e-06 23:-1.09161e-06 24:-6.57972e-07 25:-5.02876e-07 26:-2.09301e-06
4.4631501414835482 1:142.374 2:-2.12537 3:-1.8762 4:-0.927962 5:4.65316 6:-0.123996 7:5.51068 8:-0.95826 9:0.918354 10:-5.70134 11:1.22404 12:-4.49423 13:3.65199 14:142.374 15:-2.12537 16:-1.8762 17:-0.927962 18:4.65316 19:-0.123996 20:5.51068 21:-0.95826 22:0.918354 23:-5.70134 24:1.22404 25:-4.49423 26:3.65199
5.4025014005736729 1:202.087 2:2.13682 3:3.203 4:0.536128 5:0.826999 6:-6.34198 7:2.47454 8:-5.13073 9:2.95608 10:-0.33205 11:4.07828 12:-2.58138 13:1.71558 14:66.8699 15:2.43313 16:2.16333 17:-0.704212 18:2.0675 19:-1.92753 20:-0.0502223 21:-0.928693 22:1.22751 23:-0.292935 24:0.332775 25:-0.536873 26:1.05257
17.314603730889942 1:203.175 2:4.84672 3:4.87358 4:0.359716 5:5.45703 6:-0.664072 7:-0.637225 8:-4.6564 9:4.05281 10:-4.471 11:4.83815 12:-3.05328 13:1.56201 14:66.8699 15:2.43313 16:2.16333 17:-0.704212 18:2.0675 19:-1.92753 20:-0.0502223 21:-0.928693 22:1.22751 23:-0.292935 24:0.332775 25:-0.536873 26:1.05257
7.9464784180548049 1:198.514 2:0.60943 3:3.42741 4:-0.468191 5:1.03587 6:1.94486 7:0.891184 8:-2.85343 9:6.46972 10:-8.21285 11:1.7581 12:-4.72938 13:0.212835 14:66.8699 15:2.43313 16:2.16333 17:-0.704212 18:2.0675 19:-1.92753 20:-0.0502223 21:-0.928693 22:1.22751 23:-0.292935 24:0.332775 25:-0.536873 26:1.05257
10.353536833998465 1:220.867 2:-3.97341 3:-3.55798 4:4.79554 5:1.03285 6:-4.92406 7:9.01279 8:-2.93829 9:3.28642 10:-2.17917 11:4.14379 12:-3.64933 13:1.86322 14:66.8699 15:2.43313 16:2.16333 17:-0.704212 18:2.0675 19:-1.92753 20:-0.0502223 21:-0.928693 22:1.22751 23:-0.292935 24:0.332775 25:-0.536873 26:1.05257
2.7335055906219061 1:205.107 2:4.73323 3:6.08758 4:2.50792 5:4.09927 6:-2.96143 7:2.10035 8:-1.85311 9:7.46353 10:-3.64229 11:1.5107 12:-4.59744 13:0.428306 14:66.8699 15:2.43313 16:2.16333 17:-0.704212 18:2.0675 19:-1.92753 20:-0.0502223 21:-0.928693 22:1.22751 23:-0.292935 24:0.332775 25:-0.536873 26:1.05257
0.72662342390130497 1:206.648 2:2.85683 3:0.544143 4:-3.45216 5:0.800371 6:-0.629064 7:4.95015 8:-2.20992 9:3.96726 10:-2.85964 11:2.42743 12:-2.07833 13:3.07696 14:66.8699 15:2.43313 16:2.16333 17:-0.704212 18:2.0675 19:-1.92753 20:-0.0502223 21:-0.928693 22:1.22751 23:-0.292935 24:0.332775 25:-0.536873 26:1.05257
15.559458994793497 1:197.568 2:3.77902 3:3.80125 4:-4.25751 5:0.167363 6:-4.61842 7:3.88882 8:-1.31423 9:3.83125 10:-0.212404 11:3.44261 12:-4.41958 13:3.50937 14:66.8699 15:2.43313 16:2.16333 17:-0.704212 18:2.0675 19:-1.92753 20:-0.0502223 21:-0.928693 22:1.22751 23:-0.292935 24:0.332775 25:-0.536873 26:1.05257
0.20213836293385334 1:205.475 2:3.67676 3:0.15493 4:-3.724 5:2.055 6:0.289046 7:6.73213 8:-0.0832113 9:3.63365 10:-2.76399 11:4.72099 12:-3.23995 13:1.97209 14:66.8699 15:2.43313 16:2.16333 17:-0.704212 18:2.0675 19:-1.92753 20:-0.0502223 21:-0.928693 22:1.22751 23:-0.292935 24:0.332775 25:-0.536873 26:1.05257
2.8377207678066734 1:206.243 2:3.78298 3:0.793501 4:-3.84614 5:0.484093 6:-1.16815 7:6.23698 8:0.595943 9:5.25002 10:-1.01216 11:3.17947 12:-2.03209 13:4.64656 14:66.8699 15:2.43313 16:2.16333 17:-0.704212 18:2.0675 19:-1.92753 20:-0.0502223 21:-0.928693 22:1.22751 23:-0.292935 24:0.332775 25:-0.536873 26:1.05257
2.3602817776477156 1:213.626 2:6.67684 3:-0.323085 4:-2.92663 5:3.21376 6:-2.78729 7:3.02455 8:-0.913407 9:0.840455 10:-7.37166 11:2.08365 12:-3.42692 13:5.23928 14:66.8699 15:2.43313 16:2.16333 17:-0.704212 18:2.0675 19:-1.92753 20:-0.0502223 21:-0.928693 22:1.22751 23:-0.292935 24:0.332775 25:-0.536873 26:1.05257
11.269032879987083 1:213.993 2:4.28822 3:-4.33436 4:-2.42663 5:3.7313 6:-0.646239 7:5.89631 8:-3.16079 9:-0.255431 10:-2.93853 11:6.05703 12:-5.01024 13:2.38656 14:66.8699 15:2.43313 16:2.16333 17:-0.704212 18:2.0675 19:-1.92753 20:-0.0502223 21:-0.928693 22:1.22751 23:-0.292935 24:0.332775 25:-0.536873 26:1.05257
1.2829405738492445 1:237.439 2:18.8771 3:5.92717 4:0.745247 5:13.0473 6:-2.93859 7:5.0546 8:-5.70153 9:1.28973 10:-4.65661 11:6.87374 12:-3.66716 13:6.49943 14:66.8699 15:2.43313 16:2.16333 17:-0.704212 18:2.0675 19:-1.92753 20:-0.0502223 21:-0.928693 22:1.22751 23:-0.292935 24:0.332775 25:-0.536873 26:1.05257
4.4066119924598635 1:257.179 2:22.3291 3:6.54703 4:2.48314 5:11.5845 6:-2.05443 7:6.29889 8:-8.08492 9:1.10314 10:-8.00753 11:6.59537 12:-4.53952 13:5.59803 14:66.8699 15:2.43313 16:2.16333 17:-0.704212 18:2.0675 19:-1.92753 20:-0.0502223 21:-0.928693 22:1.22751 23:-0.292935 24:0.332775 25:-0.536873 26:1.05257
3.6044793549473226 1:284.012 2:23.0525 3:9.13188 4:-1.65496 5:7.34402 6:-2.80189 7:5.23646 8:-4.31188 9:2.01305 10:-6.79642 11:4.74198 12:-4.19455 13:5.53021 14:66.8699 15:2.43313 16:2.16333 17:-0.704212 18:2.0675 19:-1.92753 20:-0.0502223 21:-0.928693 22:1.22751 23:-0.292935 24:0.332775 25:-0.536873 26:1.05257
4.0528792705814807 1:246.534 2:29.6909 3:16.31 4:-2.16906 5:2.81293 6:-5.44797 7:4.36466 8:-6.98558 9:3.01649 10:-3.28352 11:4.64503 12:-5.28454 13:7.53439 14:66.8699 15:2.43313 16:2.16333 17:-0.704212 18:2.0675 19:-1.92753 20:-0.0502223 21:-0.928693 22:1.22751 23:-0.292935 24:0.332775 25:-0.536873 26:1.05257
1.5849202296993161 1:274.695 2:30.6201 3:14.8442 4:-9.647 5:-0.701212 6:-5.1416 7:6.5885 8:-5.9289 9:2.77256 10:-5.64112 11:3.76827 12:-3.24665 13:6.7152 14:66.8699 15:2.43313 16:2.16333 17:-0.704212 18:2.0675 19:-1.92753 20:-0.0502223 21:-0.928693 22:1.22751 23:-0.292935 24:0.332775 25:-0.536873 26:1.05257
0.70712699038252658 1:281.088 2:33.6052 3:12.9464 4:-9.65849 5:-1.00581 6:-5.55988 7:8.83849 8:-7.00813 9:-0.205483 10:-4.24756 11:5.27603 12:-4.74655 13:7.39189 14:66.8699 15:2.43313 16:2.16333 17:-0.704212 18:2.0675 19:-1.92753 20:-0.0502223 21:-0.928693 22:1.22751 23:-0.292935 24:0.332775 25:-0.536873 26:1.05257
1.4694475456329898 1:306.14 2:23.6508 3:7.4238 4:-3.12622 5:9.69393 6:-10.0449 7:-2.21754 8:-4.96089 9:2.867 10:-0.647272 11:1.96723 12:-6.86175 13:7.19031 14:66.8699 15:2.43313 16:2.16333 17:-0.704212 18:2.0675 19:-1.92753 20:-0.0502223 21:-0.928693 22:1.22751 23:-0.292935 24:0.332775 25:-0.536873 26:1.05257
3.4030206434163381 1:261.946 2:11.1556 3:16.0156 4:6.83278 5:5.20278 6:-8.6711 7:4.12788 8:-5.65158 9:1.72315 10:-3.97669 11:0.596046 12:-1.89465 13:3.15201 14:66.8699 15:2.43313 16:2.16333 17:-0.704212 18:2.0675 19:-1.92753 20:-0.0502223 21:-0.928693 22:1.22751 23:-0.292935 24:0.332775 25:-0.536873 26:1.05257
1.7198321959097536 1:259.307 2:6.78306 3:12.6852 4:5.06322 5:2.15159 6:-6.90939 7:6.81241 8:-4.64018 9:0.880043 10:-5.45889 11:2.45368 12:-0.905938 13:1.58583 14:66.8699 15:2.43313 16:2.16333 17:-0.704212 18:2.0675 19:-1.92753 20:-0.0502223 21:-0.928693 22:1.22751 23:-0.292935 24:0.332775 25:-0.536873 26:1.05257
2.1516439275089865 1:255.242 2:-3.50599 3:6.23831 4:0.511723 5:-2.39406 6:-9.05901 7:0.427678 8:-6.42924 9:1.71828 10:-1.89893 11:1.06248 12:-0.79287 13:-0.442171 14:66.8699 15:2.43313 16:2.16333 17:-0.704212 18:2.0675 19:-1.92753 20:-0.0502223 21:-0.928693 22:1.22751 23:-0.292935 24:0.332775 25:-0.536873 26:1.05257
2.4441103882189048 1:252.371 2:-5.33068 3:2.60232 4:-2.30672 5:0.0855061 6:-4.34815 7:-0.601109 8:-4.97579 9:-0.896158 10:-3.34733 11:0.583832 12:-1.61829 13:0.260124 14:66.8699 15:2.43313 16:2.16333 17:-0.704212 18:2.0675 19:-1.92753 20:-0.0502223 21:-0.928693 22:1.22751 23:-0.292935 24:0.332775 25:-0.536873 26:1.05257
3.2577880393797405 1:245.895 2:-0.477109 3:11.2601 4:3.76897 5:1.34093 6:-4.7535 7:2.16054 8:-5.51736 9:1.20851 10:-2.41131 11:-1.43891 12:1.5198 13:-1.06444 14:66.8699 15:2.43313 16:2.16333 17:-0.704212 18:2.0675 19:-1.92753 20:-0.0502223 21:-0.928693 22:1.22751 23:-0.292935 24:0.332775 25:-0.536873 26:1.05257
0.27068429683081113 1:237.945 2:5.29764 3:10.8947 4:3.4947 5:2.9947 6:-4.68208 7:6.87092 8:-4.50205 9:3.56161 10:-0.908413 11:-1.32127 12:0.565832 13:-2.25228 14:66.8699 15:2.43313 16:2.16333 17:-0.704212 18:2.0675 19:-1.92753 20:-0.0502223 21:-0.928693 22:1.22751 23:-0.292935 24:0.332775 25:-0.536873 26:1.05257
3.2213483774424323 1:309.085 2:11.0976 3:13.0743 4:7.91072 5:8.56019 6:-10.3948 7:1.83008 8:-3.48826 9:3.51212 10:-4.71239 11:0.237122 12:0.70917 13:0.576501 14:66.8699 15:2.43313 16:2.16333 17:-0.704212 18:2.0675 19:-1.92753 20:-0.0502223 21:-0.928693 22:1.22751 23:-0.292935 24:0.332775 25:-0.536873 26:1.05257
0.70777204625249535 1:298.738 2:14.608 3:13.1754 4:6.4565 5:8.22566 6:-10.1643 7:2.20285 8:-5.78621 9:5.48215 10:-3.39235 11:-1.41264 12:0.586224 13:2.50449 14:66.8699 15:2.43313 16:2.16333 17:-0.704212 18:2.0675 19:-1.92753 20:-0.0502223 21:-0.928693 22:1.22751 23:-0.292935 24:0.332775 25:-0.536873 26:1.05257
0.69076882154746611 1:254.133 2:11.3039 3:20.7441 4:2.16901 5:8.51255 6:-8.68978 7:-1.78991 8:-2.51953 9:2.62017 10:-2.17037 11:0.2486 12:-2.11969 13:5.42712 14:66.8699 15:2.43313 16:2.16333 17:-0.704212 18:2.0675 19:-1.92753 20:-0.0502223 21:-0.928693 22:1.22751 23:-0.292935 24:0.332775 25:-0.536873 26:1.05257
0.85896127683517409 1:253.724 2:8.26494 3:20.3779 4:1.77711 5:8.92373 6:-6.35258 7:-1.53337 8:-0.921494 9:1.54134 10:-3.06687 11:1.11555 12:-1.85407 13:1.71037 14:66.8699 15:2.43313 16:2.16333 17:-0.704212 18:2.0675 19:-1.92753 20:-0.0502223 21:-0.928693 22:1.22751 23:-0.292935 24:0.332775 25:-0.536873 26:1.05257
2.0718807199370053 1:291.15 2:29.8571 3:3.55932 4:-3.05887 5:5.12258 6:-9.93457 7:3.67364 8:-7.51789 9:3.45048 10:-2.72639 11:5.92189 12:-5.74957 13:6.33415 14:66.8699 15:2.43313 16:2.16333 17:-0.704212 18:2.0675 19:-1.92753 20:-0.0502223 21:-0.928693 22:1.22751 23:-0.292935 24:0.332775 25:-0.536873 26:1.05257
0.0019553979372316853 1:293.524 2:13.5762 3:20.8649 4:2.94477 5:-0.838115 6:-6.75516 7:2.7639 8:-2.65316 9:1.92274 10:-5.60575 11:3.90228 12:-2.03868 13:1.64043 14:66.8699 15:2.43313 16:2.16333 17:-0.704212 18:2.0675 19:-1.92753 20:-0.0502223 21:-0.928693 22:1.22751 23:-0.292935 24:0.332775 25:-0.536873 26:1.05257
2.3195484482253805 1:293.524 2:13.5762 3:20.8649 4:2.94477 5:-0.838115 6:-6.75516 7:2.7639 8:-2.65316 9:1.92274 10:-5.60575 11:3.90228 12:-2.03868 13:1.64043 14:66.8699 15:2.43313 16:2.16333 17:-0.704212 18:2.0675 19:-1.92753 20:-0.0502223 21:-0.928693 22:1.22751 23:-0.292935 24:0.332775 25:-0.536873 26:1.05257
3.554340956556683 1:252.644 2:23.6343 3:18.1656 4:6.48228 5:10.2044 6:-8.51603 7:5.23395 8:-6.49797 9:0.622827 10:-6.64479 11:5.59799 12:-6.48061 13:4.68386 14:66.8699 15:2.43313 16:2.16333 17:-0.704212 18:2.0675 19:-1.92753 20:-0.0502223 21:-0.928693 22:1.22751 23:-0.292935 24:0.332775 25:-0.536873 26:1.05257
1.4773972349532556 1:234.566 2:20.7956 3:16.2 4:4.21514 5:7.26735 6:-7.15055 7:0.950435 8:-3.60386 9:3.54802 10:-5.47443 11:4.18952 12:-4.00217 13:5.99865 14:66.8699 15:2.43313 16:2.16333 17:-0.704212 18:2.0675 19:-1.92753 20:-0.0502223 21:-0.928693 22:1.22751 23:-0.292935 24:0.332775 25:-0.536873 26:1.05257
0.010031785126721059 1:220.951 2:7.05358 3:6.83589 4:4.37407 5:5.22213 6:-4.62553 7:6.53551 8:-1.19098 9:-0.145748 10:-3.18194 11:2.595 12:-2.64168 13:2.45818 14:66.8699 15:2.43313 16:2.16333 17:-0.704212 18:2.0675 19:-1.92753 20:-0.0502223 21:-0.928693 22:1.22751 23:-0.292935 24:0.332775 25:-0.536873 26:1.05257
4.4306699314753955 1:220.951 2:7.05358 3:6.83589 4:4.37407 5:5.22213 6:-4.62553 7:6.53551 8:-1.19098 9:-0.145748 10:-3.18194 11:2.595 12:-2.64168 13:2.45818 14:66.8699 15:2.43313 16:2.16333 17:-0.704212 18:2.0675 19:-1.92753 20:-0.0502223 21:-0.928693 22:1.22751 23:-0.292935 24:0.332775 25:-0.536873 26:1.05257
0.21972201312567061 1:282.409 2:30.043 3:6.58163 4:-3.70557 5:5.36876 6:-7.49743 7:6.04138 8:-5.1293 9:10.2373 10:-2.28142 11:7.95877 12:-7.01109 13:3.15563 14:66.8699 15:2.43313 16:2.16333 17:-0.704212 18:2.0675 19:-1.92753 20:-0.0502223 21:-0.928693 22:1.22751 23:-0.292935 24:0.332775 25:-0.536873 26:1.05257
5.1104991398645203e-05 1:316.613 2:27.2257 3:3.50301 4:-6.32363 5:7.02876 6:-2.75768 7:1.40483 8:-6.96539 9:4.68383 10:-8.45129 11:5.49816 12:-4.11577 13:4.12073 14:66.8699 15:2.43313 16:2.16333 17:-0.704212 18:2.0675 19:-1.92753 20:-0.0502223 21:-0.928693 22:1.22751 23:-0.292935 24:0.332775 25:-0.536873 26:1.05257
3.5103899062896291 1:316.613 2:27.2257 3:3.50301 4:-6.32363 5:7.02876 6:-2.75768 7:1.40483 8:-6.96539 9:4.68383 10:-8.45129 11:5.49816 12:-4.11577 13:4.12073 14:66.8699 15:2.43313 16:2.16333 17:-0.704212 18:2.0675 19:-1.92753 20:-0.0502223 21:-0.928693 22:1.22751 23:-0.292935 24:0.332775 25:-0.536873 26:1.05257
0.0030380257325085713 1:322.71 2:18.5584 3:6.70796 4:-15.3138 5:-0.924705 6:-1.8003 7:3.75235 8:-6.25884 9:3.54217 10:0.180754 11:3.86689 12:-2.46075 13:2.46484 14:66.8699 15:2.43313 16:2.16333 17:-0.704212 18:2.0675 19:-1.92753 20:-0.0502223 21:-0.928693 22:1.22751 23:-0.292935 24:0.332775 25:-0.536873 26:1.05257
1.069166827589477 1:322.71 2:18.5584 3:6.70796 4:-15.3138 5:-0.924705 6:-1.8003 7:3.75235 8:-6.25884 9:3.54217 10:0.180754 11:3.86689 12:-2.46075 13:2.46484 14:66.8699 15:2.43313 16:2.16333 17:-0.704212 18:2.0675 19:-1.92753 20:-0.0502223 21:-0.928693 22:1.22751 23:-0.292935 24:0.332775 25:-0.536873 26:1.05257
0.0013233590794592047 1:302.397 2:23.4882 3:9.68708 4:-17.3245 5:-0.275461 6:0.899549 7:0.697031 8:-6.8584 9:6.31799 10:-1.6943 11:4.69874 12:-3.98311 13:1.43161 14:66.8699 15:2.43313 16:2.16333 17:-0.704212 18:2.0675 19:-1.92753 20:-0.0502223 21:-0.928693 22:1.22751 23:-0.292935 24:0.332775 25:-0.536873 26:1.05257
3.3867856523793716 1:302.397 2:23.4882 3:9.68708 4:-17.3245 5:-0.275461 6:0.899549 7:0.697031 8:-6.8584 9:6.31799 10:-1.6943 11:4.69874 12:-3.98311 13:1.43161 14:66.8699 15:2.43313 16:2.16333 17:-0.704212 18:2.0675 19:-1.92753 20:-0.0502223 21:-0.928693 22:1.22751 23:-0.292935 24:0.332775 25:-0.536873 26:1.05257
0.00069040952963653375 1:274.862 2:19.1481 3:3.66235 4:-9.12347 5:4.41734 6:-3.06362 7:1.45087 8:-3.62916 9:7.12341 10:-1.90854 11:2.99952 12:-2.57591 13:2.7399 14:66.8699 15:2.43313 16:2.16333 17:-0.704212 18:2.0675 19:-1.92753 20:-0.0502223 21:-0.928693 22:1.22751 23:-0.292935 24:0.332775 25:-0.536873 26:1.05257
3.6167862356606917 1:274.862 2:19.1481 3:3.66235 4:-9.12347 5:4.41734 6:-3.06362 7:1.45087 8:-3.62916 9:7.12341 10:-1.90854 11:2.99952 12:-2.57591 13:2.7399 14:66.8699 15:2.43313 16:2.16333 17:-0.704212 18:2.0675 19:-1.92753 20:-0.0502223 21:-0.928693 22:1.22751 23:-0.292935 24:0.332775 25:-0.536873 26:1.05257
0.60209289645253172 1:269.851 2:-5.18325 3:9.59994 4:-2.88814 5:1.46288 6:-3.81753 7:-1.55922 8:-2.0376 9:2.17914 10:-1.82234 11:0.565407 12:1.04597 13:-0.886645 14:66.8699 15:2.43313 16:2.16333 17:-0.704212 18:2.0675 19:-1.92753 20:-0.0502223 21:-0.928693 22:1.22751 23:-0.292935 24:0.332775 25:-0.536873 26:1.05257
0.0009063902035440645 1:244.604 2:-7.91798 3:15.7687 4:-6.7582 5:3.25982 6:-6.15269 7:-2.62284 8:-2.33308 9:0.63452 10:3.54279 11:-4.13248 12:-1.12758 13:0.96123 14:66.8699 15:2.43313 16:2.16333 17:-0.704212 18:2.0675 19:-1.92753 20:-0.0502223 21:-0.928693 22:1.22751 23:-0.292935 24:0.332775 25:-0.536873 26:1.05257
2.9867682258846386 1:244.604 2:-7.91798 3:15.7687 4:-6.7582 5:3.25982 6:-6.15269 7:-2.62284 8:-2.33308 9:0.63452 10:3.54279 11:-4.13248 12:-1.12758 13:0.96123 14:66.8699 15:2.43313 16:2.16333 17:-0.704212 18:2.0675 19:-1.92753 20:-0.0502223 21:-0.928693 22:1.22751 23:-0.292935 24:0.332775 25:-0.536873 26:1.05257
8.5610028289389231 1:224.54 2:9.4376 3:9.16021 4:-4.11768 5:8.76554 6:-5.12466 7:-0.691366 8:-4.23564 9:5.91067 10:0.235151 11:-0.296006 12:-2.73675 13:1.99975 14:66.8699 15:2.43313 16:2.16333 17:-0.704212 18:2.0675 19:-1.92753 20:-0.0502223 21:-0.928693 22:1.22751 23:-0.292935 24:0.332775 25:-0.536873 26:1.05257
0.64127760717563975 1:224.54 2:9.4376 3:9.16021 4:-4.11768 5:8.76554 6:-5.12466 7:-0.691366 8:-4.23564 9:5.91067 10:0.235151 11:-0.296006 12:-2.73675 13:1.99975 14:224.54 15:9.4376 16:9.16021 17:-4.11768 18:8.76554 19:-5.12466 20:-0.691366 21:-4.23564 22:5.91067 23:0.235151 24:-0.296006 25:-2.73675 26:1.99975
5.4038276681830881 1:212.867 2:8.70852 3:4.92952 4:-0.477455 5:5.67128 6:-4.20318 7:0.779186 8:-4.06114 9:3.31872 10:-2.16334 11:2.49771 12:-3.15557 13:3.99466 14:212.867 15:8.70852 16:4.92952 17:-0.477455 18:5.67128 19:-4.20318 20:0.779186 21:-4.06114 22:3.31872 23:-2.16334 24:2.49771 25:-3.15557 26:3.99466
-8 1:-1500 2:1.44711e-07 3:9.96791e-06 4:-1.45779e-06 5:-1.61451e-05 6:-3.85156e-06 7:3.92767e-06 8:5.21158e-06 9:-7.71489e-06 10:-1.09161e-06 11:-6.57972e-07 12:-5.02876e-07 13:-2.09301e-06 14:-1500 15:1.44711e-07 16:9.96791e-06 17:-1.45779e-06 18:-1.61451e-05 19:-3.85156e-06 20:3.92767e-06 21:5.21158e-06 22:-7.71489e-06 23:-1.09161e-06 24:-6.57972e-07 25:-5.02876e-07 26:-2.09301e-06
-0.013978408439870176 1:215.538 2:5.41601 3:1.51562 4:-2.32758 5:1.54758 6:-0.123271 7:5.30776 8:-1.45122 9:4.24205 10:-2.14645 11:6.27702 12:-4.1063 13:1.89658 14:92.3227 15:1.9983 16:3.70453 17:0.948295 18:1.63602 19:0.763431 20:0.10924 21:-2.84992 22:1.39538 23:-0.258006 24:0.493788 25:-0.621956 26:0.719118
-1.2107382477806581 1:215.538 2:5.41601 3:1.51562 4:-2.32758 5:1.54758 6:-0.123271 7:5.30776 8:-1.45122 9:4.24205 10:-2.14645 11:6.27702 12:-4.1063 13:1.89658 14:92.3227 15:1.9983 16:3.70453 17:0.948295 18:1.63602 19:0.763431 20:0.10924 21:-2.84992 22:1.39538 23:-0.258006 24:0.493788 25:-0.621956 26:0.719118
-2.6835616400884374 1:209.736 2:6.60768 3:2.64629 4:-2.12392 5:-0.0802812 6:-4.05494 7:4.75969 8:-2.44188 9:4.64191 10:-4.40229 11:5.13736 12:-2.26872 13:0.311854 14:92.3227 15:1.9983 16:3.70453 17:0.948295 18:1.63602 19:0.763431 20:0.10924 21:-2.84992 22:1.39538 23:-0.258006 24:0.493788 25:-0.621956 26:0.719118
-0.3141359673068107 1:215.4 2:4.57842 3:1.31389 4:-1.32381 5:2.10175 6:-1.68023 7:-0.544125 8:-2.15324 9:3.94007 10:-3.12424 11:3.29738 12:-5.29556 13:2.76719 14:92.3227 15:1.9983 16:3.70453 17:0.948295 18:1.63602 19:0.763431 20:0.10924 21:-2.84992 22:1.39538 23:-0.258006 24:0.493788 25:-0.621956 26:0.719118
-0.0029665447219750017 1:222.286 2:4.97326 3:-0.496653 4:-2.63142 5:5.84404 6:-5.3383 7:-1.12295 8:-0.595586 9:6.27225 10:-1.52858 11:1.26243 12:-4.45102 13:2.97659 14:92.3227 15:1.9983 16:3.70453 17:0.948295 18:1.63602 19:0.763431 20:0.10924 21:-2.84992 22:1.39538 23:-0.258006 24:0.493788 25:-0.621956 26:0.719118
-0.17556723878622399 1:222.286 2:4.97326 3:-0.496653 4:-2.63142 5:5.84404 6:-5.3383 7:-1.12295 8:-0.595586 9:6.27225 10:-1.52858 11:1.26243 12:-4.45102 13:2.97659 14:92.3227 15:1.9983 16:3.70453 17:0.948295 18:1.63602 19:0.763431 20:0.10924 21:-2.84992 22:1.39538 23:-0.258006 24:0.493788 25:-0.621956 26:0.719118
-0.0019222139309284882 1:206.438 2:8.28874 3:6.27851 4:-6.06876 5:-2.3956 6:-4.0649 7:0.88371 8:-5.67241 9:5.25116 10:-0.278453 11:1.56873 12:-3.45245 13:4.11465 14:92.3227 15:1.9983 16:3.70453 17:0.948295 18:1.63602 19:0.763431 20:0.10924 21:-2.84992 22:1.39538 23:-0.258006 24:0.493788 25:-0.621956 26:0.719118
-0.36729807102526868 1:206.438 2:8.28874 3:6.27851 4:-6.06876 5:-2.3956 6:-4.0649 7:0.88371 8:-5.67241 9:5.25116 10:-0.278453 11:1.56873 12:-3.45245 13:4.11465 14:92.3227 15:1.9983 16:3.70453 17:0.948295 18:1.63602 19:0.763431 20:0.10924 21:-2.84992 22:1.39538 23:-0.258006 24:0.493788 25:-0.621956 26:0.719118
-0.004997386758928633 1:206.672 2:6.92293 3:-0.0847315 4:-5.75137 5:1.77052 6:-2.4402 7:2.42651 8:-5.81515 9:3.89934 10:-1.38069 11:0.495414 12:-2.01074 13:5.54882 14:92.3227 15:1.9983 16:3.70453 17:0.948295 18:1.63602 19:0.763431 20:0.10924 21:-2.84992 22:1.39538 23:-0.258006 24:0.493788 25:-0.621956 26:0.719118
-1.5903500378575874 1:206.672 2:6.92293 3:-0.0847315 4:-5.75137 5:1.77052 6:-2.4402 7:2.42651 8:-5.81515 9:3.89934 10:-1.38069 11:0.495414 12:-2.01074 13:5.54882 14:92.3227 15:1.9983 16:3.70453 17:0.948295 18:1.63602 19:0.763431 20:0.10924 21:-2.84992 22:1.39538 23:-0.258006 24:0.493788 25:-0.621956 26:0.719118
-0.69286894833328516 1:207.793 2:10.145 3:1.50702 4:-2.091 5:1.29598 6:-5.94116 7:5.42033 8:-1.08328 9:5.8643 10:-1.58558 11:2.2162 12:-4.51562 13:2.04502 14:92.3227 15:1.9983 16:3.70453 17:0.948295 18:1.63602 19:0.763431 20:0.10924 21:-2.84992 22:1.39538 23:-0.258006 24:0.493788 25:-0.621956 26:0.719118
-0.0042429638344708472 1:203.02 2:6.96547 3:4.9675 4:2.16576 5:3.19606 6:-3.43256 7:3.8165 8:-2.61131 9:2.81886 10:-2.6712 11:2.95699 12:-6.47881 13:3.88947 14:92.3227 15:1.9983 16:3.70453 17:0.948295 18:1.63602 19:0.763431 20:0.10924 21:-2.84992 22:1.39538 23:-0.258006 24:0.493788 25:-0.621956 26:0.719118
-0.22851191887975777 1:203.02 2:6.96547 3:4.9675 4:2.16576 5:3.19606 6:-3.43256 7:3.8165 8:-2.61131 9:2.81886 10:-2.6712 11:2.95699 12:-6.47881 13:3.88947 14:92.3227 15:1.9983 16:3.70453 17:0.948295 18:1.63602 19:0.763431 20:0.10924 21:-2.84992 22:1.39538 23:-0.258006 24:0.493788 25:-0.621956 26:0.719118
-0.39865485852319893 1:210.242 2:7.54764 3:-0.656542 4:-4.00231 5:0.565945 6:-3.90425 7:1.23159 8:-3.32316 9:7.39284 10:-1.36422 11:4.41825 12:-2.21231 13:4.16049 14:92.3227 15:1.9983 16:3.70453 17:0.948295 18:1.63602 19:0.763431 20:0.10924 21:-2.84992 22:1.39538 23:-0.258006 24:0.493788 25:-0.621956 26:0.719118
-0.040652794073345128 1:234.596 2:20.7052 3:16.2331 4:0.408944 5:5.60342 6:-3.93157 7:4.47505 8:-5.61248 9:3.62927 10:-4.56282 11:4.61177 12:-4.66904 13:4.72506 14:92.3227 15:1.9983 16:3.70453 17:0.948295 18:1.63602 19:0.763431 20:0.10924 21:-2.84992 22:1.39538 23:-0.258006 24:0.493788 25:-0.621956 26:0.719118
-0.00069040952963653375 1:332.97 2:18.5927 3:7.51288 4:-9.57455 5:-1.98574 6:0.970843 7:3.40969 8:-6.42886 9:5.56926 10:-3.82527 11:5.3689 12:-3.84097 13:6.69907 14:92.3227 15:1.9983 16:3.70453 17:0.948295 18:1.63602 19:0.763431 20:0.10924 21:-2.84992 22:1.39538 23:-0.258006 24:0.493788 25:-0.621956 26:0.719118
-0.46553916023528441 1:332.97 2:18.5927 3:7.51288 4:-9.57455 5:-1.98574 6:0.970843 7:3.40969 8:-6.42886 9:5.56926 10:-3.82527 11:5.3689 12:-3.84097 13:6.69907 14:92.3227 15:1.9983 16:3.70453 17:0.948295 18:1.63602 19:0.763431 20:0.10924 21:-2.84992 22:1.39538 23:-0.258006 24:0.493788 25:-0.621956 26:0.719118
-0.43601730082749501 1:339.758 2:20.8498 3:-1.19517 4:-13.6266 5:-0.0810293 6:0.877302 7:1.68128 8:-6.29552 9:3.30662 10:-1.5281 11:7.50945 12:-7.45156 13:6.21863 14:92.3227 15:1.9983 16:3.70453 17:0.948295 18:1.63602 19:0.763431 20:0.10924 21:-2.84992 22:1.39538 23:-0.258006 24:0.493788 25:-0.621956 26:0.719118
-0.00056698975757841824 1:340.807 2:-5.91047 3:20.1316 4:9.36475 5:-1.70394 6:-3.06366 7:4.44256 8:-4.45965 9:-0.867678 10:0.369512 11:-0.0985061 12:-1.59187 13:3.22758 14:92.3227 15:1.9983 16:3.70453 17:0.948295 18:1.63602 19:0.763431 20:0.10924 21:-2.84992 22:1.39538 23:-0.258006 24:0.493788 25:-0.621956 26:0.719118
-0.099125097662279574 1:340.807 2:-5.91047 3:20.1316 4:9.36475 5:-1.70394 6:-3.06366 7:4.44256 8:-4.45965 9:-0.867678 10:0.369512 11:-0.0985061 12:-1.59187 13:3.22758 14:92.3227 15:1.9983 16:3.70453 17:0.948295 18:1.63602 19:0.763431 20:0.10924 21:-2.84992 22:1.39538 23:-0.258006 24:0.493788 25:-0.621956 26:0.719118
-0.70332926934612128 1:269.708 2:-9.56271 3:7.12326 4:-0.640208 5:-0.876362 6:-4.32637 7:-2.72956 8:-0.808377 9:1.01322 10:-0.0400837 11:3.1765 12:-1.03099 13:0.107529 14:92.3227 15:1.9983 16:3.70453 17:0.948295 18:1.63602 19:0.763431 20:0.10924 21:-2.84992 22:1.39538 23:-0.258006 24:0.493788 25:-0.621956 26:0.719118
-0.082915616101611411 1:268.11 2:-16.7265 3:9.56467 4:-0.38718 5:-0.80676 6:-3.23586 7:1.03729 8:-4.1367 9:-3.11068 10:-1.00906 11:0.683684 12:-0.290627 13:-0.45572 14:92.3227 15:1.9983 16:3.70453 17:0.948295 18:1.63602 19:0.763431 20:0.10924 21:-2.84992 22:1.39538 23:-0.258006 24:0.493788 25:-0.621956 26:0.719118
-0.093338066752533894 1:315.314 2:-0.104091 3:16.6248 4:16.0638 5:4.77738 6:-3.55185 7:3.63905 8:-5.55695 9:-0.862726 10:-3.07471 11:1.77249 12:-3.70319 13:2.99828 14:92.3227 15:1.9983 16:3.70453 17:0.948295 18:1.63602 19:0.763431 20:0.10924 21:-2.84992 22:1.39538 23:-0.258006 24:0.493788 25:-0.621956 26:0.719118
-0.003138489962716093 1:296.297 2:4.07838 3:15.4744 4:8.33884 5:9.03033 6:-5.62057 7:0.632109 8:-3.14556 9:3.46482 10:-3.63265 11:-0.0521765 12:-0.00105591 13:1.54017 14:92.3227 15:1.9983 16:3.70453 17:0.948295 18:1.63602 19:0.763431 20:0.10924 21:-2.84992 22:1.39538 23:-0.258006 24:0.493788 25:-0.621956 26:0.719118
-0.27312011955543319 1:296.297 2:4.07838 3:15.4744 4:8.33884 5:9.03033 6:-5.62057 7:0.632109 8:-3.14556 9:3.46482 10:-3.63265 11:-0.0521765 12:-0.00105591 13:1.54017 14:92.3227 15:1.9983 16:3.70453 17:0.948295 18:1.63602 19:0.763431 20:0.10924 21:-2.84992 22:1.39538 23:-0.258006 24:0.493788 25:-0.621956 26:0.719118
-0.25252854906741679 1:295.926 2:1.99576 3:16.2816 4:6.37056 5:9.03959 6:-4.15716 7:-0.0677066 8:-1.49806 9:4.21191 10:-3.00301 11:-1.05076 12:0.0434468 13:0.968851 14:92.3227 15:1.9983 16:3.70453 17:0.948295 18:1.63602 19:0.763431 20:0.10924 21:-2.84992 22:1.39538 23:-0.258006 24:0.493788 25:-0.621956 26:0.719118
-0.041807101994985385 1:263.761 2:10.0803 3:8.24533 4:0.44792 5:5.62295 6:-3.28773 7:0.520083 8:-5.6635 9:4.85559 10:-3.12453 11:1.81523 12:-4.89046 13:4.84777 14:92.3227 15:1.9983 16:3.70453 17:0.948295 18:1.63602 19:0.763431 20:0.10924 21:-2.84992 22:1.39538 23:-0.258006 24:0.493788 25:-0.621956 26:0.719118
-0.095769571677200072 1:308.747 2:6.54573 3:12.5055 4:3.75761 5:5.46469 6:2.35965 7:0.159092 8:-9.88782 9:4.86064 10:-0.0806009 11:1.90825 12:-2.58921 13:1.96054 14:308.747 15:6.54573 16:12.5055 17:3.75761 18:5.46469 19:2.35965 20:0.159092 21:-9.88782 22:4.86064 23:-0.0806009 24:1.90825 25:-2.58921 26:1.96054
-0.094409264801693801 1:319.632 2:4.6919 3:11.2366 4:2.08105 5:5.32218 6:4.24378 7:0.658312 8:-9.72006 9:3.84931 10:-0.999607 11:2.40618 12:-0.866897 13:2.36803 14:319.632 15:4.6919 16:11.2366 17:2.08105 18:5.32218 19:4.24378 20:0.658312 21:-9.72006 22:3.84931 23:-0.999607 24:2.40618 25:-0.866897 26:2.36803
-8 1:-1500 2:1.44711e-07 3:9.96791e-06 4:-1.45779e-06 5:-1.61451e-05 6:-3.85156e-06 7:3.92767e-06 8:5.21158e-06 9:-7.71489e-06 10:-1.09161e-06 11:-6.57972e-07 12:-5.02876e-07 13:-2.09301e-06 14:-1500 15:1.44711e-07 16:9.96791e-06 17:-1.45779e-06 18:-1.61451e-05 19:-3.85156e-06 20:3.92767e-06 21:5.21158e-06 22:-7.71489e-06 23:-1.09161e-06 24:-6.57972e-07 25:-5.02876e-07 26:-2.09301e-06
-0.07453632834001965 1:120.543 2:-1.00269 3:3.21028 4:-3.1093 5:3.7262 6:-5.49251 7:0.157902 8:-1.5503 9:2.14176 10:-0.205269 11:0.34093 12:-3.07275 13:3.05272 14:62.8514 15:-0.678446 16:5.86749 17:4.41835 18:1.10661 19:-1.12236 20:1.16217 21:-1.13761 22:-0.150452 23:-1.02216 24:1.09316 25:-1.49451 26:1.38473
-0.0032258198640964081 1:219.846 2:21.0653 3:6.66844 4:0.590609 5:13.7399 6:-6.66586 7:8.51172 8:-5.74455 9:-2.13137 10:-4.66612 11:4.49353 12:-4.34959 13:4.14693 14:62.8514 15:-0.678446 16:5.86749 17:4.41835 18:1.10661 19:-1.12236 20:1.16217 21:-1.13761 22:-0.150452 23:-1.02216 24:1.09316 25:-1.49451 26:1.38473
-1.1851335786940218 1:219.846 2:21.0653 3:6.66844 4:0.590609 5:13.7399 6:-6.66586 7:8.51172 8:-5.74455 9:-2.13137 10:-4.66612 11:4.49353 12:-4.34959 13:4.14693 14:62.8514 15:-0.678446 16:5.86749 17:4.41835 18:1.10661 19:-1.12236 20:1.16217 21:-1.13761 22:-0.150452 23:-1.02216 24:1.09316 25:-1.49451 26:1.38473
-3.1070458567627264 1:243.17 2:24.1316 3:3.88048 4:-7.69185 5:5.54819 6:-4.24484 7:7.18843 8:-5.87714 9:2.02353 10:-4.13638 11:2.51394 12:-5.24361 13:3.44094 14:62.8514 15:-0.678446 16:5.86749 17:4.41835 18:1.10661 19:-1.12236 20:1.16217 21:-1.13761 22:-0.150452 23:-1.02216 24:1.09316 25:-1.49451 26:1.38473
-1.918969327751872 1:259.032 2:17.6572 3:-1.07852 4:-3.68286 5:4.72831 6:-6.07838 7:4.71382 8:-3.97235 9:4.63515 10:-3.12825 11:0.000454285 12:-6.16937 13:5.18662 14:62.8514 15:-0.678446 16:5.86749 17:4.41835 18:1.10661 19:-1.12236 20:1.16217 21:-1.13761 22:-0.150452 23:-1.02216 24:1.09316 25:-1.49451 26:1.38473
-0.62222018502001719 1:263.485 2:16.4437 3:-2.71406 4:-1.78519 5:5.03925 6:-7.16147 7:4.86572 8:-2.10841 9:4.57932 10:-4.11988 11:0.770828 12:-6.2193 13:5.44789 14:62.8514 15:-0.678446 16:5.86749 17:4.41835 18:1.10661 19:-1.12236 20:1.16217 21:-1.13761 22:-0.150452 23:-1.02216 24:1.09316 25:-1.49451 26:1.38473
-0.38633894697528515 1:264.365 2:8.12007 3:2.69772 4:5.62828 5:-0.574787 6:-9.60282 7:5.22479 8:2.08902 9:3.52444 10:-8.5852 11:4.22849 12:-5.89625 13:0.800962 14:62.8514 15:-0.678446 16:5.86749 17:4.41835 18:1.10661 19:-1.12236 20:1.16217 21:-1.13761 22:-0.150452 23:-1.02216 24:1.09316 25:-1.49451 26:1.38473
-0.19552596630148875 1:252.799 2:24.9052 3:4.15695 4:-5.20403 5:2.66615 6:-7.15691 7:6.78649 8:-11.2353 9:3.5709 10:-2.25316 11:3.19093 12:-3.3953 13:3.66676 14:62.8514 15:-0.678446 16:5.86749 17:4.41835 18:1.10661 19:-1.12236 20:1.16217 21:-1.13761 22:-0.150452 23:-1.02216 24:1.09316 25:-1.49451 26:1.38473
-0.0042208816134352047 1:274.673 2:8.46316 3:4.07188 4:6.15872 5:5.53502 6:-10.8906 7:0.245972 8:-5.70142 9:2.14041 10:-1.82646 11:-1.75215 12:-0.0439755 13:5.90706 14:62.8514 15:-0.678446 16:5.86749 17:4.41835 18:1.10661 19:-1.12236 20:1.16217 21:-1.13761 22:-0.150452 23:-1.02216 24:1.09316 25:-1.49451 26:1.38473
-2.5268978305828669 1:274.673 2:8.46316 3:4.07188 4:6.15872 5:5.53502 6:-10.8906 7:0.245972 8:-5.70142 9:2.14041 10:-1.82646 11:-1.75215 12:-0.0439755 13:5.90706 14:62.8514 15:-0.678446 16:5.86749 17:4.41835 18:1.10661 19:-1.12236 20:1.16217 21:-1.13761 22:-0.150452 23:-1.02216 24:1.09316 25:-1.49451 26:1.38473
-0.1020207510414293 1:195.285 2:-16.0271 3:-3.97758 4:7.91925 5:-5.51588 6:-5.67576 7:0.0562754 8:0.486261 9:5.61846 10:-6.74527 11:9.61407 12:-3.77111 13:0.534161 14:62.8514 15:-0.678446 16:5.86749 17:4.41835 18:1.10661 19:-1.12236 20:1.16217 21:-1.13761 22:-0.150452 23:-1.02216 24:1.09316 25:-1.49451 26:1.38473
-2.1866632617117023 1:204.333 2:15.27 3:11.8472 4:3.91286 5:4.20509 6:-8.47319 7:0.369452 8:-2.25215 9:6.03912 10:-7.16213 11:7.27742 12:-5.40831 13:1.43316 14:62.8514 15:-0.678446 16:5.86749 17:4.41835 18:1.10661 19:-1.12236 20:1.16217 21:-1.13761 22:-0.150452 23:-1.02216 24:1.09316 25:-1.49451 26:1.38473
-0.0043760417152095788 1:261.161 2:13.917 3:9.7029 4:6.77467 5:6.13436 6:-11.1491 7:-1.25642 8:-2.65777 9:3.28759 10:-8.66585 11:5.52181 12:-2.57385 13:1.19798 14:62.8514 15:-0.678446 16:5.86749 17:4.41835 18:1.10661 19:-1.12236 20:1.16217 21:-1.13761 22:-0.150452 23:-1.02216 24:1.09316 25:-1.49451 26:1.38473
-2.0412712577360086 1:261.161 2:13.917 3:9.7029 4:6.77467 5:6.13436 6:-11.1491 7:-1.25642 8:-2.65777 9:3.28759 10:-8.66585 11:5.52181 12:-2.57385 13:1.19798 14:62.8514 15:-0.678446 16:5.86749 17:4.41835 18:1.10661 19:-1.12236 20:1.16217 21:-1.13761 22:-0.150452 23:-1.02216 24:1.09316 25:-1.49451 26:1.38473
-0.0031703841987877606 1:254.205 2:3.05685 3:13.1822 4:9.83991 5:2.35612 6:-11.2131 7:-2.02723 8:-0.780499 9:1.2751 10:-8.71891 11:3.92141 12:-1.2193 13:-1.23482 14:62.8514 15:-0.678446 16:5.86749 17:4.41835 18:1.10661 19:-1.12236 20:1.16217 21:-1.13761 22:-0.150452 23:-1.02216 24:1.09316 25:-1.49451 26:1.38473
-0.30094572883731141 1:254.205 2:3.05685 3:13.1822 4:9.83991 5:2.35612 6:-11.2131 7:-2.02723 8:-0.780499 9:1.2751 10:-8.71891 11:3.92141 12:-1.2193 13:-1.23482 14:62.8514 15:-0.678446 16:5.86749 17:4.41835 18:1.10661 19:-1.12236 20:1.16217 21:-1.13761 22:-0.150452 23:-1.02216 24:1.09316 25:-1.49451 26:1.38473
-0.10422431441289388 1:174.865 2:6.55947 3:14.659 4:7.62593 5:7.70435 6:-4.10685 7:5.54611 8:-1.38416 9:2.46532 10:-3.36254 11:4.68981 12:-5.13317 13:6.14321 14:174.865 15:6.55947 16:14.659 17:7.62593 18:7.70435 19:-4.10685 20:5.54611 21:-1.38416 22:2.46532 23:-3.36254 24:4.68981 25:-5.13317 26:6.14321
-0.07695585286988367 1:234.868 2:-5.19763 3:18.3743 4:19.0031 5:4.05883 6:-5.45472 7:4.64489 8:-3.92342 9:-1.39058 10:-4.88357 11:2.84284 12:-4.55712 13:3.31936 14:234.868 15:-5.19763 16:18.3743 17:19.0031 18:4.05883 19:-5.45472 20:4.64489 21:-3.92342 22:-1.39058 23:-4.88357 24:2.84284 25:-4.55712 26:3.31936
-3.3325569447117096 1:139.388 2:3.98941 3:7.37969 4:-1.32755 5:4.44225 6:-2.91449 7:1.10039 8:-3.02545 9:2.62309 10:-3.3828 11:4.70034 12:-2.49766 13:3.69515 14:139.388 15:3.98941 16:7.37969 17:-1.32755 18:4.44225 19:-2.91449 20:1.10039 21:-3.02545 22:2.62309 23:-3.3828 24:4.70034 25:-2.49766 26:3.69515
-0.0013162079481132537 1:175.601 2:-0.246901 3:10.4009 4:-0.656386 5:0.430314 6:-1.36711 7:-1.10574 8:-4.93265 9:2.11604 10:-1.03251 11:6.16471 12:-2.84452 13:2.13137 14:68.0603 15:4.33134 16:4.45 17:2.57035 18:-0.174762 19:-1.87395 20:1.24968 21:-3.33021 22:1.3089 23:-1.27288 24:2.05992 25:-1.27131 26:1.53868
-0.46906624926695129 1:175.601 2:-0.246901 3:10.4009 4:-0.656386 5:0.430314 6:-1.36711 7:-1.10574 8:-4.93265 9:2.11604 10:-1.03251 11:6.16471 12:-2.84452 13:2.13137 14:68.0603 15:4.33134 16:4.45 17:2.57035 18:-0.174762 19:-1.87395 20:1.24968 21:-3.33021 22:1.3089 23:-1.27288 24:2.05992 25:-1.27131 26:1.53868
-2.2669015101863446 1:183.618 2:-7.39372 3:6.84115 4:1.25634 5:1.11171 6:-1.44891 7:1.53164 8:-2.18988 9:4.98851 10:-4.39672 11:4.21117 12:3.35693 13:0.883916 14:68.0603 15:4.33134 16:4.45 17:2.57035 18:-0.174762 19:-1.87395 20:1.24968 21:-3.33021 22:1.3089 23:-1.27288 24:2.05992 25:-1.27131 26:1.53868
-0.0025250044244277611 1:205.952 2:-11.8789 3:-3.35119 4:1.81758 5:4.10419 6:-0.774756 7:1.15474 8:-1.01943 9:5.34372 10:0.162484 11:3.23435 12:-0.554483 13:6.56375 14:68.0603 15:4.33134 16:4.45 17:2.57035 18:-0.174762 19:-1.87395 20:1.24968 21:-3.33021 22:1.3089 23:-1.27288 24:2.05992 25:-1.27131 26:1.53868
-2.3054574716175771 1:205.952 2:-11.8789 3:-3.35119 4:1.81758 5:4.10419 6:-0.774756 7:1.15474 8:-1.01943 9:5.34372 10:0.162484 11:3.23435 12:-0.554483 13:6.56375 14:68.0603 15:4.33134 16:4.45 17:2.57035 18:-0.174762 19:-1.87395 20:1.24968 21:-3.33021 22:1.3089 23:-1.27288 24:2.05992 25:-1.27131 26:1.53868
-8 1:194.564 2:6.44837 3:8.75666 4:1.37407 5:8.7995 6:-1.7607 7:0.359622 8:-1.5865 9:4.54789 10:-5.22259 11:4.41572 12:-4.84666 13:3.59543 14:68.0603 15:4.33134 16:4.45 17:2.57035 18:-0.174762 19:-1.87395 20:1.24968 21:-3.33021 22:1.3089 23:-1.27288 24:2.05992 25:-1.27131 26:1.53868
-8 1:194.564 2:6.44837 3:8.75666 4:1.37407 5:8.7995 6:-1.7607 7:0.359622 8:-1.5865 9:4.54789 10:-5.22259 11:4.41572 12:-4.84666 13:3.59543 14:68.0603 15:4.33134 16:4.45 17:2.57035 18:-0.174762 19:-1.87395 20:1.24968 21:-3.33021 22:1.3089 23:-1.27288 24:2.05992 25:-1.27131 26:1.53868
-0.93841516049281204 1:245.062 2:21.0968 3:15.0809 4:3.65888 5:8.32844 6:-4.78082 7:4.56481 8:-8.36441 9:5.91937 10:-3.67617 11:5.48827 12:-5.01528 13:5.46192 14:68.0603 15:4.33134 16:4.45 17:2.57035 18:-0.174762 19:-1.87395 20:1.24968 21:-3.33021 22:1.3089 23:-1.27288 24:2.05992 25:-1.27131 26:1.53868
-7.909766723454104 1:245.062 2:21.0968 3:15.0809 4:3.65888 5:8.32844 6:-4.78082 7:4.56481 8:-8.36441 9:5.91937 10:-3.67617 11:5.48827 12:-5.01528 13:5.46192 14:68.0603 15:4.33134 16:4.45 17:2.57035 18:-0.174762 19:-1.87395 20:1.24968 21:-3.33021 22:1.3089 23:-1.27288 24:2.05992 25:-1.27131 26:1.53868
-4.9895111237874445 1:304.648 2:17.5118 3:-0.135275 4:-4.97652 5:5.75954 6:-4.46577 7:3.89829 8:-7.57599 9:7.45268 10:-2.22149 11:0.864244 12:-5.18686 13:4.38834 14:68.0603 15:4.33134 16:4.45 17:2.57035 18:-0.174762 19:-1.87395 20:1.24968 21:-3.33021 22:1.3089 23:-1.27288 24:2.05992 25:-1.27131 26:1.53868
-0.88056902913107327 1:311.982 2:12.1811 3:2.27473 4:3.34272 5:-1.79327 6:-7.30702 7:7.52209 8:-2.60499 9:4.30439 10:-6.19003 11:5.22789 12:-6.39025 13:1.32611 14:68.0603 15:4.33134 16:4.45 17:2.57035 18:-0.174762 19:-1.87395 20:1.24968 21:-3.33021 22:1.3089 23:-1.27288 24:2.05992 25:-1.27131 26:1.53868
-0.0050620958577215222 1:259.031 2:11.18 3:18.2396 4:2.79931 5:7.58223 6:-5.13128 7:0.930605 8:-4.17591 9:0.574218 10:-0.978457 11:2.25891 12:-4.34314 13:3.37519 14:68.0603 15:4.33134 16:4.45 17:2.57035 18:-0.174762 19:-1.87395 20:1.24968 21:-3.33021 22:1.3089 23:-1.27288 24:2.05992 25:-1.27131 26:1.53868
-5.1480884228989723 1:259.031 2:11.18 3:18.2396 4:2.79931 5:7.58223 6:-5.13128 7:0.930605 8:-4.17591 9:0.574218 10:-0.978457 11:2.25891 12:-4.34314 13:3.37519 14:68.0603 15:4.33134 16:4.45 17:2.57035 18:-0.174762 19:-1.87395 20:1.24968 21:-3.33021 22:1.3089 23:-1.27288 24:2.05992 25:-1.27131 26:1.53868
-4.4249316643750793 1:273.945 2:24.0336 3:12.4584 4:-3.7902 5:3.75137 6:-2.42701 7:4.85104 8:-7.34321 9:1.98987 10:-8.23982 11:5.55656 12:-5.63565 13:4.60853 14:68.0603 15:4.33134 16:4.45 17:2.57035 18:-0.174762 19:-1.87395 20:1.24968 21:-3.33021 22:1.3089 23:-1.27288 24:2.05992 25:-1.27131 26:1.53868
-4.1785789385658036 1:285.555 2:26.696 3:14.8955 4:-9.53276 5:4.06508 6:-2.24055 7:2.76407 8:-7.99365 9:2.10284 10:-8.46601 11:6.19688 12:-5.12132 13:4.99979 14:68.0603 15:4.33134 16:4.45 17:2.57035 18:-0.174762 19:-1.87395 20:1.24968 21:-3.33021 22:1.3089 23:-1.27288 24:2.05992 25:-1.27131 26:1.53868
-0.24707084098348683 1:290.165 2:24.7145 3:15.1004 4:-9.41564 5:2.53472 6:-2.24343 7:2.70737 8:-8.41691 9:2.49712 10:-8.13532 11:6.05819 12:-5.04862 13:4.56605 14:68.0603 15:4.33134 16:4.45 17:2.57035 18:-0.174762 19:-1.87395 20:1.24968 21:-3.33021 22:1.3089 23:-1.27288 24:2.05992 25:-1.27131 26:1.53868
-1.2997234858378024 1:290.165 2:24.7145 3:15.1004 4:-9.41564 5:2.53472 6:-2.24343 7:2.70737 8:-8.41691 9:2.49712 10:-8.13532 11:6.05819 12:-5.04862 13:4.56605 14:68.0603 15:4.33134 16:4.45 17:2.57035 18:-0.174762 19:-1.87395 20:1.24968 21:-3.33021 22:1.3089 23:-1.27288 24:2.05992 25:-1.27131 26:1.53868
-0.14675501348937856 1:293.579 2:24.1598 3:14.6142 4:-9.3327 5:2.71891 6:-1.8293 7:0.621847 8:-9.33605 9:3.09717 10:-7.06171 11:7.1549 12:-5.31109 13:3.42096 14:68.0603 15:4.33134 16:4.45 17:2.57035 18:-0.174762 19:-1.87395 20:1.24968 21:-3.33021 22:1.3089 23:-1.27288 24:2.05992 25:-1.27131 26:1.53868
-0.086872149701891582 1:296.472 2:23.7232 3:13.3386 4:-9.79699 5:3.38857 6:-1.80506 7:-0.276638 8:-11.4657 9:3.39998 10:-4.78784 11:7.27045 12:-6.73498 13:2.09627 14:68.0603 15:4.33134 16:4.45 17:2.57035 18:-0.174762 19:-1.87395 20:1.24968 21:-3.33021 22:1.3089 23:-1.27288 24:2.05992 25:-1.27131 26:1.53868
-1.7135404374903791 1:296.472 2:23.7232 3:13.3386 4:-9.79699 5:3.38857 6:-1.80506 7:-0.276638 8:-11.4657 9:3.39998 10:-4.78784 11:7.27045 12:-6.73498 13:2.09627 14:68.0603 15:4.33134 16:4.45 17:2.57035 18:-0.174762 19:-1.87395 20:1.24968 21:-3.33021 22:1.3089 23:-1.27288 24:2.05992 25:-1.27131 26:1.53868
-0.0079057945866031903 1:308.325 2:18.3114 3:8.62234 4:2.05222 5:3.0244 6:-7.80384 7:-2.68412 8:-8.12866 9:7.90318 10:-7.87217 11:3.43945 12:-4.54434 13:3.95615 14:68.0603 15:4.33134 16:4.45 17:2.57035 18:-0.174762 19:-1.87395 20:1.24968 21:-3.33021 22:1.3089 23:-1.27288 24:2.05992 25:-1.27131 26:1.53868
-4.4552448298422771 1:308.325 2:18.3114 3:8.62234 4:2.05222 5:3.0244 6:-7.80384 7:-2.68412 8:-8.12866 9:7.90318 10:-7.87217 11:3.43945 12:-4.54434 13:3.95615 14:68.0603 15:4.33134 16:4.45 17:2.57035 18:-0.174762 19:-1.87395 20:1.24968 21:-3.33021 22:1.3089 23:-1.27288 24:2.05992 25:-1.27131 26:1.53868
-1.275342836810297 1:263.937 2:-7.2911 3:7.82215 4:4.05519 5:-4.38471 6:-4.07032 7:4.44074 8:-6.14115 9:-1.41816 10:-1.26867 11:1.80084 12:-5.18502 13:2.3097 14:68.0603 15:4.33134 16:4.45 17:2.57035 18:-0.174762 19:-1.87395 20:1.24968 21:-3.33021 22:1.3089 23:-1.27288 24:2.05992 25:-1.27131 26:1.53868
-0.0045155905552625901 1:245.096 2:-5.37536 3:10.2744 4:3.29409 5:0.614767 6:-4.49669 7:1.63715 8:-7.45567 9:-3.64099 10:-3.08029 11:-3.1224 12:-4.6419 13:2.88347 14:68.0603 15:4.33134 16:4.45 17:2.57035 18:-0.174762 19:-1.87395 20:1.24968 21:-3.33021 22:1.3089 23:-1.27288 24:2.05992 25:-1.27131 26:1.53868
-3.5905362764352651 1:245.096 2:-5.37536 3:10.2744 4:3.29409 5:0.614767 6:-4.49669 7:1.63715 8:-7.45567 9:-3.64099 10:-3.08029 11:-3.1224 12:-4.6419 13:2.88347 14:68.0603 15:4.33134 16:4.45 17:2.57035 18:-0.174762 19:-1.87395 20:1.24968 21:-3.33021 22:1.3089 23:-1.27288 24:2.05992 25:-1.27131 26:1.53868
-0.0010932639065042197 1:241.422 2:-8.41878 3:6.31877 4:6.54862 5:4.12276 6:-6.42493 7:3.03646 8:-4.33693 9:-1.54428 10:-1.91872 11:4.17431 12:-2.65175 13:-0.608677 14:68.0603 15:4.33134 16:4.45 17:2.57035 18:-0.174762 19:-1.87395 20:1.24968 21:-3.33021 22:1.3089 23:-1.27288 24:2.05992 25:-1.27131 26:1.53868
-2.5074801627001211 1:241.422 2:-8.41878 3:6.31877 4:6.54862 5:4.12276 6:-6.42493 7:3.03646 8:-4.33693 9:-1.54428 10:-1.91872 11:4.17431 12:-2.65175 13:-0.608677 14:68.0603 15:4.33134 16:4.45 17:2.57035 18:-0.174762 19:-1.87395 20:1.24968 21:-3.33021 22:1.3089 23:-1.27288 24:2.05992 25:-1.27131 26:1.53868
-7.7978234371851434 1:231.4 2:1.62539 3:11.9815 4:1.21411 5:4.76673 6:-6.02415 7:3.66272 8:-3.48885 9:1.88202 10:-2.10774 11:3.99621 12:2.21753 13:1.16667 14:68.0603 15:4.33134 16:4.45 17:2.57035 18:-0.174762 19:-1.87395 20:1.24968 21:-3.33021 22:1.3089 23:-1.27288 24:2.05992 25:-1.27131 26:1.53868
-0.47452802334357513 1:231.944 2:12.6169 3:12.9834 4:7.17529 5:2.03698 6:-4.05583 7:4.71437 8:-8.1971 9:4.60105 10:-2.49706 11:8.50747 12:-3.98271 13:7.31831 14:68.0603 15:4.33134 16:4.45 17:2.57035 18:-0.174762 19:-1.87395 20:1.24968 21:-3.33021 22:1.3089 23:-1.27288 24:2.05992 25:-1.27131 26:1.53868
-0.91101369285060607 1:231.944 2:12.6169 3:12.9834 4:7.17529 5:2.03698 6:-4.05583 7:4.71437 8:-8.1971 9:4.60105 10:-2.49706 11:8.50747 12:-3.98271 13:7.31831 14:231.944 15:12.6169 16:12.9834 17:7.17529 18:2.03698 19:-4.05583 20:4.71437 21:-8.1971 22:4.60105 23:-2.49706 24:8.50747 25:-3.98271 26:7.31831
-1.95880050711898 1:215.306 2:14.6205 3:14.3002 4:7.3172 5:-2.77223 6:-6.08871 7:2.66563 8:-13.018 9:4.4814 10:-4.54024 11:6.30908 12:-4.34438 13:3.7567 14:215.306 15:14.6205 16:14.3002 17:7.3172 18:-2.77223 19:-6.08871 20:2.66563 21:-13.018 22:4.4814 23:-4.54024 24:6.30908 25:-4.34438 26:3.7567
-8 1:-1500 2:1.44711e-07 3:9.96791e-06 4:-1.45779e-06 5:-1.61451e-05 6:-3.85156e-06 7:3.92767e-06 8:5.21158e-06 9:-7.71489e-06 10:-1.09161e-06 11:-6.57972e-07 12:-5.02876e-07 13:-2.09301e-06 14:-1500 15:1.44711e-07 16:9.96791e-06 17:-1.45779e-06 18:-1.61451e-05 19:-3.85156e-06 20:3.92767e-06 21:5.21158e-06 22:-7.71489e-06 23:-1.09161e-06 24:-6.57972e-07 25:-5.02876e-07 26:-2.09301e-06
-0.52692805443915325 1:168.644 2:1.9656 3:-1.22322 4:-5.77346 5:3.80004 6:-6.55344 7:1.87914 8:-5.47511 9:1.40551 10:-0.306129 11:1.3953 12:-2.40221 13:1.16621 14:168.644 15:1.9656 16:-1.22322 17:-5.77346 18:3.80004 19:-6.55344 20:1.87914 21:-5.47511 22:1.40551 23:-0.306129 24:1.3953 25:-2.40221 26:1.16621
-2.8117945482914628 1:209.612 2:0.577596 3:0.318825 4:-2.52264 5:0.54975 6:-1.74558 7:2.10203 8:-5.58165 9:2.50409 10:-2.66788 11:3.80021 12:-1.54655 13:3.72912 14:62.9957 15:0.0213396 16:-0.291648 17:-1.41279 18:0.33454 19:-0.790114 20:0.99867 21:-0.789798 22:0.67851 23:-0.531275 24:0.815091 25:-0.919526 26:0.35433
-7.3024169581456349 1:208.093 2:0.458763 3:1.7773 4:-1.17025 5:0.485913 6:-0.680766 7:6.84791 8:-0.24078 9:5.40499 10:-2.66785 11:0.305229 12:-4.85424 13:0.753668 14:62.9957 15:0.0213396 16:-0.291648 17:-1.41279 18:0.33454 19:-0.790114 20:0.99867 21:-0.789798 22:0.67851 23:-0.531275 24:0.815091 25:-0.919526 26:0.35433
-2.3680407625216611 1:212.505 2:2.09306 3:-0.0106572 4:-1.26615 5:3.20432 6:-0.788813 7:3.63218 8:-2.37595 9:0.512648 10:-2.73786 11:3.37888 12:-3.10384 13:4.52129 14:62.9957 15:0.0213396 16:-0.291648 17:-1.41279 18:0.33454 19:-0.790114 20:0.99867 21:-0.789798 22:0.67851 23:-0.531275 24:0.815091 25:-0.919526 26:0.35433
-8 1:212.505 2:2.09306 3:-0.0106572 4:-1.26615 5:3.20432 6:-0.788813 7:3.63218 8:-2.37595 9:0.512648 10:-2.73786 11:3.37888 12:-3.10384 13:4.52129 14:62.9957 15:0.0213396 16:-0.291648 17:-1.41279 18:0.33454 19:-0.790114 20:0.99867 21:-0.789798 22:0.67851 23:-0.531275 24:0.815091 25:-0.919526 26:0.35433
-8 1:205.84 2:1.85552 3:-0.828882 4:-4.11469 5:0.210902 6:-4.3044 7:2.70603 8:-3.94085 9:2.87243 10:-3.19227 11:3.28096 12:-5.08435 13:0.730911 14:62.9957 15:0.0213396 16:-0.291648 17:-1.41279 18:0.33454 19:-0.790114 20:0.99867 21:-0.789798 22:0.67851 23:-0.531275 24:0.815091 25:-0.919526 26:0.35433
-8 1:205.84 2:1.85552 3:-0.828882 4:-4.11469 5:0.210902 6:-4.3044 7:2.70603 8:-3.94085 9:2.87243 10:-3.19227 11:3.28096 12:-5.08435 13:0.730911 14:62.9957 15:0.0213396 16:-0.291648 17:-1.41279 18:0.33454 19:-0.790114 20:0.99867 21:-0.789798 22:0.67851 23:-0.531275 24:0.815091 25:-0.919526 26:0.35433
-2.9227256267329347 1:206.233 2:0.695178 3:2.90003 4:-0.821357 5:-0.812138 6:-2.98585 7:5.9272 8:2.40794 9:5.30319 10:-2.87857 11:-0.262037 12:-6.00688 13:1.64463 14:62.9957 15:0.0213396 16:-0.291648 17:-1.41279 18:0.33454 19:-0.790114 20:0.99867 21:-0.789798 22:0.67851 23:-0.531275 24:0.815091 25:-0.919526 26:0.35433
-0.0032105964543737045 1:217.779 2:6.46471 3:-0.276164 4:-9.97075 5:1.07575 6:1.06451 7:5.91203 8:-3.85588 9:2.97122 10:-4.94726 11:1.0499 12:-3.18347 13:3.25724 14:62.9957 15:0.0213396 16:-0.291648 17:-1.41279 18:0.33454 19:-0.790114 20:0.99867 21:-0.789798 22:0.67851 23:-0.531275 24:0.815091 25:-0.919526 26:0.35433
-1.0639365544241597 1:217.779 2:6.46471 3:-0.276164 4:-9.97075 5:1.07575 6:1.06451 7:5.91203 8:-3.85588 9:2.97122 10:-4.94726 11:1.0499 12:-3.18347 13:3.25724 14:62.9957 15:0.0213396 16:-0.291648 17:-1.41279 18:0.33454 19:-0.790114 20:0.99867 21:-0.789798 22:0.67851 23:-0.531275 24:0.815091 25:-0.919526 26:0.35433
-5.5733332958886468 1:213.213 2:3.54583 3:0.683257 4:-1.17882 5:5.51084 6:-3.54573 7:2.91669 8:-4.05509 9:3.07224 10:0.415655 11:4.19192 12:-3.12584 13:0.702297 14:62.9957 15:0.0213396 16:-0.291648 17:-1.41279 18:0.33454 19:-0.790114 20:0.99867 21:-0.789798 22:0.67851 23:-0.531275 24:0.815091 25:-0.919526 26:0.35433
-7.9164472315603209 1:213.213 2:3.54583 3:0.683257 4:-1.17882 5:5.51084 6:-3.54573 7:2.91669 8:-4.05509 9:3.07224 10:0.415655 11:4.19192 12:-3.12584 13:0.702297 14:62.9957 15:0.0213396 16:-0.291648 17:-1.41279 18:0.33454 19:-0.790114 20:0.99867 21:-0.789798 22:0.67851 23:-0.531275 24:0.815091 25:-0.919526 26:0.35433
-2.2167676017172058 1:209.678 2:0.110411 3:-4.24108 4:-6.38627 5:2.03503 6:-3.39062 7:2.70275 8:-2.84965 9:1.86671 10:-3.21716 11:1.458 12:-3.56189 13:2.07611 14:209.678 15:0.110411 16:-4.24108 17:-6.38627 18:2.03503 19:-3.39062 20:2.70275 21:-2.84965 22:1.86671 23:-3.21716 24:1.458 25:-3.56189 26:2.07611
-1.4480228875618102 1:208.347 2:-0.456193 3:-0.400695 4:-3.42219 5:-0.616602 6:-3.30029 7:3.95126 8:-3.2881 9:2.2817 10:-0.74552 11:2.68515 12:-4.5669 13:0.680573 14:208.347 15:-0.456193 16:-0.400695 17:-3.42219 18:-0.616602 19:-3.30029 20:3.95126 21:-3.2881 22:2.2817 23:-0.74552 24:2.68515 25:-4.5669 26:0.680573