svm_type c_svc
kernel_type rbf
gamma 0.003
nr_class 2
total_sv 339
rho 0.293921136325257
label 1 2
nr_sv 151 188
SV
1 1:186.281 2:-7.82226 3:10.6267 4:-0.298668 5:2.10746 6:3.12319 7:3.48162 8:-3.2348 9:1.25746 10:-6.46292 11:0.70868 12:-0.504583 13:0.633727 14:186.281 15:-7.82226 16:10.6267 17:-0.298668 18:2.10746 19:3.12319 20:3.48162 21:-3.2348 22:1.25746 23:-6.46292 24:0.70868 25:-0.504583 26:0.633727
1 1:239.137 2:-8.20982 3:6.73438 4:0.361312 5:-0.423039 6:0.983024 7:1.997 8:-0.821218 9:2.46262 10:-2.38933 11:3.11336 12:-1.4685 13:0.486569 14:239.137 15:-8.20982 16:6.73438 17:0.361312 18:-0.423039 19:0.983024 20:1.997 21:-0.821218 22:2.46262 23:-2.38933 24:3.11336 25:-1.4685 26:0.486569
1 1:210.267 2:-3.66141 3:5.88771 4:-0.685319 5:4.60702 6:0.673269 7:3.56173 8:0.78677 9:3.81549 10:-0.984994 11:3.03245 12:-1.19486 13:1.51564 14:66.3901 15:-1.47794 16:1.39269 17:0.265812 18:1.86146 19:-0.16036 20:1.05703 21:-0.161991 22:0.875009 23:-0.884412 24:0.57147 25:-0.523939 26:0.75366
0.89959392850077224 1:214.253 2:-0.146818 3:9.03551 4:-0.490983 5:3.51453 6:0.962044 7:4.35294 8:-0.577388 9:3.05903 10:-2.49883 11:0.379677 12:-2.3723 13:0.83949 14:66.3901 15:-1.47794 16:1.39269 17:0.265812 18:1.86146 19:-0.16036 20:1.05703 21:-0.161991 22:0.875009 23:-0.884412 24:0.57147 25:-0.523939 26:0.75366
0.25668202344558305 1:224.406 2:-18.5335 3:13.2611 4:1.17097 5:0.560113 6:2.28901 7:0.829029 8:-1.39689 9:-1.20469 10:-1.88203 11:0.261206 12:-1.06347 13:1.13457 14:66.3901 15:-1.47794 16:1.39269 17:0.265812 18:1.86146 19:-0.16036 20:1.05703 21:-0.161991 22:0.875009 23:-0.884412 24:0.57147 25:-0.523939 26:0.75366
1 1:212.468 2:-2.34752 3:6.96832 4:-0.419678 5:2.36002 6:-0.597059 7:6.15573 8:0.404782 9:2.0488 10:-0.72903 11:3.60916 12:-1.42697 13:2.25091 14:66.3901 15:-1.47794 16:1.39269 17:0.265812 18:1.86146 19:-0.16036 20:1.05703 21:-0.161991 22:0.875009 23:-0.884412 24:0.57147 25:-0.523939 26:0.75366
0.49645883507547989 1:212.232 2:-3.28382 3:6.93679 4:0.0986643 5:3.45969 6:-1.53085 7:4.44803 8:-1.69995 9:0.452507 10:-1.53891 11:2.86632 12:-0.657141 13:3.52571 14:66.3901 15:-1.47794 16:1.39269 17:0.265812 18:1.86146 19:-0.16036 20:1.05703 21:-0.161991 22:0.875009 23:-0.884412 24:0.57147 25:-0.523939 26:0.75366
1 1:212.691 2:0.648597 3:6.77695 4:-1.59791 5:3.64755 6:-0.332974 7:2.56897 8:-1.94889 9:0.852114 10:-4.63057 11:2.33649 12:-1.65304 13:2.8708 14:66.3901 15:-1.47794 16:1.39269 17:0.265812 18:1.86146 19:-0.16036 20:1.05703 21:-0.161991 22:0.875009 23:-0.884412 24:0.57147 25:-0.523939 26:0.75366
1 1:210.325 2:-0.663954 3:6.97092 4:0.578802 5:4.02496 6:-0.383594 7:2.32104 8:-3.28186 9:2.02828 10:-2.78825 11:3.97045 12:-1.57143 13:2.94607 14:66.3901 15:-1.47794 16:1.39269 17:0.265812 18:1.86146 19:-0.16036 20:1.05703 21:-0.161991 22:0.875009 23:-0.884412 24:0.57147 25:-0.523939 26:0.75366
0.96842551107667285 1:210.7 2:-4.23231 3:9.2032 4:0.452858 5:2.01396 6:-0.170599 7:4.20432 8:1.71638 9:5.39854 10:1.20683 11:5.10739 12:-3.70182 13:1.93914 14:66.3901 15:-1.47794 16:1.39269 17:0.265812 18:1.86146 19:-0.16036 20:1.05703 21:-0.161991 22:0.875009 23:-0.884412 24:0.57147 25:-0.523939 26:0.75366
0.094288502036157643 1:215.645 2:0.640656 3:8.61394 4:0.231515 5:3.18404 6:-0.999903 7:4.43825 8:0.570945 9:3.30109 10:-3.0776 11:1.58202 12:-3.31117 13:1.42817 14:66.3901 15:-1.47794 16:1.39269 17:0.265812 18:1.86146 19:-0.16036 20:1.05703 21:-0.161991 22:0.875009 23:-0.884412 24:0.57147 25:-0.523939 26:0.75366
0.42837097545654912 1:230.458 2:3.87188 3:12.6645 4:0.878973 5:3.35514 6:-0.782571 7:7.24966 8:-0.7357 9:6.77616 10:-3.96205 11:1.87051 12:-1.58694 13:2.67833 14:66.3901 15:-1.47794 16:1.39269 17:0.265812 18:1.86146 19:-0.16036 20:1.05703 21:-0.161991 22:0.875009 23:-0.884412 24:0.57147 25:-0.523939 26:0.75366
0.21565285405846715 1:323.184 2:31.3765 3:-6.33885 4:-9.23253 5:9.55076 6:-13.7053 7:10.1167 8:-2.47872 9:4.33508 10:-8.48029 11:4.98202 12:-3.95004 13:6.60338 14:66.3901 15:-1.47794 16:1.39269 17:0.265812 18:1.86146 19:-0.16036 20:1.05703 21:-0.161991 22:0.875009 23:-0.884412 24:0.57147 25:-0.523939 26:0.75366
0.52037998405253294 1:340.738 2:20.7933 3:-6.35429 4:-5.28514 5:10.95 6:-7.66984 7:4.93773 8:-4.96093 9:1.48384 10:-5.28767 11:6.25068 12:-3.14545 13:5.13031 14:66.3901 15:-1.47794 16:1.39269 17:0.265812 18:1.86146 19:-0.16036 20:1.05703 21:-0.161991 22:0.875009 23:-0.884412 24:0.57147 25:-0.523939 26:0.75366
0.37223737966164833 1:339.511 2:18.6912 3:-5.50494 4:0.621179 5:14.27 6:-7.71296 7:4.26022 8:-6.27005 9:1.92811 10:-4.49182 11:4.64718 12:-4.5842 13:4.51117 14:66.3901 15:-1.47794 16:1.39269 17:0.265812 18:1.86146 19:-0.16036 20:1.05703 21:-0.161991 22:0.875009 23:-0.884412 24:0.57147 25:-0.523939 26:0.75366
0.26142811964354756 1:315.075 2:24.3303 3:-8.49418 4:6.50671 5:19.8046 6:-8.42585 7:9.05288 8:-6.32754 9:4.24085 10:-6.01645 11:3.78971 12:-7.00641 13:4.77586 14:66.3901 15:-1.47794 16:1.39269 17:0.265812 18:1.86146 19:-0.16036 20:1.05703 21:-0.161991 22:0.875009 23:-0.884412 24:0.57147 25:-0.523939 26:0.75366
0.74115433021570964 1:299.383 2:22.311 3:-0.362251 4:0.387598 5:19.8522 6:-2.48296 7:8.89993 8:-4.62982 9:1.14753 10:-5.14684 11:4.52381 12:-5.74867 13:3.53824 14:66.3901 15:-1.47794 16:1.39269 17:0.265812 18:1.86146 19:-0.16036 20:1.05703 21:-0.161991 22:0.875009 23:-0.884412 24:0.57147 25:-0.523939 26:0.75366
0.094339406193253414 1:292.274 2:18.8628 3:4.21124 4:-0.630676 5:12.6957 6:-1.72867 7:8.76976 8:-4.07304 9:1.77437 10:-5.8325 11:2.21842 12:-4.16165 13:5.36153 14:66.3901 15:-1.47794 16:1.39269 17:0.265812 18:1.86146 19:-0.16036 20:1.05703 21:-0.161991 22:0.875009 23:-0.884412 24:0.57147 25:-0.523939 26:0.75366
0.90539828773351017 1:283.242 2:17.707 3:6.78907 4:-0.306399 5:10.9568 6:-1.77236 7:11.0548 8:-4.30835 9:0.106988 10:-4.34022 11:0.518864 12:-4.09655 13:6.44903 14:66.3901 15:-1.47794 16:1.39269 17:0.265812 18:1.86146 19:-0.16036 20:1.05703 21:-0.161991 22:0.875009 23:-0.884412 24:0.57147 25:-0.523939 26:0.75366
1 1:289.879 2:18.6454 3:8.96874 4:-2.65319 5:7.11393 6:-5.04723 7:8.1523 8:-1.16906 9:3.26951 10:-5.54025 11:0.606927 12:-5.06785 13:6.22204 14:66.3901 15:-1.47794 16:1.39269 17:0.265812 18:1.86146 19:-0.16036 20:1.05703 21:-0.161991 22:0.875009 23:-0.884412 24:0.57147 25:-0.523939 26:0.75366
0.00010148671624037346 1:299.183 2:24.8352 3:7.05009 4:-2.59522 5:6.67028 6:-7.55759 7:9.93599 8:-3.24944 9:5.52171 10:-5.96268 11:-0.685818 12:-6.00834 13:6.33397 14:66.3901 15:-1.47794 16:1.39269 17:0.265812 18:1.86146 19:-0.16036 20:1.05703 21:-0.161991 22:0.875009 23:-0.884412 24:0.57147 25:-0.523939 26:0.75366
0.094132337281702963 1:316.626 2:33.7649 3:5.50068 4:-2.02359 5:6.65094 6:-16.1286 7:2.07615 8:-4.31289 9:10.6228 10:-7.64548 11:1.28308 12:-5.23714 13:6.64377 14:66.3901 15:-1.47794 16:1.39269 17:0.265812 18:1.86146 19:-0.16036 20:1.05703 21:-0.161991 22:0.875009 23:-0.884412 24:0.57147 25:-0.523939 26:0.75366
0.94879578536189757 1:327.269 2:26.0346 3:7.46482 4:-3.80064 5:5.33773 6:-12.4968 7:0.636511 8:-2.49259 9:8.83019 10:-6.99566 11:0.860829 12:-5.13044 13:5.48269 14:66.3901 15:-1.47794 16:1.39269 17:0.265812 18:1.86146 19:-0.16036 20:1.05703 21:-0.161991 22:0.875009 23:-0.884412 24:0.57147 25:-0.523939 26:0.75366
0.57881845698019008 1:334.763 2:24.3629 3:3.5804 4:-5.85935 5:6.85759 6:-12.3043 7:6.01463 8:-4.37215 9:4.11973 10:-6.74636 11:-2.05284 12:-4.42893 13:7.01165 14:66.3901 15:-1.47794 16:1.39269 17:0.265812 18:1.86146 19:-0.16036 20:1.05703 21:-0.161991 22:0.875009 23:-0.884412 24:0.57147 25:-0.523939 26:0.75366
0.97262311897685139 1:327.799 2:23.4915 3:0.898094 4:-0.175463 5:7.83582 6:-4.59053 7:10.0798 8:-10.6797 9:-0.937931 10:-8.15985 11:3.59782 12:-5.39781 13:5.85903 14:66.3901 15:-1.47794 16:1.39269 17:0.265812 18:1.86146 19:-0.16036 20:1.05703 21:-0.161991 22:0.875009 23:-0.884412 24:0.57147 25:-0.523939 26:0.75366
0.020847195646114432 1:323.19 2:20.0378 3:1.02345 4:3.2994 5:9.44672 6:-2.87066 7:9.72699 8:-11.5019 9:-1.08183 10:-5.53768 11:4.8715 12:-4.76405 13:3.92358 14:66.3901 15:-1.47794 16:1.39269 17:0.265812 18:1.86146 19:-0.16036 20:1.05703 21:-0.161991 22:0.875009 23:-0.884412 24:0.57147 25:-0.523939 26:0.75366
0.31588369761082308 1:323.835 2:14.8529 3:-2.98353 4:11.1749 5:12.6433 6:-5.14044 7:12.2383 8:-9.20777 9:4.69971 10:-5.20235 11:3.1082 12:-5.41698 13:3.40319 14:66.3901 15:-1.47794 16:1.39269 17:0.265812 18:1.86146 19:-0.16036 20:1.05703 21:-0.161991 22:0.875009 23:-0.884412 24:0.57147 25:-0.523939 26:0.75366
0.0084780916507610424 1:307.824 2:9.32104 3:0.662642 4:11.8345 5:11.0441 6:-1.5591 7:10.093 8:-9.33969 9:5.99 10:-5.52613 11:0.972544 12:-4.63545 13:2.62794 14:66.3901 15:-1.47794 16:1.39269 17:0.265812 18:1.86146 19:-0.16036 20:1.05703 21:-0.161991 22:0.875009 23:-0.884412 24:0.57147 25:-0.523939 26:0.75366
0.4297822039750569 1:298.447 2:0.577493 3:9.27264 4:7.52169 5:8.89293 6:2.13061 7:5.26209 8:-3.60561 9:4.67849 10:-3.77767 11:-0.447713 12:-3.07159 13:2.12028 14:66.3901 15:-1.47794 16:1.39269 17:0.265812 18:1.86146 19:-0.16036 20:1.05703 21:-0.161991 22:0.875009 23:-0.884412 24:0.57147 25:-0.523939 26:0.75366
1 1:295.343 2:-4.36817 3:12.6975 4:7.58857 5:5.33483 6:2.99917 7:2.37797 8:-4.77367 9:5.145 10:-2.96605 11:0.00194817 12:-2.13729 13:2.60346 14:66.3901 15:-1.47794 16:1.39269 17:0.265812 18:1.86146 19:-0.16036 20:1.05703 21:-0.161991 22:0.875009 23:-0.884412 24:0.57147 25:-0.523939 26:0.75366
0.272019002032034 1:296.385 2:-21.8379 3:13.9507 4:1.09612 5:3.66721 6:3.83767 7:1.9024 8:0.718577 9:5.46767 10:0.887346 11:0.520809 12:-0.690472 13:-1.19227 14:66.3901 15:-1.47794 16:1.39269 17:0.265812 18:1.86146 19:-0.16036 20:1.05703 21:-0.161991 22:0.875009 23:-0.884412 24:0.57147 25:-0.523939 26:0.75366
0.040472863237054159 1:299.213 2:-22.703 3:11.1682 4:3.67938 5:2.88114 6:2.71315 7:2.3787 8:0.137721 9:5.5185 10:-0.465779 11:0.660869 12:1.40769 13:1.35012 14:66.3901 15:-1.47794 16:1.39269 17:0.265812 18:1.86146 19:-0.16036 20:1.05703 21:-0.161991 22:0.875009 23:-0.884412 24:0.57147 25:-0.523939 26:0.75366
0.58825031285934171 1:302.097 2:-19.5639 3:9.94996 4:5.64262 5:3.78515 6:1.25927 7:0.915838 8:-1.73213 9:1.34302 10:-2.53635 11:1.62799 12:1.4662 13:0.308946 14:66.3901 15:-1.47794 16:1.39269 17:0.265812 18:1.86146 19:-0.16036 20:1.05703 21:-0.161991 22:0.875009 23:-0.884412 24:0.57147 25:-0.523939 26:0.75366
1 1:317.785 2:2.39554 3:7.79606 4:8.60326 5:10.6837 6:3.58496 7:6.07337 8:-6.70863 9:4.10349 10:-3.20331 11:0.426505 12:-3.07732 13:3.13442 14:66.3901 15:-1.47794 16:1.39269 17:0.265812 18:1.86146 19:-0.16036 20:1.05703 21:-0.161991 22:0.875009 23:-0.884412 24:0.57147 25:-0.523939 26:0.75366
0.056166326999635259 1:317.017 2:1.60962 3:8.08217 4:7.47105 5:11.6684 6:3.94724 7:6.49106 8:-6.29688 9:4.11963 10:-3.31652 11:0.699425 12:-3.45405 13:2.36695 14:66.3901 15:-1.47794 16:1.39269 17:0.265812 18:1.86146 19:-0.16036 20:1.05703 21:-0.161991 22:0.875009 23:-0.884412 24:0.57147 25:-0.523939 26:0.75366
1 1:318.712 2:-2.28045 3:13.5359 4:4.32523 5:11.6282 6:4.69404 7:5.86994 8:-4.50447 9:2.35577 10:-0.495972 11:0.232228 12:-0.73115 13:2.14845 14:66.3901 15:-1.47794 16:1.39269 17:0.265812 18:1.86146 19:-0.16036 20:1.05703 21:-0.161991 22:0.875009 23:-0.884412 24:0.57147 25:-0.523939 26:0.75366
1 1:318.507 2:-3.35469 3:12.5538 4:4.68843 5:11.2245 6:6.08883 7:5.5328 8:-4.0522 9:3.30048 10:-1.59829 11:1.50714 12:-1.25132 13:2.32201 14:66.3901 15:-1.47794 16:1.39269 17:0.265812 18:1.86146 19:-0.16036 20:1.05703 21:-0.161991 22:0.875009 23:-0.884412 24:0.57147 25:-0.523939 26:0.75366
1 1:312.975 2:-2.40078 3:14.8654 4:3.57106 5:9.33751 6:7.29353 7:3.24219 8:-4.53789 9:2.52911 10:-3.11893 11:2.32357 12:-2.19764 13:2.01495 14:66.3901 15:-1.47794 16:1.39269 17:0.265812 18:1.86146 19:-0.16036 20:1.05703 21:-0.161991 22:0.875009 23:-0.884412 24:0.57147 25:-0.523939 26:0.75366
0.2705704235232918 1:311.144 2:-2.30585 3:15.8645 4:3.09665 5:8.59026 6:6.89503 7:3.51681 8:-3.96876 9:2.16541 10:-3.14642 11:0.713694 12:-2.03545 13:2.92352 14:66.3901 15:-1.47794 16:1.39269 17:0.265812 18:1.86146 19:-0.16036 20:1.05703 21:-0.161991 22:0.875009 23:-0.884412 24:0.57147 25:-0.523939 26:0.75366
0.13271859734675484 1:308.321 2:1.24384 3:11.1693 4:7.67011 5:4.97934 6:1.77125 7:10.997 8:-4.47711 9:-0.219615 10:-0.608754 11:1.29328 12:-4.39906 13:6.13391 14:66.3901 15:-1.47794 16:1.39269 17:0.265812 18:1.86146 19:-0.16036 20:1.05703 21:-0.161991 22:0.875009 23:-0.884412 24:0.57147 25:-0.523939 26:0.75366
0.56897531915742983 1:299.019 2:12.2493 3:7.00199 4:6.80171 5:9.9706 6:-2.83563 7:10.7627 8:-2.37291 9:1.86953 10:-5.13367 11:3.73226 12:-5.6436 13:6.58172 14:66.3901 15:-1.47794 16:1.39269 17:0.265812 18:1.86146 19:-0.16036 20:1.05703 21:-0.161991 22:0.875009 23:-0.884412 24:0.57147 25:-0.523939 26:0.75366
0.16127834931847879 1:297.141 2:16.7459 3:0.996576 4:9.6504 5:6.00151 6:-6.06487 7:13.0379 8:-0.490727 9:8.83681 10:-8.11656 11:2.151 12:-6.33557 13:6.3388 14:66.3901 15:-1.47794 16:1.39269 17:0.265812 18:1.86146 19:-0.16036 20:1.05703 21:-0.161991 22:0.875009 23:-0.884412 24:0.57147 25:-0.523939 26:0.75366
0.48267992891887512 1:303.274 2:19.6631 3:7.483 4:4.34789 5:4.92117 6:-10.7258 7:9.42623 8:-1.38372 9:6.40008 10:-4.23494 11:4.34158 12:-4.25045 13:4.03656 14:66.3901 15:-1.47794 16:1.39269 17:0.265812 18:1.86146 19:-0.16036 20:1.05703 21:-0.161991 22:0.875009 23:-0.884412 24:0.57147 25:-0.523939 26:0.75366
0.13641730317070128 1:315.226 2:28.2054 3:3.83112 4:-0.290696 5:1.49245 6:-13.6446 7:12.5449 8:-1.61898 9:4.63376 10:-7.9467 11:4.33857 12:-7.06164 13:5.60987 14:66.3901 15:-1.47794 16:1.39269 17:0.265812 18:1.86146 19:-0.16036 20:1.05703 21:-0.161991 22:0.875009 23:-0.884412 24:0.57147 25:-0.523939 26:0.75366
0.29769928788408512 1:314.507 2:19.6024 3:-5.4712 4:12.5876 5:18.0914 6:-8.57569 7:10.0713 8:-9.1981 9:5.21532 10:-4.73185 11:2.83497 12:-5.14035 13:4.087 14:66.3901 15:-1.47794 16:1.39269 17:0.265812 18:1.86146 19:-0.16036 20:1.05703 21:-0.161991 22:0.875009 23:-0.884412 24:0.57147 25:-0.523939 26:0.75366
0.38829758756200128 1:246.721 2:15.9301 3:6.36379 4:0.874416 5:15.2698 6:-1.17057 7:5.12853 8:-3.86562 9:4.55873 10:-3.91387 11:5.71186 12:-5.09991 13:4.80303 14:66.3901 15:-1.47794 16:1.39269 17:0.265812 18:1.86146 19:-0.16036 20:1.05703 21:-0.161991 22:0.875009 23:-0.884412 24:0.57147 25:-0.523939 26:0.75366
0.73614865545104602 1:241.423 2:12.3575 3:6.43982 4:2.94583 5:15.8285 6:0.869262 7:4.31178 8:-3.59883 9:2.7077 10:-5.45254 11:3.97185 12:-3.3216 13:4.84969 14:66.3901 15:-1.47794 16:1.39269 17:0.265812 18:1.86146 19:-0.16036 20:1.05703 21:-0.161991 22:0.875009 23:-0.884412 24:0.57147 25:-0.523939 26:0.75366
0.22284024052815182 1:230.878 2:7.08577 3:6.6921 4:2.10062 5:9.19125 6:-1.01745 7:6.43404 8:-1.52996 9:3.30372 10:-3.3696 11:2.05217 12:-3.10399 13:2.1873 14:66.3901 15:-1.47794 16:1.39269 17:0.265812 18:1.86146 19:-0.16036 20:1.05703 21:-0.161991 22:0.875009 23:-0.884412 24:0.57147 25:-0.523939 26:0.75366
0.29299124502130597 1:303.847 2:-6.9911 3:5.52712 4:-1.66053 5:-0.939918 6:-0.269162 7:3.82615 8:2.10373 9:0.103034 10:-6.15024 11:0.980521 12:-1.88497 13:3.54935 14:66.3901 15:-1.47794 16:1.39269 17:0.265812 18:1.86146 19:-0.16036 20:1.05703 21:-0.161991 22:0.875009 23:-0.884412 24:0.57147 25:-0.523939 26:0.75366
1 1:304.149 2:-1.6556 3:5.87325 4:-2.20316 5:0.695944 6:-1.55506 7:4.60415 8:2.40244 9:-0.00551867 10:-7.71919 11:0.0881136 12:-2.87265 13:3.99447 14:66.3901 15:-1.47794 16:1.39269 17:0.265812 18:1.86146 19:-0.16036 20:1.05703 21:-0.161991 22:0.875009 23:-0.884412 24:0.57147 25:-0.523939 26:0.75366
0.25673917322470319 1:314.213 2:29.3238 3:3.42951 4:-13.3453 5:2.82376 6:-10.7939 7:1.40047 8:-3.11346 9:8.91977 10:-7.91324 11:1.27502 12:-4.24796 13:7.31762 14:66.3901 15:-1.47794 16:1.39269 17:0.265812 18:1.86146 19:-0.16036 20:1.05703 21:-0.161991 22:0.875009 23:-0.884412 24:0.57147 25:-0.523939 26:0.75366
0.44086016141220519 1:299.648 2:35.1453 3:4.0711 4:-13.9658 5:4.29026 6:-9.13593 7:0.737441 8:-5.19528 9:9.2543 10:-10.0856 11:1.88935 12:-3.37735 13:7.69637 14:66.3901 15:-1.47794 16:1.39269 17:0.265812 18:1.86146 19:-0.16036 20:1.05703 21:-0.161991 22:0.875009 23:-0.884412 24:0.57147 25:-0.523939 26:0.75366
0.44938703242882549 1:287.009 2:29.4003 3:9.92469 4:-13.2532 5:-1.58446 6:-8.99601 7:4.03438 8:-4.80464 9:8.13657 10:-6.56091 11:1.99723 12:-4.96103 13:6.23797 14:66.3901 15:-1.47794 16:1.39269 17:0.265812 18:1.86146 19:-0.16036 20:1.05703 21:-0.161991 22:0.875009 23:-0.884412 24:0.57147 25:-0.523939 26:0.75366
0.18221074689063363 1:283.333 2:29.0053 3:9.91806 4:-11.483 5:-1.93339 6:-9.52624 7:4.14856 8:-4.58454 9:7.58954 10:-7.31958 11:1.68069 12:-3.897 13:6.969 14:66.3901 15:-1.47794 16:1.39269 17:0.265812 18:1.86146 19:-0.16036 20:1.05703 21:-0.161991 22:0.875009 23:-0.884412 24:0.57147 25:-0.523939 26:0.75366
0.33512695156974898 1:262.96 2:18.5507 3:6.36916 4:-6.16336 5:-1.95861 6:-5.38691 7:5.26335 8:-2.33834 9:5.54159 10:-11.4428 11:3.30481 12:2.35175 13:6.05211 14:66.3901 15:-1.47794 16:1.39269 17:0.265812 18:1.86146 19:-0.16036 20:1.05703 21:-0.161991 22:0.875009 23:-0.884412 24:0.57147 25:-0.523939 26:0.75366
0.19398899493828284 1:270.968 2:-0.668767 3:8.5562 4:-0.928084 5:-4.83211 6:-3.39596 7:4.82109 8:-3.09323 9:0.485316 10:-7.83847 11:2.08698 12:1.87792 13:4.64736 14:66.3901 15:-1.47794 16:1.39269 17:0.265812 18:1.86146 19:-0.16036 20:1.05703 21:-0.161991 22:0.875009 23:-0.884412 24:0.57147 25:-0.523939 26:0.75366
0.051979457130386444 1:285.252 2:-24.4506 3:12.65 4:3.29148 5:-6.2069 6:-0.427335 7:4.88028 8:2.13042 9:3.66832 10:0.426082 11:2.76913 12:0.705536 13:-0.303494 14:66.3901 15:-1.47794 16:1.39269 17:0.265812 18:1.86146 19:-0.16036 20:1.05703 21:-0.161991 22:0.875009 23:-0.884412 24:0.57147 25:-0.523939 26:0.75366
0.26581321343264919 1:287.95 2:-26.6892 3:10.7557 4:3.47864 5:-7.19646 6:-0.133571 7:3.44579 8:-1.12567 9:0.00771884 10:-4.74145 11:0.0989239 12:0.790541 13:1.65647 14:66.3901 15:-1.47794 16:1.39269 17:0.265812 18:1.86146 19:-0.16036 20:1.05703 21:-0.161991 22:0.875009 23:-0.884412 24:0.57147 25:-0.523939 26:0.75366
0.082208028709380557 1:287.119 2:-26.933 3:9.09684 4:2.94582 5:-5.66282 6:1.18483 7:2.08405 8:-4.46469 9:1.70943 10:-4.83849 11:0.49438 12:2.79082 13:1.07193 14:66.3901 15:-1.47794 16:1.39269 17:0.265812 18:1.86146 19:-0.16036 20:1.05703 21:-0.161991 22:0.875009 23:-0.884412 24:0.57147 25:-0.523939 26:0.75366
0.1110602463191598 1:287.297 2:-26.8901 3:10.9488 4:3.96558 5:-7.51888 6:-1.34522 7:3.56739 8:-0.879419 9:2.31929 10:-3.19881 11:2.8023 12:-0.434691 13:-0.34719 14:66.3901 15:-1.47794 16:1.39269 17:0.265812 18:1.86146 19:-0.16036 20:1.05703 21:-0.161991 22:0.875009 23:-0.884412 24:0.57147 25:-0.523939 26:0.75366
0.3162381808319305 1:283.097 2:-28.6097 3:5.87883 4:5.84445 5:-4.78358 6:0.411432 7:6.40114 8:-2.67393 9:3.30465 10:-0.988973 11:1.72414 12:1.56933 13:0.957836 14:66.3901 15:-1.47794 16:1.39269 17:0.265812 18:1.86146 19:-0.16036 20:1.05703 21:-0.161991 22:0.875009 23:-0.884412 24:0.57147 25:-0.523939 26:0.75366
0.23329043814934194 1:281.16 2:-25.9595 3:2.51181 4:4.50714 5:-5.59157 6:-2.66995 7:5.80021 8:-4.2104 9:0.322617 10:-2.54388 11:0.131531 12:1.08789 13:3.10056 14:66.3901 15:-1.47794 16:1.39269 17:0.265812 18:1.86146 19:-0.16036 20:1.05703 21:-0.161991 22:0.875009 23:-0.884412 24:0.57147 25:-0.523939 26:0.75366
0.028544425182109354 1:279.982 2:-26.2767 3:2.83435 4:5.194 5:-4.81747 6:-3.93409 7:4.92592 8:-3.89519 9:0.738531 10:-2.45048 11:-0.728692 12:-0.896037 13:1.83724 14:66.3901 15:-1.47794 16:1.39269 17:0.265812 18:1.86146 19:-0.16036 20:1.05703 21:-0.161991 22:0.875009 23:-0.884412 24:0.57147 25:-0.523939 26:0.75366
0.55565766881767453 1:271.194 2:-20.9317 3:2.4736 4:6.55035 5:2.88728 6:-6.15479 7:8.44375 8:3.29412 9:-1.19783 10:-0.0587706 11:4.30101 12:-1.26991 13:1.70219 14:66.3901 15:-1.47794 16:1.39269 17:0.265812 18:1.86146 19:-0.16036 20:1.05703 21:-0.161991 22:0.875009 23:-0.884412 24:0.57147 25:-0.523939 26:0.75366
0.59254767260949126 1:257.035 2:-11.6949 3:-0.112294 4:5.26083 5:4.63769 6:-4.5847 7:5.44796 8:1.31845 9:-0.597396 10:-7.30798 11:2.48045 12:-0.776461 13:0.487357 14:66.3901 15:-1.47794 16:1.39269 17:0.265812 18:1.86146 19:-0.16036 20:1.05703 21:-0.161991 22:0.875009 23:-0.884412 24:0.57147 25:-0.523939 26:0.75366
0.80885661507253515 1:257.679 2:22.3071 3:15.8054 4:0.230547 5:3.09511 6:-5.16911 7:10.5158 8:-2.77211 9:1.95149 10:-7.337 11:1.72707 12:-6.49724 13:8.6796 14:66.3901 15:-1.47794 16:1.39269 17:0.265812 18:1.86146 19:-0.16036 20:1.05703 21:-0.161991 22:0.875009 23:-0.884412 24:0.57147 25:-0.523939 26:0.75366
0.42287326857699575 1:299.473 2:33.6172 3:0.0705198 4:-7.75973 5:11.1321 6:-10.5146 7:3.25535 8:0.388582 9:5.30063 10:-15.2856 11:4.74125 12:-3.9251 13:3.44868 14:66.3901 15:-1.47794 16:1.39269 17:0.265812 18:1.86146 19:-0.16036 20:1.05703 21:-0.161991 22:0.875009 23:-0.884412 24:0.57147 25:-0.523939 26:0.75366
0.0089565525873806506 1:293.41 2:33.6676 3:0.56138 4:-7.94811 5:12.2707 6:-9.71096 7:4.1971 8:1.53638 9:6.26102 10:-13.5691 11:3.06162 12:-3.4555 13:3.73493 14:66.3901 15:-1.47794 16:1.39269 17:0.265812 18:1.86146 19:-0.16036 20:1.05703 21:-0.161991 22:0.875009 23:-0.884412 24:0.57147 25:-0.523939 26:0.75366
0.38571312274131941 1:251.21 2:19.9596 3:14.2616 4:-1.30847 5:6.15324 6:-3.74706 7:6.50959 8:-1.19972 9:6.06872 10:-8.71587 11:1.22233 12:-4.47738 13:6.74083 14:66.3901 15:-1.47794 16:1.39269 17:0.265812 18:1.86146 19:-0.16036 20:1.05703 21:-0.161991 22:0.875009 23:-0.884412 24:0.57147 25:-0.523939 26:0.75366
1 1:236.99 2:13.8574 3:19.1701 4:4.82195 5:6.76934 6:-2.77251 7:5.65362 8:-3.67097 9:5.27726 10:-7.02067 11:2.0089 12:-3.50464 13:3.37796 14:66.3901 15:-1.47794 16:1.39269 17:0.265812 18:1.86146 19:-0.16036 20:1.05703 21:-0.161991 22:0.875009 23:-0.884412 24:0.57147 25:-0.523939 26:0.75366
1 1:235.083 2:11.1709 3:17.5802 4:3.31456 5:6.69708 6:-1.31712 7:5.63403 8:-2.45218 9:4.35311 10:-6.09875 11:1.71714 12:-3.66401 13:3.07991 14:66.3901 15:-1.47794 16:1.39269 17:0.265812 18:1.86146 19:-0.16036 20:1.05703 21:-0.161991 22:0.875009 23:-0.884412 24:0.57147 25:-0.523939 26:0.75366
1 1:234.491 2:11.9102 3:15.4054 4:3.31251 5:7.68055 6:-2.60463 7:6.1821 8:-1.65574 9:4.3039 10:-6.68979 11:2.268 12:-3.45307 13:4.57537 14:66.3901 15:-1.47794 16:1.39269 17:0.265812 18:1.86146 19:-0.16036 20:1.05703 21:-0.161991 22:0.875009 23:-0.884412 24:0.57147 25:-0.523939 26:0.75366
1 1:230.293 2:7.22212 3:11.5182 4:2.37328 5:8.9968 6:-0.824053 7:6.68696 8:1.07354 9:4.9355 10:-6.09431 11:3.07374 12:-3.48186 13:4.57708 14:66.3901 15:-1.47794 16:1.39269 17:0.265812 18:1.86146 19:-0.16036 20:1.05703 21:-0.161991 22:0.875009 23:-0.884412 24:0.57147 25:-0.523939 26:0.75366
1 1:282.756 2:-1.33652 3:5.94487 4:3.18821 5:0.703533 6:-2.5742 7:5.03996 8:-4.11203 9:1.38015 10:-4.30311 11:2.1424 12:-0.634696 13:0.673561 14:66.3901 15:-1.47794 16:1.39269 17:0.265812 18:1.86146 19:-0.16036 20:1.05703 21:-0.161991 22:0.875009 23:-0.884412 24:0.57147 25:-0.523939 26:0.75366
0.51540826873815726 1:249.044 2:-3.03866 3:17.311 4:6.54608 5:3.05011 6:3.6028 7:5.78951 8:-3.99926 9:2.53793 10:-4.13407 11:0.00140652 12:-2.68856 13:2.23149 14:66.3901 15:-1.47794 16:1.39269 17:0.265812 18:1.86146 19:-0.16036 20:1.05703 21:-0.161991 22:0.875009 23:-0.884412 24:0.57147 25:-0.523939 26:0.75366
1 1:248.701 2:-2.94064 3:8.19169 4:0.488291 5:2.5611 6:4.13979 7:4.47555 8:-5.94376 9:3.00581 10:-1.18 11:3.33305 12:1.25992 13:2.6351 14:66.3901 15:-1.47794 16:1.39269 17:0.265812 18:1.86146 19:-0.16036 20:1.05703 21:-0.161991 22:0.875009 23:-0.884412 24:0.57147 25:-0.523939 26:0.75366
0.075751409907843945 1:247.461 2:-2.70502 3:6.01066 4:-2.56258 5:0.545709 6:2.35303 7:4.81975 8:-3.59894 9:2.22029 10:-4.34922 11:3.1427 12:0.183758 13:1.42369 14:66.3901 15:-1.47794 16:1.39269 17:0.265812 18:1.86146 19:-0.16036 20:1.05703 21:-0.161991 22:0.875009 23:-0.884412 24:0.57147 25:-0.523939 26:0.75366
0.26379112861893095 1:235.663 2:2.33607 3:5.69464 4:-4.08401 5:-1.78808 6:-1.42934 7:3.21844 8:-2.14666 9:3.56792 10:-2.29857 11:4.26405 12:-0.374852 13:2.36467 14:66.3901 15:-1.47794 16:1.39269 17:0.265812 18:1.86146 19:-0.16036 20:1.05703 21:-0.161991 22:0.875009 23:-0.884412 24:0.57147 25:-0.523939 26:0.75366
0.20323051425483224 1:220.384 2:-1.76556 3:5.04177 4:0.607679 5:4.90031 6:0.847991 7:4.44696 8:1.29963 9:4.15484 10:-3.16522 11:3.52943 12:-2.38325 13:4.05242 14:66.3901 15:-1.47794 16:1.39269 17:0.265812 18:1.86146 19:-0.16036 20:1.05703 21:-0.161991 22:0.875009 23:-0.884412 24:0.57147 25:-0.523939 26:0.75366
0.79545558463116872 1:221.474 2:-5.21525 3:2.66581 4:-1.60749 5:5.82432 6:-1.53143 7:3.30491 8:-0.934249 9:3.55485 10:-2.26581 11:0.954428 12:-1.89317 13:2.57397 14:221.474 15:-5.21525 16:2.66581 17:-1.60749 18:5.82432 19:-1.53143 20:3.30491 21:-0.934249 22:3.55485 23:-2.26581 24:0.954428 25:-1.89317 26:2.57397
1 1:221.162 2:-5.12766 3:5.26931 4:0.451466 5:6.44376 6:-0.312326 7:3.30675 8:-0.357043 9:1.75147 10:-3.36999 11:2.88878 12:-0.935705 13:2.62312 14:221.162 15:-5.12766 16:5.26931 17:0.451466 18:6.44376 19:-0.312326 20:3.30675 21:-0.357043 22:1.75147 23:-3.36999 24:2.88878 25:-0.935705 26:2.62312
1 1:-1500 2:1.44711e-07 3:9.96791e-06 4:-1.45779e-06 5:-1.61451e-05 6:-3.85156e-06 7:3.92767e-06 8:5.21158e-06 9:-7.71489e-06 10:-1.09161e-06 11:-6.57972e-07 12:-5.02876e-07 13:-2.09301e-06 14:-1500 15:1.44711e-07 16:9.96791e-06 17:-1.45779e-06 18:-1.61451e-05 19:-3.85156e-06 20:3.92767e-06 21:5.21158e-06 22:-7.71489e-06 23:-1.09161e-06 24:-6.57972e-07 25:-5.02876e-07 26:-2.09301e-06
1 1:279.647 2:8.55375 3:5.25759 4:-6.7077 5:3.86116 6:-4.68217 7:4.50732 8:-2.45936 9:1.30644 10:-4.76796 11:1.20571 12:-1.12444 13:3.92512 14:279.647 15:8.55375 16:5.25759 17:-6.7077 18:3.86116 19:-4.68217 20:4.50732 21:-2.45936 22:1.30644 23:-4.76796 24:1.20571 25:-1.12444 26:3.92512
0.48196792622091728 1:270.384 2:8.61809 3:4.72704 4:-6.04001 5:3.77034 6:-1.87956 7:4.81313 8:-3.91641 9:3.84591 10:-2.13182 11:3.2613 12:-1.89259 13:2.79459 14:66.4328 15:1.74246 16:2.10179 17:-0.581644 18:1.53045 19:-0.551699 20:1.00905 21:-1.32891 22:0.667746 23:-0.314188 24:1.72234 25:-0.46193 26:0.626214
1 1:268.61 2:8.2677 3:4.79905 4:-6.799 5:6.15176 6:-1.14549 7:3.61608 8:-4.84309 9:-0.344477 10:-2.93086 11:3.25705 12:-1.61571 13:3.47094 14:66.4328 15:1.74246 16:2.10179 17:-0.581644 18:1.53045 19:-0.551699 20:1.00905 21:-1.32891 22:0.667746 23:-0.314188 24:1.72234 25:-0.46193 26:0.626214
1 1:259.723 2:9.45393 3:8.68766 4:-5.8403 5:7.42974 6:-0.183761 7:5.083 8:-2.58913 9:3.77769 10:-3.5812 11:3.76617 12:-2.06777 13:2.96396 14:66.4328 15:1.74246 16:2.10179 17:-0.581644 18:1.53045 19:-0.551699 20:1.00905 21:-1.32891 22:0.667746 23:-0.314188 24:1.72234 25:-0.46193 26:0.626214
1 1:251.806 2:9.74661 3:6.30569 4:-7.53432 5:5.43617 6:-0.946452 7:6.3315 8:-2.26832 9:3.91177 10:-4.43955 11:5.08263 12:0.433493 13:4.26132 14:66.4328 15:1.74246 16:2.10179 17:-0.581644 18:1.53045 19:-0.551699 20:1.00905 21:-1.32891 22:0.667746 23:-0.314188 24:1.72234 25:-0.46193 26:0.626214
1 1:246.026 2:8.83107 3:4.20351 4:-6.39844 5:4.15463 6:-0.524245 7:4.65395 8:-5.17812 9:0.341597 10:-3.75372 11:5.6702 12:-1.09379 13:3.32637 14:66.4328 15:1.74246 16:2.10179 17:-0.581644 18:1.53045 19:-0.551699 20:1.00905 21:-1.32891 22:0.667746 23:-0.314188 24:1.72234 25:-0.46193 26:0.626214
0.054098569232635403 1:251.034 2:0.54884 3:4.45246 4:-1.20404 5:1.49213 6:-3.81082 7:5.17732 8:-3.33599 9:-0.826892 10:-0.412853 11:2.90922 12:-0.425342 13:4.12085 14:66.4328 15:1.74246 16:2.10179 17:-0.581644 18:1.53045 19:-0.551699 20:1.00905 21:-1.32891 22:0.667746 23:-0.314188 24:1.72234 25:-0.46193 26:0.626214
1 1:273.339 2:-7.45004 3:13.4723 4:1.87895 5:1.91711 6:1.10238 7:-5.06696 8:-3.18813 9:0.337289 10:-2.08612 11:1.56542 12:-1.37909 13:2.18808 14:66.4328 15:1.74246 16:2.10179 17:-0.581644 18:1.53045 19:-0.551699 20:1.00905 21:-1.32891 22:0.667746 23:-0.314188 24:1.72234 25:-0.46193 26:0.626214
0.58381147840349712 1:245.735 2:-4.23716 3:6.43535 4:-2.3411 5:3.71349 6:0.701001 7:-0.358909 8:-4.28668 9:-0.952687 10:-1.03264 11:1.63201 12:-3.73246 13:4.30221 14:66.4328 15:1.74246 16:2.10179 17:-0.581644 18:1.53045 19:-0.551699 20:1.00905 21:-1.32891 22:0.667746 23:-0.314188 24:1.72234 25:-0.46193 26:0.626214
1 1:243.398 2:0.733836 3:2.30564 4:-3.0437 5:4.19444 6:-1.64514 7:1.48157 8:-3.42075 9:0.775765 10:-1.26673 11:4.93245 12:-4.22887 13:1.77091 14:66.4328 15:1.74246 16:2.10179 17:-0.581644 18:1.53045 19:-0.551699 20:1.00905 21:-1.32891 22:0.667746 23:-0.314188 24:1.72234 25:-0.46193 26:0.626214
1 1:244.736 2:2.11707 3:1.79526 4:-3.32059 5:4.96797 6:-2.18086 7:0.997203 8:-4.51009 9:0.0294744 10:-2.15175 11:5.69071 12:-3.86753 13:1.66032 14:66.4328 15:1.74246 16:2.10179 17:-0.581644 18:1.53045 19:-0.551699 20:1.00905 21:-1.32891 22:0.667746 23:-0.314188 24:1.72234 25:-0.46193 26:0.626214
1 1:238.066 2:2.25895 3:1.00183 4:-4.21945 5:6.40839 6:0.549746 7:3.22666 8:-1.80141 9:2.03373 10:-1.76264 11:6.72745 12:-1.48085 13:2.94612 14:66.4328 15:1.74246 16:2.10179 17:-0.581644 18:1.53045 19:-0.551699 20:1.00905 21:-1.32891 22:0.667746 23:-0.314188 24:1.72234 25:-0.46193 26:0.626214
1 1:237.015 2:3.59612 3:-0.08868 4:-4.61805 5:5.21302 6:-2.35649 7:1.71994 8:-4.17133 9:1.16441 10:-3.0043 11:5.94424 12:-1.40698 13:2.97147 14:66.4328 15:1.74246 16:2.10179 17:-0.581644 18:1.53045 19:-0.551699 20:1.00905 21:-1.32891 22:0.667746 23:-0.314188 24:1.72234 25:-0.46193 26:0.626214
1 1:237.536 2:5.04746 3:1.74629 4:-3.32447 5:4.72495 6:-1.95819 7:-0.372578 8:-7.97761 9:0.809697 10:-3.60503 11:6.73301 12:-1.4747 13:2.55292 14:66.4328 15:1.74246 16:2.10179 17:-0.581644 18:1.53045 19:-0.551699 20:1.00905 21:-1.32891 22:0.667746 23:-0.314188 24:1.72234 25:-0.46193 26:0.626214
0.35031045812232398 1:271.839 2:25.4217 3:11.5824 4:-3.19379 5:7.08148 6:-7.80872 7:1.12761 8:-6.78192 9:4.49612 10:-5.44291 11:7.47114 12:-4.58279 13:2.31192 14:66.4328 15:1.74246 16:2.10179 17:-0.581644 18:1.53045 19:-0.551699 20:1.00905 21:-1.32891 22:0.667746 23:-0.314188 24:1.72234 25:-0.46193 26:0.626214
0.79083004302020832 1:290.179 2:34.4482 3:12.9514 4:-3.36285 5:10.9632 6:-7.11818 7:4.36802 8:-6.95686 9:5.21427 10:-6.01039 11:7.88563 12:-6.15477 13:5.14546 14:66.4328 15:1.74246 16:2.10179 17:-0.581644 18:1.53045 19:-0.551699 20:1.00905 21:-1.32891 22:0.667746 23:-0.314188 24:1.72234 25:-0.46193 26:0.626214
1 1:258.682 2:24.898 3:16.8594 4:0.333715 5:10.9363 6:-3.63652 7:4.79544 8:-5.91498 9:5.0931 10:-4.7939 11:7.24685 12:-6.1447 13:5.25794 14:66.4328 15:1.74246 16:2.10179 17:-0.581644 18:1.53045 19:-0.551699 20:1.00905 21:-1.32891 22:0.667746 23:-0.314188 24:1.72234 25:-0.46193 26:0.626214
1 1:250.18 2:5.51897 3:7.77111 4:-4.78934 5:3.09422 6:-1.60065 7:2.45752 8:-3.59104 9:2.13463 10:-5.4304 11:0.421818 12:-1.76724 13:2.56137 14:66.4328 15:1.74246 16:2.10179 17:-0.581644 18:1.53045 19:-0.551699 20:1.00905 21:-1.32891 22:0.667746 23:-0.314188 24:1.72234 25:-0.46193 26:0.626214
0.066514731089172732 1:246.167 2:4.85969 3:8.55912 4:-2.27231 5:8.40804 6:0.862088 7:1.40979 8:-5.56705 9:-0.0559476 10:-3.88022 11:2.51639 12:-2.46305 13:1.90439 14:66.4328 15:1.74246 16:2.10179 17:-0.581644 18:1.53045 19:-0.551699 20:1.00905 21:-1.32891 22:0.667746 23:-0.314188 24:1.72234 25:-0.46193 26:0.626214
1 1:245.694 2:5.18265 3:8.41912 4:-3.36631 5:7.26138 6:0.603222 7:0.392303 8:-4.76915 9:2.91221 10:-2.44305 11:2.16062 12:-1.55579 13:2.9125 14:66.4328 15:1.74246 16:2.10179 17:-0.581644 18:1.53045 19:-0.551699 20:1.00905 21:-1.32891 22:0.667746 23:-0.314188 24:1.72234 25:-0.46193 26:0.626214
1 1:245.412 2:8.51897 3:9.69106 4:-1.88178 5:9.5009 6:0.235504 7:2.80123 8:-5.21429 9:1.30494 10:-0.00451951 11:2.46839 12:-3.71413 13:1.94308 14:66.4328 15:1.74246 16:2.10179 17:-0.581644 18:1.53045 19:-0.551699 20:1.00905 21:-1.32891 22:0.667746 23:-0.314188 24:1.72234 25:-0.46193 26:0.626214
1 1:241.091 2:9.19354 3:6.78181 4:-0.541128 5:9.8398 6:-0.665679 7:2.33233 8:-6.11322 9:0.529502 10:-1.09878 11:3.64094 12:-3.06462 13:1.70486 14:66.4328 15:1.74246 16:2.10179 17:-0.581644 18:1.53045 19:-0.551699 20:1.00905 21:-1.32891 22:0.667746 23:-0.314188 24:1.72234 25:-0.46193 26:0.626214
1 1:236.357 2:6.14946 3:5.15666 4:-1.56055 5:6.3106 6:-3.76178 7:0.413414 8:-6.30421 9:3.65687 10:0.4923 11:4.18038 12:-2.77053 13:3.06814 14:66.4328 15:1.74246 16:2.10179 17:-0.581644 18:1.53045 19:-0.551699 20:1.00905 21:-1.32891 22:0.667746 23:-0.314188 24:1.72234 25:-0.46193 26:0.626214
0.84385539674144439 1:237.653 2:4.82926 3:4.08262 4:-1.07072 5:7.01642 6:-3.52858 7:1.29272 8:-5.43221 9:0.532613 10:-1.28638 11:3.52042 12:-3.64911 13:4.05152 14:66.4328 15:1.74246 16:2.10179 17:-0.581644 18:1.53045 19:-0.551699 20:1.00905 21:-1.32891 22:0.667746 23:-0.314188 24:1.72234 25:-0.46193 26:0.626214
1 1:232.766 2:1.65956 3:2.0227 4:-1.4247 5:6.90914 6:-1.59826 7:1.91967 8:-4.30449 9:1.24275 10:-0.840451 11:3.2314 12:-4.53507 13:2.79415 14:66.4328 15:1.74246 16:2.10179 17:-0.581644 18:1.53045 19:-0.551699 20:1.00905 21:-1.32891 22:0.667746 23:-0.314188 24:1.72234 25:-0.46193 26:0.626214
1 1:232.667 2:3.43343 3:2.9845 4:-2.74641 5:4.72548 6:-2.34333 7:2.31298 8:-3.83819 9:2.21679 10:0.861062 11:6.83651 12:-1.43958 13:2.49304 14:66.4328 15:1.74246 16:2.10179 17:-0.581644 18:1.53045 19:-0.551699 20:1.00905 21:-1.32891 22:0.667746 23:-0.314188 24:1.72234 25:-0.46193 26:0.626214
1 1:229.269 2:3.36544 3:3.7809 4:0.144498 5:7.04547 6:-1.12509 7:2.08624 8:-4.0598 9:2.48841 10:-0.193019 11:6.39495 12:-3.11103 13:1.07867 14:66.4328 15:1.74246 16:2.10179 17:-0.581644 18:1.53045 19:-0.551699 20:1.00905 21:-1.32891 22:0.667746 23:-0.314188 24:1.72234 25:-0.46193 26:0.626214
0.79556919834635442 1:229.24 2:7.24587 3:12.6094 4:-1.0627 5:4.24297 6:-0.852753 7:-0.337729 8:-6.09963 9:2.38134 10:-1.81748 11:3.95815 12:-4.2675 13:1.43615 14:66.4328 15:1.74246 16:2.10179 17:-0.581644 18:1.53045 19:-0.551699 20:1.00905 21:-1.32891 22:0.667746 23:-0.314188 24:1.72234 25:-0.46193 26:0.626214
1 1:231.387 2:8.51932 3:12.7177 4:-1.39299 5:6.70951 6:1.03143 7:2.29894 8:-5.32016 9:2.19748 10:-1.33005 11:3.48914 12:-5.53753 13:0.914181 14:66.4328 15:1.74246 16:2.10179 17:-0.581644 18:1.53045 19:-0.551699 20:1.00905 21:-1.32891 22:0.667746 23:-0.314188 24:1.72234 25:-0.46193 26:0.626214
1 1:219.313 2:4.32468 3:11.2215 4:0.528041 5:6.81043 6:-0.0758028 7:0.693007 8:-4.29742 9:1.64738 10:-2.5022 11:3.08131 12:-0.800861 13:4.29032 14:66.4328 15:1.74246 16:2.10179 17:-0.581644 18:1.53045 19:-0.551699 20:1.00905 21:-1.32891 22:0.667746 23:-0.314188 24:1.72234 25:-0.46193 26:0.626214
1 1:221.023 2:4.20607 3:9.78501 4:-0.778472 5:4.78712 6:-2.85229 7:0.731337 8:-2.93572 9:4.09238 10:-1.62585 11:4.01507 12:0.58666 13:5.26916 14:66.4328 15:1.74246 16:2.10179 17:-0.581644 18:1.53045 19:-0.551699 20:1.00905 21:-1.32891 22:0.667746 23:-0.314188 24:1.72234 25:-0.46193 26:0.626214
1 1:222.187 2:3.89644 3:11.5709 4:0.857888 5:6.00941 6:-3.36764 7:-0.268916 8:-5.01154 9:2.14718 10:-4.84903 11:2.98161 12:-0.40237 13:3.15717 14:66.4328 15:1.74246 16:2.10179 17:-0.581644 18:1.53045 19:-0.551699 20:1.00905 21:-1.32891 22:0.667746 23:-0.314188 24:1.72234 25:-0.46193 26:0.626214
0.044176388961192296 1:228.558 2:4.93288 3:7.83758 4:-0.84117 5:5.25399 6:-1.72468 7:0.322682 8:-5.49108 9:3.64979 10:-3.28468 11:2.8564 12:-2.17889 13:2.31685 14:66.4328 15:1.74246 16:2.10179 17:-0.581644 18:1.53045 19:-0.551699 20:1.00905 21:-1.32891 22:0.667746 23:-0.314188 24:1.72234 25:-0.46193 26:0.626214
1 1:223.11 2:2.42354 3:5.81781 4:-2.86144 5:4.57916 6:-2.8154 7:-1.89529 8:-5.91411 9:3.94812 10:-1.81402 11:2.57452 12:-0.760067 13:3.26084 14:66.4328 15:1.74246 16:2.10179 17:-0.581644 18:1.53045 19:-0.551699 20:1.00905 21:-1.32891 22:0.667746 23:-0.314188 24:1.72234 25:-0.46193 26:0.626214
1 1:222.231 2:1.81671 3:6.74135 4:-5.15736 5:2.29888 6:-2.20172 7:-1.62264 8:-2.98475 9:3.8502 10:-2.30266 11:4.47006 12:-1.87445 13:3.06674 14:66.4328 15:1.74246 16:2.10179 17:-0.581644 18:1.53045 19:-0.551699 20:1.00905 21:-1.32891 22:0.667746 23:-0.314188 24:1.72234 25:-0.46193 26:0.626214
1 1:217.776 2:4.2796 3:10.262 4:-0.775307 5:3.28667 6:-3.40567 7:-0.903399 8:-5.81027 9:2.63307 10:-1.84238 11:3.71759 12:-2.92754 13:2.30077 14:66.4328 15:1.74246 16:2.10179 17:-0.581644 18:1.53045 19:-0.551699 20:1.00905 21:-1.32891 22:0.667746 23:-0.314188 24:1.72234 25:-0.46193 26:0.626214
1 1:217.93 2:4.19132 3:11.1578 4:-2.20324 5:1.67458 6:-5.04748 7:0.152248 8:-4.62366 9:-0.286642 10:-2.09529 11:4.07493 12:-2.48841 13:1.24057 14:66.4328 15:1.74246 16:2.10179 17:-0.581644 18:1.53045 19:-0.551699 20:1.00905 21:-1.32891 22:0.667746 23:-0.314188 24:1.72234 25:-0.46193 26:0.626214
1 1:217.274 2:3.29095 3:11.0269 4:0.520038 5:4.23799 6:-0.881695 7:-2.28303 8:-6.47707 9:1.51322 10:-1.62021 11:2.43593 12:-1.41104 13:2.6481 14:66.4328 15:1.74246 16:2.10179 17:-0.581644 18:1.53045 19:-0.551699 20:1.00905 21:-1.32891 22:0.667746 23:-0.314188 24:1.72234 25:-0.46193 26:0.626214
0.30194813368009155 1:248.482 2:-1.16324 3:11.1513 4:0.0340094 5:7.14959 6:1.35645 7:0.637304 8:-0.730905 9:4.8209 10:2.40805 11:-1.98396 12:-1.04782 13:4.37009 14:66.4328 15:1.74246 16:2.10179 17:-0.581644 18:1.53045 19:-0.551699 20:1.00905 21:-1.32891 22:0.667746 23:-0.314188 24:1.72234 25:-0.46193 26:0.626214
0.51335820948078592 1:282.238 2:6.19994 3:4.80539 4:1.77321 5:11.4463 6:0.675108 7:3.3799 8:1.50141 9:11.5115 10:2.85112 11:-1.35828 12:-2.94151 13:3.09643 14:66.4328 15:1.74246 16:2.10179 17:-0.581644 18:1.53045 19:-0.551699 20:1.00905 21:-1.32891 22:0.667746 23:-0.314188 24:1.72234 25:-0.46193 26:0.626214
1 1:278.915 2:9.61126 3:9.7296 4:1.94924 5:13.4612 6:1.43596 7:4.05932 8:-0.189302 9:8.63418 10:-0.375671 11:-0.0240428 12:-3.38483 13:5.80948 14:66.4328 15:1.74246 16:2.10179 17:-0.581644 18:1.53045 19:-0.551699 20:1.00905 21:-1.32891 22:0.667746 23:-0.314188 24:1.72234 25:-0.46193 26:0.626214
1 1:286.694 2:8.58781 3:12.864 4:4.44643 5:10.4064 6:1.16345 7:2.91296 8:0.770252 9:8.48374 10:-0.64707 11:1.76218 12:-2.38398 13:8.65223 14:66.4328 15:1.74246 16:2.10179 17:-0.581644 18:1.53045 19:-0.551699 20:1.00905 21:-1.32891 22:0.667746 23:-0.314188 24:1.72234 25:-0.46193 26:0.626214
1 1:291.006 2:8.13679 3:13.189 4:4.63256 5:10.7139 6:1.15946 7:3.66914 8:0.777539 9:8.7034 10:-0.187803 11:2.24409 12:-2.45403 13:6.49111 14:66.4328 15:1.74246 16:2.10179 17:-0.581644 18:1.53045 19:-0.551699 20:1.00905 21:-1.32891 22:0.667746 23:-0.314188 24:1.72234 25:-0.46193 26:0.626214
1 1:301.897 2:10.316 3:15.2149 4:3.01829 5:9.67276 6:-0.282811 7:3.102 8:-2.83011 9:7.73785 10:-0.545874 11:2.87864 12:-2.5827 13:4.85767 14:66.4328 15:1.74246 16:2.10179 17:-0.581644 18:1.53045 19:-0.551699 20:1.00905 21:-1.32891 22:0.667746 23:-0.314188 24:1.72234 25:-0.46193 26:0.626214
1 1:312.403 2:16.6332 3:18.8111 4:1.62677 5:9.16015 6:-4.15738 7:3.08233 8:-4.46599 9:5.90343 10:-2.14341 11:2.43287 12:-5.9363 13:3.7099 14:66.4328 15:1.74246 16:2.10179 17:-0.581644 18:1.53045 19:-0.551699 20:1.00905 21:-1.32891 22:0.667746 23:-0.314188 24:1.72234 25:-0.46193 26:0.626214
1 1:322.833 2:19.1364 3:19.9225 4:-4.05611 5:2.89876 6:-8.41674 7:2.87842 8:-0.766239 9:1.3435 10:-2.4824 11:2.35226 12:-5.97258 13:8.6257 14:66.4328 15:1.74246 16:2.10179 17:-0.581644 18:1.53045 19:-0.551699 20:1.00905 21:-1.32891 22:0.667746 23:-0.314188 24:1.72234 25:-0.46193 26:0.626214
1 1:322.704 2:20.107 3:19.5709 4:-7.45869 5:2.82446 6:-5.95797 7:2.72688 8:-1.83813 9:1.01015 10:-3.01663 11:2.60691 12:-5.43757 13:9.60459 14:66.4328 15:1.74246 16:2.10179 17:-0.581644 18:1.53045 19:-0.551699 20:1.00905 21:-1.32891 22:0.667746 23:-0.314188 24:1.72234 25:-0.46193 26:0.626214
1 1:329.323 2:19.2698 3:19.5907 4:-11.3425 5:5.43063 6:-5.6296 7:1.18078 8:-0.0546391 9:-0.19933 10:-3.75888 11:2.95996 12:-1.5851 13:8.29606 14:66.4328 15:1.74246 16:2.10179 17:-0.581644 18:1.53045 19:-0.551699 20:1.00905 21:-1.32891 22:0.667746 23:-0.314188 24:1.72234 25:-0.46193 26:0.626214
1 1:333.834 2:19.9029 3:20.2897 4:-11.6258 5:5.26811 6:-5.64251 7:1.40014 8:-0.693457 9:0.170288 10:-4.5433 11:2.29126 12:-0.850644 13:8.76967 14:66.4328 15:1.74246 16:2.10179 17:-0.581644 18:1.53045 19:-0.551699 20:1.00905 21:-1.32891 22:0.667746 23:-0.314188 24:1.72234 25:-0.46193 26:0.626214
1 1:344.232 2:15.3949 3:17.401 4:-7.71171 5:5.88608 6:-5.76683 7:0.307153 8:-1.72444 9:-0.685198 10:-4.10673 11:4.11178 12:-1.42007 13:9.86451 14:66.4328 15:1.74246 16:2.10179 17:-0.581644 18:1.53045 19:-0.551699 20:1.00905 21:-1.32891 22:0.667746 23:-0.314188 24:1.72234 25:-0.46193 26:0.626214
1 1:346.463 2:15.0436 3:15.2242 4:-9.91131 5:8.06262 6:-4.36826 7:1.00199 8:-2.7811 9:-0.0605913 10:-3.08467 11:4.98878 12:-1.43058 13:7.70351 14:66.4328 15:1.74246 16:2.10179 17:-0.581644 18:1.53045 19:-0.551699 20:1.00905 21:-1.32891 22:0.667746 23:-0.314188 24:1.72234 25:-0.46193 26:0.626214
1 1:349.183 2:16.0152 3:15.842 4:-9.32388 5:9.36804 6:-4.40394 7:-0.258885 8:-5.18057 9:0.354307 10:-2.57284 11:3.08907 12:0.302769 13:7.11005 14:66.4328 15:1.74246 16:2.10179 17:-0.581644 18:1.53045 19:-0.551699 20:1.00905 21:-1.32891 22:0.667746 23:-0.314188 24:1.72234 25:-0.46193 26:0.626214
0.99703218856458931 1:343.632 2:15.9336 3:15.6463 4:-7.55322 5:10.4459 6:-5.43218 7:0.850435 8:-7.2502 9:-1.00953 10:-2.50528 11:3.95147 12:0.659634 13:7.14761 14:66.4328 15:1.74246 16:2.10179 17:-0.581644 18:1.53045 19:-0.551699 20:1.00905 21:-1.32891 22:0.667746 23:-0.314188 24:1.72234 25:-0.46193 26:0.626214
1 1:343.799 2:12.9889 3:15.4429 4:-2.67873 5:10.3665 6:-3.36614 7:-1.88285 8:-6.66054 9:-1.41448 10:-3.06758 11:7.59011 12:-1.53533 13:3.75239 14:66.4328 15:1.74246 16:2.10179 17:-0.581644 18:1.53045 19:-0.551699 20:1.00905 21:-1.32891 22:0.667746 23:-0.314188 24:1.72234 25:-0.46193 26:0.626214
1 1:345.554 2:13.6756 3:15.5172 4:-0.96081 5:11.4776 6:-3.82451 7:-1.58805 8:-7.27629 9:-1.60371 10:-3.28539 11:6.54168 12:-1.72597 13:3.20809 14:66.4328 15:1.74246 16:2.10179 17:-0.581644 18:1.53045 19:-0.551699 20:1.00905 21:-1.32891 22:0.667746 23:-0.314188 24:1.72234 25:-0.46193 26:0.626214
1 1:341.378 2:10.2336 3:18.3963 4:1.03897 5:11.4787 6:-1.91194 7:-0.388103 8:-9.26931 9:-1.07585 10:-3.8036 11:6.00485 12:-2.72797 13:2.42683 14:66.4328 15:1.74246 16:2.10179 17:-0.581644 18:1.53045 19:-0.551699 20:1.00905 21:-1.32891 22:0.667746 23:-0.314188 24:1.72234 25:-0.46193 26:0.626214
1 1:337.615 2:9.39457 3:18.2669 4:2.69571 5:10.6906 6:-0.946233 7:1.27849 8:-7.93988 9:-0.434904 10:-5.31231 11:6.74923 12:-3.05482 13:2.31586 14:66.4328 15:1.74246 16:2.10179 17:-0.581644 18:1.53045 19:-0.551699 20:1.00905 21:-1.32891 22:0.667746 23:-0.314188 24:1.72234 25:-0.46193 26:0.626214
1 1:339.201 2:8.00413 3:17.2481 4:1.30711 5:13.187 6:0.596179 7:0.261659 8:-6.55541 9:-0.508816 10:-2.97757 11:3.36886 12:-3.74513 13:3.39578 14:66.4328 15:1.74246 16:2.10179 17:-0.581644 18:1.53045 19:-0.551699 20:1.00905 21:-1.32891 22:0.667746 23:-0.314188 24:1.72234 25:-0.46193 26:0.626214
1 1:338.766 2:7.30556 3:15.9743 4:2.92153 5:14.3328 6:-1.13874 7:1.05226 8:-8.4372 9:0.354147 10:-3.59593 11:3.11376 12:-2.85677 13:2.00225 14:66.4328 15:1.74246 16:2.10179 17:-0.581644 18:1.53045 19:-0.551699 20:1.00905 21:-1.32891 22:0.667746 23:-0.314188 24:1.72234 25:-0.46193 26:0.626214
1 1:335.23 2:9.38046 3:15.8294 4:4.64772 5:14.4005 6:-0.532174 7:0.283193 8:-9.57549 9:1.21314 10:-4.67788 11:4.34886 12:-3.2608 13:3.38412 14:66.4328 15:1.74246 16:2.10179 17:-0.581644 18:1.53045 19:-0.551699 20:1.00905 21:-1.32891 22:0.667746 23:-0.314188 24:1.72234 25:-0.46193 26:0.626214
1 1:333.633 2:10.0392 3:17.6184 4:4.31799 5:14.7968 6:0.391452 7:-0.483082 8:-9.2525 9:2.17971 10:-4.76983 11:3.08111 12:-3.2301 13:3.48367 14:66.4328 15:1.74246 16:2.10179 17:-0.581644 18:1.53045 19:-0.551699 20:1.00905 21:-1.32891 22:0.667746 23:-0.314188 24:1.72234 25:-0.46193 26:0.626214
1 1:324.928 2:13.6586 3:15.4635 4:3.43192 5:15.2058 6:-0.518523 7:2.58138 8:-9.26333 9:2.42037 10:-4.04205 11:2.7245 12:-4.49969 13:4.46768 14:66.4328 15:1.74246 16:2.10179 17:-0.581644 18:1.53045 19:-0.551699 20:1.00905 21:-1.32891 22:0.667746 23:-0.314188 24:1.72234 25:-0.46193 26:0.626214
1 1:312.842 2:14.2133 3:15.2326 4:1.12701 5:14.4845 6:0.878284 7:2.38301 8:-9.51672 9:2.02429 10:-4.58137 11:3.49998 12:-3.43711 13:5.12249 14:66.4328 15:1.74246 16:2.10179 17:-0.581644 18:1.53045 19:-0.551699 20:1.00905 21:-1.32891 22:0.667746 23:-0.314188 24:1.72234 25:-0.46193 26:0.626214
1 1:300.144 2:13.9521 3:15.9074 4:0.107772 5:15.4353 6:2.25199 7:3.50486 8:-5.67506 9:0.129516 10:-5.74768 11:4.18105 12:-6.13965 13:7.56229 14:66.4328 15:1.74246 16:2.10179 17:-0.581644 18:1.53045 19:-0.551699 20:1.00905 21:-1.32891 22:0.667746 23:-0.314188 24:1.72234 25:-0.46193 26:0.626214
1 1:293.122 2:13.8608 3:16.6517 4:2.05085 5:15.6765 6:1.48973 7:3.96679 8:-4.58099 9:1.00238 10:-6.20482 11:3.18466 12:-5.32613 13:8.28018 14:66.4328 15:1.74246 16:2.10179 17:-0.581644 18:1.53045 19:-0.551699 20:1.00905 21:-1.32891 22:0.667746 23:-0.314188 24:1.72234 25:-0.46193 26:0.626214
1 1:287.637 2:14.5551 3:17.0819 4:0.558744 5:13.0397 6:1.68687 7:2.44707 8:-4.94081 9:4.00985 10:-5.28366 11:1.32076 12:-4.29989 13:8.75024 14:66.4328 15:1.74246 16:2.10179 17:-0.581644 18:1.53045 19:-0.551699 20:1.00905 21:-1.32891 22:0.667746 23:-0.314188 24:1.72234 25:-0.46193 26:0.626214
1 1:288.965 2:13.1947 3:14.8511 4:-0.341858 5:9.87663 6:3.34945 7:4.00602 8:-3.65316 9:4.91295 10:-4.63663 11:1.87714 12:-4.83775 13:8.95964 14:66.4328 15:1.74246 16:2.10179 17:-0.581644 18:1.53045 19:-0.551699 20:1.00905 21:-1.32891 22:0.667746 23:-0.314188 24:1.72234 25:-0.46193 26:0.626214
1 1:291.235 2:10.77 3:14.5089 4:0.288745 5:8.7762 6:2.36847 7:5.15922 8:-1.00583 9:5.31116 10:-4.43525 11:1.09644 12:-4.42662 13:8.46869 14:66.4328 15:1.74246 16:2.10179 17:-0.581644 18:1.53045 19:-0.551699 20:1.00905 21:-1.32891 22:0.667746 23:-0.314188 24:1.72234 25:-0.46193 26:0.626214
1 1:296.678 2:8.51252 3:15.8784 4:3.69543 5:7.96799 6:-0.380209 7:4.95697 8:-2.31637 9:4.86501 10:-3.66132 11:0.252949 12:-3.40424 13:6.44014 14:66.4328 15:1.74246 16:2.10179 17:-0.581644 18:1.53045 19:-0.551699 20:1.00905 21:-1.32891 22:0.667746 23:-0.314188 24:1.72234 25:-0.46193 26:0.626214
-1 1:307.653 2:12.2242 3:23.0468 4:2.08557 5:8.54404 6:-4.36782 7:3.18868 8:-3.32998 9:5.67016 10:-4.1095 11:-0.399259 12:-4.61793 13:5.36362 14:66.4328 15:1.74246 16:2.10179 17:-0.581644 18:1.53045 19:-0.551699 20:1.00905 21:-1.32891 22:0.667746 23:-0.314188 24:1.72234 25:-0.46193 26:0.626214
-0.39140472120270514 1:324.642 2:12.3383 3:25.1451 4:1.3337 5:6.10017 6:-4.92746 7:1.5289 8:-3.32661 9:5.02895 10:-4.38162 11:-0.833855 12:-4.59675 13:3.39471 14:66.4328 15:1.74246 16:2.10179 17:-0.581644 18:1.53045 19:-0.551699 20:1.00905 21:-1.32891 22:0.667746 23:-0.314188 24:1.72234 25:-0.46193 26:0.626214
-0.29034393982144369 1:346.199 2:13.7906 3:28.4567 4:-2.89578 5:1.66724 6:-5.92397 7:1.95134 8:-0.727749 9:4.39608 10:-7.85272 11:-1.17362 12:-3.079 13:2.6786 14:66.4328 15:1.74246 16:2.10179 17:-0.581644 18:1.53045 19:-0.551699 20:1.00905 21:-1.32891 22:0.667746 23:-0.314188 24:1.72234 25:-0.46193 26:0.626214
-0.20667170196291265 1:355.659 2:15.2583 3:17.8432 4:-2.46573 5:8.13861 6:-1.52385 7:1.44577 8:-4.46965 9:1.36341 10:-8.86558 11:1.57476 12:-3.85722 13:6.30289 14:66.4328 15:1.74246 16:2.10179 17:-0.581644 18:1.53045 19:-0.551699 20:1.00905 21:-1.32891 22:0.667746 23:-0.314188 24:1.72234 25:-0.46193 26:0.626214
-0.96429706485260391 1:352.043 2:12.3129 3:17.1352 4:1.52035 5:10.0753 6:-0.836735 7:1.91191 8:-6.52834 9:-0.424572 10:-5.60027 11:1.516 12:-4.07977 13:3.67721 14:66.4328 15:1.74246 16:2.10179 17:-0.581644 18:1.53045 19:-0.551699 20:1.00905 21:-1.32891 22:0.667746 23:-0.314188 24:1.72234 25:-0.46193 26:0.626214
-0.79617435633572708 1:350.705 2:8.93081 3:17.7961 4:3.64686 5:10.1702 6:1.19837 7:1.18967 8:-4.73901 9:-0.680187 10:-4.306 11:1.70734 12:-3.83508 13:2.43609 14:66.4328 15:1.74246 16:2.10179 17:-0.581644 18:1.53045 19:-0.551699 20:1.00905 21:-1.32891 22:0.667746 23:-0.314188 24:1.72234 25:-0.46193 26:0.626214
-0.55029091968228183 1:339.4 2:6.60353 3:17.64 4:6.81295 5:10.7232 6:3.77221 7:1.12607 8:-3.71476 9:0.90334 10:-3.00285 11:2.14057 12:-1.21905 13:4.38944 14:66.4328 15:1.74246 16:2.10179 17:-0.581644 18:1.53045 19:-0.551699 20:1.00905 21:-1.32891 22:0.667746 23:-0.314188 24:1.72234 25:-0.46193 26:0.626214
-0.10910133114973912 1:346.726 2:-23.6938 3:9.43757 4:-1.76275 5:-1.1963 6:2.13882 7:-1.8881 8:0.902675 9:2.22455 10:-1.73023 11:-0.719062 12:-1.78888 13:1.40596 14:66.4328 15:1.74246 16:2.10179 17:-0.581644 18:1.53045 19:-0.551699 20:1.00905 21:-1.32891 22:0.667746 23:-0.314188 24:1.72234 25:-0.46193 26:0.626214
-0.35269529077139189 1:346.992 2:-27.5641 3:7.2972 4:-3.27803 5:2.21698 6:1.9163 7:-3.62212 8:-0.0594091 9:0.974925 10:-0.92716 11:0.826961 12:-1.12657 13:1.13546 14:66.4328 15:1.74246 16:2.10179 17:-0.581644 18:1.53045 19:-0.551699 20:1.00905 21:-1.32891 22:0.667746 23:-0.314188 24:1.72234 25:-0.46193 26:0.626214
-0.14764772384313565 1:346.04 2:-27.5327 3:5.03063 4:2.05981 5:2.25437 6:-0.716247 7:-4.36928 8:-1.746 9:2.35968 10:-2.58627 11:1.39231 12:0.0465554 13:-0.154003 14:66.4328 15:1.74246 16:2.10179 17:-0.581644 18:1.53045 19:-0.551699 20:1.00905 21:-1.32891 22:0.667746 23:-0.314188 24:1.72234 25:-0.46193 26:0.626214
-0.82680014947470437 1:323.033 2:-11.5609 3:8.65311 4:8.34728 5:10.1644 6:3.9848 7:-0.962088 8:-2.15107 9:3.70233 10:-1.10523 11:5.50552 12:-2.0967 13:-0.33878 14:66.4328 15:1.74246 16:2.10179 17:-0.581644 18:1.53045 19:-0.551699 20:1.00905 21:-1.32891 22:0.667746 23:-0.314188 24:1.72234 25:-0.46193 26:0.626214
-0.68454021263222853 1:326.959 2:5.06665 3:12.4418 4:11.2956 5:16.0144 6:6.64266 7:0.743065 8:-3.7658 9:4.55041 10:-2.15227 11:7.06027 12:-7.5044 13:5.1465 14:66.4328 15:1.74246 16:2.10179 17:-0.581644 18:1.53045 19:-0.551699 20:1.00905 21:-1.32891 22:0.667746 23:-0.314188 24:1.72234 25:-0.46193 26:0.626214
-1 1:320.914 2:3.41013 3:16.9149 4:6.55492 5:15.0221 6:8.62559 7:1.52495 8:-2.97785 9:4.78177 10:-2.41576 11:4.19814 12:-3.37032 13:5.28624 14:66.4328 15:1.74246 16:2.10179 17:-0.581644 18:1.53045 19:-0.551699 20:1.00905 21:-1.32891 22:0.667746 23:-0.314188 24:1.72234 25:-0.46193 26:0.626214
-1 1:324.381 2:4.79849 3:19.5087 4:6.04348 5:14.5896 6:4.7465 7:1.41045 8:-3.08918 9:3.0791 10:-1.62408 11:4.58614 12:-3.68086 13:3.56073 14:66.4328 15:1.74246 16:2.10179 17:-0.581644 18:1.53045 19:-0.551699 20:1.00905 21:-1.32891 22:0.667746 23:-0.314188 24:1.72234 25:-0.46193 26:0.626214
-1 1:333.457 2:-0.425927 3:15.6592 4:6.01929 5:14.4701 6:4.91244 7:2.59887 8:-3.38348 9:0.257531 10:-3.75559 11:2.94916 12:-1.96982 13:2.53999 14:66.4328 15:1.74246 16:2.10179 17:-0.581644 18:1.53045 19:-0.551699 20:1.00905 21:-1.32891 22:0.667746 23:-0.314188 24:1.72234 25:-0.46193 26:0.626214
-0.2077208360925136 1:334.876 2:-4.05996 3:14.1605 4:5.02442 5:13.9837 6:7.81806 7:2.72905 8:-4.09065 9:-0.117036 10:-4.72045 11:1.19027 12:-0.611047 13:3.14673 14:66.4328 15:1.74246 16:2.10179 17:-0.581644 18:1.53045 19:-0.551699 20:1.00905 21:-1.32891 22:0.667746 23:-0.314188 24:1.72234 25:-0.46193 26:0.626214
-1 1:317.365 2:-8.73851 3:8.25741 4:9.93761 5:4.40666 6:7.77599 7:4.77645 8:-6.06257 9:2.99431 10:-1.30708 11:3.14055 12:-0.817823 13:5.73373 14:66.4328 15:1.74246 16:2.10179 17:-0.581644 18:1.53045 19:-0.551699 20:1.00905 21:-1.32891 22:0.667746 23:-0.314188 24:1.72234 25:-0.46193 26:0.626214
-1 1:276.562 2:7.02049 3:10.3387 4:5.69035 5:11.6513 6:1.78942 7:4.12054 8:-1.66539 9:2.03884 10:-5.02486 11:2.65038 12:-4.00023 13:10.1027 14:66.4328 15:1.74246 16:2.10179 17:-0.581644 18:1.53045 19:-0.551699 20:1.00905 21:-1.32891 22:0.667746 23:-0.314188 24:1.72234 25:-0.46193 26:0.626214
-1 1:282.895 2:6.21627 3:13.4554 4:5.76864 5:12.4196 6:5.69007 7:1.88615 8:-0.144993 9:4.10827 10:-4.31381 11:4.07936 12:-3.66286 13:7.67257 14:66.4328 15:1.74246 16:2.10179 17:-0.581644 18:1.53045 19:-0.551699 20:1.00905 21:-1.32891 22:0.667746 23:-0.314188 24:1.72234 25:-0.46193 26:0.626214
-0.92579594304262047 1:293.663 2:11.9631 3:20.6164 4:5.87932 5:10.1699 6:3.70201 7:-0.967081 8:-2.2159 9:7.33211 10:-2.05407 11:1.31196 12:-3.20209 13:10.4509 14:66.4328 15:1.74246 16:2.10179 17:-0.581644 18:1.53045 19:-0.551699 20:1.00905 21:-1.32891 22:0.667746 23:-0.314188 24:1.72234 25:-0.46193 26:0.626214
-1 1:300.853 2:12.9157 3:16.5866 4:5.10908 5:11.8907 6:3.22277 7:-0.776137 8:-2.08359 9:8.46028 10:-2.37555 11:1.90694 12:-3.46875 13:7.78941 14:66.4328 15:1.74246 16:2.10179 17:-0.581644 18:1.53045 19:-0.551699 20:1.00905 21:-1.32891 22:0.667746 23:-0.314188 24:1.72234 25:-0.46193 26:0.626214
-1 1:337.029 2:16.1886 3:17.5769 4:-4.109 5:7.43148 6:-0.663349 7:0.962292 8:-4.00681 9:2.68121 10:-4.29394 11:2.36867 12:-4.30119 13:8.68154 14:66.4328 15:1.74246 16:2.10179 17:-0.581644 18:1.53045 19:-0.551699 20:1.00905 21:-1.32891 22:0.667746 23:-0.314188 24:1.72234 25:-0.46193 26:0.626214
-1 1:341.279 2:14.1298 3:16.2354 4:-1.81128 5:8.20422 6:-1.72147 7:0.317809 8:-4.99986 9:1.39284 10:-3.54356 11:4.48332 12:-3.02661 13:7.3583 14:66.4328 15:1.74246 16:2.10179 17:-0.581644 18:1.53045 19:-0.551699 20:1.00905 21:-1.32891 22:0.667746 23:-0.314188 24:1.72234 25:-0.46193 26:0.626214
-1 1:339.974 2:14.1679 3:16.1186 4:-1.61701 5:8.42427 6:-1.22332 7:0.747104 8:-7.13024 9:0.267162 10:-3.30426 11:5.21891 12:-3.71255 13:6.92839 14:66.4328 15:1.74246 16:2.10179 17:-0.581644 18:1.53045 19:-0.551699 20:1.00905 21:-1.32891 22:0.667746 23:-0.314188 24:1.72234 25:-0.46193 26:0.626214
-1 1:340.068 2:13.5808 3:16.594 4:-2.40544 5:9.15276 6:-2.53641 7:0.958773 8:-7.49307 9:1.28932 10:-3.92734 11:4.08445 12:-1.48894 13:5.42617 14:66.4328 15:1.74246 16:2.10179 17:-0.581644 18:1.53045 19:-0.551699 20:1.00905 21:-1.32891 22:0.667746 23:-0.314188 24:1.72234 25:-0.46193 26:0.626214
-1 1:345.496 2:12.8291 3:16.0932 4:-2.03315 5:9.52744 6:-2.4183 7:1.06142 8:-7.55213 9:1.27743 10:-3.70078 11:3.88394 12:-1.43414 13:5.28672 14:66.4328 15:1.74246 16:2.10179 17:-0.581644 18:1.53045 19:-0.551699 20:1.00905 21:-1.32891 22:0.667746 23:-0.314188 24:1.72234 25:-0.46193 26:0.626214
-1 1:338.11 2:14.232 3:16.5494 4:-0.10961 5:8.94403 6:-2.10199 7:1.69766 8:-8.69451 9:1.97119 10:-5.92143 11:4.29346 12:-0.145673 13:5.06731 14:66.4328 15:1.74246 16:2.10179 17:-0.581644 18:1.53045 19:-0.551699 20:1.00905 21:-1.32891 22:0.667746 23:-0.314188 24:1.72234 25:-0.46193 26:0.626214
-1 1:328.806 2:17.0102 3:17.3922 4:-2.64522 5:9.43528 6:-1.48882 7:3.28194 8:-8.5627 9:1.69603 10:-5.96356 11:4.33803 12:-0.473113 13:5.94524 14:66.4328 15:1.74246 16:2.10179 17:-0.581644 18:1.53045 19:-0.551699 20:1.00905 21:-1.32891 22:0.667746 23:-0.314188 24:1.72234 25:-0.46193 26:0.626214
-0.64488886591515004 1:317.645 2:18.5538 3:14.6926 4:-2.01252 5:10.8913 6:1.9695 7:1.0278 8:-8.85454 9:5.29459 10:-5.78921 11:4.1131 12:-4.95915 13:8.01126 14:66.4328 15:1.74246 16:2.10179 17:-0.581644 18:1.53045 19:-0.551699 20:1.00905 21:-1.32891 22:0.667746 23:-0.314188 24:1.72234 25:-0.46193 26:0.626214
-1 1:307.917 2:20.6368 3:15.3864 4:-0.522063 5:11.9544 6:2.0666 7:2.00659 8:-9.85988 9:6.52792 10:-6.31499 11:3.74048 12:-5.66284 13:7.93277 14:66.4328 15:1.74246 16:2.10179 17:-0.581644 18:1.53045 19:-0.551699 20:1.00905 21:-1.32891 22:0.667746 23:-0.314188 24:1.72234 25:-0.46193 26:0.626214
-1 1:249.73 2:17.8873 3:18.4328 4:-0.0962802 5:11.5703 6:1.32166 7:4.75139 8:-5.66298 9:4.89797 10:-3.09446 11:6.99947 12:-5.52144 13:7.51216 14:66.4328 15:1.74246 16:2.10179 17:-0.581644 18:1.53045 19:-0.551699 20:1.00905 21:-1.32891 22:0.667746 23:-0.314188 24:1.72234 25:-0.46193 26:0.626214
-0.38454086231256362 1:241.289 2:14.2575 3:20.3564 4:2.77571 5:10.4479 6:-1.04162 7:5.26594 8:-4.38314 9:6.93624 10:-2.15014 11:8.52034 12:-2.33485 13:7.75572 14:66.4328 15:1.74246 16:2.10179 17:-0.581644 18:1.53045 19:-0.551699 20:1.00905 21:-1.32891 22:0.667746 23:-0.314188 24:1.72234 25:-0.46193 26:0.626214
-1 1:246.821 2:11.5708 3:17.4089 4:3.01645 5:9.16287 6:-0.186782 7:5.01212 8:-3.67718 9:4.0331 10:-3.84248 11:4.72724 12:-2.81273 13:6.24096 14:66.4328 15:1.74246 16:2.10179 17:-0.581644 18:1.53045 19:-0.551699 20:1.00905 21:-1.32891 22:0.667746 23:-0.314188 24:1.72234 25:-0.46193 26:0.626214
-1 1:234.848 2:12.4614 3:19.2704 4:1.87104 5:8.54235 6:-1.00388 7:4.11488 8:-3.82368 9:5.03697 10:-4.6125 11:3.89307 12:-2.52032 13:6.78986 14:66.4328 15:1.74246 16:2.10179 17:-0.581644 18:1.53045 19:-0.551699 20:1.00905 21:-1.32891 22:0.667746 23:-0.314188 24:1.72234 25:-0.46193 26:0.626214
-0.24604100441745866 1:227.737 2:11.4226 3:16.1868 4:2.75675 5:7.16348 6:-2.91723 7:4.52812 8:-2.46664 9:5.2092 10:-3.18736 11:4.44234 12:-0.41794 13:6.53569 14:66.4328 15:1.74246 16:2.10179 17:-0.581644 18:1.53045 19:-0.551699 20:1.00905 21:-1.32891 22:0.667746 23:-0.314188 24:1.72234 25:-0.46193 26:0.626214
-1 1:226.904 2:9.61849 3:13.0575 4:1.58581 5:6.27308 6:-2.54194 7:2.51293 8:-5.13561 9:4.0605 10:-1.24381 11:5.40734 12:-1.66454 13:4.82182 14:66.4328 15:1.74246 16:2.10179 17:-0.581644 18:1.53045 19:-0.551699 20:1.00905 21:-1.32891 22:0.667746 23:-0.314188 24:1.72234 25:-0.46193 26:0.626214
-1 1:224.464 2:9.96189 3:16.2552 4:1.92981 5:5.72529 6:-1.75355 7:3.30938 8:-6.06766 9:2.1244 10:-4.02744 11:4.00677 12:-1.71739 13:6.74563 14:66.4328 15:1.74246 16:2.10179 17:-0.581644 18:1.53045 19:-0.551699 20:1.00905 21:-1.32891 22:0.667746 23:-0.314188 24:1.72234 25:-0.46193 26:0.626214
-1 1:224.733 2:8.94549 3:16.6583 4:1.05203 5:6.25826 6:-1.06358 7:3.11137 8:-4.80367 9:1.82032 10:-3.28044 11:5.22173 12:-1.70118 13:6.3984 14:66.4328 15:1.74246 16:2.10179 17:-0.581644 18:1.53045 19:-0.551699 20:1.00905 21:-1.32891 22:0.667746 23:-0.314188 24:1.72234 25:-0.46193 26:0.626214
-0.73050944780726279 1:329.341 2:-0.730539 3:0.485897 4:2.72923 5:0.945988 6:-6.50439 7:6.64407 8:-3.05054 9:5.28716 10:-6.05945 11:0.519791 12:-0.482592 13:1.90834 14:66.4328 15:1.74246 16:2.10179 17:-0.581644 18:1.53045 19:-0.551699 20:1.00905 21:-1.32891 22:0.667746 23:-0.314188 24:1.72234 25:-0.46193 26:0.626214
-0.51222856395925775 1:339.094 2:25.4853 3:15.8612 4:-9.36778 5:3.76628 6:-0.894827 7:7.24231 8:-5.60591 9:4.72972 10:-4.90764 11:3.63689 12:-4.80937 13:4.08408 14:66.4328 15:1.74246 16:2.10179 17:-0.581644 18:1.53045 19:-0.551699 20:1.00905 21:-1.32891 22:0.667746 23:-0.314188 24:1.72234 25:-0.46193 26:0.626214
-0.23500985287095921 1:346.369 2:30.3767 3:16.8852 4:-9.08131 5:3.96989 6:0.530981 7:7.29665 8:-7.23671 9:6.37816 10:-4.95183 11:5.42065 12:-6.76059 13:7.26132 14:66.4328 15:1.74246 16:2.10179 17:-0.581644 18:1.53045 19:-0.551699 20:1.00905 21:-1.32891 22:0.667746 23:-0.314188 24:1.72234 25:-0.46193 26:0.626214
-0.81227488477557042 1:328.106 2:18.777 3:17.6359 4:-1.36594 5:-1.11985 6:-6.29152 7:1.01941 8:-3.98476 9:5.12413 10:-6.50389 11:2.96898 12:-4.24031 13:10.9888 14:66.4328 15:1.74246 16:2.10179 17:-0.581644 18:1.53045 19:-0.551699 20:1.00905 21:-1.32891 22:0.667746 23:-0.314188 24:1.72234 25:-0.46193 26:0.626214
-0.5667143076645168 1:328.258 2:17.9787 3:17.0235 4:-3.20776 5:-1.68257 6:-4.49919 7:-1.05497 8:-2.40995 9:6.37851 10:-6.87218 11:3.63252 12:-5.74482 13:11.4303 14:66.4328 15:1.74246 16:2.10179 17:-0.581644 18:1.53045 19:-0.551699 20:1.00905 21:-1.32891 22:0.667746 23:-0.314188 24:1.72234 25:-0.46193 26:0.626214
-1 1:312.843 2:4.14929 3:16.5505 4:2.33396 5:4.13924 6:-0.641596 7:-0.182391 8:-0.851206 9:4.67748 10:-4.69933 11:1.35413 12:1.03278 13:4.98687 14:66.4328 15:1.74246 16:2.10179 17:-0.581644 18:1.53045 19:-0.551699 20:1.00905 21:-1.32891 22:0.667746 23:-0.314188 24:1.72234 25:-0.46193 26:0.626214
-0.31803427862388794 1:323.25 2:-31.6455 3:10.3894 4:3.84963 5:-2.34468 6:4.34085 7:-1.49096 8:-5.76988 9:1.05173 10:-2.78358 11:1.73256 12:0.324979 13:-1.43033 14:66.4328 15:1.74246 16:2.10179 17:-0.581644 18:1.53045 19:-0.551699 20:1.00905 21:-1.32891 22:0.667746 23:-0.314188 24:1.72234 25:-0.46193 26:0.626214
-0.52839918801458075 1:319.936 2:-25.5828 3:2.21631 4:1.40789 5:-4.85078 6:-4.8302 7:2.67945 8:-5.05337 9:-1.69216 10:-2.5725 11:-1.10927 12:-0.291906 13:2.5396 14:66.4328 15:1.74246 16:2.10179 17:-0.581644 18:1.53045 19:-0.551699 20:1.00905 21:-1.32891 22:0.667746 23:-0.314188 24:1.72234 25:-0.46193 26:0.626214
-0.97260307403111179 1:350.175 2:15.9086 3:12.9463 4:-3.70156 5:3.94373 6:-6.18846 7:6.78582 8:-2.59142 9:1.0054 10:-2.60167 11:4.81661 12:-4.27742 13:2.0681 14:66.4328 15:1.74246 16:2.10179 17:-0.581644 18:1.53045 19:-0.551699 20:1.00905 21:-1.32891 22:0.667746 23:-0.314188 24:1.72234 25:-0.46193 26:0.626214
-0.4347078465212964 1:336.842 2:14.5033 3:12.5119 4:-0.560614 5:5.26494 6:-5.511 7:5.1703 8:-3.86622 9:1.7665 10:-1.23441 11:4.15993 12:-4.12443 13:4.01658 14:66.4328 15:1.74246 16:2.10179 17:-0.581644 18:1.53045 19:-0.551699 20:1.00905 21:-1.32891 22:0.667746 23:-0.314188 24:1.72234 25:-0.46193 26:0.626214
-0.27479361003962244 1:331.354 2:13.3941 3:15.1427 4:-0.315364 5:8.3613 6:-3.93301 7:5.44465 8:-3.16752 9:3.72542 10:-0.994164 11:2.55034 12:-2.4783 13:4.48111 14:66.4328 15:1.74246 16:2.10179 17:-0.581644 18:1.53045 19:-0.551699 20:1.00905 21:-1.32891 22:0.667746 23:-0.314188 24:1.72234 25:-0.46193 26:0.626214
-1 1:331.846 2:20.148 3:12.307 4:-4.09976 5:7.81666 6:-6.84068 7:4.66807 8:-5.53831 9:1.71334 10:-2.51239 11:2.93712 12:-2.29047 13:2.89226 14:66.4328 15:1.74246 16:2.10179 17:-0.581644 18:1.53045 19:-0.551699 20:1.00905 21:-1.32891 22:0.667746 23:-0.314188 24:1.72234 25:-0.46193 26:0.626214
-1 1:292.244 2:18.1203 3:16.9382 4:-1.70821 5:7.67756 6:-2.59412 7:5.81799 8:-1.92756 9:2.94711 10:-1.99928 11:3.33467 12:-1.02342 13:5.31047 14:66.4328 15:1.74246 16:2.10179 17:-0.581644 18:1.53045 19:-0.551699 20:1.00905 21:-1.32891 22:0.667746 23:-0.314188 24:1.72234 25:-0.46193 26:0.626214
-1 1:279.691 2:11.6789 3:16.463 4:0.47616 5:10.4957 6:-0.229918 7:5.07712 8:-2.08437 9:3.26667 10:-1.10785 11:2.61083 12:-1.49028 13:5.77822 14:66.4328 15:1.74246 16:2.10179 17:-0.581644 18:1.53045 19:-0.551699 20:1.00905 21:-1.32891 22:0.667746 23:-0.314188 24:1.72234 25:-0.46193 26:0.626214
-1 1:285.113 2:12.7741 3:18.2433 4:-3.10609 5:8.48164 6:-0.80504 7:4.7687 8:0.343028 9:2.76837 10:-1.28272 11:0.335723 12:-2.38915 13:5.69884 14:66.4328 15:1.74246 16:2.10179 17:-0.581644 18:1.53045 19:-0.551699 20:1.00905 21:-1.32891 22:0.667746 23:-0.314188 24:1.72234 25:-0.46193 26:0.626214
-0.12882591810016647 1:307.374 2:10.5545 3:18.7188 4:-0.850126 5:8.58239 6:2.58963 7:4.2064 8:-1.50793 9:2.06651 10:-4.30408 11:-0.682052 12:-5.39266 13:4.49357 14:66.4328 15:1.74246 16:2.10179 17:-0.581644 18:1.53045 19:-0.551699 20:1.00905 21:-1.32891 22:0.667746 23:-0.314188 24:1.72234 25:-0.46193 26:0.626214
-0.45416678256049675 1:316.181 2:15.0882 3:13.0955 4:-3.92604 5:10.8291 6:0.39588 7:4.88728 8:-2.9374 9:0.637488 10:-4.43353 11:-3.21314 12:-4.67332 13:4.47211 14:66.4328 15:1.74246 16:2.10179 17:-0.581644 18:1.53045 19:-0.551699 20:1.00905 21:-1.32891 22:0.667746 23:-0.314188 24:1.72234 25:-0.46193 26:0.626214
-1 1:316.662 2:15.4592 3:13.0766 4:-2.79713 5:12.7278 6:-1.75259 7:6.15191 8:-2.80621 9:-1.68153 10:-2.70276 11:-3.62027 12:-2.92244 13:4.63538 14:66.4328 15:1.74246 16:2.10179 17:-0.581644 18:1.53045 19:-0.551699 20:1.00905 21:-1.32891 22:0.667746 23:-0.314188 24:1.72234 25:-0.46193 26:0.626214
-1 1:296.661 2:16.6486 3:9.9762 4:-4.8544 5:16.2826 6:1.10941 7:3.70961 8:0.728201 9:-2.98128 10:-7.38312 11:-0.843335 12:-4.19946 13:3.97907 14:66.4328 15:1.74246 16:2.10179 17:-0.581644 18:1.53045 19:-0.551699 20:1.00905 21:-1.32891 22:0.667746 23:-0.314188 24:1.72234 25:-0.46193 26:0.626214
-0.050953252764477569 1:301.331 2:13.3886 3:8.35739 4:-2.39215 5:13.2666 6:2.15684 7:4.44372 8:-0.260229 9:0.0580882 10:-7.63791 11:-0.914982 12:-2.67954 13:4.32406 14:66.4328 15:1.74246 16:2.10179 17:-0.581644 18:1.53045 19:-0.551699 20:1.00905 21:-1.32891 22:0.667746 23:-0.314188 24:1.72234 25:-0.46193 26:0.626214
-1 1:294.99 2:10.0271 3:9.7624 4:1.63434 5:7.26082 6:0.0565124 7:4.11788 8:-2.20688 9:3.85882 10:-5.71931 11:-0.588356 12:-2.63738 13:6.12154 14:66.4328 15:1.74246 16:2.10179 17:-0.581644 18:1.53045 19:-0.551699 20:1.00905 21:-1.32891 22:0.667746 23:-0.314188 24:1.72234 25:-0.46193 26:0.626214
-1 1:299.473 2:3.8577 3:10.2393 4:4.54399 5:6.58135 6:-0.982668 7:5.42682 8:-1.7286 9:1.46732 10:-3.38333 11:0.784505 12:-2.28216 13:5.88937 14:66.4328 15:1.74246 16:2.10179 17:-0.581644 18:1.53045 19:-0.551699 20:1.00905 21:-1.32891 22:0.667746 23:-0.314188 24:1.72234 25:-0.46193 26:0.626214
-1 1:295.754 2:13.4641 3:9.31658 4:1.86552 5:10.1204 6:0.755214 7:3.88749 8:-2.92319 9:3.51145 10:-4.98183 11:0.822001 12:-2.3773 13:7.11417 14:66.4328 15:1.74246 16:2.10179 17:-0.581644 18:1.53045 19:-0.551699 20:1.00905 21:-1.32891 22:0.667746 23:-0.314188 24:1.72234 25:-0.46193 26:0.626214
-0.41063972779108471 1:301.784 2:13.6331 3:7.08054 4:0.34771 5:9.09387 6:2.02069 7:2.60392 8:-3.74127 9:2.52337 10:-5.12373 11:0.282364 12:-2.52087 13:7.4033 14:66.4328 15:1.74246 16:2.10179 17:-0.581644 18:1.53045 19:-0.551699 20:1.00905 21:-1.32891 22:0.667746 23:-0.314188 24:1.72234 25:-0.46193 26:0.626214
-0.39580334164457276 1:297.466 2:13.9878 3:9.2728 4:0.0096551 5:10.1506 6:1.62851 7:1.70381 8:-1.08786 9:1.96014 10:-2.72373 11:-0.219776 12:-4.56043 13:9.04755 14:66.4328 15:1.74246 16:2.10179 17:-0.581644 18:1.53045 19:-0.551699 20:1.00905 21:-1.32891 22:0.667746 23:-0.314188 24:1.72234 25:-0.46193 26:0.626214
-1 1:292.229 2:12.9432 3:12.3589 4:2.41715 5:12.0207 6:3.05652 7:3.01237 8:-1.73506 9:3.11432 10:-3.08767 11:-1.03564 12:-4.33646 13:8.7998 14:66.4328 15:1.74246 16:2.10179 17:-0.581644 18:1.53045 19:-0.551699 20:1.00905 21:-1.32891 22:0.667746 23:-0.314188 24:1.72234 25:-0.46193 26:0.626214
-1 1:262.039 2:10.5849 3:15.4522 4:4.27227 5:6.26595 6:-0.0190898 7:3.3498 8:-4.03827 9:4.58348 10:-4.85628 11:0.478544 12:-2.94698 13:6.44608 14:66.4328 15:1.74246 16:2.10179 17:-0.581644 18:1.53045 19:-0.551699 20:1.00905 21:-1.32891 22:0.667746 23:-0.314188 24:1.72234 25:-0.46193 26:0.626214
-1 1:242.003 2:10.8132 3:16.1717 4:2.23011 5:9.18216 6:-1.43226 7:4.1515 8:-1.23928 9:3.27921 10:-5.63491 11:3.43202 12:-2.50005 13:6.65296 14:66.4328 15:1.74246 16:2.10179 17:-0.581644 18:1.53045 19:-0.551699 20:1.00905 21:-1.32891 22:0.667746 23:-0.314188 24:1.72234 25:-0.46193 26:0.626214
-1 1:231.055 2:7.16813 3:16.681 4:2.71625 5:9.05589 6:0.0189134 7:5.59243 8:-1.60506 9:5.5198 10:-1.61352 11:4.77588 12:-1.72791 13:6.04868 14:66.4328 15:1.74246 16:2.10179 17:-0.581644 18:1.53045 19:-0.551699 20:1.00905 21:-1.32891 22:0.667746 23:-0.314188 24:1.72234 25:-0.46193 26:0.626214
-0.69772276832351021 1:223.875 2:6.00646 3:14.8456 4:3.31355 5:9.64646 6:0.416432 7:6.78976 8:0.232706 9:4.0078 10:-2.48234 11:5.5667 12:-3.09366 13:6.07605 14:66.4328 15:1.74246 16:2.10179 17:-0.581644 18:1.53045 19:-0.551699 20:1.00905 21:-1.32891 22:0.667746 23:-0.314188 24:1.72234 25:-0.46193 26:0.626214
-1 1:241.145 2:1.27706 3:14.0618 4:5.03572 5:5.6401 6:1.75614 7:5.26856 8:-1.41367 9:7.1067 10:-2.84901 11:3.57586 12:-1.15661 13:3.82627 14:66.4328 15:1.74246 16:2.10179 17:-0.581644 18:1.53045 19:-0.551699 20:1.00905 21:-1.32891 22:0.667746 23:-0.314188 24:1.72234 25:-0.46193 26:0.626214
-1 1:289.78 2:-3.35755 3:9.42489 4:4.21672 5:3.0353 6:1.2482 7:1.80495 8:-3.88289 9:2.99124 10:-3.78875 11:2.00318 12:-0.33039 13:1.96391 14:66.4328 15:1.74246 16:2.10179 17:-0.581644 18:1.53045 19:-0.551699 20:1.00905 21:-1.32891 22:0.667746 23:-0.314188 24:1.72234 25:-0.46193 26:0.626214
-1 1:290.097 2:2.38192 3:13.7774 4:6.02904 5:5.24405 6:2.68339 7:3.58683 8:-4.28087 9:2.39851 10:-7.11539 11:0.443705 12:-1.41095 13:2.29153 14:66.4328 15:1.74246 16:2.10179 17:-0.581644 18:1.53045 19:-0.551699 20:1.00905 21:-1.32891 22:0.667746 23:-0.314188 24:1.72234 25:-0.46193 26:0.626214
-0.50445797860627895 1:281.721 2:10.4806 3:15.0724 4:0.412853 5:6.58223 6:3.98328 7:1.75752 8:-5.07162 9:3.36037 10:-6.6359 11:-0.0453099 12:-2.16567 13:4.92215 14:66.4328 15:1.74246 16:2.10179 17:-0.581644 18:1.53045 19:-0.551699 20:1.00905 21:-1.32891 22:0.667746 23:-0.314188 24:1.72234 25:-0.46193 26:0.626214
-0.72621265249443989 1:294.977 2:17.5557 3:13.6212 4:-3.52742 5:7.89354 6:-1.56468 7:3.07402 8:-9.74668 9:1.74854 10:-3.73024 11:1.21816 12:-1.02977 13:6.76788 14:66.4328 15:1.74246 16:2.10179 17:-0.581644 18:1.53045 19:-0.551699 20:1.00905 21:-1.32891 22:0.667746 23:-0.314188 24:1.72234 25:-0.46193 26:0.626214
-0.49150066747350896 1:280.164 2:15.4397 3:18.5997 4:-4.38207 5:8.08544 6:-1.91259 7:2.08961 8:-8.8 9:-0.0379091 10:-0.834963 11:-0.370151 12:-3.02558 13:6.44175 14:66.4328 15:1.74246 16:2.10179 17:-0.581644 18:1.53045 19:-0.551699 20:1.00905 21:-1.32891 22:0.667746 23:-0.314188 24:1.72234 25:-0.46193 26:0.626214
-0.39344442121980849 1:266.011 2:7.72861 3:12.5272 4:-11.1409 5:11.724 6:3.54738 7:-0.557347 8:-3.8701 9:0.61418 10:1.69821 11:1.82402 12:0.5956 13:4.70442 14:66.4328 15:1.74246 16:2.10179 17:-0.581644 18:1.53045 19:-0.551699 20:1.00905 21:-1.32891 22:0.667746 23:-0.314188 24:1.72234 25:-0.46193 26:0.626214
-1 1:262.141 2:8.89149 3:9.69012 4:-12.5676 5:9.65321 6:2.33474 7:3.17059 8:-1.58495 9:2.35814 10:-0.00067337 11:0.98801 12:1.9509 13:6.88882 14:66.4328 15:1.74246 16:2.10179 17:-0.581644 18:1.53045 19:-0.551699 20:1.00905 21:-1.32891 22:0.667746 23:-0.314188 24:1.72234 25:-0.46193 26:0.626214
-1 1:256.976 2:10.1327 3:8.21491 4:-12.0046 5:7.6545 6:-0.319292 7:2.42037 8:-3.36695 9:0.902282 10:-2.52095 11:-1.03767 12:-0.580814 13:6.03755 14:66.4328 15:1.74246 16:2.10179 17:-0.581644 18:1.53045 19:-0.551699 20:1.00905 21:-1.32891 22:0.667746 23:-0.314188 24:1.72234 25:-0.46193 26:0.626214
-0.80744217366415483 1:255.279 2:10.5704 3:5.79924 4:-13.1204 5:7.2086 6:1.76101 7:3.97674 8:-3.94321 9:2.56608 10:-0.729562 11:0.732315 12:-2.20709 13:6.18949 14:66.4328 15:1.74246 16:2.10179 17:-0.581644 18:1.53045 19:-0.551699 20:1.00905 21:-1.32891 22:0.667746 23:-0.314188 24:1.72234 25:-0.46193 26:0.626214
-1 1:246.07 2:10.7398 3:3.60968 4:-10.3586 5:5.49328 6:-0.112942 7:4.23837 8:-5.57299 9:1.4117 10:-1.85462 11:1.84402 12:-0.969726 13:4.26278 14:66.4328 15:1.74246 16:2.10179 17:-0.581644 18:1.53045 19:-0.551699 20:1.00905 21:-1.32891 22:0.667746 23:-0.314188 24:1.72234 25:-0.46193 26:0.626214
-0.470376029977915 1:238.405 2:9.37131 3:3.65411 4:-9.59104 5:6.04587 6:1.03976 7:4.899 8:-3.17357 9:0.261901 10:-3.38689 11:1.75368 12:-3.18103 13:3.16032 14:66.4328 15:1.74246 16:2.10179 17:-0.581644 18:1.53045 19:-0.551699 20:1.00905 21:-1.32891 22:0.667746 23:-0.314188 24:1.72234 25:-0.46193 26:0.626214
-0.2422296649385349 1:234.25 2:8.30011 3:2.65879 4:-4.89353 5:3.13258 6:0.633684 7:3.51796 8:-5.99566 9:1.6353 10:-1.86408 11:3.76188 12:-2.72133 13:3.49256 14:66.4328 15:1.74246 16:2.10179 17:-0.581644 18:1.53045 19:-0.551699 20:1.00905 21:-1.32891 22:0.667746 23:-0.314188 24:1.72234 25:-0.46193 26:0.626214
-1 1:228.937 2:8.9365 3:5.53179 4:-6.08067 5:1.76966 6:-0.39658 7:2.09372 8:-3.96861 9:4.17521 10:-2.75892 11:4.16759 12:-2.5668 13:5.40217 14:66.4328 15:1.74246 16:2.10179 17:-0.581644 18:1.53045 19:-0.551699 20:1.00905 21:-1.32891 22:0.667746 23:-0.314188 24:1.72234 25:-0.46193 26:0.626214
-0.68267965104414352 1:227.264 2:8.51701 3:5.97606 4:-3.6022 5:4.70291 6:-1.39842 7:3.48978 8:-4.23658 9:5.03233 10:-0.47149 11:5.5062 12:-1.54555 13:4.84311 14:66.4328 15:1.74246 16:2.10179 17:-0.581644 18:1.53045 19:-0.551699 20:1.00905 21:-1.32891 22:0.667746 23:-0.314188 24:1.72234 25:-0.46193 26:0.626214
-0.47395984493481141 1:219.894 2:4.73712 3:7.47842 4:-4.44143 5:1.64451 6:-0.0471563 7:4.57411 8:0.167463 9:6.21959 10:0.386414 11:6.2892 12:-1.6609 13:4.21727 14:66.4328 15:1.74246 16:2.10179 17:-0.581644 18:1.53045 19:-0.551699 20:1.00905 21:-1.32891 22:0.667746 23:-0.314188 24:1.72234 25:-0.46193 26:0.626214
-1 1:216.842 2:5.22351 3:7.62858 4:-1.71085 5:2.44395 6:-1.90751 7:1.40063 8:-2.55766 9:3.69838 10:-1.67813 11:6.14592 12:-1.2798 13:3.42168 14:66.4328 15:1.74246 16:2.10179 17:-0.581644 18:1.53045 19:-0.551699 20:1.00905 21:-1.32891 22:0.667746 23:-0.314188 24:1.72234 25:-0.46193 26:0.626214
-1 1:214.433 2:3.5641 3:8.29941 4:-1.20527 5:5.89005 6:-1.14728 7:2.51989 8:-3.20641 9:3.19852 10:-2.58033 11:4.12783 12:0.995416 13:4.27326 14:66.4328 15:1.74246 16:2.10179 17:-0.581644 18:1.53045 19:-0.551699 20:1.00905 21:-1.32891 22:0.667746 23:-0.314188 24:1.72234 25:-0.46193 26:0.626214
-1 1:212.468 2:1.10937 3:8.28933 4:-1.15393 5:4.53815 6:-1.87693 7:1.66682 8:-2.82432 9:2.17325 10:-1.75403 11:2.80917 12:-0.354977 13:4.8988 14:66.4328 15:1.74246 16:2.10179 17:-0.581644 18:1.53045 19:-0.551699 20:1.00905 21:-1.32891 22:0.667746 23:-0.314188 24:1.72234 25:-0.46193 26:0.626214
-1 1:211.327 2:1.3019 3:6.99173 4:-2.29788 5:5.53341 6:0.0150285 7:1.64081 8:-1.21226 9:2.23411 10:-1.82754 11:4.49468 12:-0.192987 13:4.62281 14:66.4328 15:1.74246 16:2.10179 17:-0.581644 18:1.53045 19:-0.551699 20:1.00905 21:-1.32891 22:0.667746 23:-0.314188 24:1.72234 25:-0.46193 26:0.626214
-1 1:210.851 2:1.98467 3:9.72652 4:-0.336866 5:5.54049 6:-1.90698 7:1.07931 8:-1.08945 9:2.9126 10:-2.14071 11:3.92934 12:-1.77295 13:2.04438 14:66.4328 15:1.74246 16:2.10179 17:-0.581644 18:1.53045 19:-0.551699 20:1.00905 21:-1.32891 22:0.667746 23:-0.314188 24:1.72234 25:-0.46193 26:0.626214
-1 1:208.774 2:1.64746 3:9.42566 4:0.113901 5:4.31375 6:-2.76026 7:3.05063 8:-0.55484 9:1.43902 10:-4.49812 11:1.96229 12:-1.20564 13:3.21841 14:66.4328 15:1.74246 16:2.10179 17:-0.581644 18:1.53045 19:-0.551699 20:1.00905 21:-1.32891 22:0.667746 23:-0.314188 24:1.72234 25:-0.46193 26:0.626214
-1 1:211.711 2:2.09448 3:9.59853 4:0.478037 5:4.9426 6:-1.35999 7:1.59988 8:-1.19109 9:4.42864 10:-1.57898 11:2.77518 12:-3.17315 13:3.49082 14:66.4328 15:1.74246 16:2.10179 17:-0.581644 18:1.53045 19:-0.551699 20:1.00905 21:-1.32891 22:0.667746 23:-0.314188 24:1.72234 25:-0.46193 26:0.626214
-1 1:214.343 2:-1.38909 3:8.66882 4:-0.132105 5:3.18389 6:-0.484954 7:5.24334 8:-1.31696 9:1.59196 10:-0.892915 11:3.81698 12:-1.5476 13:4.3718 14:66.4328 15:1.74246 16:2.10179 17:-0.581644 18:1.53045 19:-0.551699 20:1.00905 21:-1.32891 22:0.667746 23:-0.314188 24:1.72234 25:-0.46193 26:0.626214
-1 1:217.488 2:3.57305 3:7.47275 4:-1.21718 5:4.98818 6:-1.41422 7:3.65273 8:-2.63755 9:0.918563 10:-3.38959 11:3.36466 12:-2.31583 13:3.18664 14:66.4328 15:1.74246 16:2.10179 17:-0.581644 18:1.53045 19:-0.551699 20:1.00905 21:-1.32891 22:0.667746 23:-0.314188 24:1.72234 25:-0.46193 26:0.626214
-1 1:220.804 2:1.91667 3:3.46782 4:-4.04937 5:7.67371 6:2.26798 7:4.74319 8:-3.09244 9:3.66864 10:-0.302582 11:4.77955 12:-2.04129 13:1.58239 14:66.4328 15:1.74246 16:2.10179 17:-0.581644 18:1.53045 19:-0.551699 20:1.00905 21:-1.32891 22:0.667746 23:-0.314188 24:1.72234 25:-0.46193 26:0.626214
-1 1:233.008 2:1.3664 3:1.9176 4:-4.2306 5:6.74556 6:2.6472 7:3.13018 8:-6.25022 9:2.48097 10:-0.348934 11:3.42706 12:-0.747372 13:3.34359 14:66.4328 15:1.74246 16:2.10179 17:-0.581644 18:1.53045 19:-0.551699 20:1.00905 21:-1.32891 22:0.667746 23:-0.314188 24:1.72234 25:-0.46193 26:0.626214
-1 1:235.784 2:1.56306 3:2.94595 4:-2.54234 5:5.69366 6:0.967173 7:3.34611 8:-6.3716 9:2.98724 10:-0.422418 11:3.80678 12:0.485383 13:4.71562 14:66.4328 15:1.74246 16:2.10179 17:-0.581644 18:1.53045 19:-0.551699 20:1.00905 21:-1.32891 22:0.667746 23:-0.314188 24:1.72234 25:-0.46193 26:0.626214
-1 1:236.848 2:-0.673316 3:-1.60102 4:-3.47913 5:5.3415 6:0.95843 7:2.50238 8:-6.6004 9:3.66184 10:-1.32796 11:3.20815 12:-1.33514 13:1.9484 14:66.4328 15:1.74246 16:2.10179 17:-0.581644 18:1.53045 19:-0.551699 20:1.00905 21:-1.32891 22:0.667746 23:-0.314188 24:1.72234 25:-0.46193 26:0.626214
-1 1:246.736 2:0.118856 3:0.425953 4:-3.16905 5:4.49351 6:0.718222 7:1.28113 8:-8.45662 9:-0.925355 10:-4.04737 11:2.15613 12:-1.64261 13:2.608 14:66.4328 15:1.74246 16:2.10179 17:-0.581644 18:1.53045 19:-0.551699 20:1.00905 21:-1.32891 22:0.667746 23:-0.314188 24:1.72234 25:-0.46193 26:0.626214
-1 1:249.011 2:2.76768 3:2.50497 4:-2.56537 5:6.42126 6:1.26451 7:1.25599 8:-8.65199 9:1.91192 10:-4.92488 11:0.203173 12:-1.72376 13:2.83755 14:66.4328 15:1.74246 16:2.10179 17:-0.581644 18:1.53045 19:-0.551699 20:1.00905 21:-1.32891 22:0.667746 23:-0.314188 24:1.72234 25:-0.46193 26:0.626214
-1 1:249.479 2:0.801524 3:0.686138 4:-2.29785 5:4.4364 6:1.77557 7:3.23787 8:-7.7834 9:1.19852 10:-2.13038 11:1.06416 12:-4.06132 13:2.47377 14:66.4328 15:1.74246 16:2.10179 17:-0.581644 18:1.53045 19:-0.551699 20:1.00905 21:-1.32891 22:0.667746 23:-0.314188 24:1.72234 25:-0.46193 26:0.626214
-1 1:248.318 2:2.80129 3:-0.33933 4:-3.0949 5:4.12469 6:-0.691721 7:3.28823 8:-8.0672 9:1.56789 10:-2.87906 11:1.98716 12:-3.09403 13:2.13525 14:66.4328 15:1.74246 16:2.10179 17:-0.581644 18:1.53045 19:-0.551699 20:1.00905 21:-1.32891 22:0.667746 23:-0.314188 24:1.72234 25:-0.46193 26:0.626214
-0.6844749637405565 1:244.976 2:2.19534 3:-0.0358798 4:-2.68823 5:6.09623 6:1.41253 7:4.52785 8:-7.76381 9:3.33933 10:0.0472042 11:2.63101 12:-1.12811 13:3.19579 14:66.4328 15:1.74246 16:2.10179 17:-0.581644 18:1.53045 19:-0.551699 20:1.00905 21:-1.32891 22:0.667746 23:-0.314188 24:1.72234 25:-0.46193 26:0.626214
-0.59048446420857459 1:240.164 2:1.85923 3:-1.154 4:-5.32866 5:5.66657 6:0.654949 7:3.48369 8:-7.24844 9:2.02873 10:0.27548 11:4.08969 12:-3.05379 13:0.798739 14:66.4328 15:1.74246 16:2.10179 17:-0.581644 18:1.53045 19:-0.551699 20:1.00905 21:-1.32891 22:0.667746 23:-0.314188 24:1.72234 25:-0.46193 26:0.626214
-1 1:238.185 2:2.97071 3:0.587183 4:-2.73356 5:5.01499 6:-1.3059 7:1.83287 8:-6.73578 9:1.27584 10:-2.77532 11:2.81609 12:-3.65124 13:0.820104 14:66.4328 15:1.74246 16:2.10179 17:-0.581644 18:1.53045 19:-0.551699 20:1.00905 21:-1.32891 22:0.667746 23:-0.314188 24:1.72234 25:-0.46193 26:0.626214
-1 1:240.81 2:4.97454 3:4.76427 4:-2.88269 5:5.3835 6:-0.952906 7:1.05385 8:-7.62346 9:1.12403 10:-3.25343 11:1.48621 12:-3.60877 13:1.63465 14:66.4328 15:1.74246 16:2.10179 17:-0.581644 18:1.53045 19:-0.551699 20:1.00905 21:-1.32891 22:0.667746 23:-0.314188 24:1.72234 25:-0.46193 26:0.626214
-1 1:238.399 2:8.44491 3:2.13923 4:-3.30655 5:5.50491 6:-1.07736 7:4.23645 8:-5.3391 9:-0.603805 10:-3.12234 11:4.28095 12:-2.34909 13:3.99893 14:66.4328 15:1.74246 16:2.10179 17:-0.581644 18:1.53045 19:-0.551699 20:1.00905 21:-1.32891 22:0.667746 23:-0.314188 24:1.72234 25:-0.46193 26:0.626214
-1 1:235.944 2:7.36288 3:1.88807 4:-4.99558 5:5.15318 6:-1.23651 7:2.30708 8:-5.69923 9:-0.69429 10:-2.70989 11:4.00309 12:-3.38299 13:2.30637 14:66.4328 15:1.74246 16:2.10179 17:-0.581644 18:1.53045 19:-0.551699 20:1.00905 21:-1.32891 22:0.667746 23:-0.314188 24:1.72234 25:-0.46193 26:0.626214
-1 1:235.597 2:8.198 3:2.23111 4:-2.76213 5:6.6294 6:-1.57066 7:3.56745 8:-7.42886 9:0.076184 10:-1.92933 11:5.86544 12:-2.02951 13:2.74288 14:66.4328 15:1.74246 16:2.10179 17:-0.581644 18:1.53045 19:-0.551699 20:1.00905 21:-1.32891 22:0.667746 23:-0.314188 24:1.72234 25:-0.46193 26:0.626214
-1 1:229.121 2:8.17006 3:2.90327 4:-4.77952 5:5.1858 6:-1.07884 7:3.98369 8:-4.77058 9:2.17622 10:-0.716001 11:7.11612 12:-1.76288 13:2.27813 14:66.4328 15:1.74246 16:2.10179 17:-0.581644 18:1.53045 19:-0.551699 20:1.00905 21:-1.32891 22:0.667746 23:-0.314188 24:1.72234 25:-0.46193 26:0.626214
-1 1:222.315 2:5.78229 3:6.39067 4:-3.73867 5:3.04709 6:-2.3904 7:0.782572 8:-4.21048 9:3.56691 10:-0.567637 11:3.40438 12:-3.58285 13:2.85066 14:66.4328 15:1.74246 16:2.10179 17:-0.581644 18:1.53045 19:-0.551699 20:1.00905 21:-1.32891 22:0.667746 23:-0.314188 24:1.72234 25:-0.46193 26:0.626214
-1 1:220.143 2:5.96216 3:7.07711 4:-3.71404 5:3.35417 6:-1.29844 7:2.37642 8:-4.79405 9:3.24514 10:-0.889177 11:4.46192 12:-2.24243 13:2.01454 14:220.143 15:5.96216 16:7.07711 17:-3.71404 18:3.35417 19:-1.29844 20:2.37642 21:-4.79405 22:3.24514 23:-0.889177 24:4.46192 25:-2.24243 26:2.01454
-0.15450016406178801 1:214.382 2:4.20093 3:9.89592 4:-0.0896263 5:5.30228 6:-2.38717 7:3.63673 8:-2.88915 9:2.64806 10:-0.819327 11:6.0328 12:-0.930735 13:1.80199 14:214.382 15:4.20093 16:9.89592 17:-0.0896263 18:5.30228 19:-2.38717 20:3.63673 21:-2.88915 22:2.64806 23:-0.819327 24:6.0328 25:-0.930735 26:1.80199
-0.70637609432111137 1:152.493 2:0.519699 3:8.62595 4:-0.45628 5:5.50929 6:-3.78191 7:-1.58716 8:-2.95989 9:1.38203 10:-4.39074 11:4.4094 12:0.490439 13:0.123403 14:152.493 15:0.519699 16:8.62595 17:-0.45628 18:5.50929 19:-3.78191 20:-1.58716 21:-2.95989 22:1.38203 23:-4.39074 24:4.4094 25:0.490439 26:0.123403
-0.6790294139639047 1:207.955 2:2.63976 3:9.73204 4:-0.709169 5:5.40953 6:0.177212 7:5.96204 8:-0.626854 9:2.45101 10:-2.68592 11:3.68593 12:-1.5641 13:2.37963 14:207.955 15:2.63976 16:9.73204 17:-0.709169 18:5.40953 19:0.177212 20:5.96204 21:-0.626854 22:2.45101 23:-2.68592 24:3.68593 25:-1.5641 26:2.37963
-0.24163131968483376 1:245.86 2:-7.78536 3:-5.46174 4:1.93362 5:10.0688 6:2.23372 7:-1.10655 8:-5.71804 9:7.3852 10:-7.86875 11:5.33673 12:-1.1782 13:-1.43268 14:88.104 15:7.42062 16:0.0797571 17:0.742548 18:4.05829 19:-1.8133 20:3.06409 21:-1.39423 22:1.2537 23:-1.56879 24:-0.467284 25:-1.2225 26:2.75985
-0.22348478093585883 1:234.677 2:-5.0719 3:-1.68497 4:2.73276 5:11.0066 6:2.4093 7:-0.787938 8:-5.38129 9:6.76446 10:-7.64574 11:4.57195 12:-0.297893 13:-1.00282 14:88.104 15:7.42062 16:0.0797571 17:0.742548 18:4.05829 19:-1.8133 20:3.06409 21:-1.39423 22:1.2537 23:-1.56879 24:-0.467284 25:-1.2225 26:2.75985
-0.19618557162304617 1:209.722 2:-4.31872 3:7.8829 4:-1.75349 5:1.48822 6:1.65306 7:4.34511 8:-1.30934 9:2.60104 10:-2.04686 11:3.31434 12:-0.683104 13:0.602758 14:88.104 15:7.42062 16:0.0797571 17:0.742548 18:4.05829 19:-1.8133 20:3.06409 21:-1.39423 22:1.2537 23:-1.56879 24:-0.467284 25:-1.2225 26:2.75985
-0.39666218269341941 1:201.28 2:-1.82236 3:9.4328 4:3.27643 5:6.41808 6:0.149539 7:5.08683 8:-2.49225 9:2.94678 10:-1.23666 11:3.20944 12:-0.626501 13:2.23784 14:88.104 15:7.42062 16:0.0797571 17:0.742548 18:4.05829 19:-1.8133 20:3.06409 21:-1.39423 22:1.2537 23:-1.56879 24:-0.467284 25:-1.2225 26:2.75985
-0.27954933093794893 1:225.433 2:-7.297 3:9.15434 4:2.01835 5:5.86887 6:1.02067 7:1.20866 8:-2.66525 9:1.99222 10:-3.42308 11:-0.938185 12:1.7537 13:4.25543 14:88.104 15:7.42062 16:0.0797571 17:0.742548 18:4.05829 19:-1.8133 20:3.06409 21:-1.39423 22:1.2537 23:-1.56879 24:-0.467284 25:-1.2225 26:2.75985
-0.080361615085493096 1:278.924 2:12.9354 3:7.05836 4:0.101293 5:10.1889 6:-0.106981 7:7.5115 8:-4.21921 9:3.95894 10:-4.24816 11:2.79777 12:-2.88616 13:4.88707 14:88.104 15:7.42062 16:0.0797571 17:0.742548 18:4.05829 19:-1.8133 20:3.06409 21:-1.39423 22:1.2537 23:-1.56879 24:-0.467284 25:-1.2225 26:2.75985
-0.37923750647277871 1:312.292 2:23.1212 3:-2.11331 4:4.70555 5:10.1079 6:-4.00547 7:11.6636 8:-5.01015 9:5.26762 10:-4.56943 11:2.61722 12:-6.23954 13:5.38742 14:88.104 15:7.42062 16:0.0797571 17:0.742548 18:4.05829 19:-1.8133 20:3.06409 21:-1.39423 22:1.2537 23:-1.56879 24:-0.467284 25:-1.2225 26:2.75985
-0.13334304542519315 1:340.803 2:25.0807 3:1.50578 4:-2.69263 5:0.546997 6:-10.439 7:13.4615 8:-5.61 9:-0.513163 10:-0.512446 11:4.45553 12:-7.74368 13:10.362 14:88.104 15:7.42062 16:0.0797571 17:0.742548 18:4.05829 19:-1.8133 20:3.06409 21:-1.39423 22:1.2537 23:-1.56879 24:-0.467284 25:-1.2225 26:2.75985
-0.0052028379159929881 1:341.474 2:23.3089 3:-0.455305 4:-1.87495 5:1.83402 6:-8.42642 7:11.0236 8:-6.4599 9:-2.37334 10:0.427999 11:5.18998 12:-5.77431 13:9.51169 14:88.104 15:7.42062 16:0.0797571 17:0.742548 18:4.05829 19:-1.8133 20:3.06409 21:-1.39423 22:1.2537 23:-1.56879 24:-0.467284 25:-1.2225 26:2.75985
-0.26965131597570291 1:339.348 2:24.8944 3:-2.04408 4:-0.855399 5:2.33533 6:-7.95589 7:10.4526 8:-6.72575 9:-2.94317 10:0.5898 11:5.27828 12:-6.22838 13:10.1692 14:88.104 15:7.42062 16:0.0797571 17:0.742548 18:4.05829 19:-1.8133 20:3.06409 21:-1.39423 22:1.2537 23:-1.56879 24:-0.467284 25:-1.2225 26:2.75985
-0.1403592965809996 1:309.644 2:28.2951 3:11.8384 4:3.1655 5:2.95935 6:-18.0281 7:8.25721 8:-4.48735 9:4.37904 10:-2.64761 11:4.44421 12:-8.24483 13:6.31944 14:88.104 15:7.42062 16:0.0797571 17:0.742548 18:4.05829 19:-1.8133 20:3.06409 21:-1.39423 22:1.2537 23:-1.56879 24:-0.467284 25:-1.2225 26:2.75985
-0.24788998220948982 1:314.761 2:25.5675 3:13.0684 4:3.3523 5:1.45243 6:-18.3913 7:8.08366 8:-4.97802 9:3.89012 10:-1.71578 11:4.13178 12:-7.07118 13:5.62299 14:88.104 15:7.42062 16:0.0797571 17:0.742548 18:4.05829 19:-1.8133 20:3.06409 21:-1.39423 22:1.2537 23:-1.56879 24:-0.467284 25:-1.2225 26:2.75985
-0.071837729393389366 1:320.855 2:22.3104 3:13.4121 4:2.41683 5:-0.692328 6:-15.0908 7:6.29159 8:-3.80447 9:4.04263 10:-1.92218 11:4.06843 12:-7.29945 13:5.36327 14:88.104 15:7.42062 16:0.0797571 17:0.742548 18:4.05829 19:-1.8133 20:3.06409 21:-1.39423 22:1.2537 23:-1.56879 24:-0.467284 25:-1.2225 26:2.75985
-0.3680448174593538 1:331.592 2:16.771 3:-0.367968 4:11.2257 5:10.0202 6:-5.85496 7:9.32818 8:-10.0995 9:-0.59404 10:-3.86512 11:-0.141943 12:-3.98 13:6.66025 14:88.104 15:7.42062 16:0.0797571 17:0.742548 18:4.05829 19:-1.8133 20:3.06409 21:-1.39423 22:1.2537 23:-1.56879 24:-0.467284 25:-1.2225 26:2.75985
-0.17719745220534375 1:324.342 2:6.49971 3:6.72653 4:9.8783 5:10.1464 6:-0.900738 7:4.12046 8:-6.23957 9:-0.996513 10:-0.231623 11:-0.674732 12:-4.0176 13:5.24914 14:88.104 15:7.42062 16:0.0797571 17:0.742548 18:4.05829 19:-1.8133 20:3.06409 21:-1.39423 22:1.2537 23:-1.56879 24:-0.467284 25:-1.2225 26:2.75985
-0.33551618951983636 1:311.362 2:5.33106 3:8.68002 4:9.37771 5:10.7626 6:-0.0223319 7:5.08481 8:-5.46521 9:0.520449 10:-0.34064 11:-0.614854 12:-4.43417 13:4.67668 14:88.104 15:7.42062 16:0.0797571 17:0.742548 18:4.05829 19:-1.8133 20:3.06409 21:-1.39423 22:1.2537 23:-1.56879 24:-0.467284 25:-1.2225 26:2.75985
-0.0011303054458667301 1:304.39 2:-11.6828 3:16.8125 4:10.6376 5:6.3149 6:4.57574 7:1.37929 8:-3.55877 9:3.12576 10:-4.66549 11:-0.164031 12:-3.02491 13:-0.440271 14:88.104 15:7.42062 16:0.0797571 17:0.742548 18:4.05829 19:-1.8133 20:3.06409 21:-1.39423 22:1.2537 23:-1.56879 24:-0.467284 25:-1.2225 26:2.75985
-0.099656446390326753 1:300.171 2:-19.6668 3:17.0645 4:1.89496 5:-0.524402 6:3.09147 7:-3.72747 8:-2.30075 9:3.42648 10:-5.97999 11:-3.28114 12:-2.31561 13:1.03504 14:88.104 15:7.42062 16:0.0797571 17:0.742548 18:4.05829 19:-1.8133 20:3.06409 21:-1.39423 22:1.2537 23:-1.56879 24:-0.467284 25:-1.2225 26:2.75985
-0.026468016582941328 1:298.855 2:-21.5709 3:14.8967 4:2.21473 5:-0.548476 6:1.85882 7:-3.67686 8:-2.03729 9:2.50104 10:-6.97947 11:-3.22893 12:-2.26349 13:1.30363 14:88.104 15:7.42062 16:0.0797571 17:0.742548 18:4.05829 19:-1.8133 20:3.06409 21:-1.39423 22:1.2537 23:-1.56879 24:-0.467284 25:-1.2225 26:2.75985
-0.37318464758886766 1:304.867 2:-20.5908 3:8.15404 4:1.74402 5:0.549962 6:0.287189 7:-3.29957 8:-2.57814 9:4.26643 10:-4.81262 11:-0.50706 12:1.0634 13:1.81468 14:88.104 15:7.42062 16:0.0797571 17:0.742548 18:4.05829 19:-1.8133 20:3.06409 21:-1.39423 22:1.2537 23:-1.56879 24:-0.467284 25:-1.2225 26:2.75985
-0.21994498802417592 1:279.412 2:-10.23 3:9.81789 4:7.44614 5:3.58279 6:-0.49305 7:0.245298 8:-4.36929 9:5.79764 10:-4.35462 11:-2.25931 12:1.16148 13:2.12039 14:88.104 15:7.42062 16:0.0797571 17:0.742548 18:4.05829 19:-1.8133 20:3.06409 21:-1.39423 22:1.2537 23:-1.56879 24:-0.467284 25:-1.2225 26:2.75985
-0.29852554548406729 1:244.845 2:-1.70712 3:11.4985 4:3.40503 5:9.42707 6:3.05622 7:-1.40715 8:-0.871353 9:3.73861 10:-2.04823 11:1.44506 12:-0.974915 13:2.58746 14:88.104 15:7.42062 16:0.0797571 17:0.742548 18:4.05829 19:-1.8133 20:3.06409 21:-1.39423 22:1.2537 23:-1.56879 24:-0.467284 25:-1.2225 26:2.75985
-0.0025122727268987221 1:325.12 2:11.7254 3:6.77863 4:7.37202 5:10.6117 6:0.428286 7:4.13212 8:-5.76515 9:-3.81569 10:0.0606089 11:0.963233 12:-6.77955 13:6.78742 14:88.104 15:7.42062 16:0.0797571 17:0.742548 18:4.05829 19:-1.8133 20:3.06409 21:-1.39423 22:1.2537 23:-1.56879 24:-0.467284 25:-1.2225 26:2.75985
-0.025620529655523645 1:312.627 2:5.98942 3:14.6504 4:5.52121 5:8.01517 6:6.00715 7:4.76511 8:-6.28854 9:1.79973 10:-4.98225 11:2.13741 12:-5.89455 13:3.5974 14:88.104 15:7.42062 16:0.0797571 17:0.742548 18:4.05829 19:-1.8133 20:3.06409 21:-1.39423 22:1.2537 23:-1.56879 24:-0.467284 25:-1.2225 26:2.75985
-0.30731156653318947 1:312.064 2:-1.85829 3:21.1831 4:5.30979 5:2.7384 6:8.61985 7:2.35172 8:-3.52079 9:3.24584 10:-4.99175 11:3.28628 12:-4.89989 13:4.03848 14:88.104 15:7.42062 16:0.0797571 17:0.742548 18:4.05829 19:-1.8133 20:3.06409 21:-1.39423 22:1.2537 23:-1.56879 24:-0.467284 25:-1.2225 26:2.75985
-0.26973670613309125 1:309.533 2:-15.4775 3:23.9791 4:10.2467 5:1.24265 6:7.73788 7:3.43024 8:0.580454 9:-0.439883 10:-8.11025 11:0.931446 12:-2.25241 13:2.70505 14:88.104 15:7.42062 16:0.0797571 17:0.742548 18:4.05829 19:-1.8133 20:3.06409 21:-1.39423 22:1.2537 23:-1.56879 24:-0.467284 25:-1.2225 26:2.75985
-0.36521786825193725 1:299.362 2:-21.5508 3:23.3013 4:17.0271 5:-2.29611 6:8.519 7:4.41923 8:-6.63786 9:1.69856 10:-3.81173 11:3.3981 12:-1.78279 13:1.49544 14:88.104 15:7.42062 16:0.0797571 17:0.742548 18:4.05829 19:-1.8133 20:3.06409 21:-1.39423 22:1.2537 23:-1.56879 24:-0.467284 25:-1.2225 26:2.75985
-0.35828736510547832 1:279.243 2:-7.97845 3:19.3758 4:14.9323 5:4.44412 6:1.80831 7:8.76624 8:-2.20783 9:0.472788 10:-4.98677 11:2.28513 12:-5.18033 13:3.32163 14:88.104 15:7.42062 16:0.0797571 17:0.742548 18:4.05829 19:-1.8133 20:3.06409 21:-1.39423 22:1.2537 23:-1.56879 24:-0.467284 25:-1.2225 26:2.75985
-0.22634081413617271 1:259.68 2:1.08606 3:15.1598 4:11.1534 5:8.61134 6:2.10933 7:9.34751 8:-2.07062 9:2.2274 10:-3.96643 11:3.23823 12:-4.00152 13:2.65276 14:88.104 15:7.42062 16:0.0797571 17:0.742548 18:4.05829 19:-1.8133 20:3.06409 21:-1.39423 22:1.2537 23:-1.56879 24:-0.467284 25:-1.2225 26:2.75985
-0.062465171299583636 1:280.455 2:20.3041 3:12.5493 4:1.64416 5:8.6517 6:1.97436 7:5.10855 8:-7.03855 9:7.9829 10:-4.45071 11:-1.37669 12:-6.35761 13:8.02252 14:88.104 15:7.42062 16:0.0797571 17:0.742548 18:4.05829 19:-1.8133 20:3.06409 21:-1.39423 22:1.2537 23:-1.56879 24:-0.467284 25:-1.2225 26:2.75985
-0.021579593816113771 1:288.207 2:21.5008 3:10.6167 4:-0.466344 5:9.87851 6:1.31612 7:6.06301 8:-8.096 9:7.63662 10:-2.28357 11:-3.41532 12:-5.93964 13:7.43177 14:88.104 15:7.42062 16:0.0797571 17:0.742548 18:4.05829 19:-1.8133 20:3.06409 21:-1.39423 22:1.2537 23:-1.56879 24:-0.467284 25:-1.2225 26:2.75985
-0.301256967268906 1:283.083 2:23.215 3:8.99002 4:2.87674 5:10.8639 6:-1.27846 7:11.5734 8:-10.608 9:0.457996 10:-0.614826 11:4.73338 12:-7.30014 13:4.4251 14:88.104 15:7.42062 16:0.0797571 17:0.742548 18:4.05829 19:-1.8133 20:3.06409 21:-1.39423 22:1.2537 23:-1.56879 24:-0.467284 25:-1.2225 26:2.75985
-0.066360780720775947 1:242.911 2:6.64765 3:16.7272 4:-3.85798 5:11.1242 6:2.05098 7:5.54095 8:0.251206 9:-0.183053 10:-2.3054 11:0.447203 12:0.933075 13:4.3956 14:88.104 15:7.42062 16:0.0797571 17:0.742548 18:4.05829 19:-1.8133 20:3.06409 21:-1.39423 22:1.2537 23:-1.56879 24:-0.467284 25:-1.2225 26:2.75985
-0.023755837670892267 1:233.682 2:2.62563 3:15.0064 4:-2.84619 5:10.5202 6:2.51587 7:2.60326 8:-2.45742 9:3.1541 10:-3.45578 11:-4.71902 12:1.8406 13:1.75619 14:88.104 15:7.42062 16:0.0797571 17:0.742548 18:4.05829 19:-1.8133 20:3.06409 21:-1.39423 22:1.2537 23:-1.56879 24:-0.467284 25:-1.2225 26:2.75985
-0.011915830812957402 1:221.894 2:-1.70407 3:11.2237 4:0.782055 5:10.1842 6:1.6935 7:2.90143 8:-1.39025 9:0.664227 10:-3.76481 11:-2.37283 12:-1.45565 13:0.792456 14:88.104 15:7.42062 16:0.0797571 17:0.742548 18:4.05829 19:-1.8133 20:3.06409 21:-1.39423 22:1.2537 23:-1.56879 24:-0.467284 25:-1.2225 26:2.75985
-0.13361191016164498 1:252.188 2:-6.11025 3:6.7178 4:-0.11756 5:2.45758 6:-0.432926 7:2.6239 8:-2.11318 9:1.33224 10:-2.64952 11:1.79542 12:-1.47144 13:1.81239 14:88.104 15:7.42062 16:0.0797571 17:0.742548 18:4.05829 19:-1.8133 20:3.06409 21:-1.39423 22:1.2537 23:-1.56879 24:-0.467284 25:-1.2225 26:2.75985
-0.37442533766202246 1:284.045 2:35.5073 3:18.7997 4:-5.72194 5:8.61275 6:-6.76732 7:6.58098 8:-7.02603 9:5.63116 10:-4.90903 11:4.66338 12:-4.26752 13:5.71648 14:88.104 15:7.42062 16:0.0797571 17:0.742548 18:4.05829 19:-1.8133 20:3.06409 21:-1.39423 22:1.2537 23:-1.56879 24:-0.467284 25:-1.2225 26:2.75985
-0.16397404695902082 1:298.524 2:32.0806 3:23.532 4:-3.20657 5:10.4043 6:-5.27487 7:6.25781 8:-6.39227 9:5.63936 10:-6.03541 11:4.95836 12:-4.15655 13:6.21092 14:88.104 15:7.42062 16:0.0797571 17:0.742548 18:4.05829 19:-1.8133 20:3.06409 21:-1.39423 22:1.2537 23:-1.56879 24:-0.467284 25:-1.2225 26:2.75985
-0.041625246958168508 1:282.626 2:30.5944 3:24.2655 4:-2.14226 5:8.07243 6:-6.95367 7:6.25962 8:-5.61572 9:5.58275 10:-4.25791 11:6.07471 12:-3.69532 13:7.55018 14:88.104 15:7.42062 16:0.0797571 17:0.742548 18:4.05829 19:-1.8133 20:3.06409 21:-1.39423 22:1.2537 23:-1.56879 24:-0.467284 25:-1.2225 26:2.75985
-0.24351694284623965 1:330.122 2:28.1786 3:1.67667 4:0.121646 5:-0.60466 6:-14.3731 7:9.22279 8:-4.82918 9:3.82631 10:-5.07231 11:2.47619 12:-7.29147 13:10.6288 14:88.104 15:7.42062 16:0.0797571 17:0.742548 18:4.05829 19:-1.8133 20:3.06409 21:-1.39423 22:1.2537 23:-1.56879 24:-0.467284 25:-1.2225 26:2.75985
-0.045830827688189857 1:328.017 2:25.5915 3:3.38274 4:0.982105 5:-1.09761 6:-16.3803 7:12.7025 8:-6.47479 9:4.77123 10:-4.56602 11:2.92782 12:-5.12111 13:8.27332 14:88.104 15:7.42062 16:0.0797571 17:0.742548 18:4.05829 19:-1.8133 20:3.06409 21:-1.39423 22:1.2537 23:-1.56879 24:-0.467284 25:-1.2225 26:2.75985
-0.0063914919398034477 1:291.859 2:20.6313 3:14.37 4:1.44091 5:-2.27011e-05 6:-8.88092 7:8.64457 8:-5.32489 9:3.09782 10:-5.36789 11:2.8454 12:-4.00628 13:8.9151 14:88.104 15:7.42062 16:0.0797571 17:0.742548 18:4.05829 19:-1.8133 20:3.06409 21:-1.39423 22:1.2537 23:-1.56879 24:-0.467284 25:-1.2225 26:2.75985
-0.54833208896572194 1:264.164 2:12.6476 3:7.41218 4:-3.55639 5:-3.24733 6:-5.38677 7:8.05578 8:-1.25863 9:5.08601 10:-4.49727 11:3.74975 12:-1.88058 13:5.66504 14:88.104 15:7.42062 16:0.0797571 17:0.742548 18:4.05829 19:-1.8133 20:3.06409 21:-1.39423 22:1.2537 23:-1.56879 24:-0.467284 25:-1.2225 26:2.75985
-0.056356130935565227 1:293.202 2:-19.4792 3:16.7231 4:12.9749 5:-1.27586 6:7.34542 7:9.03098 8:-1.88704 9:6.58809 10:-2.98442 11:0.726996 12:0.0995781 13:2.87854 14:88.104 15:7.42062 16:0.0797571 17:0.742548 18:4.05829 19:-1.8133 20:3.06409 21:-1.39423 22:1.2537 23:-1.56879 24:-0.467284 25:-1.2225 26:2.75985
-0.31174046106257258 1:289.46 2:-31.509 3:6.84823 4:7.18394 5:-7.35163 6:-1.22817 7:7.15896 8:-7.17799 9:3.15596 10:0.641427 11:-1.70781 12:-1.23694 13:4.44889 14:88.104 15:7.42062 16:0.0797571 17:0.742548 18:4.05829 19:-1.8133 20:3.06409 21:-1.39423 22:1.2537 23:-1.56879 24:-0.467284 25:-1.2225 26:2.75985
-0.24240919723144103 1:287.595 2:-31.2575 3:9.07951 4:6.94326 5:-7.49818 6:-0.921222 7:7.72243 8:-7.53439 9:1.54818 10:0.159001 11:-1.39431 12:-0.56738 13:2.46654 14:88.104 15:7.42062 16:0.0797571 17:0.742548 18:4.05829 19:-1.8133 20:3.06409 21:-1.39423 22:1.2537 23:-1.56879 24:-0.467284 25:-1.2225 26:2.75985
-0.19740444545171612 1:281.477 2:-22.7264 3:7.82305 4:4.51959 5:-5.02865 6:-0.85794 7:6.93379 8:-3.56101 9:0.146755 10:-0.570517 11:3.39004 12:-0.938061 13:3.3163 14:88.104 15:7.42062 16:0.0797571 17:0.742548 18:4.05829 19:-1.8133 20:3.06409 21:-1.39423 22:1.2537 23:-1.56879 24:-0.467284 25:-1.2225 26:2.75985
-0.03527714323970102 1:273.127 2:-12.1895 3:4.88759 4:4.85821 5:-1.35385 6:1.44078 7:7.26226 8:-6.458 9:2.85079 10:-1.2478 11:-0.893845 12:-1.38738 13:3.12452 14:88.104 15:7.42062 16:0.0797571 17:0.742548 18:4.05829 19:-1.8133 20:3.06409 21:-1.39423 22:1.2537 23:-1.56879 24:-0.467284 25:-1.2225 26:2.75985
-0.10182775264673349 1:288.654 2:28.7651 3:5.38922 4:0.0488474 5:9.92873 6:-10.976 7:8.08651 8:-2.88226 9:2.46564 10:-8.29107 11:4.05889 12:-6.08562 13:7.02773 14:88.104 15:7.42062 16:0.0797571 17:0.742548 18:4.05829 19:-1.8133 20:3.06409 21:-1.39423 22:1.2537 23:-1.56879 24:-0.467284 25:-1.2225 26:2.75985
-0.29768684439543214 1:275.878 2:29.7 3:7.49919 4:1.17986 5:9.90441 6:-10.1795 7:7.61494 8:-0.578063 9:2.9685 10:-10.3151 11:4.85725 12:-5.79919 13:7.1852 14:88.104 15:7.42062 16:0.0797571 17:0.742548 18:4.05829 19:-1.8133 20:3.06409 21:-1.39423 22:1.2537 23:-1.56879 24:-0.467284 25:-1.2225 26:2.75985
-0.36277309719316836 1:261.171 2:25.7463 3:13.9758 4:0.978601 5:11.9925 6:-8.64442 7:6.16923 8:-1.22664 9:5.53603 10:-9.58791 11:2.76664 12:-5.27379 13:6.83376 14:88.104 15:7.42062 16:0.0797571 17:0.742548 18:4.05829 19:-1.8133 20:3.06409 21:-1.39423 22:1.2537 23:-1.56879 24:-0.467284 25:-1.2225 26:2.75985
-0.2080123217273383 1:247.1 2:22.288 3:18.8456 4:2.46459 5:12.1941 6:-6.27246 7:6.32463 8:-2.0714 9:5.02884 10:-8.16334 11:1.14973 12:-4.53516 13:7.56453 14:88.104 15:7.42062 16:0.0797571 17:0.742548 18:4.05829 19:-1.8133 20:3.06409 21:-1.39423 22:1.2537 23:-1.56879 24:-0.467284 25:-1.2225 26:2.75985
-0.28392244937976679 1:238.405 2:16.446 3:20.9021 4:6.74977 5:8.47188 6:-3.28598 7:9.03178 8:-3.29906 9:4.50787 10:-4.99502 11:2.1518 12:-7.60366 13:3.93105 14:88.104 15:7.42062 16:0.0797571 17:0.742548 18:4.05829 19:-1.8133 20:3.06409 21:-1.39423 22:1.2537 23:-1.56879 24:-0.467284 25:-1.2225 26:2.75985
-0.077885324825310007 1:212.449 2:2.57776 3:8.04654 4:-4.41288 5:-0.559416 6:-4.67598 7:4.20935 8:-1.84223 9:3.52773 10:0.762612 11:1.49089 12:-3.38456 13:0.908481 14:88.104 15:7.42062 16:0.0797571 17:0.742548 18:4.05829 19:-1.8133 20:3.06409 21:-1.39423 22:1.2537 23:-1.56879 24:-0.467284 25:-1.2225 26:2.75985
-0.34010537712308597 1:224 2:-3.08002 3:12.4747 4:-1.3256 5:-0.103892 6:-1.27912 7:2.1189 8:-1.52082 9:3.77913 10:-2.02114 11:0.3179 12:-2.7929 13:1.84787 14:88.104 15:7.42062 16:0.0797571 17:0.742548 18:4.05829 19:-1.8133 20:3.06409 21:-1.39423 22:1.2537 23:-1.56879 24:-0.467284 25:-1.2225 26:2.75985
-0.4099315472447454 1:278.403 2:-13.7508 3:-1.14563 4:-7.26841 5:1.92701 6:-1.28301 7:8.26738 8:0.9103 9:2.8831 10:3.251 11:-1.89431 12:-4.22379 13:4.07765 14:88.104 15:7.42062 16:0.0797571 17:0.742548 18:4.05829 19:-1.8133 20:3.06409 21:-1.39423 22:1.2537 23:-1.56879 24:-0.467284 25:-1.2225 26:2.75985
-0.068902332027898666 1:264.096 2:-9.65089 3:1.26977 4:-5.7225 5:3.88962 6:-1.93217 7:8.14366 8:0.950515 9:2.6435 10:2.67286 11:-4.19019 12:-5.46027 13:4.82433 14:88.104 15:7.42062 16:0.0797571 17:0.742548 18:4.05829 19:-1.8133 20:3.06409 21:-1.39423 22:1.2537 23:-1.56879 24:-0.467284 25:-1.2225 26:2.75985
-0.036791406673669341 1:239.965 2:-7.34798 3:1.72843 4:-2.65245 5:0.381289 6:-2.22481 7:6.68614 8:-1.25216 9:4.32144 10:0.381489 11:0.552616 12:-4.90457 13:4.25345 14:88.104 15:7.42062 16:0.0797571 17:0.742548 18:4.05829 19:-1.8133 20:3.06409 21:-1.39423 22:1.2537 23:-1.56879 24:-0.467284 25:-1.2225 26:2.75985
-0.28617761385654639 1:261.394 2:-9.37889 3:-3.98537 4:-5.2797 5:-1.14037 6:-1.54312 7:7.04807 8:0.16737 9:7.63066 10:0.0389194 11:-0.636255 12:-7.12945 13:4.01412 14:88.104 15:7.42062 16:0.0797571 17:0.742548 18:4.05829 19:-1.8133 20:3.06409 21:-1.39423 22:1.2537 23:-1.56879 24:-0.467284 25:-1.2225 26:2.75985
-0.24464195202818192 1:236.389 2:2.69056 3:2.34374 4:-1.83299 5:0.86254 6:-5.06988 7:4.40323 8:-0.69701 9:7.89762 10:-0.0559639 11:-2.108 12:-7.56397 13:5.58395 14:88.104 15:7.42062 16:0.0797571 17:0.742548 18:4.05829 19:-1.8133 20:3.06409 21:-1.39423 22:1.2537 23:-1.56879 24:-0.467284 25:-1.2225 26:2.75985
-0.068508142793148763 1:247.959 2:13.25 3:12.9163 4:-1.44401 5:3.59419 6:-4.79867 7:3.97925 8:-1.89879 9:6.17011 10:-1.63143 11:4.7736 12:-2.94949 13:4.50359 14:88.104 15:7.42062 16:0.0797571 17:0.742548 18:4.05829 19:-1.8133 20:3.06409 21:-1.39423 22:1.2537 23:-1.56879 24:-0.467284 25:-1.2225 26:2.75985
-0.014733410265802202 1:272.524 2:23.8302 3:14.3164 4:0.557684 5:5.02693 6:-11.9652 7:5.36606 8:-6.43432 9:3.96584 10:-2.24883 11:3.78771 12:-6.4683 13:5.3889 14:88.104 15:7.42062 16:0.0797571 17:0.742548 18:4.05829 19:-1.8133 20:3.06409 21:-1.39423 22:1.2537 23:-1.56879 24:-0.467284 25:-1.2225 26:2.75985
-0.11749506669177674 1:298.178 2:27.1252 3:16.4702 4:1.91168 5:8.1791 6:-15.8579 7:7.24884 8:-7.44812 9:6.07833 10:-1.15831 11:2.59238 12:-6.35008 13:4.10301 14:88.104 15:7.42062 16:0.0797571 17:0.742548 18:4.05829 19:-1.8133 20:3.06409 21:-1.39423 22:1.2537 23:-1.56879 24:-0.467284 25:-1.2225 26:2.75985
