svm_type c_svc
kernel_type rbf
gamma 0.003
nr_class 2
total_sv 382
rho 0.239537644018569
label 1 2
nr_sv 172 210 
SV
1 1:105.771 2:-7.97184 3:-1.11173 4:-2.41621 5:6.21394 6:5.74735 7:0.76242 8:-5.23589 9:4.75291 10:-5.77119 11:2.14169 12:-0.714209 13:2.73289 14:105.771 15:-7.97184 16:-1.11173 17:-2.41621 18:6.21394 19:5.74735 20:0.76242 21:-5.23589 22:4.75291 23:-5.77119 24:2.14169 25:-0.714209 26:2.73289
1 1:223.475 2:2.79703 3:2.8123 4:-6.42975 5:3.82838 6:1.49351 7:1.68008 8:-5.11848 9:5.05915 10:-1.57023 11:3.78061 12:-1.93265 13:4.32862 14:223.475 15:2.79703 16:2.8123 17:-6.42975 18:3.82838 19:1.49351 20:1.68008 21:-5.11848 22:5.05915 23:-1.57023 24:3.78061 25:-1.93265 26:4.32862
0.35243797891374778 1:250.6 2:-1.3314 3:0.25577 4:-9.71554 5:5.07503 6:2.5574 7:0.830617 8:-6.63626 9:3.99087 10:-0.224203 11:-0.796339 12:-3.65982 13:4.26813 14:76.617 15:4.86722 16:5.45625 17:0.253332 18:2.80466 19:-0.454361 20:1.79005 21:-1.12343 22:2.09102 23:-0.76039 24:1.71799 25:-1.34153 26:1.30915
1 1:291.927 2:-3.22073 3:5.96908 4:-11.3512 5:1.13926 6:2.26882 7:-0.801397 8:-2.42871 9:5.66163 10:0.569368 11:1.34408 12:-1.86508 13:-0.0991202 14:76.617 15:4.86722 16:5.45625 17:0.253332 18:2.80466 19:-0.454361 20:1.79005 21:-1.12343 22:2.09102 23:-0.76039 24:1.71799 25:-1.34153 26:1.30915
0.16671026462821031 1:292.843 2:-1.13404 3:5.71774 4:-10.7579 5:1.38025 6:2.98601 7:1.40105 8:-2.21976 9:6.17557 10:0.774248 11:1.5997 12:-1.11258 13:0.368588 14:76.617 15:4.86722 16:5.45625 17:0.253332 18:2.80466 19:-0.454361 20:1.79005 21:-1.12343 22:2.09102 23:-0.76039 24:1.71799 25:-1.34153 26:1.30915
0.24345653347363555 1:271.581 2:7.9104 3:19.8023 4:-2.89285 5:8.79637 6:2.59244 7:0.551573 8:-3.99233 9:3.99701 10:-1.20335 11:4.22162 12:-0.781287 13:0.661695 14:76.617 15:4.86722 16:5.45625 17:0.253332 18:2.80466 19:-0.454361 20:1.79005 21:-1.12343 22:2.09102 23:-0.76039 24:1.71799 25:-1.34153 26:1.30915
0.86535281412119425 1:256.341 2:-5.54524 3:7.07804 4:-6.85776 5:2.98033 6:0.291902 7:1.2627 8:2.67866 9:5.83525 10:1.09553 11:4.37163 12:-0.438108 13:0.989385 14:76.617 15:4.86722 16:5.45625 17:0.253332 18:2.80466 19:-0.454361 20:1.79005 21:-1.12343 22:2.09102 23:-0.76039 24:1.71799 25:-1.34153 26:1.30915
0.15396648589859446 1:219.022 2:-1.13632 3:6.48294 4:-5.75635 5:4.04076 6:4.01964 7:3.27498 8:-0.0837631 9:3.89309 10:-1.33783 11:3.06707 12:-1.55139 13:2.15933 14:76.617 15:4.86722 16:5.45625 17:0.253332 18:2.80466 19:-0.454361 20:1.79005 21:-1.12343 22:2.09102 23:-0.76039 24:1.71799 25:-1.34153 26:1.30915
0.40185646399699243 1:278.153 2:3.47326 3:3.31809 4:-2.78127 5:2.30714 6:-6.61893 7:2.90288 8:-6.58359 9:-4.03901 10:-2.57061 11:6.41622 12:0.763611 13:3.38362 14:76.617 15:4.86722 16:5.45625 17:0.253332 18:2.80466 19:-0.454361 20:1.79005 21:-1.12343 22:2.09102 23:-0.76039 24:1.71799 25:-1.34153 26:1.30915
0.43625221204413134 1:269.457 2:3.63345 3:5.54832 4:-1.2341 5:2.29232 6:-8.91091 7:3.63671 8:-3.24462 9:-3.69897 10:-3.08388 11:6.31084 12:0.739328 13:1.23548 14:76.617 15:4.86722 16:5.45625 17:0.253332 18:2.80466 19:-0.454361 20:1.79005 21:-1.12343 22:2.09102 23:-0.76039 24:1.71799 25:-1.34153 26:1.30915
1 1:210.955 2:-1.65831 3:11.3178 4:-4.18861 5:4.31975 6:-2.80047 7:2.75353 8:-1.31186 9:1.68325 10:-0.97726 11:2.29323 12:0.0642577 13:2.64254 14:76.617 15:4.86722 16:5.45625 17:0.253332 18:2.80466 19:-0.454361 20:1.79005 21:-1.12343 22:2.09102 23:-0.76039 24:1.71799 25:-1.34153 26:1.30915
0.37826989984861675 1:211.273 2:-0.567151 3:9.51196 4:-3.9497 5:3.06845 6:-2.97416 7:2.68903 8:-1.01219 9:3.15868 10:-1.34548 11:1.77658 12:0.0289729 13:3.21046 14:76.617 15:4.86722 16:5.45625 17:0.253332 18:2.80466 19:-0.454361 20:1.79005 21:-1.12343 22:2.09102 23:-0.76039 24:1.71799 25:-1.34153 26:1.30915
1 1:208.377 2:1.09073 3:10.6543 4:-1.5074 5:4.82884 6:-1.12719 7:0.31864 8:-2.06213 9:1.46575 10:-2.88383 11:3.57579 12:-2.77077 13:2.64988 14:76.617 15:4.86722 16:5.45625 17:0.253332 18:2.80466 19:-0.454361 20:1.79005 21:-1.12343 22:2.09102 23:-0.76039 24:1.71799 25:-1.34153 26:1.30915
0.17215458034017767 1:208.233 2:1.07459 3:7.60566 4:-1.43581 5:3.91025 6:-0.684247 7:2.18905 8:-4.64077 9:-0.192046 10:-6.81789 11:0.897572 12:-2.0721 13:2.98877 14:76.617 15:4.86722 16:5.45625 17:0.253332 18:2.80466 19:-0.454361 20:1.79005 21:-1.12343 22:2.09102 23:-0.76039 24:1.71799 25:-1.34153 26:1.30915
0.22652647277230456 1:212.705 2:1.32753 3:3.14894 4:-6.56762 5:3.9157 6:-1.31178 7:0.870899 8:-2.55164 9:3.122 10:-3.42391 11:4.22757 12:-0.600739 13:0.729683 14:76.617 15:4.86722 16:5.45625 17:0.253332 18:2.80466 19:-0.454361 20:1.79005 21:-1.12343 22:2.09102 23:-0.76039 24:1.71799 25:-1.34153 26:1.30915
0.01321353648329613 1:271.241 2:4.66424 3:3.69865 4:-10.7271 5:4.36702 6:-0.668956 7:3.52409 8:-1.04046 9:1.74692 10:-3.65795 11:1.11225 12:-1.35718 13:2.10913 14:76.617 15:4.86722 16:5.45625 17:0.253332 18:2.80466 19:-0.454361 20:1.79005 21:-1.12343 22:2.09102 23:-0.76039 24:1.71799 25:-1.34153 26:1.30915
0.96637492969820937 1:234.051 2:5.4741 3:0.144878 4:-8.90434 5:1.88541 6:-1.48582 7:1.40157 8:-6.30919 9:3.1903 10:-3.36049 11:5.35107 12:0.309217 13:3.76192 14:76.617 15:4.86722 16:5.45625 17:0.253332 18:2.80466 19:-0.454361 20:1.79005 21:-1.12343 22:2.09102 23:-0.76039 24:1.71799 25:-1.34153 26:1.30915
0.4154719775532103 1:260.098 2:12.4244 3:-0.236453 4:-5.67941 5:11.0625 6:1.0329 7:3.54568 8:-4.83392 9:3.48304 10:-4.13414 11:3.02842 12:-3.31671 13:6.08347 14:76.617 15:4.86722 16:5.45625 17:0.253332 18:2.80466 19:-0.454361 20:1.79005 21:-1.12343 22:2.09102 23:-0.76039 24:1.71799 25:-1.34153 26:1.30915
0.14890082637629523 1:256.083 2:10.2955 3:-1.00263 4:-7.38686 5:6.84076 6:-4.00424 7:0.400756 8:-3.27988 9:3.76118 10:-2.05636 11:3.15074 12:-4.18189 13:5.80366 14:76.617 15:4.86722 16:5.45625 17:0.253332 18:2.80466 19:-0.454361 20:1.79005 21:-1.12343 22:2.09102 23:-0.76039 24:1.71799 25:-1.34153 26:1.30915
0.073284214001144307 1:316.702 2:14.1949 3:16.5443 4:-5.03159 5:10.0237 6:-4.1162 7:-3.30146 8:-4.81205 9:-3.52592 10:-1.37352 11:8.06011 12:-2.70025 13:6.05275 14:76.617 15:4.86722 16:5.45625 17:0.253332 18:2.80466 19:-0.454361 20:1.79005 21:-1.12343 22:2.09102 23:-0.76039 24:1.71799 25:-1.34153 26:1.30915
0.1782748599153666 1:324.667 2:7.18685 3:14.2822 4:2.33582 5:14.644 6:-9.94217 7:-1.6688 8:-6.71294 9:-0.0552469 10:-0.188881 11:2.35509 12:1.66204 13:2.08114 14:76.617 15:4.86722 16:5.45625 17:0.253332 18:2.80466 19:-0.454361 20:1.79005 21:-1.12343 22:2.09102 23:-0.76039 24:1.71799 25:-1.34153 26:1.30915
0.50153560602664293 1:321.1 2:8.43591 3:14.2061 4:3.50184 5:18.0498 6:-5.1306 7:-1.87526 8:-7.20973 9:-0.507376 10:-2.80803 11:0.977203 12:0.515293 13:1.61026 14:76.617 15:4.86722 16:5.45625 17:0.253332 18:2.80466 19:-0.454361 20:1.79005 21:-1.12343 22:2.09102 23:-0.76039 24:1.71799 25:-1.34153 26:1.30915
0.44850142508943802 1:308.006 2:14.266 3:13.1222 4:2.58423 5:15.0405 6:-1.7577 7:2.05955 8:-9.56576 9:2.80291 10:-4.72042 11:1.64332 12:-3.09298 13:2.98338 14:76.617 15:4.86722 16:5.45625 17:0.253332 18:2.80466 19:-0.454361 20:1.79005 21:-1.12343 22:2.09102 23:-0.76039 24:1.71799 25:-1.34153 26:1.30915
0.13816787663494207 1:329.72 2:17.8064 3:27.631 4:-2.11031 5:0.929393 6:-5.75338 7:4.0566 8:-3.99401 9:4.46687 10:-6.76428 11:1.35527 12:-4.80522 13:0.463867 14:76.617 15:4.86722 16:5.45625 17:0.253332 18:2.80466 19:-0.454361 20:1.79005 21:-1.12343 22:2.09102 23:-0.76039 24:1.71799 25:-1.34153 26:1.30915
0.42848519260243173 1:343.915 2:18.8578 3:26.9163 4:-6.33934 5:0.459774 6:-5.91199 7:4.02416 8:-4.22794 9:3.43435 10:-5.216 11:2.32705 12:-5.25236 13:0.570733 14:76.617 15:4.86722 16:5.45625 17:0.253332 18:2.80466 19:-0.454361 20:1.79005 21:-1.12343 22:2.09102 23:-0.76039 24:1.71799 25:-1.34153 26:1.30915
0.13269932927671166 1:357.294 2:22.5617 3:19.2845 4:-9.68625 5:5.93225 6:-7.29358 7:-0.338028 8:-0.851809 9:3.25586 10:-5.42545 11:-0.394089 12:-4.49539 13:4.54117 14:76.617 15:4.86722 16:5.45625 17:0.253332 18:2.80466 19:-0.454361 20:1.79005 21:-1.12343 22:2.09102 23:-0.76039 24:1.71799 25:-1.34153 26:1.30915
0.12288414446785884 1:366.448 2:18.0126 3:18.4332 4:-7.95526 5:2.9824 6:-4.80485 7:0.911509 8:-3.53789 9:4.78233 10:-6.32986 11:-1.95887 12:-2.73777 13:3.80198 14:76.617 15:4.86722 16:5.45625 17:0.253332 18:2.80466 19:-0.454361 20:1.79005 21:-1.12343 22:2.09102 23:-0.76039 24:1.71799 25:-1.34153 26:1.30915
0.46841826826185923 1:368.234 2:18.6584 3:17.6833 4:-10.3755 5:4.28928 6:-3.78599 7:0.0537664 8:-0.759976 9:2.46125 10:-6.98809 11:-0.302511 12:-2.66746 13:3.53537 14:76.617 15:4.86722 16:5.45625 17:0.253332 18:2.80466 19:-0.454361 20:1.79005 21:-1.12343 22:2.09102 23:-0.76039 24:1.71799 25:-1.34153 26:1.30915
0.41602725164589438 1:370.072 2:17.8725 3:12.3662 4:-7.84257 5:5.62319 6:-3.32424 7:3.06194 8:-3.33415 9:-0.782068 10:-6.30571 11:0.719767 12:-4.03844 13:7.27821 14:76.617 15:4.86722 16:5.45625 17:0.253332 18:2.80466 19:-0.454361 20:1.79005 21:-1.12343 22:2.09102 23:-0.76039 24:1.71799 25:-1.34153 26:1.30915
0.23554748160287928 1:360.135 2:17.6805 3:9.82859 4:-1.27706 5:11.9836 6:-0.190286 7:1.92573 8:-5.29561 9:-3.50213 10:-4.28217 11:2.90425 12:-4.88015 13:4.59306 14:76.617 15:4.86722 16:5.45625 17:0.253332 18:2.80466 19:-0.454361 20:1.79005 21:-1.12343 22:2.09102 23:-0.76039 24:1.71799 25:-1.34153 26:1.30915
0.10210368695213819 1:360.951 2:10.3244 3:8.24264 4:7.04951 5:9.07562 6:2.89086 7:3.40766 8:-7.76795 9:1.07897 10:-5.03487 11:4.28577 12:-3.85927 13:1.22032 14:76.617 15:4.86722 16:5.45625 17:0.253332 18:2.80466 19:-0.454361 20:1.79005 21:-1.12343 22:2.09102 23:-0.76039 24:1.71799 25:-1.34153 26:1.30915
0.87103857662719864 1:364.328 2:4.98559 3:2.56382 4:8.04554 5:13.6758 6:1.46374 7:2.87384 8:-5.20856 9:0.612799 10:-3.46153 11:4.24043 12:-3.97869 13:1.80429 14:76.617 15:4.86722 16:5.45625 17:0.253332 18:2.80466 19:-0.454361 20:1.79005 21:-1.12343 22:2.09102 23:-0.76039 24:1.71799 25:-1.34153 26:1.30915
0.27784173796891048 1:346.287 2:3.25551 3:7.71484 4:7.12512 5:12.6402 6:3.91413 7:2.37068 8:-3.31268 9:1.0749 10:-2.81929 11:4.17965 12:-4.09862 13:1.15077 14:76.617 15:4.86722 16:5.45625 17:0.253332 18:2.80466 19:-0.454361 20:1.79005 21:-1.12343 22:2.09102 23:-0.76039 24:1.71799 25:-1.34153 26:1.30915
0.2799101736164733 1:343.305 2:-12.956 3:14.6138 4:8.03233 5:4.25166 6:2.35568 7:1.95349 8:-3.92801 9:0.558029 10:-3.88508 11:2.69792 12:-1.97941 13:0.143735 14:76.617 15:4.86722 16:5.45625 17:0.253332 18:2.80466 19:-0.454361 20:1.79005 21:-1.12343 22:2.09102 23:-0.76039 24:1.71799 25:-1.34153 26:1.30915
0.14018040729434822 1:347.578 2:-24.8109 3:13.5315 4:6.25141 5:1.33761 6:0.998951 7:-2.13855 8:-2.03364 9:3.74293 10:0.0881995 11:4.00598 12:-0.690195 13:-0.216613 14:76.617 15:4.86722 16:5.45625 17:0.253332 18:2.80466 19:-0.454361 20:1.79005 21:-1.12343 22:2.09102 23:-0.76039 24:1.71799 25:-1.34153 26:1.30915
0.47063167402700734 1:349.152 2:-25.7834 3:10.8922 4:2.96234 5:0.328669 6:1.96209 7:-1.93219 8:-2.62191 9:1.65681 10:-0.918111 11:0.960298 12:-1.79375 13:0.00973659 14:76.617 15:4.86722 16:5.45625 17:0.253332 18:2.80466 19:-0.454361 20:1.79005 21:-1.12343 22:2.09102 23:-0.76039 24:1.71799 25:-1.34153 26:1.30915
0.57449979230711834 1:342.34 2:-31.9835 3:3.50875 4:2.47084 5:0.588231 6:-0.4673 7:-2.65474 8:0.698348 9:5.1017 10:0.136881 11:2.62152 12:-0.437098 13:0.494515 14:76.617 15:4.86722 16:5.45625 17:0.253332 18:2.80466 19:-0.454361 20:1.79005 21:-1.12343 22:2.09102 23:-0.76039 24:1.71799 25:-1.34153 26:1.30915
0.094547206198933406 1:329.014 2:-29.4255 3:4.55041 4:6.94151 5:4.82289 6:1.40982 7:-2.52963 8:-2.00329 9:2.46832 10:-0.101796 11:4.47388 12:1.21652 13:1.16462 14:76.617 15:4.86722 16:5.45625 17:0.253332 18:2.80466 19:-0.454361 20:1.79005 21:-1.12343 22:2.09102 23:-0.76039 24:1.71799 25:-1.34153 26:1.30915
0.17572390953848593 1:332.143 2:8.20742 3:4.95981 4:11.5513 5:15.2172 6:2.37109 7:4.37486 8:-6.08917 9:6.31616 10:-2.0893 11:5.74225 12:-5.36817 13:5.89949 14:76.617 15:4.86722 16:5.45625 17:0.253332 18:2.80466 19:-0.454361 20:1.79005 21:-1.12343 22:2.09102 23:-0.76039 24:1.71799 25:-1.34153 26:1.30915
0.78455486938859365 1:328.47 2:9.54777 3:5.01655 4:10.6942 5:12.7964 6:3.52446 7:5.15932 8:-6.51567 9:5.81101 10:-2.29505 11:6.38779 12:-5.88155 13:6.29477 14:76.617 15:4.86722 16:5.45625 17:0.253332 18:2.80466 19:-0.454361 20:1.79005 21:-1.12343 22:2.09102 23:-0.76039 24:1.71799 25:-1.34153 26:1.30915
0.64805237614519429 1:323.203 2:-0.213299 3:11.258 4:10.3737 5:15.5756 6:8.5565 7:2.1988 8:-4.14099 9:5.14964 10:-3.84465 11:4.92016 12:-3.63105 13:3.29164 14:76.617 15:4.86722 16:5.45625 17:0.253332 18:2.80466 19:-0.454361 20:1.79005 21:-1.12343 22:2.09102 23:-0.76039 24:1.71799 25:-1.34153 26:1.30915
0.41654667329452877 1:330.671 2:-9.05788 3:19.3883 4:7.86555 5:7.99059 6:8.30306 7:0.496994 8:-1.57502 9:4.5868 10:-2.80472 11:3.96577 12:-2.40358 13:2.044 14:76.617 15:4.86722 16:5.45625 17:0.253332 18:2.80466 19:-0.454361 20:1.79005 21:-1.12343 22:2.09102 23:-0.76039 24:1.71799 25:-1.34153 26:1.30915
0.17047395890483683 1:330.415 2:-21.4285 3:15.8755 4:6.08616 5:2.80998 6:8.49722 7:0.353046 8:-0.9501 9:4.15773 10:-0.767858 11:2.32398 12:-2.86081 13:-0.723661 14:76.617 15:4.86722 16:5.45625 17:0.253332 18:2.80466 19:-0.454361 20:1.79005 21:-1.12343 22:2.09102 23:-0.76039 24:1.71799 25:-1.34153 26:1.30915
1 1:305.249 2:-7.27804 3:7.11865 4:7.51215 5:8.58492 6:2.6482 7:7.99106 8:-4.03882 9:0.731637 10:-3.86713 11:-0.222972 12:-2.37289 13:4.51078 14:76.617 15:4.86722 16:5.45625 17:0.253332 18:2.80466 19:-0.454361 20:1.79005 21:-1.12343 22:2.09102 23:-0.76039 24:1.71799 25:-1.34153 26:1.30915
0.65559325792574852 1:287.208 2:9.97616 3:17.3924 4:7.56601 5:9.45937 6:-0.397025 7:2.69042 8:-3.21172 9:3.94979 10:-3.63555 11:2.63319 12:-3.4672 13:8.65875 14:76.617 15:4.86722 16:5.45625 17:0.253332 18:2.80466 19:-0.454361 20:1.79005 21:-1.12343 22:2.09102 23:-0.76039 24:1.71799 25:-1.34153 26:1.30915
0.41894581338797615 1:302.052 2:15.5024 3:17.2532 4:0.864434 5:5.70552 6:5.25845 7:3.38133 8:-1.97293 9:9.97124 10:-2.75022 11:-0.0194026 12:-4.83444 13:5.9216 14:76.617 15:4.86722 16:5.45625 17:0.253332 18:2.80466 19:-0.454361 20:1.79005 21:-1.12343 22:2.09102 23:-0.76039 24:1.71799 25:-1.34153 26:1.30915
0.24381996369447523 1:341.786 2:15.7327 3:17.2059 4:-7.24033 5:6.83984 6:-2.4978 7:3.07602 8:-6.58787 9:-0.188244 10:-1.47978 11:0.887569 12:0.89481 13:6.04598 14:76.617 15:4.86722 16:5.45625 17:0.253332 18:2.80466 19:-0.454361 20:1.79005 21:-1.12343 22:2.09102 23:-0.76039 24:1.71799 25:-1.34153 26:1.30915
0.74098020143577292 1:260.901 2:24.607 3:25.7183 4:-1.67792 5:6.16993 6:-3.01354 7:2.50511 8:-5.31212 9:7.33379 10:-2.95358 11:5.98006 12:-5.66642 13:6.82239 14:76.617 15:4.86722 16:5.45625 17:0.253332 18:2.80466 19:-0.454361 20:1.79005 21:-1.12343 22:2.09102 23:-0.76039 24:1.71799 25:-1.34153 26:1.30915
0.62113829312006141 1:251.94 2:24.2762 3:25.2203 4:-0.187977 5:7.96458 6:-3.16754 7:6.97141 8:-3.83339 9:6.83792 10:-4.78909 11:5.63951 12:-3.80687 13:6.95798 14:76.617 15:4.86722 16:5.45625 17:0.253332 18:2.80466 19:-0.454361 20:1.79005 21:-1.12343 22:2.09102 23:-0.76039 24:1.71799 25:-1.34153 26:1.30915
0.39447365053540689 1:225.349 2:12.028 3:15.3812 4:-0.949919 5:7.022 6:-0.166579 7:4.06113 8:-2.95439 9:1.72251 10:-6.36891 11:4.35638 12:-2.85326 13:4.91848 14:76.617 15:4.86722 16:5.45625 17:0.253332 18:2.80466 19:-0.454361 20:1.79005 21:-1.12343 22:2.09102 23:-0.76039 24:1.71799 25:-1.34153 26:1.30915
0.2280568202391981 1:249.067 2:5.4999 3:15.5471 4:2.89882 5:9.1759 6:-3.55391 7:3.49706 8:0.855128 9:2.61955 10:-1.83892 11:6.93568 12:-0.665016 13:3.35676 14:76.617 15:4.86722 16:5.45625 17:0.253332 18:2.80466 19:-0.454361 20:1.79005 21:-1.12343 22:2.09102 23:-0.76039 24:1.71799 25:-1.34153 26:1.30915
0.54862570163884739 1:322.453 2:-2.82888 3:7.85824 4:-6.96777 5:1.42381 6:-2.02358 7:1.96657 8:-5.26511 9:-2.23727 10:1.45107 11:3.43178 12:0.603892 13:3.15093 14:76.617 15:4.86722 16:5.45625 17:0.253332 18:2.80466 19:-0.454361 20:1.79005 21:-1.12343 22:2.09102 23:-0.76039 24:1.71799 25:-1.34153 26:1.30915
0.70833891822128248 1:325.378 2:22.4384 3:12.4355 4:-6.62164 5:-1.10197 6:-5.70791 7:-1.64293 8:-0.985401 9:4.54064 10:-7.19332 11:6.01074 12:-4.67874 13:9.03513 14:76.617 15:4.86722 16:5.45625 17:0.253332 18:2.80466 19:-0.454361 20:1.79005 21:-1.12343 22:2.09102 23:-0.76039 24:1.71799 25:-1.34153 26:1.30915
0.10829742686992701 1:319.038 2:18.2768 3:14.126 4:-1.66253 5:-4.50036 6:-4.87462 7:-0.519864 8:-2.38753 9:4.29953 10:-5.01818 11:6.41717 12:-7.01652 13:7.74488 14:76.617 15:4.86722 16:5.45625 17:0.253332 18:2.80466 19:-0.454361 20:1.79005 21:-1.12343 22:2.09102 23:-0.76039 24:1.71799 25:-1.34153 26:1.30915
0.41521475620791809 1:318.92 2:19.3863 3:12.3182 4:-2.65832 5:-3.77873 6:-6.92183 7:2.33021 8:-4.91914 9:5.43133 10:-7.03669 11:4.09251 12:-1.32814 13:6.75967 14:76.617 15:4.86722 16:5.45625 17:0.253332 18:2.80466 19:-0.454361 20:1.79005 21:-1.12343 22:2.09102 23:-0.76039 24:1.71799 25:-1.34153 26:1.30915
0.39022407232109119 1:308.961 2:16.9568 3:16.096 4:2.54573 5:-0.758146 6:-9.88432 7:2.78419 8:-4.94534 9:2.49591 10:-8.32202 11:3.02199 12:0.766723 13:6.92196 14:76.617 15:4.86722 16:5.45625 17:0.253332 18:2.80466 19:-0.454361 20:1.79005 21:-1.12343 22:2.09102 23:-0.76039 24:1.71799 25:-1.34153 26:1.30915
0.1392155876619825 1:302.511 2:3.48918 3:18.1925 4:3.8026 5:-0.588234 6:-2.367 7:0.331691 8:-6.02565 9:0.563395 10:-5.33455 11:1.48469 12:-2.4723 13:4.8547 14:76.617 15:4.86722 16:5.45625 17:0.253332 18:2.80466 19:-0.454361 20:1.79005 21:-1.12343 22:2.09102 23:-0.76039 24:1.71799 25:-1.34153 26:1.30915
0.90339983438173732 1:308.256 2:-11.6299 3:13.897 4:3.71331 5:-1.69543 6:1.96045 7:2.4783 8:-3.21238 9:1.1945 10:-2.17182 11:1.71021 12:-0.584408 13:4.19963 14:76.617 15:4.86722 16:5.45625 17:0.253332 18:2.80466 19:-0.454361 20:1.79005 21:-1.12343 22:2.09102 23:-0.76039 24:1.71799 25:-1.34153 26:1.30915
0.94000196399255165 1:314.612 2:-27.0949 3:10.5026 4:1.95453 5:-7.23565 6:1.94042 7:-0.679015 8:-4.90612 9:0.383012 10:-0.424396 11:3.98826 12:1.94345 13:2.84184 14:76.617 15:4.86722 16:5.45625 17:0.253332 18:2.80466 19:-0.454361 20:1.79005 21:-1.12343 22:2.09102 23:-0.76039 24:1.71799 25:-1.34153 26:1.30915
0.080895939697554445 1:321.32 2:-30.3523 3:4.78171 4:2.51194 5:-1.71547 6:1.32513 7:-1.8763 8:-7.51914 9:0.692531 10:2.3666 11:0.0422113 12:1.27124 13:2.49756 14:76.617 15:4.86722 16:5.45625 17:0.253332 18:2.80466 19:-0.454361 20:1.79005 21:-1.12343 22:2.09102 23:-0.76039 24:1.71799 25:-1.34153 26:1.30915
0.30100057533757058 1:323.852 2:-28.4676 3:0.103296 4:2.56568 5:-1.15387 6:-3.28432 7:3.88742 8:-1.26822 9:1.91785 10:0.869603 11:0.796445 12:-1.89285 13:3.19914 14:76.617 15:4.86722 16:5.45625 17:0.253332 18:2.80466 19:-0.454361 20:1.79005 21:-1.12343 22:2.09102 23:-0.76039 24:1.71799 25:-1.34153 26:1.30915
0.38429889332922096 1:315.947 2:-18.3434 3:2.92859 4:2.14951 5:1.021 6:-7.82851 7:2.98656 8:-1.16142 9:-2.5897 10:1.07225 11:1.74455 12:-2.04463 13:2.12285 14:76.617 15:4.86722 16:5.45625 17:0.253332 18:2.80466 19:-0.454361 20:1.79005 21:-1.12343 22:2.09102 23:-0.76039 24:1.71799 25:-1.34153 26:1.30915
0.26549194109928431 1:322.325 2:3.1435 3:11.3167 4:1.51678 5:1.45442 6:-8.70656 7:3.62196 8:0.281392 9:2.37607 10:-1.76126 11:4.34791 12:-2.06453 13:2.82578 14:76.617 15:4.86722 16:5.45625 17:0.253332 18:2.80466 19:-0.454361 20:1.79005 21:-1.12343 22:2.09102 23:-0.76039 24:1.71799 25:-1.34153 26:1.30915
0.018808893988584874 1:335.651 2:16.6939 3:12.6446 4:-0.929731 5:3.75455 6:-8.03979 7:5.39686 8:-2.5166 9:3.63476 10:-3.94793 11:3.08466 12:-4.01226 13:5.31288 14:76.617 15:4.86722 16:5.45625 17:0.253332 18:2.80466 19:-0.454361 20:1.79005 21:-1.12343 22:2.09102 23:-0.76039 24:1.71799 25:-1.34153 26:1.30915
0.81732498972879586 1:342.552 2:27.89 3:17.6242 4:-5.41822 5:3.48892 6:-6.30471 7:8.5864 8:-2.14329 9:6.76723 10:-3.61703 11:7.25172 12:-3.05935 13:4.9855 14:76.617 15:4.86722 16:5.45625 17:0.253332 18:2.80466 19:-0.454361 20:1.79005 21:-1.12343 22:2.09102 23:-0.76039 24:1.71799 25:-1.34153 26:1.30915
0.76507638303697889 1:317.531 2:33.9708 3:13.7619 4:-6.76685 5:11.0464 6:-7.57134 7:6.54301 8:-2.89554 9:8.08533 10:-3.72848 11:6.17535 12:-2.9485 13:6.06271 14:76.617 15:4.86722 16:5.45625 17:0.253332 18:2.80466 19:-0.454361 20:1.79005 21:-1.12343 22:2.09102 23:-0.76039 24:1.71799 25:-1.34153 26:1.30915
0.4983617000521115 1:297.867 2:27.1558 3:23.0615 4:-5.07149 5:6.54678 6:-5.81786 7:2.86067 8:-5.34489 9:2.01753 10:-2.84792 11:4.91246 12:-4.28492 13:6.33975 14:76.617 15:4.86722 16:5.45625 17:0.253332 18:2.80466 19:-0.454361 20:1.79005 21:-1.12343 22:2.09102 23:-0.76039 24:1.71799 25:-1.34153 26:1.30915
0.025900556220299912 1:291.6 2:23.0855 3:7.62989 4:-6.2796 5:10.8164 6:-3.10365 7:2.83357 8:-2.83656 9:-0.484615 10:-5.06009 11:0.919827 12:-6.77469 13:6.08733 14:76.617 15:4.86722 16:5.45625 17:0.253332 18:2.80466 19:-0.454361 20:1.79005 21:-1.12343 22:2.09102 23:-0.76039 24:1.71799 25:-1.34153 26:1.30915
1 1:280.916 2:23.6499 3:8.99313 4:-5.15787 5:11.029 6:-1.48793 7:3.97872 8:-4.0785 9:1.96822 10:-6.96159 11:0.0426708 12:-5.83138 13:7.16669 14:76.617 15:4.86722 16:5.45625 17:0.253332 18:2.80466 19:-0.454361 20:1.79005 21:-1.12343 22:2.09102 23:-0.76039 24:1.71799 25:-1.34153 26:1.30915
0.15895828774140508 1:284.592 2:23.2751 3:7.72283 4:-7.33216 5:10.9207 6:0.757585 7:4.1608 8:-3.51714 9:3.83155 10:-6.19457 11:0.390884 12:-5.15362 13:7.8797 14:76.617 15:4.86722 16:5.45625 17:0.253332 18:2.80466 19:-0.454361 20:1.79005 21:-1.12343 22:2.09102 23:-0.76039 24:1.71799 25:-1.34153 26:1.30915
0.87108195076725359 1:256.385 2:6.05266 3:11.733 4:4.84908 5:7.14057 6:1.53377 7:4.54653 8:-0.851318 9:1.25918 10:-6.23393 11:1.5149 12:-4.8993 13:6.90377 14:76.617 15:4.86722 16:5.45625 17:0.253332 18:2.80466 19:-0.454361 20:1.79005 21:-1.12343 22:2.09102 23:-0.76039 24:1.71799 25:-1.34153 26:1.30915
0.28502084763288799 1:258.256 2:11.3456 3:5.72124 4:1.73804 5:11.2378 6:-5.26133 7:6.0659 8:-0.733512 9:1.10915 10:-2.97987 11:5.5938 12:-3.58909 13:3.9448 14:76.617 15:4.86722 16:5.45625 17:0.253332 18:2.80466 19:-0.454361 20:1.79005 21:-1.12343 22:2.09102 23:-0.76039 24:1.71799 25:-1.34153 26:1.30915
0.86231240098955331 1:290.493 2:8.76379 3:2.23217 4:0.974758 5:7.3286 6:-6.67646 7:3.74027 8:-2.67883 9:-0.396279 10:-4.36796 11:4.92792 12:-3.54226 13:3.37078 14:76.617 15:4.86722 16:5.45625 17:0.253332 18:2.80466 19:-0.454361 20:1.79005 21:-1.12343 22:2.09102 23:-0.76039 24:1.71799 25:-1.34153 26:1.30915
0.23445948913666284 1:303.087 2:-2.2767 3:9.04719 4:5.4285 5:0.696015 6:2.77606 7:7.79535 8:-2.02337 9:2.40479 10:-2.08875 11:1.53744 12:-4.23092 13:4.63979 14:76.617 15:4.86722 16:5.45625 17:0.253332 18:2.80466 19:-0.454361 20:1.79005 21:-1.12343 22:2.09102 23:-0.76039 24:1.71799 25:-1.34153 26:1.30915
0.66039491232707592 1:240.81 2:12.4323 3:17.0258 4:2.01882 5:7.18168 6:1.28866 7:5.90195 8:-4.4396 9:1.67493 10:-5.62376 11:0.665165 12:-2.14613 13:6.24055 14:76.617 15:4.86722 16:5.45625 17:0.253332 18:2.80466 19:-0.454361 20:1.79005 21:-1.12343 22:2.09102 23:-0.76039 24:1.71799 25:-1.34153 26:1.30915
0.80122566410264306 1:218.576 2:8.3305 3:19.4367 4:5.5235 5:7.95867 6:-0.839261 7:6.80692 8:-2.58871 9:4.06314 10:-4.07418 11:3.76489 12:-3.31674 13:3.93276 14:76.617 15:4.86722 16:5.45625 17:0.253332 18:2.80466 19:-0.454361 20:1.79005 21:-1.12343 22:2.09102 23:-0.76039 24:1.71799 25:-1.34153 26:1.30915
0.48558894256897256 1:212.515 2:4.36053 3:15.9682 4:4.56824 5:9.85993 6:-1.74338 7:5.60488 8:-1.50462 9:5.49456 10:-1.42813 11:5.27394 12:-1.01161 13:3.78644 14:76.617 15:4.86722 16:5.45625 17:0.253332 18:2.80466 19:-0.454361 20:1.79005 21:-1.12343 22:2.09102 23:-0.76039 24:1.71799 25:-1.34153 26:1.30915
0.89597955842749988 1:271.061 2:0.686903 3:5.07802 4:2.17199 5:1.53093 6:-0.532478 7:5.17184 8:-3.13175 9:6.15179 10:-1.16538 11:3.5068 12:-0.0405639 13:2.22233 14:76.617 15:4.86722 16:5.45625 17:0.253332 18:2.80466 19:-0.454361 20:1.79005 21:-1.12343 22:2.09102 23:-0.76039 24:1.71799 25:-1.34153 26:1.30915
0.34824141259880143 1:292.199 2:1.76941 3:6.03322 4:3.0355 5:1.77066 6:-0.133708 7:5.61893 8:-3.09896 9:6.58557 10:-1.09317 11:3.37715 12:0.0628751 13:1.82399 14:76.617 15:4.86722 16:5.45625 17:0.253332 18:2.80466 19:-0.454361 20:1.79005 21:-1.12343 22:2.09102 23:-0.76039 24:1.71799 25:-1.34153 26:1.30915
0.81271848454649298 1:269.61 2:14.4218 3:13.7028 4:3.7973 5:10.3391 6:-0.86185 7:7.36572 8:-8.99226 9:2.29343 10:-6.3661 11:0.882505 12:-1.10076 13:5.17885 14:76.617 15:4.86722 16:5.45625 17:0.253332 18:2.80466 19:-0.454361 20:1.79005 21:-1.12343 22:2.09102 23:-0.76039 24:1.71799 25:-1.34153 26:1.30915
0.15072522710548109 1:284.283 2:10.7256 3:14.6098 4:3.7037 5:9.18601 6:-1.22035 7:6.45088 8:-7.72 9:0.749187 10:-5.59003 11:-1.08391 12:0.146873 13:1.81613 14:76.617 15:4.86722 16:5.45625 17:0.253332 18:2.80466 19:-0.454361 20:1.79005 21:-1.12343 22:2.09102 23:-0.76039 24:1.71799 25:-1.34153 26:1.30915
0.51190869043690934 1:237.111 2:10.0142 3:11.0207 4:-5.63818 5:8.61137 6:2.20522 7:5.96162 8:-1.98282 9:0.967821 10:-2.82366 11:1.53613 12:-2.44436 13:5.26134 14:76.617 15:4.86722 16:5.45625 17:0.253332 18:2.80466 19:-0.454361 20:1.79005 21:-1.12343 22:2.09102 23:-0.76039 24:1.71799 25:-1.34153 26:1.30915
0.47847102371268813 1:244.224 2:3.10552 3:11.7498 4:-1.49798 5:2.71909 6:4.4517 7:5.76961 8:-3.02205 9:2.28404 10:-2.76349 11:3.53062 12:0.333935 13:4.41358 14:76.617 15:4.86722 16:5.45625 17:0.253332 18:2.80466 19:-0.454361 20:1.79005 21:-1.12343 22:2.09102 23:-0.76039 24:1.71799 25:-1.34153 26:1.30915
0.60699514143215894 1:220.171 2:9.84008 3:9.37585 4:-3.36028 5:3.16779 6:0.529122 7:8.34622 8:-2.26567 9:3.51156 10:-4.46627 11:2.10495 12:-3.40445 13:3.40763 14:76.617 15:4.86722 16:5.45625 17:0.253332 18:2.80466 19:-0.454361 20:1.79005 21:-1.12343 22:2.09102 23:-0.76039 24:1.71799 25:-1.34153 26:1.30915
0.46994502692356188 1:234.619 2:2.61006 3:13.1836 4:-2.49687 5:4.05732 6:-7.65907 7:1.95103 8:-0.397434 9:0.884489 10:1.31928 11:-3.02618 12:-3.11271 13:0.403928 14:76.617 15:4.86722 16:5.45625 17:0.253332 18:2.80466 19:-0.454361 20:1.79005 21:-1.12343 22:2.09102 23:-0.76039 24:1.71799 25:-1.34153 26:1.30915
0.31208460750794037 1:236.712 2:3.2036 3:15.0087 4:0.196267 5:4.34008 6:-7.35187 7:-1.01781 8:0.0941708 9:1.48216 10:-2.71026 11:-4.23387 12:-2.79635 13:1.58551 14:76.617 15:4.86722 16:5.45625 17:0.253332 18:2.80466 19:-0.454361 20:1.79005 21:-1.12343 22:2.09102 23:-0.76039 24:1.71799 25:-1.34153 26:1.30915
0.4701976886818649 1:273.47 2:14.3634 3:14.347 4:-2.70112 5:4.15072 6:-8.27963 7:-0.073093 8:-1.89959 9:4.10576 10:-0.613978 11:-0.734846 12:-4.03276 13:1.87609 14:76.617 15:4.86722 16:5.45625 17:0.253332 18:2.80466 19:-0.454361 20:1.79005 21:-1.12343 22:2.09102 23:-0.76039 24:1.71799 25:-1.34153 26:1.30915
0.26776244024594864 1:307.803 2:15.4768 3:25.4155 4:4.27778 5:4.89641 6:-7.04957 7:-3.46321 8:-2.41006 9:6.1168 10:-1.04874 11:-0.851139 12:-6.89251 13:4.25786 14:76.617 15:4.86722 16:5.45625 17:0.253332 18:2.80466 19:-0.454361 20:1.79005 21:-1.12343 22:2.09102 23:-0.76039 24:1.71799 25:-1.34153 26:1.30915
0.1126476822258594 1:315.151 2:16.0627 3:24.6076 4:4.36881 5:3.64255 6:-9.00196 7:-0.852328 8:-0.97481 9:6.89836 10:-1.83753 11:-1.77011 12:-6.95362 13:4.05929 14:76.617 15:4.86722 16:5.45625 17:0.253332 18:2.80466 19:-0.454361 20:1.79005 21:-1.12343 22:2.09102 23:-0.76039 24:1.71799 25:-1.34153 26:1.30915
0.010319734915712231 1:318.782 2:19.7354 3:24.8263 4:5.43187 5:-0.764343 6:-7.63414 7:1.45131 8:-2.67076 9:6.9694 10:-2.61234 11:1.23911 12:-4.76922 13:2.41545 14:76.617 15:4.86722 16:5.45625 17:0.253332 18:2.80466 19:-0.454361 20:1.79005 21:-1.12343 22:2.09102 23:-0.76039 24:1.71799 25:-1.34153 26:1.30915
0.42560198892264584 1:317.56 2:23.3066 3:27.9418 4:0.986653 5:0.982752 6:-5.6333 7:1.5956 8:-5.53006 9:9.11134 10:-4.5741 11:1.10155 12:-3.8637 13:0.421324 14:76.617 15:4.86722 16:5.45625 17:0.253332 18:2.80466 19:-0.454361 20:1.79005 21:-1.12343 22:2.09102 23:-0.76039 24:1.71799 25:-1.34153 26:1.30915
0.51551640912237151 1:303.526 2:35.9604 3:10.8628 4:-6.83924 5:10.2645 6:-0.586822 7:6.48092 8:-7.91672 9:7.93909 10:-6.55496 11:6.94494 12:-4.04061 13:4.111 14:76.617 15:4.86722 16:5.45625 17:0.253332 18:2.80466 19:-0.454361 20:1.79005 21:-1.12343 22:2.09102 23:-0.76039 24:1.71799 25:-1.34153 26:1.30915
1 1:280.514 2:35.3103 3:19.3793 4:-4.415 5:10.4794 6:-3.02899 7:6.49824 8:-8.31929 9:7.91247 10:-3.46868 11:8.48765 12:-5.44053 13:6.07621 14:76.617 15:4.86722 16:5.45625 17:0.253332 18:2.80466 19:-0.454361 20:1.79005 21:-1.12343 22:2.09102 23:-0.76039 24:1.71799 25:-1.34153 26:1.30915
1 1:245.632 2:18.3453 3:21.5836 4:4.21648 5:10.0291 6:-4.26357 7:6.28206 8:-4.87773 9:9.64277 10:0.0075656 11:4.7772 12:-7.01228 13:4.33353 14:76.617 15:4.86722 16:5.45625 17:0.253332 18:2.80466 19:-0.454361 20:1.79005 21:-1.12343 22:2.09102 23:-0.76039 24:1.71799 25:-1.34153 26:1.30915
0.84821764761122787 1:248.857 2:14.8624 3:18.4018 4:2.65128 5:10.3735 6:-2.85742 7:6.33964 8:-2.3 9:8.8951 10:-1.38256 11:5.76924 12:-4.71905 13:4.13838 14:248.857 15:14.8624 16:18.4018 17:2.65128 18:10.3735 19:-2.85742 20:6.33964 21:-2.3 22:8.8951 23:-1.38256 24:5.76924 25:-4.71905 26:4.13838
0.77559975209661347 1:241.66 2:8.84887 3:17.4309 4:1.60637 5:8.44916 6:0.0203566 7:5.58093 8:-2.56411 9:5.82174 10:-2.59396 11:4.46442 12:-4.23103 13:3.59891 14:241.66 15:8.84887 16:17.4309 17:1.60637 18:8.44916 19:0.0203566 20:5.58093 21:-2.56411 22:5.82174 23:-2.59396 24:4.46442 25:-4.23103 26:3.59891
1 1:137.349 2:-11.6142 3:0.45318 4:-4.04063 5:-2.24506 6:-3.53597 7:3.6055 8:-1.96787 9:0.9914 10:-2.25531 11:3.50206 12:-1.90877 13:0.993966 14:137.349 15:-11.6142 16:0.45318 17:-4.04063 18:-2.24506 19:-3.53597 20:3.6055 21:-1.96787 22:0.9914 23:-2.25531 24:3.50206 25:-1.90877 26:0.993966
1 1:247.411 2:-9.9512 3:6.48506 4:4.95788 5:5.8406 6:-0.982922 7:0.212068 8:-3.55471 9:0.114892 10:-2.41289 11:1.63367 12:-1.10387 13:1.00356 14:247.411 15:-9.9512 16:6.48506 17:4.95788 18:5.8406 19:-0.982922 20:0.212068 21:-3.55471 22:0.114892 23:-2.41289 24:1.63367 25:-1.10387 26:1.00356
0.56644516710374548 1:247.03 2:-11.1749 3:5.91171 4:3.93396 5:7.68473 6:-0.670081 7:-0.951252 8:-1.38578 9:0.884958 10:-2.50063 11:1.06611 12:-0.980747 13:1.25959 14:60.614 15:-0.203621 16:3.07796 17:0.00296279 18:1.3837 19:-0.055136 20:0.753053 21:-0.257079 22:0.897442 23:-0.450764 24:0.929039 25:-0.538976 26:0.282739
0.043493849782975547 1:246.259 2:-10.8069 3:5.94235 4:5.43353 5:8.29995 6:-0.120539 7:-0.34087 8:-1.90105 9:1.65232 10:-3.009 11:0.838505 12:-1.48687 13:0.00546876 14:60.614 15:-0.203621 16:3.07796 17:0.00296279 18:1.3837 19:-0.055136 20:0.753053 21:-0.257079 22:0.897442 23:-0.450764 24:0.929039 25:-0.538976 26:0.282739
0.55965089574443472 1:244.975 2:-11.3537 3:2.68229 4:0.624255 5:2.95819 6:-1.08232 7:2.90613 8:0.326873 9:-0.959361 10:-0.232481 11:1.37009 12:-1.58644 13:3.55455 14:60.614 15:-0.203621 16:3.07796 17:0.00296279 18:1.3837 19:-0.055136 20:0.753053 21:-0.257079 22:0.897442 23:-0.450764 24:0.929039 25:-0.538976 26:0.282739
1 1:245.543 2:-9.64058 3:5.40267 4:2.07844 5:3.94963 6:-0.542405 7:3.14007 8:-1.21135 9:0.515527 10:-1.19879 11:0.442777 12:-1.90093 13:2.37686 14:60.614 15:-0.203621 16:3.07796 17:0.00296279 18:1.3837 19:-0.055136 20:0.753053 21:-0.257079 22:0.897442 23:-0.450764 24:0.929039 25:-0.538976 26:0.282739
1 1:242.692 2:-8.81943 3:7.32959 4:1.81745 5:5.85248 6:1.82618 7:3.06374 8:-1.17613 9:1.8434 10:-2.68672 11:-0.886785 12:-2.54785 13:1.94143 14:60.614 15:-0.203621 16:3.07796 17:0.00296279 18:1.3837 19:-0.055136 20:0.753053 21:-0.257079 22:0.897442 23:-0.450764 24:0.929039 25:-0.538976 26:0.282739
0.93604359065519549 1:238.752 2:-8.07226 3:5.30718 4:0.318373 5:1.35652 6:-0.492492 7:2.63069 8:-1.14746 9:2.1415 10:-0.507021 11:0.467881 12:-2.86399 13:4.38772 14:60.614 15:-0.203621 16:3.07796 17:0.00296279 18:1.3837 19:-0.055136 20:0.753053 21:-0.257079 22:0.897442 23:-0.450764 24:0.929039 25:-0.538976 26:0.282739
1 1:218.052 2:-5.65734 3:6.65712 4:0.957164 5:3.07299 6:-0.0656733 7:2.46731 8:-0.767689 9:0.275045 10:-3.61734 11:-0.0937347 12:-2.90193 13:1.71583 14:60.614 15:-0.203621 16:3.07796 17:0.00296279 18:1.3837 19:-0.055136 20:0.753053 21:-0.257079 22:0.897442 23:-0.450764 24:0.929039 25:-0.538976 26:0.282739
0.20006362356245294 1:218.365 2:-3.15524 3:7.23021 4:1.35736 5:2.70863 6:-0.653056 7:0.338456 8:-2.05284 9:1.85428 10:-2.6337 11:1.22499 12:-4.52907 13:1.04354 14:60.614 15:-0.203621 16:3.07796 17:0.00296279 18:1.3837 19:-0.055136 20:0.753053 21:-0.257079 22:0.897442 23:-0.450764 24:0.929039 25:-0.538976 26:0.282739
1 1:215.245 2:-2.49287 3:6.833 4:1.04137 5:3.03145 6:-0.169442 7:2.46166 8:-2.44052 9:2.58112 10:-3.12003 11:-0.504547 12:-3.86905 13:0.681001 14:60.614 15:-0.203621 16:3.07796 17:0.00296279 18:1.3837 19:-0.055136 20:0.753053 21:-0.257079 22:0.897442 23:-0.450764 24:0.929039 25:-0.538976 26:0.282739
1 1:217.034 2:-0.10596 3:7.34174 4:-0.583712 5:1.46465 6:1.52228 7:4.06358 8:-0.452413 9:2.42906 10:-4.1204 11:2.67396 12:-1.95417 13:2.55113 14:60.614 15:-0.203621 16:3.07796 17:0.00296279 18:1.3837 19:-0.055136 20:0.753053 21:-0.257079 22:0.897442 23:-0.450764 24:0.929039 25:-0.538976 26:0.282739
1 1:217.286 2:-0.632998 3:6.34798 4:-0.867271 5:3.67183 6:0.340813 7:5.32656 8:0.715012 9:1.96426 10:-2.88397 11:1.22473 12:-2.52477 13:3.56676 14:60.614 15:-0.203621 16:3.07796 17:0.00296279 18:1.3837 19:-0.055136 20:0.753053 21:-0.257079 22:0.897442 23:-0.450764 24:0.929039 25:-0.538976 26:0.282739
1 1:216.026 2:-1.60261 3:8.33948 4:0.595408 5:4.1236 6:-1.59398 7:1.38103 8:-3.02688 9:0.742656 10:-2.22283 11:1.82618 12:-0.997851 13:3.31137 14:60.614 15:-0.203621 16:3.07796 17:0.00296279 18:1.3837 19:-0.055136 20:0.753053 21:-0.257079 22:0.897442 23:-0.450764 24:0.929039 25:-0.538976 26:0.282739
1 1:214.021 2:-0.141096 3:8.33007 4:-0.0298058 5:2.87246 6:0.114012 7:2.56006 8:-2.73597 9:-0.284677 10:-2.4422 11:2.64206 12:-3.31106 13:3.66291 14:60.614 15:-0.203621 16:3.07796 17:0.00296279 18:1.3837 19:-0.055136 20:0.753053 21:-0.257079 22:0.897442 23:-0.450764 24:0.929039 25:-0.538976 26:0.282739
1 1:213.973 2:-0.353028 3:8.05768 4:1.27673 5:1.66543 6:-2.08622 7:1.76789 8:-2.0882 9:2.65136 10:-1.38017 11:4.11294 12:-2.59299 13:3.10806 14:60.614 15:-0.203621 16:3.07796 17:0.00296279 18:1.3837 19:-0.055136 20:0.753053 21:-0.257079 22:0.897442 23:-0.450764 24:0.929039 25:-0.538976 26:0.282739
1 1:216.62 2:0.863977 3:8.16515 4:-1.0437 5:2.4531 6:-0.479915 7:2.26622 8:-2.1008 9:0.416267 10:-4.04306 11:1.89646 12:-3.94365 13:3.01384 14:60.614 15:-0.203621 16:3.07796 17:0.00296279 18:1.3837 19:-0.055136 20:0.753053 21:-0.257079 22:0.897442 23:-0.450764 24:0.929039 25:-0.538976 26:0.282739
1 1:213.252 2:-1.73645 3:6.5103 4:0.746819 5:3.62411 6:-1.06866 7:4.62117 8:-2.08855 9:2.56221 10:-1.42308 11:2.06204 12:-2.31229 13:1.47567 14:60.614 15:-0.203621 16:3.07796 17:0.00296279 18:1.3837 19:-0.055136 20:0.753053 21:-0.257079 22:0.897442 23:-0.450764 24:0.929039 25:-0.538976 26:0.282739
1 1:211.985 2:-0.827477 3:5.78795 4:-0.000777459 5:4.42502 6:0.583472 7:5.34303 8:-0.742156 9:3.95661 10:-2.24572 11:3.26048 12:-1.71218 13:3.09727 14:60.614 15:-0.203621 16:3.07796 17:0.00296279 18:1.3837 19:-0.055136 20:0.753053 21:-0.257079 22:0.897442 23:-0.450764 24:0.929039 25:-0.538976 26:0.282739
1 1:224.062 2:3.81365 3:8.07089 4:-0.221824 5:2.35649 6:-2.15695 7:3.20542 8:-1.74413 9:1.53352 10:-2.80357 11:3.70823 12:-2.8445 13:2.30075 14:60.614 15:-0.203621 16:3.07796 17:0.00296279 18:1.3837 19:-0.055136 20:0.753053 21:-0.257079 22:0.897442 23:-0.450764 24:0.929039 25:-0.538976 26:0.282739
1 1:231.031 2:4.30821 3:6.968 4:-0.245303 5:1.8524 6:-2.15551 7:4.0499 8:-1.37634 9:3.11722 10:-2.70278 11:4.45198 12:-1.95678 13:2.91455 14:60.614 15:-0.203621 16:3.07796 17:0.00296279 18:1.3837 19:-0.055136 20:0.753053 21:-0.257079 22:0.897442 23:-0.450764 24:0.929039 25:-0.538976 26:0.282739
1 1:211.222 2:0.356613 3:7.19479 4:1.16306 5:3.68199 6:2.05836 7:3.8535 8:-4.63967 9:1.86502 10:-3.26622 11:2.46276 12:-2.51287 13:3.61915 14:60.614 15:-0.203621 16:3.07796 17:0.00296279 18:1.3837 19:-0.055136 20:0.753053 21:-0.257079 22:0.897442 23:-0.450764 24:0.929039 25:-0.538976 26:0.282739
1 1:210.302 2:-1.24122 3:6.14277 4:2.52593 5:4.26363 6:0.891968 7:4.86651 8:-3.62414 9:1.79409 10:-4.38975 11:1.74629 12:-1.93893 13:4.0445 14:60.614 15:-0.203621 16:3.07796 17:0.00296279 18:1.3837 19:-0.055136 20:0.753053 21:-0.257079 22:0.897442 23:-0.450764 24:0.929039 25:-0.538976 26:0.282739
1 1:209.54 2:-0.154707 3:5.77156 4:0.473015 5:2.69969 6:1.13635 7:5.61519 8:-2.06387 9:4.42878 10:-2.26415 11:0.362974 12:-3.71812 13:1.46655 14:60.614 15:-0.203621 16:3.07796 17:0.00296279 18:1.3837 19:-0.055136 20:0.753053 21:-0.257079 22:0.897442 23:-0.450764 24:0.929039 25:-0.538976 26:0.282739
1 1:212.355 2:-2.0343 3:4.98021 4:0.699495 5:2.32956 6:0.524606 7:4.8088 8:-0.592134 9:4.2177 10:-1.89625 11:3.04347 12:-2.10341 13:2.64146 14:60.614 15:-0.203621 16:3.07796 17:0.00296279 18:1.3837 19:-0.055136 20:0.753053 21:-0.257079 22:0.897442 23:-0.450764 24:0.929039 25:-0.538976 26:0.282739
1 1:211.381 2:-1.53472 3:6.82468 4:3.14731 5:4.47535 6:-0.257031 7:5.48243 8:-2.54923 9:2.60195 10:-2.74512 11:0.970058 12:-1.73321 13:3.62076 14:60.614 15:-0.203621 16:3.07796 17:0.00296279 18:1.3837 19:-0.055136 20:0.753053 21:-0.257079 22:0.897442 23:-0.450764 24:0.929039 25:-0.538976 26:0.282739
0.12750835969809302 1:216.1 2:-2.8261 3:7.30216 4:1.49961 5:2.62362 6:-0.513221 7:5.43465 8:-1.82464 9:2.36983 10:-3.52417 11:0.26757 12:-0.028865 13:4.80948 14:60.614 15:-0.203621 16:3.07796 17:0.00296279 18:1.3837 19:-0.055136 20:0.753053 21:-0.257079 22:0.897442 23:-0.450764 24:0.929039 25:-0.538976 26:0.282739
0.29768745267066715 1:218.845 2:-0.186533 3:7.48802 4:1.87682 5:1.54398 6:-1.56953 7:6.10783 8:-1.22587 9:2.13445 10:-3.85411 11:1.57224 12:-3.65476 13:2.85755 14:60.614 15:-0.203621 16:3.07796 17:0.00296279 18:1.3837 19:-0.055136 20:0.753053 21:-0.257079 22:0.897442 23:-0.450764 24:0.929039 25:-0.538976 26:0.282739
1 1:224.813 2:3.29392 3:9.41559 4:4.20385 5:4.95888 6:0.371263 7:7.64945 8:-1.94347 9:8.14843 10:-3.20148 11:2.4467 12:-1.84639 13:3.11878 14:60.614 15:-0.203621 16:3.07796 17:0.00296279 18:1.3837 19:-0.055136 20:0.753053 21:-0.257079 22:0.897442 23:-0.450764 24:0.929039 25:-0.538976 26:0.282739
1 1:236.26 2:7.27949 3:11.3221 4:5.31239 5:4.76226 6:-1.31169 7:9.4294 8:-1.29191 9:7.84793 10:-2.72513 11:5.13669 12:-2.5282 13:1.69411 14:60.614 15:-0.203621 16:3.07796 17:0.00296279 18:1.3837 19:-0.055136 20:0.753053 21:-0.257079 22:0.897442 23:-0.450764 24:0.929039 25:-0.538976 26:0.282739
1 1:266.351 2:20.1492 3:5.3823 4:0.85272 5:3.06857 6:-4.0672 7:11.6685 8:-0.479023 9:9.05701 10:-5.44902 11:6.64797 12:-4.5404 13:3.43136 14:60.614 15:-0.203621 16:3.07796 17:0.00296279 18:1.3837 19:-0.055136 20:0.753053 21:-0.257079 22:0.897442 23:-0.450764 24:0.929039 25:-0.538976 26:0.282739
1 1:272.785 2:23.9826 3:7.73284 4:-1.20532 5:3.66495 6:-4.45459 7:11.9304 8:-1.12065 9:10.3551 10:-6.39732 11:6.16197 12:-2.7213 13:3.58833 14:60.614 15:-0.203621 16:3.07796 17:0.00296279 18:1.3837 19:-0.055136 20:0.753053 21:-0.257079 22:0.897442 23:-0.450764 24:0.929039 25:-0.538976 26:0.282739
1 1:284.225 2:20.0169 3:10.4423 4:-2.39503 5:3.94897 6:-4.58673 7:9.85287 8:0.481094 9:5.69728 10:-5.18234 11:5.98655 12:-3.90824 13:4.30967 14:60.614 15:-0.203621 16:3.07796 17:0.00296279 18:1.3837 19:-0.055136 20:0.753053 21:-0.257079 22:0.897442 23:-0.450764 24:0.929039 25:-0.538976 26:0.282739
1 1:293.28 2:20.6493 3:9.85818 4:-0.74522 5:3.83815 6:-5.85669 7:9.39351 8:-0.482158 9:4.35102 10:-5.84422 11:5.43364 12:-4.91634 13:4.41619 14:60.614 15:-0.203621 16:3.07796 17:0.00296279 18:1.3837 19:-0.055136 20:0.753053 21:-0.257079 22:0.897442 23:-0.450764 24:0.929039 25:-0.538976 26:0.282739
1 1:299.743 2:31.578 3:7.95725 4:-2.33018 5:0.663931 6:-10.1985 7:10.7075 8:-2.46859 9:6.37316 10:-7.58872 11:5.6775 12:-8.33135 13:4.84614 14:60.614 15:-0.203621 16:3.07796 17:0.00296279 18:1.3837 19:-0.055136 20:0.753053 21:-0.257079 22:0.897442 23:-0.450764 24:0.929039 25:-0.538976 26:0.282739
0.6759872956180849 1:307.22 2:30.6058 3:7.80639 4:-5.86824 5:1.1457 6:-9.54454 7:10.6636 8:-1.48967 9:4.68477 10:-7.83885 11:5.20053 12:-6.79951 13:5.71125 14:60.614 15:-0.203621 16:3.07796 17:0.00296279 18:1.3837 19:-0.055136 20:0.753053 21:-0.257079 22:0.897442 23:-0.450764 24:0.929039 25:-0.538976 26:0.282739
1 1:307.485 2:33.9814 3:2.8959 4:-5.09317 5:2.52244 6:-10.281 7:11.8312 8:-1.49207 9:3.29134 10:-8.58863 11:6.83749 12:-7.70387 13:7.94145 14:60.614 15:-0.203621 16:3.07796 17:0.00296279 18:1.3837 19:-0.055136 20:0.753053 21:-0.257079 22:0.897442 23:-0.450764 24:0.929039 25:-0.538976 26:0.282739
1 1:314.587 2:32.5647 3:-1.46417 4:-4.79647 5:4.22898 6:-10.7064 7:11.7663 8:-2.69298 9:3.26505 10:-8.72959 11:7.8073 12:-6.93624 13:7.03 14:60.614 15:-0.203621 16:3.07796 17:0.00296279 18:1.3837 19:-0.055136 20:0.753053 21:-0.257079 22:0.897442 23:-0.450764 24:0.929039 25:-0.538976 26:0.282739
1 1:321.673 2:29.5875 3:-1.67522 4:-4.64358 5:6.39148 6:-10.635 7:11.4307 8:-2.35616 9:1.1803 10:-7.39254 11:7.66248 12:-5.21321 13:6.49155 14:60.614 15:-0.203621 16:3.07796 17:0.00296279 18:1.3837 19:-0.055136 20:0.753053 21:-0.257079 22:0.897442 23:-0.450764 24:0.929039 25:-0.538976 26:0.282739
0.82354888282735128 1:315.323 2:32.2206 3:-4.29911 4:-3.451 5:6.86191 6:-10.2107 7:11.4335 8:-4.02266 9:1.7488 10:-7.60898 11:8.765 12:-5.849 13:6.48002 14:60.614 15:-0.203621 16:3.07796 17:0.00296279 18:1.3837 19:-0.055136 20:0.753053 21:-0.257079 22:0.897442 23:-0.450764 24:0.929039 25:-0.538976 26:0.282739
0.28706783582492346 1:322.003 2:29.0934 3:-6.21043 4:-2.22331 5:8.56859 6:-9.84841 7:10.2975 8:-6.10792 9:2.2875 10:-6.72591 11:8.78754 12:-4.83214 13:5.46402 14:60.614 15:-0.203621 16:3.07796 17:0.00296279 18:1.3837 19:-0.055136 20:0.753053 21:-0.257079 22:0.897442 23:-0.450764 24:0.929039 25:-0.538976 26:0.282739
0.094757613434624813 1:327.277 2:25.4997 3:-3.98852 4:-2.36727 5:8.81518 6:-9.01497 7:9.36465 8:-5.38131 9:1.30164 10:-5.64217 11:8.08887 12:-3.98919 13:4.57754 14:60.614 15:-0.203621 16:3.07796 17:0.00296279 18:1.3837 19:-0.055136 20:0.753053 21:-0.257079 22:0.897442 23:-0.450764 24:0.929039 25:-0.538976 26:0.282739
0.72970314405712644 1:325.595 2:25.773 3:-6.85636 4:0.696786 5:10.2732 6:-10.0313 7:9.00089 8:-7.73993 9:2.4924 10:-5.71891 11:8.47421 12:-5.00119 13:4.86441 14:60.614 15:-0.203621 16:3.07796 17:0.00296279 18:1.3837 19:-0.055136 20:0.753053 21:-0.257079 22:0.897442 23:-0.450764 24:0.929039 25:-0.538976 26:0.282739
0.69783094971654203 1:332.677 2:23.4165 3:-6.63839 4:0.94936 5:11.1626 6:-10.2959 7:8.17315 8:-7.31482 9:1.71088 10:-4.95344 11:7.14585 12:-4.81864 13:4.78455 14:60.614 15:-0.203621 16:3.07796 17:0.00296279 18:1.3837 19:-0.055136 20:0.753053 21:-0.257079 22:0.897442 23:-0.450764 24:0.929039 25:-0.538976 26:0.282739
1 1:333.534 2:22.7103 3:-6.72701 4:3.06937 5:12.0378 6:-10.9217 7:8.55102 8:-8.73582 9:2.84268 10:-5.16577 11:6.35748 12:-4.62096 13:4.09853 14:60.614 15:-0.203621 16:3.07796 17:0.00296279 18:1.3837 19:-0.055136 20:0.753053 21:-0.257079 22:0.897442 23:-0.450764 24:0.929039 25:-0.538976 26:0.282739
0.44168337245521894 1:330.006 2:23.7786 3:-7.47006 4:2.92178 5:13.0442 6:-11.666 7:8.71169 8:-9.26177 9:3.23668 10:-4.95164 11:5.71473 12:-4.15809 13:4.34182 14:60.614 15:-0.203621 16:3.07796 17:0.00296279 18:1.3837 19:-0.055136 20:0.753053 21:-0.257079 22:0.897442 23:-0.450764 24:0.929039 25:-0.538976 26:0.282739
1 1:330.019 2:24.671 3:-8.31821 4:4.15945 5:13.2109 6:-10.9715 7:10.0464 8:-10.8207 9:3.6595 10:-5.17173 11:4.80287 12:-3.49986 13:4.06352 14:60.614 15:-0.203621 16:3.07796 17:0.00296279 18:1.3837 19:-0.055136 20:0.753053 21:-0.257079 22:0.897442 23:-0.450764 24:0.929039 25:-0.538976 26:0.282739
1 1:324.075 2:24.9259 3:-7.19111 4:4.05481 5:13.635 6:-9.80685 7:10.0427 8:-10.7855 9:3.30986 10:-5.30167 11:4.52752 12:-3.57419 13:4.21948 14:60.614 15:-0.203621 16:3.07796 17:0.00296279 18:1.3837 19:-0.055136 20:0.753053 21:-0.257079 22:0.897442 23:-0.450764 24:0.929039 25:-0.538976 26:0.282739
0.026767042546194227 1:314.573 2:28.0591 3:-6.30038 4:1.386 5:12.8578 6:-7.98975 7:11.1695 8:-9.21439 9:2.24086 10:-5.9144 11:5.05001 12:-4.58667 13:5.69556 14:60.614 15:-0.203621 16:3.07796 17:0.00296279 18:1.3837 19:-0.055136 20:0.753053 21:-0.257079 22:0.897442 23:-0.450764 24:0.929039 25:-0.538976 26:0.282739
1 1:303.465 2:26.6522 3:0.661219 4:-2.52205 5:12.6039 6:-5.32303 7:10.6576 8:-4.764 9:0.503599 10:-6.58637 11:3.42541 12:-4.41528 13:6.58803 14:60.614 15:-0.203621 16:3.07796 17:0.00296279 18:1.3837 19:-0.055136 20:0.753053 21:-0.257079 22:0.897442 23:-0.450764 24:0.929039 25:-0.538976 26:0.282739
1 1:301.76 2:26.1399 3:0.885589 4:-3.21289 5:10.0982 6:-5.89965 7:10.1757 8:-3.64478 9:1.19863 10:-6.74331 11:3.51354 12:-3.89789 13:6.53642 14:60.614 15:-0.203621 16:3.07796 17:0.00296279 18:1.3837 19:-0.055136 20:0.753053 21:-0.257079 22:0.897442 23:-0.450764 24:0.929039 25:-0.538976 26:0.282739
1 1:294.824 2:24.3579 3:5.3148 4:-4.44774 5:7.50127 6:-3.24205 7:9.22433 8:-3.66565 9:3.03441 10:-7.03292 11:2.96935 12:-5.40817 13:7.28353 14:60.614 15:-0.203621 16:3.07796 17:0.00296279 18:1.3837 19:-0.055136 20:0.753053 21:-0.257079 22:0.897442 23:-0.450764 24:0.929039 25:-0.538976 26:0.282739
1 1:288.566 2:25.4971 3:5.14628 4:-3.84755 5:6.4546 6:-5.01636 7:10.1054 8:-3.22598 9:4.23856 10:-7.39637 11:3.26158 12:-5.08986 13:7.53396 14:60.614 15:-0.203621 16:3.07796 17:0.00296279 18:1.3837 19:-0.055136 20:0.753053 21:-0.257079 22:0.897442 23:-0.450764 24:0.929039 25:-0.538976 26:0.282739
0.32177582823505269 1:299.156 2:23.6631 3:8.7012 4:-6.88926 5:5.68534 6:-4.95834 7:7.22894 8:-1.78546 9:4.83939 10:-7.53762 11:2.49561 12:-5.64062 13:6.02309 14:60.614 15:-0.203621 16:3.07796 17:0.00296279 18:1.3837 19:-0.055136 20:0.753053 21:-0.257079 22:0.897442 23:-0.450764 24:0.929039 25:-0.538976 26:0.282739
1 1:298.36 2:26.7515 3:7.08171 4:-5.79793 5:6.74319 6:-6.93169 7:8.95607 8:-1.98524 9:4.89262 10:-7.56336 11:1.23973 12:-6.04953 13:6.96455 14:60.614 15:-0.203621 16:3.07796 17:0.00296279 18:1.3837 19:-0.055136 20:0.753053 21:-0.257079 22:0.897442 23:-0.450764 24:0.929039 25:-0.538976 26:0.282739
1 1:305.834 2:28.8652 3:5.89481 4:-6.01251 5:8.30933 6:-12.0111 7:8.70472 8:-1.70977 9:5.16398 10:-7.39633 11:0.536331 12:-5.51763 13:5.94538 14:60.614 15:-0.203621 16:3.07796 17:0.00296279 18:1.3837 19:-0.055136 20:0.753053 21:-0.257079 22:0.897442 23:-0.450764 24:0.929039 25:-0.538976 26:0.282739
1 1:317.356 2:27.2639 3:6.38623 4:-5.58096 5:7.33881 6:-12.4913 7:7.37812 8:-1.44239 9:5.64474 10:-7.38122 11:-0.27818 12:-5.75935 13:5.38518 14:60.614 15:-0.203621 16:3.07796 17:0.00296279 18:1.3837 19:-0.055136 20:0.753053 21:-0.257079 22:0.897442 23:-0.450764 24:0.929039 25:-0.538976 26:0.282739
1 1:317.79 2:33.644 3:1.47474 4:-2.3015 5:7.08013 6:-15.4469 7:8.15173 8:-3.51028 9:7.6757 10:-9.26822 11:1.99385 12:-7.35938 13:6.11651 14:60.614 15:-0.203621 16:3.07796 17:0.00296279 18:1.3837 19:-0.055136 20:0.753053 21:-0.257079 22:0.897442 23:-0.450764 24:0.929039 25:-0.538976 26:0.282739
1 1:327.813 2:27.6294 3:4.83704 4:-3.04374 5:5.61113 6:-13.8611 7:4.19411 8:-0.936472 9:6.19099 10:-7.97476 11:2.17719 12:-6.47808 13:5.35246 14:60.614 15:-0.203621 16:3.07796 17:0.00296279 18:1.3837 19:-0.055136 20:0.753053 21:-0.257079 22:0.897442 23:-0.450764 24:0.929039 25:-0.538976 26:0.282739
1 1:324.055 2:36.1013 3:-0.887203 4:-0.0450168 5:5.37083 6:-16.1534 7:5.24357 8:-2.92058 9:9.05323 10:-10.3317 11:4.94503 12:-9.14668 13:7.28209 14:60.614 15:-0.203621 16:3.07796 17:0.00296279 18:1.3837 19:-0.055136 20:0.753053 21:-0.257079 22:0.897442 23:-0.450764 24:0.929039 25:-0.538976 26:0.282739
1 1:323.633 2:34.5722 3:0.886532 4:-1.83478 5:5.73827 6:-16.9266 7:4.68382 8:-2.39458 9:7.9673 10:-9.70198 11:3.99386 12:-8.28799 13:6.56511 14:60.614 15:-0.203621 16:3.07796 17:0.00296279 18:1.3837 19:-0.055136 20:0.753053 21:-0.257079 22:0.897442 23:-0.450764 24:0.929039 25:-0.538976 26:0.282739
1 1:329.085 2:33.7688 3:0.972054 4:-3.02977 5:6.11457 6:-17.052 7:5.32123 8:-1.59292 9:7.38256 10:-9.11701 11:2.98145 12:-7.48839 13:6.7011 14:60.614 15:-0.203621 16:3.07796 17:0.00296279 18:1.3837 19:-0.055136 20:0.753053 21:-0.257079 22:0.897442 23:-0.450764 24:0.929039 25:-0.538976 26:0.282739
1 1:328.602 2:34.5474 3:0.68677 4:-2.75084 5:5.74911 6:-17.0409 7:5.70855 8:-1.65698 9:7.72556 10:-10.1185 11:2.77756 12:-7.74237 13:7.17325 14:60.614 15:-0.203621 16:3.07796 17:0.00296279 18:1.3837 19:-0.055136 20:0.753053 21:-0.257079 22:0.897442 23:-0.450764 24:0.929039 25:-0.538976 26:0.282739
0.23410842182302302 1:332.663 2:33.8119 3:-1.89592 4:-5.25752 5:6.42435 6:-14.0104 7:8.70877 8:-2.14762 9:5.76622 10:-11.3548 11:1.24145 12:-6.77353 13:8.69348 14:60.614 15:-0.203621 16:3.07796 17:0.00296279 18:1.3837 19:-0.055136 20:0.753053 21:-0.257079 22:0.897442 23:-0.450764 24:0.929039 25:-0.538976 26:0.282739
1 1:330.505 2:35.5393 3:-4.052 4:-3.15883 5:6.56412 6:-13.1905 7:9.81571 8:-5.08827 9:6.5187 10:-11.902 11:3.01884 12:-6.4531 13:8.66659 14:60.614 15:-0.203621 16:3.07796 17:0.00296279 18:1.3837 19:-0.055136 20:0.753053 21:-0.257079 22:0.897442 23:-0.450764 24:0.929039 25:-0.538976 26:0.282739
1 1:331.99 2:31.2642 3:-1.98965 4:-3.50641 5:6.79676 6:-10.5694 7:9.50038 8:-4.6853 9:2.90973 10:-11.8814 11:2.20854 12:-4.96963 13:9.11039 14:60.614 15:-0.203621 16:3.07796 17:0.00296279 18:1.3837 19:-0.055136 20:0.753053 21:-0.257079 22:0.897442 23:-0.450764 24:0.929039 25:-0.538976 26:0.282739
0.67852864065633656 1:331.154 2:29.5361 3:-3.8482 4:-0.651783 5:7.84292 6:-7.31945 7:10.4015 8:-7.68225 9:1.83508 10:-11.8878 11:4.92734 12:-6.09425 13:6.85864 14:60.614 15:-0.203621 16:3.07796 17:0.00296279 18:1.3837 19:-0.055136 20:0.753053 21:-0.257079 22:0.897442 23:-0.450764 24:0.929039 25:-0.538976 26:0.282739
0.98584283620760293 1:332.738 2:21.305 3:-4.22104 4:4.59224 5:10.3411 6:-5.30365 7:8.92358 8:-10.3361 9:1.8229 10:-6.94798 11:4.13223 12:-5.0799 13:4.98744 14:60.614 15:-0.203621 16:3.07796 17:0.00296279 18:1.3837 19:-0.055136 20:0.753053 21:-0.257079 22:0.897442 23:-0.450764 24:0.929039 25:-0.538976 26:0.282739
1 1:320.254 2:18.7554 3:-3.15397 4:7.97177 5:9.47351 6:-3.43312 7:10.1074 8:-11.629 9:4.93257 10:-6.93271 11:4.1477 12:-5.49127 13:5.34507 14:60.614 15:-0.203621 16:3.07796 17:0.00296279 18:1.3837 19:-0.055136 20:0.753053 21:-0.257079 22:0.897442 23:-0.450764 24:0.929039 25:-0.538976 26:0.282739
1 1:312.357 2:16.7897 3:0.258018 4:8.69504 5:8.0791 6:-4.14517 7:10.3492 8:-10.2172 9:4.87591 10:-5.05286 11:2.92652 12:-5.52865 13:4.07303 14:60.614 15:-0.203621 16:3.07796 17:0.00296279 18:1.3837 19:-0.055136 20:0.753053 21:-0.257079 22:0.897442 23:-0.450764 24:0.929039 25:-0.538976 26:0.282739
1 1:298.685 2:10.1176 3:7.15105 4:8.57997 5:6.06376 6:-2.07931 7:8.17222 8:-5.88036 9:5.4024 10:-7.22311 11:1.90547 12:-5.62189 13:4.4333 14:60.614 15:-0.203621 16:3.07796 17:0.00296279 18:1.3837 19:-0.055136 20:0.753053 21:-0.257079 22:0.897442 23:-0.450764 24:0.929039 25:-0.538976 26:0.282739
1 1:298.654 2:-0.139938 3:10.9671 4:8.65109 5:4.60539 6:0.909992 7:7.31864 8:-3.94254 9:2.76763 10:-5.68082 11:1.73801 12:-4.11342 13:3.60023 14:60.614 15:-0.203621 16:3.07796 17:0.00296279 18:1.3837 19:-0.055136 20:0.753053 21:-0.257079 22:0.897442 23:-0.450764 24:0.929039 25:-0.538976 26:0.282739
1 1:295.9 2:-14.4037 3:13.6431 4:8.2693 5:1.39662 6:1.63074 7:3.13128 8:-3.07161 9:4.232 10:-2.52391 11:0.392616 12:-2.08061 13:2.87929 14:60.614 15:-0.203621 16:3.07796 17:0.00296279 18:1.3837 19:-0.055136 20:0.753053 21:-0.257079 22:0.897442 23:-0.450764 24:0.929039 25:-0.538976 26:0.282739
1 1:294.6 2:-16.4669 3:14.1285 4:6.63579 5:0.651597 6:0.537227 7:3.90606 8:0.118766 9:1.37265 10:-2.62991 11:-0.573764 12:-4.07755 13:2.83173 14:60.614 15:-0.203621 16:3.07796 17:0.00296279 18:1.3837 19:-0.055136 20:0.753053 21:-0.257079 22:0.897442 23:-0.450764 24:0.929039 25:-0.538976 26:0.282739
1 1:296.333 2:-18.4247 3:12.276 4:2.44462 5:-1.21989 6:1.07761 7:4.14846 8:1.65748 9:0.261457 10:-4.98073 11:-0.914925 12:-2.91749 13:0.0231271 14:60.614 15:-0.203621 16:3.07796 17:0.00296279 18:1.3837 19:-0.055136 20:0.753053 21:-0.257079 22:0.897442 23:-0.450764 24:0.929039 25:-0.538976 26:0.282739
1 1:294.657 2:-19.2687 3:12.0305 4:3.60268 5:-0.390975 6:0.481957 7:3.32988 8:2.52611 9:1.82356 10:-5.01477 11:-0.500826 12:-1.74471 13:0.639104 14:60.614 15:-0.203621 16:3.07796 17:0.00296279 18:1.3837 19:-0.055136 20:0.753053 21:-0.257079 22:0.897442 23:-0.450764 24:0.929039 25:-0.538976 26:0.282739
-0.96036008789725558 1:292.965 2:-22.4245 3:15.3452 4:6.98053 5:-0.49512 6:2.00745 7:3.59042 8:0.434722 9:1.80319 10:-2.52629 11:1.08365 12:-2.83016 13:0.610165 14:60.614 15:-0.203621 16:3.07796 17:0.00296279 18:1.3837 19:-0.055136 20:0.753053 21:-0.257079 22:0.897442 23:-0.450764 24:0.929039 25:-0.538976 26:0.282739
-0.28914131102997925 1:295.92 2:-21.616 3:13.2665 4:5.43695 5:-0.802362 6:1.13313 7:2.29344 8:0.610632 9:2.82558 10:-3.82723 11:1.82028 12:-2.94741 13:-0.68555 14:60.614 15:-0.203621 16:3.07796 17:0.00296279 18:1.3837 19:-0.055136 20:0.753053 21:-0.257079 22:0.897442 23:-0.450764 24:0.929039 25:-0.538976 26:0.282739
-0.24865432090114256 1:296.312 2:-18.7869 3:10.8427 4:3.53686 5:1.5049 6:-0.326858 7:-0.124392 8:-1.49688 9:3.14074 10:-1.53914 11:-0.268743 12:-1.86948 13:1.48512 14:60.614 15:-0.203621 16:3.07796 17:0.00296279 18:1.3837 19:-0.055136 20:0.753053 21:-0.257079 22:0.897442 23:-0.450764 24:0.929039 25:-0.538976 26:0.282739
-1 1:298.851 2:-18.9691 3:8.88847 4:2.49187 5:0.148173 6:1.09818 7:1.97278 8:1.7439 9:4.09544 10:-2.49009 11:-0.485708 12:-0.0289042 13:3.10507 14:60.614 15:-0.203621 16:3.07796 17:0.00296279 18:1.3837 19:-0.055136 20:0.753053 21:-0.257079 22:0.897442 23:-0.450764 24:0.929039 25:-0.538976 26:0.282739
-0.36744860175085425 1:294.216 2:-18.4974 3:8.58429 4:3.61454 5:0.717245 6:0.247887 7:-0.411297 8:0.430064 9:5.24111 10:-4.10299 11:-0.826934 12:-1.39074 13:3.19698 14:60.614 15:-0.203621 16:3.07796 17:0.00296279 18:1.3837 19:-0.055136 20:0.753053 21:-0.257079 22:0.897442 23:-0.450764 24:0.929039 25:-0.538976 26:0.282739
-0.26778793906308773 1:280.92 2:-17.7891 3:5.91493 4:5.82792 5:4.7368 6:2.85291 7:1.35994 8:-3.39771 9:3.73231 10:-3.93284 11:0.761757 12:-2.29758 13:0.117329 14:60.614 15:-0.203621 16:3.07796 17:0.00296279 18:1.3837 19:-0.055136 20:0.753053 21:-0.257079 22:0.897442 23:-0.450764 24:0.929039 25:-0.538976 26:0.282739
-0.67413073177268201 1:300.353 2:5.23899 3:10.4583 4:2.74966 5:11.5607 6:5.49084 7:2.81626 8:-5.48524 9:6.89106 10:-3.97539 11:0.730173 12:-3.82185 13:2.29216 14:60.614 15:-0.203621 16:3.07796 17:0.00296279 18:1.3837 19:-0.055136 20:0.753053 21:-0.257079 22:0.897442 23:-0.450764 24:0.929039 25:-0.538976 26:0.282739
-1 1:310.225 2:5.3863 3:7.37302 4:6.17485 5:13.0686 6:2.13274 7:4.2095 8:-4.63349 9:4.53516 10:-2.62342 11:1.13693 12:-4.67406 13:3.78301 14:60.614 15:-0.203621 16:3.07796 17:0.00296279 18:1.3837 19:-0.055136 20:0.753053 21:-0.257079 22:0.897442 23:-0.450764 24:0.929039 25:-0.538976 26:0.282739
-0.26199807128258612 1:311.221 2:3.87037 3:8.78335 4:5.03987 5:11.6453 6:3.50913 7:5.02409 8:-4.88685 9:3.73066 10:-2.50384 11:2.18299 12:-4.50894 13:2.93081 14:60.614 15:-0.203621 16:3.07796 17:0.00296279 18:1.3837 19:-0.055136 20:0.753053 21:-0.257079 22:0.897442 23:-0.450764 24:0.929039 25:-0.538976 26:0.282739
-0.18722809553770575 1:307.172 2:0.721854 3:14.5023 4:5.22824 5:10.2949 6:6.56862 7:3.33646 8:-6.59434 9:4.34891 10:-3.27449 11:4.15477 12:-2.67027 13:2.52132 14:60.614 15:-0.203621 16:3.07796 17:0.00296279 18:1.3837 19:-0.055136 20:0.753053 21:-0.257079 22:0.897442 23:-0.450764 24:0.929039 25:-0.538976 26:0.282739
-0.62539195451758489 1:295.401 2:-5.76079 3:19.3795 4:4.90743 5:4.74674 6:6.37525 7:5.68867 8:-1.99299 9:1.25974 10:-4.14485 11:1.72333 12:-0.867608 13:1.41818 14:60.614 15:-0.203621 16:3.07796 17:0.00296279 18:1.3837 19:-0.055136 20:0.753053 21:-0.257079 22:0.897442 23:-0.450764 24:0.929039 25:-0.538976 26:0.282739
-0.0013493239132584553 1:294.674 2:-9.52111 3:16.3757 4:8.03886 5:4.86444 6:3.16257 7:4.12317 8:0.826693 9:3.1967 10:-2.60855 11:2.02949 12:-1.50025 13:-0.340391 14:60.614 15:-0.203621 16:3.07796 17:0.00296279 18:1.3837 19:-0.055136 20:0.753053 21:-0.257079 22:0.897442 23:-0.450764 24:0.929039 25:-0.538976 26:0.282739
-1 1:294.86 2:-8.67556 3:14.6759 4:9.32905 5:4.50081 6:2.57831 7:5.9401 8:-1.65124 9:2.06657 10:-2.67411 11:2.22361 12:-2.37118 13:-0.553709 14:60.614 15:-0.203621 16:3.07796 17:0.00296279 18:1.3837 19:-0.055136 20:0.753053 21:-0.257079 22:0.897442 23:-0.450764 24:0.929039 25:-0.538976 26:0.282739
-0.50557644755300823 1:293.36 2:-4.50461 3:12.2069 4:8.79393 5:7.43217 6:2.2911 7:7.997 8:-4.34845 9:-1.49119 10:-1.92125 11:4.63069 12:-2.12507 13:1.04701 14:60.614 15:-0.203621 16:3.07796 17:0.00296279 18:1.3837 19:-0.055136 20:0.753053 21:-0.257079 22:0.897442 23:-0.450764 24:0.929039 25:-0.538976 26:0.282739
-0.41236422514957261 1:253.02 2:11.4267 3:15.374 4:4.19205 5:7.60686 6:-0.651051 7:5.64313 8:-1.34007 9:4.98646 10:-4.76016 11:3.30737 12:-3.94817 13:5.06476 14:60.614 15:-0.203621 16:3.07796 17:0.00296279 18:1.3837 19:-0.055136 20:0.753053 21:-0.257079 22:0.897442 23:-0.450764 24:0.929039 25:-0.538976 26:0.282739
-0.46894607277845174 1:261.509 2:12.9319 3:16.1186 4:4.50946 5:6.42583 6:-0.619097 7:6.60534 8:0.00215496 9:5.59112 10:-6.22429 11:1.18044 12:-6.2322 13:6.30099 14:60.614 15:-0.203621 16:3.07796 17:0.00296279 18:1.3837 19:-0.055136 20:0.753053 21:-0.257079 22:0.897442 23:-0.450764 24:0.929039 25:-0.538976 26:0.282739
-0.20654628063325281 1:277.585 2:13.2849 3:12.2887 4:4.75929 5:7.12864 6:-1.62019 7:9.23342 8:-0.992761 9:7.52182 10:-7.74803 11:0.376727 12:-4.53742 13:4.74483 14:60.614 15:-0.203621 16:3.07796 17:0.00296279 18:1.3837 19:-0.055136 20:0.753053 21:-0.257079 22:0.897442 23:-0.450764 24:0.929039 25:-0.538976 26:0.282739
-0.38701020818558024 1:285.831 2:13.2409 3:9.21029 4:5.53408 5:5.09863 6:-1.44865 7:9.50224 8:-0.83848 9:8.60535 10:-8.36518 11:1.78127 12:-4.69441 13:3.14576 14:60.614 15:-0.203621 16:3.07796 17:0.00296279 18:1.3837 19:-0.055136 20:0.753053 21:-0.257079 22:0.897442 23:-0.450764 24:0.929039 25:-0.538976 26:0.282739
-1 1:291.984 2:15.9082 3:5.50604 4:4.95622 5:4.67105 6:-4.14392 7:9.81234 8:0.639891 9:9.26606 10:-6.11433 11:2.55612 12:-6.14439 13:4.3244 14:60.614 15:-0.203621 16:3.07796 17:0.00296279 18:1.3837 19:-0.055136 20:0.753053 21:-0.257079 22:0.897442 23:-0.450764 24:0.929039 25:-0.538976 26:0.282739
-0.17583506263640111 1:291.426 2:17.9375 3:3.86772 4:4.84056 5:6.33676 6:-6.35561 7:10.9264 8:-0.707908 9:9.32843 10:-5.49893 11:2.57958 12:-5.50587 13:4.15987 14:60.614 15:-0.203621 16:3.07796 17:0.00296279 18:1.3837 19:-0.055136 20:0.753053 21:-0.257079 22:0.897442 23:-0.450764 24:0.929039 25:-0.538976 26:0.282739
-1 1:301.33 2:17.377 3:4.75377 4:3.31604 5:5.21799 6:-7.6448 7:9.21341 8:-0.309144 9:7.90353 10:-5.00166 11:3.09564 12:-4.59873 13:5.15057 14:60.614 15:-0.203621 16:3.07796 17:0.00296279 18:1.3837 19:-0.055136 20:0.753053 21:-0.257079 22:0.897442 23:-0.450764 24:0.929039 25:-0.538976 26:0.282739
-1 1:317.964 2:20.6656 3:6.37323 4:0.462034 5:1.32979 6:-11.4955 7:8.98907 8:0.301657 9:5.10572 10:-5.60393 11:4.1839 12:-6.5092 13:6.16783 14:60.614 15:-0.203621 16:3.07796 17:0.00296279 18:1.3837 19:-0.055136 20:0.753053 21:-0.257079 22:0.897442 23:-0.450764 24:0.929039 25:-0.538976 26:0.282739
-1 1:326.441 2:26.5243 3:0.961752 4:-0.284922 5:1.81845 6:-11.8416 7:12.4206 8:-1.321 9:4.83097 10:-8.60427 11:4.06648 12:-6.57861 13:5.99362 14:60.614 15:-0.203621 16:3.07796 17:0.00296279 18:1.3837 19:-0.055136 20:0.753053 21:-0.257079 22:0.897442 23:-0.450764 24:0.929039 25:-0.538976 26:0.282739
-1 1:325.913 2:27.181 3:-1.03366 4:-0.785343 5:2.32338 6:-11.3656 7:13.9103 8:-1.93941 9:4.80486 10:-9.7108 11:4.51298 12:-5.49355 13:6.59415 14:60.614 15:-0.203621 16:3.07796 17:0.00296279 18:1.3837 19:-0.055136 20:0.753053 21:-0.257079 22:0.897442 23:-0.450764 24:0.929039 25:-0.538976 26:0.282739
-1 1:327.986 2:29.3595 3:-5.91739 4:0.0226397 5:5.16643 6:-10.9565 7:13.668 8:-4.89947 9:3.94239 10:-10.4027 11:6.43652 12:-3.9446 13:6.78222 14:60.614 15:-0.203621 16:3.07796 17:0.00296279 18:1.3837 19:-0.055136 20:0.753053 21:-0.257079 22:0.897442 23:-0.450764 24:0.929039 25:-0.538976 26:0.282739
-1 1:331.855 2:26.2511 3:-4.32258 4:-0.866278 5:5.78093 6:-9.7806 7:12.4946 8:-4.06259 9:2.18272 10:-9.35764 11:5.94646 12:-2.97221 13:6.73209 14:60.614 15:-0.203621 16:3.07796 17:0.00296279 18:1.3837 19:-0.055136 20:0.753053 21:-0.257079 22:0.897442 23:-0.450764 24:0.929039 25:-0.538976 26:0.282739
-1 1:329.875 2:27.1067 3:-8.2912 4:0.613774 5:8.78676 6:-9.72328 7:12.605 8:-7.13326 9:2.54857 10:-7.81672 11:7.17598 12:-3.36424 13:5.98625 14:60.614 15:-0.203621 16:3.07796 17:0.00296279 18:1.3837 19:-0.055136 20:0.753053 21:-0.257079 22:0.897442 23:-0.450764 24:0.929039 25:-0.538976 26:0.282739
-1 1:332.182 2:27.0756 3:-8.47106 4:2.04492 5:9.82118 6:-9.64918 7:12.0906 8:-7.94196 9:2.69694 10:-7.56076 11:7.7135 12:-3.61479 13:5.69809 14:60.614 15:-0.203621 16:3.07796 17:0.00296279 18:1.3837 19:-0.055136 20:0.753053 21:-0.257079 22:0.897442 23:-0.450764 24:0.929039 25:-0.538976 26:0.282739
-1 1:329.767 2:25.1883 3:-7.5408 4:4.69625 5:11.1725 6:-8.98929 7:9.9552 8:-9.25423 9:3.77455 10:-6.31227 11:6.7604 12:-3.90944 13:4.63866 14:60.614 15:-0.203621 16:3.07796 17:0.00296279 18:1.3837 19:-0.055136 20:0.753053 21:-0.257079 22:0.897442 23:-0.450764 24:0.929039 25:-0.538976 26:0.282739
-1 1:330.465 2:24.7622 3:-7.68702 4:6.52302 5:12.0705 6:-9.27916 7:9.29746 8:-8.97523 9:4.69171 10:-6.26673 11:6.04024 12:-4.77529 13:5.33692 14:60.614 15:-0.203621 16:3.07796 17:0.00296279 18:1.3837 19:-0.055136 20:0.753053 21:-0.257079 22:0.897442 23:-0.450764 24:0.929039 25:-0.538976 26:0.282739
-1 1:330.254 2:18.7249 3:-3.23984 4:7.78421 5:13.7396 6:-8.25013 7:7.19657 8:-6.24716 9:4.40461 10:-4.75228 11:3.84381 12:-5.53706 13:4.95805 14:60.614 15:-0.203621 16:3.07796 17:0.00296279 18:1.3837 19:-0.055136 20:0.753053 21:-0.257079 22:0.897442 23:-0.450764 24:0.929039 25:-0.538976 26:0.282739
-1 1:319.877 2:23.0242 3:-6.67708 4:8.32926 5:16.9165 6:-10.0049 7:9.88552 8:-8.55578 9:5.75671 10:-3.94543 11:3.70876 12:-5.88119 13:3.62869 14:60.614 15:-0.203621 16:3.07796 17:0.00296279 18:1.3837 19:-0.055136 20:0.753053 21:-0.257079 22:0.897442 23:-0.450764 24:0.929039 25:-0.538976 26:0.282739
-1 1:312.563 2:24.0647 3:-7.26601 4:7.36767 5:17.8862 6:-8.10679 7:10.9387 8:-7.70654 9:3.50088 10:-3.27856 11:5.44214 12:-7.36043 13:5.45402 14:60.614 15:-0.203621 16:3.07796 17:0.00296279 18:1.3837 19:-0.055136 20:0.753053 21:-0.257079 22:0.897442 23:-0.450764 24:0.929039 25:-0.538976 26:0.282739
-1 1:305.009 2:19.8736 3:-2.84914 4:6.72563 5:18.7088 6:-4.96255 7:9.91091 8:-5.87126 9:1.6199 10:-3.20289 11:5.33326 12:-8.14978 13:5.29666 14:60.614 15:-0.203621 16:3.07796 17:0.00296279 18:1.3837 19:-0.055136 20:0.753053 21:-0.257079 22:0.897442 23:-0.450764 24:0.929039 25:-0.538976 26:0.282739
-0.4914986082413107 1:266.805 2:19.7627 3:5.92597 4:3.34976 5:14.6348 6:-4.01177 7:9.24807 8:-4.57424 9:1.39763 10:-4.81534 11:6.48299 12:-4.88034 13:5.44268 14:60.614 15:-0.203621 16:3.07796 17:0.00296279 18:1.3837 19:-0.055136 20:0.753053 21:-0.257079 22:0.897442 23:-0.450764 24:0.929039 25:-0.538976 26:0.282739
-0.42327760610043297 1:251.838 2:17.4265 3:6.32669 4:0.964653 5:14.0365 6:-3.63862 7:5.08894 8:-3.66188 9:6.86644 10:-3.21665 11:4.36212 12:-4.28043 13:3.7741 14:60.614 15:-0.203621 16:3.07796 17:0.00296279 18:1.3837 19:-0.055136 20:0.753053 21:-0.257079 22:0.897442 23:-0.450764 24:0.929039 25:-0.538976 26:0.282739
-0.0014705818931140154 1:241.17 2:16.0881 3:9.59451 4:-0.764793 5:11.0442 6:-2.5416 7:3.95595 8:-2.95803 9:5.71182 10:-2.64507 11:4.51277 12:-4.47743 13:3.65762 14:60.614 15:-0.203621 16:3.07796 17:0.00296279 18:1.3837 19:-0.055136 20:0.753053 21:-0.257079 22:0.897442 23:-0.450764 24:0.929039 25:-0.538976 26:0.282739
-1 1:244.501 2:6.89174 3:7.39484 4:-0.352619 5:7.59758 6:-0.393447 7:4.0675 8:-0.655106 9:4.09309 10:-4.29003 11:3.98994 12:-4.40528 13:2.59189 14:60.614 15:-0.203621 16:3.07796 17:0.00296279 18:1.3837 19:-0.055136 20:0.753053 21:-0.257079 22:0.897442 23:-0.450764 24:0.929039 25:-0.538976 26:0.282739
-0.75801512173933194 1:288.559 2:0.832214 3:4.20228 4:-3.08991 5:2.05266 6:-2.09158 7:2.43711 8:-0.329129 9:1.24933 10:-5.38375 11:3.07863 12:-2.6515 13:2.17988 14:60.614 15:-0.203621 16:3.07796 17:0.00296279 18:1.3837 19:-0.055136 20:0.753053 21:-0.257079 22:0.897442 23:-0.450764 24:0.929039 25:-0.538976 26:0.282739
-0.88607346700788536 1:313.754 2:0.276506 3:3.28887 4:-3.73322 5:4.10967 6:2.69285 7:8.06059 8:-2.44793 9:-3.07161 10:-4.70398 11:2.98006 12:-5.0487 13:4.87982 14:60.614 15:-0.203621 16:3.07796 17:0.00296279 18:1.3837 19:-0.055136 20:0.753053 21:-0.257079 22:0.897442 23:-0.450764 24:0.929039 25:-0.538976 26:0.282739
-0.091045584004678701 1:309.16 2:3.21905 3:3.18233 4:-1.57484 5:6.57924 6:-0.180494 7:6.43339 8:-0.798412 9:-2.73759 10:-5.58554 11:4.26955 12:-3.62237 13:5.56991 14:60.614 15:-0.203621 16:3.07796 17:0.00296279 18:1.3837 19:-0.055136 20:0.753053 21:-0.257079 22:0.897442 23:-0.450764 24:0.929039 25:-0.538976 26:0.282739
-0.75230073596219094 1:272.213 2:15.6983 3:8.83793 4:-2.18772 5:2.8945 6:-6.88237 7:3.75402 8:0.245595 9:3.04601 10:-5.11799 11:4.17604 12:-4.54934 13:4.73411 14:60.614 15:-0.203621 16:3.07796 17:0.00296279 18:1.3837 19:-0.055136 20:0.753053 21:-0.257079 22:0.897442 23:-0.450764 24:0.929039 25:-0.538976 26:0.282739
-1 1:309.639 2:23.093 3:8.73232 4:-4.20094 5:1.66755 6:-10.4647 7:5.50832 8:-1.7447 9:3.66477 10:-8.05739 11:1.87987 12:-5.96464 13:4.39665 14:60.614 15:-0.203621 16:3.07796 17:0.00296279 18:1.3837 19:-0.055136 20:0.753053 21:-0.257079 22:0.897442 23:-0.450764 24:0.929039 25:-0.538976 26:0.282739
-1 1:324.917 2:32.9983 3:0.960945 4:-2.39086 5:4.11716 6:-14.6439 7:7.00456 8:-3.55131 9:6.78994 10:-9.56545 11:3.35318 12:-8.24223 13:6.88482 14:60.614 15:-0.203621 16:3.07796 17:0.00296279 18:1.3837 19:-0.055136 20:0.753053 21:-0.257079 22:0.897442 23:-0.450764 24:0.929039 25:-0.538976 26:0.282739
-1 1:323.001 2:34.7797 3:0.07328 4:-2.89682 5:3.88749 6:-15.1365 7:6.60685 8:-3.69551 9:7.08725 10:-10.2646 11:3.71955 12:-8.4215 13:7.73102 14:60.614 15:-0.203621 16:3.07796 17:0.00296279 18:1.3837 19:-0.055136 20:0.753053 21:-0.257079 22:0.897442 23:-0.450764 24:0.929039 25:-0.538976 26:0.282739
-1 1:325.411 2:35.0745 3:1.66587 4:-4.78952 5:5.43869 6:-14.7343 7:7.04102 8:-0.896243 9:8.43461 10:-7.73687 11:5.08878 12:-6.22069 13:8.90038 14:60.614 15:-0.203621 16:3.07796 17:0.00296279 18:1.3837 19:-0.055136 20:0.753053 21:-0.257079 22:0.897442 23:-0.450764 24:0.929039 25:-0.538976 26:0.282739
-1 1:318.674 2:35.3039 3:-1.07281 4:-5.78379 5:2.98334 6:-16.3778 7:5.51864 8:-1.90465 9:8.54522 10:-9.28408 11:5.49301 12:-6.90419 13:9.31754 14:60.614 15:-0.203621 16:3.07796 17:0.00296279 18:1.3837 19:-0.055136 20:0.753053 21:-0.257079 22:0.897442 23:-0.450764 24:0.929039 25:-0.538976 26:0.282739
-1 1:316.758 2:35.3078 3:-0.770602 4:-6.83836 5:3.3541 6:-16.1567 7:5.23975 8:-3.10643 9:6.78411 10:-10.2934 11:4.61222 12:-6.48546 13:8.02208 14:60.614 15:-0.203621 16:3.07796 17:0.00296279 18:1.3837 19:-0.055136 20:0.753053 21:-0.257079 22:0.897442 23:-0.450764 24:0.929039 25:-0.538976 26:0.282739
-1 1:322.296 2:33.5505 3:0.381586 4:-7.20261 5:2.95578 6:-15.0579 7:4.79683 8:-2.5935 9:6.92233 10:-9.98138 11:4.2708 12:-5.47326 13:7.37961 14:60.614 15:-0.203621 16:3.07796 17:0.00296279 18:1.3837 19:-0.055136 20:0.753053 21:-0.257079 22:0.897442 23:-0.450764 24:0.929039 25:-0.538976 26:0.282739
-1 1:321.635 2:30.4966 3:3.17128 4:-8.33918 5:2.08258 6:-14.8887 7:3.92825 8:-1.23164 9:6.03813 10:-10.0692 11:3.78102 12:-4.41002 13:7.16017 14:60.614 15:-0.203621 16:3.07796 17:0.00296279 18:1.3837 19:-0.055136 20:0.753053 21:-0.257079 22:0.897442 23:-0.450764 24:0.929039 25:-0.538976 26:0.282739
-0.34794140759563646 1:311.743 2:34.2775 3:0.74333 4:-7.83686 5:1.79304 6:-14.3165 7:4.22098 8:-1.75912 9:7.94286 10:-11.2617 11:5.78617 12:-6.2529 13:7.26328 14:60.614 15:-0.203621 16:3.07796 17:0.00296279 18:1.3837 19:-0.055136 20:0.753053 21:-0.257079 22:0.897442 23:-0.450764 24:0.929039 25:-0.538976 26:0.282739
-0.29744147505747881 1:311.287 2:35.758 3:-0.463619 4:-7.75352 5:2.13029 6:-15.4375 7:4.87477 8:-1.11967 9:7.32419 10:-11.309 11:5.80741 12:-6.26615 13:6.36625 14:60.614 15:-0.203621 16:3.07796 17:0.00296279 18:1.3837 19:-0.055136 20:0.753053 21:-0.257079 22:0.897442 23:-0.450764 24:0.929039 25:-0.538976 26:0.282739
-0.58547541285798543 1:315.856 2:29.179 3:4.46098 4:-8.90576 5:1.40507 6:-14.8238 7:4.12485 8:0.246984 9:6.50028 10:-10.3309 11:3.94781 12:-4.17319 13:5.11842 14:60.614 15:-0.203621 16:3.07796 17:0.00296279 18:1.3837 19:-0.055136 20:0.753053 21:-0.257079 22:0.897442 23:-0.450764 24:0.929039 25:-0.538976 26:0.282739
-0.23090658985893681 1:310.038 2:28.0678 3:1.526 4:-0.178666 5:-4.45086 6:-12.5739 7:8.65149 8:-1.73143 9:6.80176 10:-11.6455 11:7.52449 12:-5.80815 13:7.45437 14:60.614 15:-0.203621 16:3.07796 17:0.00296279 18:1.3837 19:-0.055136 20:0.753053 21:-0.257079 22:0.897442 23:-0.450764 24:0.929039 25:-0.538976 26:0.282739
-1 1:298.093 2:24.221 3:5.03997 4:0.0761181 5:-5.30159 6:-10.7495 7:9.2579 8:-1.25174 9:5.05573 10:-12.0408 11:6.46274 12:-4.4012 13:7.87376 14:60.614 15:-0.203621 16:3.07796 17:0.00296279 18:1.3837 19:-0.055136 20:0.753053 21:-0.257079 22:0.897442 23:-0.450764 24:0.929039 25:-0.538976 26:0.282739
-0.15093202741762832 1:281.726 2:18.3899 3:5.90466 4:-1.09621 5:-6.28857 6:-8.9492 7:9.14691 8:-3.71817 9:7.24484 10:-10.0286 11:4.85898 12:-1.49518 13:4.35784 14:60.614 15:-0.203621 16:3.07796 17:0.00296279 18:1.3837 19:-0.055136 20:0.753053 21:-0.257079 22:0.897442 23:-0.450764 24:0.929039 25:-0.538976 26:0.282739
-0.46158632186946957 1:277.558 2:15.026 3:3.95485 4:-1.81264 5:-6.54882 6:-8.81471 7:6.97506 8:-4.25026 9:6.06208 10:-9.62933 11:6.40436 12:0.681303 13:4.15699 14:60.614 15:-0.203621 16:3.07796 17:0.00296279 18:1.3837 19:-0.055136 20:0.753053 21:-0.257079 22:0.897442 23:-0.450764 24:0.929039 25:-0.538976 26:0.282739
-0.030551463337562472 1:283.602 2:-0.777551 3:7.0973 4:-1.75267 5:-3.67563 6:-3.58489 7:6.63858 8:0.481897 9:0.317808 10:-7.16738 11:3.63692 12:0.938326 13:3.13379 14:60.614 15:-0.203621 16:3.07796 17:0.00296279 18:1.3837 19:-0.055136 20:0.753053 21:-0.257079 22:0.897442 23:-0.450764 24:0.929039 25:-0.538976 26:0.282739
-0.94560422705946912 1:298.02 2:-18.7281 3:13.4715 4:4.11601 5:-6.15812 6:-1.34743 7:1.30409 8:-3.028 9:-1.0502 10:-2.61736 11:2.71527 12:-0.962996 13:1.17487 14:60.614 15:-0.203621 16:3.07796 17:0.00296279 18:1.3837 19:-0.055136 20:0.753053 21:-0.257079 22:0.897442 23:-0.450764 24:0.929039 25:-0.538976 26:0.282739
-0.12657245430061592 1:293.6 2:-21.6912 3:13.8429 4:2.99 5:-9.16473 6:-2.54601 7:3.80027 8:-0.569851 9:1.10364 10:-5.59675 11:2.07192 12:-0.669898 13:0.197099 14:60.614 15:-0.203621 16:3.07796 17:0.00296279 18:1.3837 19:-0.055136 20:0.753053 21:-0.257079 22:0.897442 23:-0.450764 24:0.929039 25:-0.538976 26:0.282739
-0.34838283361403727 1:296.365 2:-22.5821 3:4.47346 4:5.03861 5:-4.9472 6:-1.39103 7:5.99602 8:0.0685055 9:1.38456 10:-3.04296 11:0.803687 12:-1.58121 13:2.99806 14:60.614 15:-0.203621 16:3.07796 17:0.00296279 18:1.3837 19:-0.055136 20:0.753053 21:-0.257079 22:0.897442 23:-0.450764 24:0.929039 25:-0.538976 26:0.282739
-0.34962567341891937 1:275.084 2:-13.9627 3:3.27875 4:5.51485 5:-3.45378 6:-5.35663 7:5.80026 8:-2.96866 9:-6.2391 10:-2.86865 11:5.65203 12:-4.1208 13:3.2545 14:60.614 15:-0.203621 16:3.07796 17:0.00296279 18:1.3837 19:-0.055136 20:0.753053 21:-0.257079 22:0.897442 23:-0.450764 24:0.929039 25:-0.538976 26:0.282739
-0.27535643242045582 1:263.161 2:-4.95661 3:6.903 4:6.50878 5:-0.424883 6:-5.2066 7:8.20618 8:-2.26613 9:-5.60697 10:-3.46906 11:4.27099 12:-5.24961 13:2.83159 14:60.614 15:-0.203621 16:3.07796 17:0.00296279 18:1.3837 19:-0.055136 20:0.753053 21:-0.257079 22:0.897442 23:-0.450764 24:0.929039 25:-0.538976 26:0.282739
-0.16758775023762748 1:256.452 2:-1.78456 3:7.02861 4:5.37197 5:-0.0975327 6:-3.91737 7:8.89939 8:-2.92563 9:-5.34838 10:-5.03009 11:3.78452 12:-5.19299 13:4.41976 14:60.614 15:-0.203621 16:3.07796 17:0.00296279 18:1.3837 19:-0.055136 20:0.753053 21:-0.257079 22:0.897442 23:-0.450764 24:0.929039 25:-0.538976 26:0.282739
-1 1:278.758 2:21.576 3:10.6235 4:-0.881028 5:5.13225 6:-4.68255 7:11.7381 8:-2.98289 9:1.4343 10:-7.99798 11:3.42439 12:-4.1564 13:4.99645 14:60.614 15:-0.203621 16:3.07796 17:0.00296279 18:1.3837 19:-0.055136 20:0.753053 21:-0.257079 22:0.897442 23:-0.450764 24:0.929039 25:-0.538976 26:0.282739
-1 1:291.686 2:27.3668 3:3.52047 4:-1.83934 5:8.75999 6:-7.56072 7:11.6104 8:-1.6543 9:2.44221 10:-10.1112 11:2.5449 12:-4.80985 13:6.91686 14:60.614 15:-0.203621 16:3.07796 17:0.00296279 18:1.3837 19:-0.055136 20:0.753053 21:-0.257079 22:0.897442 23:-0.450764 24:0.929039 25:-0.538976 26:0.282739
-0.82354243447902753 1:291.802 2:29.4529 3:2.9361 4:-1.59452 5:8.72854 6:-7.97504 7:11.1453 8:-2.58216 9:2.42617 10:-10.5427 11:3.06094 12:-5.88961 13:7.18787 14:60.614 15:-0.203621 16:3.07796 17:0.00296279 18:1.3837 19:-0.055136 20:0.753053 21:-0.257079 22:0.897442 23:-0.450764 24:0.929039 25:-0.538976 26:0.282739
-1 1:291.922 2:28.4542 3:4.33989 4:-3.40665 5:8.60658 6:-8.12573 7:10.627 8:-2.02874 9:2.52792 10:-9.95078 11:2.64487 12:-5.70019 13:6.57285 14:60.614 15:-0.203621 16:3.07796 17:0.00296279 18:1.3837 19:-0.055136 20:0.753053 21:-0.257079 22:0.897442 23:-0.450764 24:0.929039 25:-0.538976 26:0.282739
-1 1:298.305 2:27.7252 3:4.03792 4:-4.84161 5:8.90686 6:-8.21009 7:9.20723 8:-1.31889 9:1.86674 10:-9.95829 11:3.29987 12:-5.4542 13:6.48196 14:60.614 15:-0.203621 16:3.07796 17:0.00296279 18:1.3837 19:-0.055136 20:0.753053 21:-0.257079 22:0.897442 23:-0.450764 24:0.929039 25:-0.538976 26:0.282739
-1 1:298.606 2:31.9944 3:-0.289496 4:-4.19759 5:10.487 6:-10.7177 7:8.80672 8:-0.766089 9:2.04373 10:-11.195 11:4.56411 12:-5.88071 13:6.54779 14:60.614 15:-0.203621 16:3.07796 17:0.00296279 18:1.3837 19:-0.055136 20:0.753053 21:-0.257079 22:0.897442 23:-0.450764 24:0.929039 25:-0.538976 26:0.282739
-1 1:302.969 2:30.6388 3:1.31849 4:-4.9101 5:10.7558 6:-9.32776 7:6.99533 8:0.786465 9:2.18491 10:-12.4849 11:5.08858 12:-5.56924 13:5.91987 14:60.614 15:-0.203621 16:3.07796 17:0.00296279 18:1.3837 19:-0.055136 20:0.753053 21:-0.257079 22:0.897442 23:-0.450764 24:0.929039 25:-0.538976 26:0.282739
-0.13154921729706626 1:299.046 2:32.1575 3:0.920141 4:-6.51326 5:12.5447 6:-8.26043 7:5.42943 8:0.435205 9:5.13367 10:-14.6833 11:5.05838 12:-4.34944 13:5.22408 14:60.614 15:-0.203621 16:3.07796 17:0.00296279 18:1.3837 19:-0.055136 20:0.753053 21:-0.257079 22:0.897442 23:-0.450764 24:0.929039 25:-0.538976 26:0.282739
-0.099746640144371027 1:295.193 2:35.2334 3:0.0938846 4:-8.65551 5:14.4831 6:-6.86092 7:4.13025 8:-0.381217 9:7.33178 10:-13.9708 11:4.23655 12:-4.15049 13:5.7744 14:60.614 15:-0.203621 16:3.07796 17:0.00296279 18:1.3837 19:-0.055136 20:0.753053 21:-0.257079 22:0.897442 23:-0.450764 24:0.929039 25:-0.538976 26:0.282739
-1 1:281.449 2:19.0699 3:5.96646 4:-5.86252 5:6.6694 6:-1.67655 7:7.44147 8:-0.787808 9:4.6526 10:-8.71648 11:1.77964 12:-3.36862 13:5.73502 14:60.614 15:-0.203621 16:3.07796 17:0.00296279 18:1.3837 19:-0.055136 20:0.753053 21:-0.257079 22:0.897442 23:-0.450764 24:0.929039 25:-0.538976 26:0.282739
-0.72468606889292975 1:261.305 2:24.3184 3:8.10859 4:-2.2258 5:9.1241 6:-1.80181 7:10.109 8:0.302441 9:4.55758 10:-10.786 11:3.98145 12:-3.4167 13:6.78645 14:60.614 15:-0.203621 16:3.07796 17:0.00296279 18:1.3837 19:-0.055136 20:0.753053 21:-0.257079 22:0.897442 23:-0.450764 24:0.929039 25:-0.538976 26:0.282739
-0.015693067826276941 1:244.124 2:19.7599 3:13.6388 4:-1.16701 5:10.5683 6:-0.302654 7:8.1348 8:-1.69765 9:6.09722 10:-8.27732 11:3.07619 12:-2.09708 13:7.32801 14:60.614 15:-0.203621 16:3.07796 17:0.00296279 18:1.3837 19:-0.055136 20:0.753053 21:-0.257079 22:0.897442 23:-0.450764 24:0.929039 25:-0.538976 26:0.282739
-0.24813675408924776 1:240.501 2:15.2873 3:14.7173 4:1.05286 5:10.0863 6:-0.712961 7:6.40489 8:-1.45304 9:4.84297 10:-7.46653 11:2.10494 12:-1.67525 13:8.28219 14:60.614 15:-0.203621 16:3.07796 17:0.00296279 18:1.3837 19:-0.055136 20:0.753053 21:-0.257079 22:0.897442 23:-0.450764 24:0.929039 25:-0.538976 26:0.282739
-0.23476548216236404 1:228.797 2:12.1297 3:14.8895 4:2.15384 5:8.72919 6:0.418205 7:8.50092 8:-2.80811 9:4.9913 10:-4.36892 11:0.543644 12:-2.7488 13:6.6306 14:60.614 15:-0.203621 16:3.07796 17:0.00296279 18:1.3837 19:-0.055136 20:0.753053 21:-0.257079 22:0.897442 23:-0.450764 24:0.929039 25:-0.538976 26:0.282739
-1 1:223.912 2:8.16171 3:14.5992 4:2.90003 5:8.77719 6:0.783994 7:11.3661 8:-0.433077 9:6.36699 10:-2.36763 11:3.60335 12:-3.52957 13:4.37408 14:60.614 15:-0.203621 16:3.07796 17:0.00296279 18:1.3837 19:-0.055136 20:0.753053 21:-0.257079 22:0.897442 23:-0.450764 24:0.929039 25:-0.538976 26:0.282739
-1 1:225.768 2:6.93196 3:13.8721 4:2.78306 5:8.79355 6:-0.899126 7:10.142 8:0.526482 9:6.42576 10:-1.88561 11:2.71673 12:-3.7205 13:3.82292 14:60.614 15:-0.203621 16:3.07796 17:0.00296279 18:1.3837 19:-0.055136 20:0.753053 21:-0.257079 22:0.897442 23:-0.450764 24:0.929039 25:-0.538976 26:0.282739
-0.088099950849739872 1:283.058 2:1.49342 3:8.98353 4:2.96717 5:0.325157 6:-1.91329 7:4.85948 8:-1.6907 9:2.57818 10:-3.93406 11:5.25556 12:-2.0101 13:2.6969 14:60.614 15:-0.203621 16:3.07796 17:0.00296279 18:1.3837 19:-0.055136 20:0.753053 21:-0.257079 22:0.897442 23:-0.450764 24:0.929039 25:-0.538976 26:0.282739
-0.97920939260883388 1:245.71 2:-12.4443 3:15.9591 4:6.09807 5:1.62414 6:2.74411 7:3.23286 8:1.37363 9:-0.483046 10:-4.38821 11:4.16314 12:-2.16065 13:2.16638 14:60.614 15:-0.203621 16:3.07796 17:0.00296279 18:1.3837 19:-0.055136 20:0.753053 21:-0.257079 22:0.897442 23:-0.450764 24:0.929039 25:-0.538976 26:0.282739
-0.93368251462722618 1:247.066 2:-14.0634 3:11.8559 4:5.08843 5:-0.884294 6:1.95695 7:4.78311 8:0.0376248 9:-1.23737 10:-2.44201 11:5.55409 12:-2.99137 13:2.3015 14:60.614 15:-0.203621 16:3.07796 17:0.00296279 18:1.3837 19:-0.055136 20:0.753053 21:-0.257079 22:0.897442 23:-0.450764 24:0.929039 25:-0.538976 26:0.282739
-1 1:248.921 2:-6.67549 3:8.53354 4:3.7105 5:-1.05497 6:1.84561 7:2.40501 8:-2.82444 9:-0.347006 10:-3.72515 11:4.99479 12:-2.47599 13:3.76837 14:60.614 15:-0.203621 16:3.07796 17:0.00296279 18:1.3837 19:-0.055136 20:0.753053 21:-0.257079 22:0.897442 23:-0.450764 24:0.929039 25:-0.538976 26:0.282739
-0.28224278741822484 1:243.431 2:1.09233 3:9.12013 4:0.101169 5:-0.272781 6:1.04329 7:2.66143 8:-4.43248 9:-0.256789 10:-3.71022 11:6.64371 12:-3.03714 13:3.96746 14:60.614 15:-0.203621 16:3.07796 17:0.00296279 18:1.3837 19:-0.055136 20:0.753053 21:-0.257079 22:0.897442 23:-0.450764 24:0.929039 25:-0.538976 26:0.282739
-1 1:233.31 2:6.46404 3:10.3517 4:-0.941931 5:1.12294 6:0.347378 7:5.04695 8:-5.51872 9:0.901227 10:-2.33571 11:5.76485 12:-0.820371 13:2.66394 14:60.614 15:-0.203621 16:3.07796 17:0.00296279 18:1.3837 19:-0.055136 20:0.753053 21:-0.257079 22:0.897442 23:-0.450764 24:0.929039 25:-0.538976 26:0.282739
-0.23346671437125138 1:231.021 2:8.2456 3:10.1094 4:-2.30766 5:2.14019 6:-1.90742 7:6.27883 8:-4.39593 9:2.58851 10:-2.13254 11:4.99534 12:-1.41267 13:2.72915 14:60.614 15:-0.203621 16:3.07796 17:0.00296279 18:1.3837 19:-0.055136 20:0.753053 21:-0.257079 22:0.897442 23:-0.450764 24:0.929039 25:-0.538976 26:0.282739
-1 1:227.124 2:5.16788 3:6.58466 4:-4.87456 5:-0.270218 6:-0.752143 7:3.66238 8:-4.05995 9:2.68568 10:-2.66192 11:3.14928 12:-2.61114 13:4.19554 14:60.614 15:-0.203621 16:3.07796 17:0.00296279 18:1.3837 19:-0.055136 20:0.753053 21:-0.257079 22:0.897442 23:-0.450764 24:0.929039 25:-0.538976 26:0.282739
-0.46230358133794652 1:223.218 2:7.4142 3:5.192 4:-7.12213 5:0.991695 6:0.0300855 7:5.73639 8:-3.89368 9:-0.400169 10:-4.71805 11:4.24254 12:-2.26241 13:3.2345 14:60.614 15:-0.203621 16:3.07796 17:0.00296279 18:1.3837 19:-0.055136 20:0.753053 21:-0.257079 22:0.897442 23:-0.450764 24:0.929039 25:-0.538976 26:0.282739
-1 1:241.172 2:-5.49081 3:7.97481 4:-4.0361 5:-7.31223 6:1.65307 7:3.58428 8:-1.97275 9:0.895787 10:-3.90488 11:1.87683 12:-2.58549 13:3.16826 14:60.614 15:-0.203621 16:3.07796 17:0.00296279 18:1.3837 19:-0.055136 20:0.753053 21:-0.257079 22:0.897442 23:-0.450764 24:0.929039 25:-0.538976 26:0.282739
-0.87160114597210969 1:229.424 2:1.4633 3:6.6304 4:-6.91175 5:-1.80414 6:0.755252 7:6.66713 8:0.00282238 9:3.45083 10:-3.84044 11:2.72217 12:-1.12383 13:2.29086 14:60.614 15:-0.203621 16:3.07796 17:0.00296279 18:1.3837 19:-0.055136 20:0.753053 21:-0.257079 22:0.897442 23:-0.450764 24:0.929039 25:-0.538976 26:0.282739
-1 1:223.25 2:4.07185 3:7.97993 4:-4.45838 5:2.90836 6:2.20529 7:6.99044 8:-2.17601 9:2.50635 10:-2.59969 11:3.68187 12:-3.00391 13:0.286959 14:60.614 15:-0.203621 16:3.07796 17:0.00296279 18:1.3837 19:-0.055136 20:0.753053 21:-0.257079 22:0.897442 23:-0.450764 24:0.929039 25:-0.538976 26:0.282739
-1 1:216.892 2:-6.05275 3:6.97556 4:-2.55755 5:4.6871 6:2.83038 7:4.84925 8:-0.40379 9:-0.0515746 10:-4.29728 11:3.07257 12:-1.59385 13:-0.406153 14:60.614 15:-0.203621 16:3.07796 17:0.00296279 18:1.3837 19:-0.055136 20:0.753053 21:-0.257079 22:0.897442 23:-0.450764 24:0.929039 25:-0.538976 26:0.282739
-1 1:219.357 2:-4.71469 3:6.31151 4:-3.76362 5:1.74233 6:-0.940374 7:3.90511 8:-1.60373 9:0.315217 10:-2.73109 11:0.501225 12:-1.88126 13:0.111576 14:60.614 15:-0.203621 16:3.07796 17:0.00296279 18:1.3837 19:-0.055136 20:0.753053 21:-0.257079 22:0.897442 23:-0.450764 24:0.929039 25:-0.538976 26:0.282739
-1 1:217.24 2:2.54175 3:8.38269 4:-2.34128 5:2.41583 6:-0.96856 7:4.19359 8:0.172498 9:1.02013 10:-4.34539 11:0.612482 12:-3.08544 13:1.79364 14:60.614 15:-0.203621 16:3.07796 17:0.00296279 18:1.3837 19:-0.055136 20:0.753053 21:-0.257079 22:0.897442 23:-0.450764 24:0.929039 25:-0.538976 26:0.282739
-1 1:216.389 2:2.39885 3:9.71159 4:-1.79442 5:3.88548 6:-0.66747 7:2.75974 8:-0.0490368 9:0.535157 10:-2.31042 11:1.05569 12:-3.82523 13:3.33002 14:60.614 15:-0.203621 16:3.07796 17:0.00296279 18:1.3837 19:-0.055136 20:0.753053 21:-0.257079 22:0.897442 23:-0.450764 24:0.929039 25:-0.538976 26:0.282739
-1 1:213.905 2:-2.757 3:8.62146 4:0.0403531 5:4.63523 6:-0.629824 7:0.762149 8:-0.0284252 9:1.83768 10:-2.71262 11:-1.1783 12:-4.1947 13:2.02475 14:60.614 15:-0.203621 16:3.07796 17:0.00296279 18:1.3837 19:-0.055136 20:0.753053 21:-0.257079 22:0.897442 23:-0.450764 24:0.929039 25:-0.538976 26:0.282739
-1 1:214.188 2:-0.849127 3:8.50874 4:-1.08527 5:4.23353 6:-1.52644 7:3.05939 8:-0.0145373 9:2.50338 10:-0.66939 11:-0.981039 12:-4.66404 13:2.74385 14:60.614 15:-0.203621 16:3.07796 17:0.00296279 18:1.3837 19:-0.055136 20:0.753053 21:-0.257079 22:0.897442 23:-0.450764 24:0.929039 25:-0.538976 26:0.282739
-1 1:212.174 2:-1.68538 3:8.30558 4:-1.85674 5:4.8211 6:-0.513761 7:2.99969 8:0.654714 9:2.76602 10:0.35793 11:2.39734 12:-1.56102 13:2.72388 14:60.614 15:-0.203621 16:3.07796 17:0.00296279 18:1.3837 19:-0.055136 20:0.753053 21:-0.257079 22:0.897442 23:-0.450764 24:0.929039 25:-0.538976 26:0.282739
-1 1:215.98 2:0.121854 3:10.7428 4:-1.38146 5:5.24693 6:-0.700389 7:3.49747 8:0.535818 9:2.26375 10:-2.41119 11:0.899206 12:-2.01072 13:0.854157 14:60.614 15:-0.203621 16:3.07796 17:0.00296279 18:1.3837 19:-0.055136 20:0.753053 21:-0.257079 22:0.897442 23:-0.450764 24:0.929039 25:-0.538976 26:0.282739
-1 1:210.09 2:-1.93025 3:9.18536 4:-0.764312 5:3.87555 6:0.4185 7:3.96132 8:-1.34337 9:2.04741 10:-1.68974 11:1.11548 12:-1.68577 13:2.57277 14:60.614 15:-0.203621 16:3.07796 17:0.00296279 18:1.3837 19:-0.055136 20:0.753053 21:-0.257079 22:0.897442 23:-0.450764 24:0.929039 25:-0.538976 26:0.282739
-1 1:211.309 2:-0.876961 3:8.75738 4:0.307666 5:6.33014 6:-0.0456333 7:5.02408 8:-0.0642868 9:3.00931 10:-0.144111 11:1.21867 12:-0.9736 13:2.6681 14:60.614 15:-0.203621 16:3.07796 17:0.00296279 18:1.3837 19:-0.055136 20:0.753053 21:-0.257079 22:0.897442 23:-0.450764 24:0.929039 25:-0.538976 26:0.282739
-0.80555746578282761 1:210.648 2:-0.126996 3:9.90575 4:-0.0432305 5:4.9126 6:-1.61934 7:0.879074 8:-0.667553 9:0.489901 10:-2.26419 11:1.06611 12:-2.97373 13:0.397715 14:60.614 15:-0.203621 16:3.07796 17:0.00296279 18:1.3837 19:-0.055136 20:0.753053 21:-0.257079 22:0.897442 23:-0.450764 24:0.929039 25:-0.538976 26:0.282739
-0.04370635250356044 1:212.31 2:-0.912644 3:10.2539 4:-1.46852 5:4.19175 6:-0.797659 7:2.90557 8:-0.932121 9:1.14158 10:-1.74291 11:1.25442 12:-1.53624 13:0.0848124 14:60.614 15:-0.203621 16:3.07796 17:0.00296279 18:1.3837 19:-0.055136 20:0.753053 21:-0.257079 22:0.897442 23:-0.450764 24:0.929039 25:-0.538976 26:0.282739
-1 1:212.4 2:-2.14184 3:8.37955 4:-1.03314 5:7.51909 6:-1.30371 7:2.38072 8:-0.178959 9:1.64948 10:0.134228 11:2.77984 12:-1.58784 13:0.368769 14:60.614 15:-0.203621 16:3.07796 17:0.00296279 18:1.3837 19:-0.055136 20:0.753053 21:-0.257079 22:0.897442 23:-0.450764 24:0.929039 25:-0.538976 26:0.282739
-0.46707487127569769 1:208.028 2:1.43013 3:8.33802 4:-1.65154 5:3.83995 6:-0.456529 7:3.35435 8:-0.95276 9:4.53707 10:-3.32625 11:1.20581 12:-2.34706 13:3.6764 14:60.614 15:-0.203621 16:3.07796 17:0.00296279 18:1.3837 19:-0.055136 20:0.753053 21:-0.257079 22:0.897442 23:-0.450764 24:0.929039 25:-0.538976 26:0.282739
-1 1:208.654 2:1.1389 3:7.0013 4:-3.06811 5:2.9425 6:-2.65363 7:-0.258298 8:-2.24019 9:2.61797 10:-2.77943 11:2.22384 12:-1.6866 13:3.28706 14:60.614 15:-0.203621 16:3.07796 17:0.00296279 18:1.3837 19:-0.055136 20:0.753053 21:-0.257079 22:0.897442 23:-0.450764 24:0.929039 25:-0.538976 26:0.282739
-0.57671694467694978 1:204.167 2:-0.952565 3:5.86165 4:0.798911 5:6.87458 6:-0.351403 7:3.06858 8:-1.87375 9:2.11775 10:-1.27629 11:3.83818 12:-1.20999 13:1.91551 14:60.614 15:-0.203621 16:3.07796 17:0.00296279 18:1.3837 19:-0.055136 20:0.753053 21:-0.257079 22:0.897442 23:-0.450764 24:0.929039 25:-0.538976 26:0.282739
-1 1:205.447 2:-0.163497 3:7.59441 4:0.178737 5:4.77023 6:1.8995 7:5.85733 8:-2.05552 9:3.19277 10:-2.74525 11:1.39211 12:-2.38639 13:2.28546 14:60.614 15:-0.203621 16:3.07796 17:0.00296279 18:1.3837 19:-0.055136 20:0.753053 21:-0.257079 22:0.897442 23:-0.450764 24:0.929039 25:-0.538976 26:0.282739
-1 1:208.243 2:0.627107 3:8.72375 4:-0.599577 5:3.38884 6:1.15848 7:3.1807 8:-2.50482 9:1.19433 10:-2.73848 11:2.72606 12:-2.40453 13:3.26385 14:60.614 15:-0.203621 16:3.07796 17:0.00296279 18:1.3837 19:-0.055136 20:0.753053 21:-0.257079 22:0.897442 23:-0.450764 24:0.929039 25:-0.538976 26:0.282739
-0.9550468792007315 1:204.462 2:0.197906 3:11.3674 4:1.69962 5:1.34205 6:-0.854307 7:7.14026 8:-0.167852 9:2.3926 10:-4.8361 11:1.49111 12:-1.96223 13:4.42496 14:60.614 15:-0.203621 16:3.07796 17:0.00296279 18:1.3837 19:-0.055136 20:0.753053 21:-0.257079 22:0.897442 23:-0.450764 24:0.929039 25:-0.538976 26:0.282739
-0.016914674979972517 1:204.918 2:-0.0179955 3:10.3787 4:1.07462 5:5.12345 6:-2.08637 7:3.47813 8:-1.9416 9:0.755174 10:-1.95661 11:3.10594 12:-2.0344 13:0.178448 14:204.918 15:-0.0179955 16:10.3787 17:1.07462 18:5.12345 19:-2.08637 20:3.47813 21:-1.9416 22:0.755174 23:-1.95661 24:3.10594 25:-2.0344 26:0.178448
-0.42549190519439306 1:201.041 2:-1.20514 3:11.0887 4:-1.02838 5:3.15698 6:0.937169 7:2.04047 8:-0.500549 9:4.68716 10:-1.67251 11:2.17081 12:-2.02277 13:0.457719 14:201.041 15:-1.20514 16:11.0887 17:-1.02838 18:3.15698 19:0.937169 20:2.04047 21:-0.500549 22:4.68716 23:-1.67251 24:2.17081 25:-2.02277 26:0.457719
-0.79602878233514818 1:152.493 2:0.519699 3:8.62595 4:-0.45628 5:5.50929 6:-3.78191 7:-1.58716 8:-2.95989 9:1.38203 10:-4.39074 11:4.4094 12:0.490439 13:0.123403 14:152.493 15:0.519699 16:8.62595 17:-0.45628 18:5.50929 19:-3.78191 20:-1.58716 21:-2.95989 22:1.38203 23:-4.39074 24:4.4094 25:0.490439 26:0.123403
-0.615345275052399 1:207.955 2:2.63976 3:9.73204 4:-0.709169 5:5.40953 6:0.177212 7:5.96204 8:-0.626854 9:2.45101 10:-2.68592 11:3.68593 12:-1.5641 13:2.37963 14:207.955 15:2.63976 16:9.73204 17:-0.709169 18:5.40953 19:0.177212 20:5.96204 21:-0.626854 22:2.45101 23:-2.68592 24:3.68593 25:-1.5641 26:2.37963
-0.48234375532725643 1:245.86 2:-7.78536 3:-5.46174 4:1.93362 5:10.0688 6:2.23372 7:-1.10655 8:-5.71804 9:7.3852 10:-7.86875 11:5.33673 12:-1.1782 13:-1.43268 14:88.104 15:7.42062 16:0.0797571 17:0.742548 18:4.05829 19:-1.8133 20:3.06409 21:-1.39423 22:1.2537 23:-1.56879 24:-0.467284 25:-1.2225 26:2.75985
-0.25858700202163121 1:234.677 2:-5.0719 3:-1.68497 4:2.73276 5:11.0066 6:2.4093 7:-0.787938 8:-5.38129 9:6.76446 10:-7.64574 11:4.57195 12:-0.297893 13:-1.00282 14:88.104 15:7.42062 16:0.0797571 17:0.742548 18:4.05829 19:-1.8133 20:3.06409 21:-1.39423 22:1.2537 23:-1.56879 24:-0.467284 25:-1.2225 26:2.75985
-0.14119192305772787 1:209.722 2:-4.31872 3:7.8829 4:-1.75349 5:1.48822 6:1.65306 7:4.34511 8:-1.30934 9:2.60104 10:-2.04686 11:3.31434 12:-0.683104 13:0.602758 14:88.104 15:7.42062 16:0.0797571 17:0.742548 18:4.05829 19:-1.8133 20:3.06409 21:-1.39423 22:1.2537 23:-1.56879 24:-0.467284 25:-1.2225 26:2.75985
-0.7754787356773466 1:207.932 2:1.68354 3:9.40889 4:-0.327763 5:5.09293 6:-1.33108 7:-0.266028 8:-2.59256 9:-0.345954 10:-3.31164 11:4.22022 12:-1.12002 13:3.21985 14:88.104 15:7.42062 16:0.0797571 17:0.742548 18:4.05829 19:-1.8133 20:3.06409 21:-1.39423 22:1.2537 23:-1.56879 24:-0.467284 25:-1.2225 26:2.75985
-0.4693370539019236 1:201.28 2:-1.82236 3:9.4328 4:3.27643 5:6.41808 6:0.149539 7:5.08683 8:-2.49225 9:2.94678 10:-1.23666 11:3.20944 12:-0.626501 13:2.23784 14:88.104 15:7.42062 16:0.0797571 17:0.742548 18:4.05829 19:-1.8133 20:3.06409 21:-1.39423 22:1.2537 23:-1.56879 24:-0.467284 25:-1.2225 26:2.75985
-0.03486617146101615 1:209.375 2:2.37758 3:9.76305 4:1.21207 5:3.93886 6:1.46786 7:5.4179 8:-2.19038 9:4.05986 10:0.62204 11:5.35484 12:0.222766 13:5.9393 14:88.104 15:7.42062 16:0.0797571 17:0.742548 18:4.05829 19:-1.8133 20:3.06409 21:-1.39423 22:1.2537 23:-1.56879 24:-0.467284 25:-1.2225 26:2.75985
-0.42059857489996411 1:225.363 2:-6.25867 3:8.29435 4:-0.0581382 5:4.57664 6:0.662068 7:1.03672 8:-4.43608 9:0.801628 10:-2.69595 11:-1.40086 12:0.341565 13:3.93215 14:88.104 15:7.42062 16:0.0797571 17:0.742548 18:4.05829 19:-1.8133 20:3.06409 21:-1.39423 22:1.2537 23:-1.56879 24:-0.467284 25:-1.2225 26:2.75985
-0.39843375432834172 1:217.132 2:-2.79008 3:8.16866 4:0.756561 5:4.27504 6:0.447507 7:5.68004 8:0.947125 9:5.05512 10:0.229491 11:6.38201 12:1.8747 13:3.30641 14:88.104 15:7.42062 16:0.0797571 17:0.742548 18:4.05829 19:-1.8133 20:3.06409 21:-1.39423 22:1.2537 23:-1.56879 24:-0.467284 25:-1.2225 26:2.75985
-0.030720338341104304 1:233.807 2:3.5831 3:7.13301 4:-0.807652 5:6.15311 6:-2.42582 7:3.19128 8:-2.05036 9:3.53468 10:-1.46396 11:4.30064 12:-1.55662 13:4.31474 14:88.104 15:7.42062 16:0.0797571 17:0.742548 18:4.05829 19:-1.8133 20:3.06409 21:-1.39423 22:1.2537 23:-1.56879 24:-0.467284 25:-1.2225 26:2.75985
-0.6718730500365685 1:278.924 2:12.9354 3:7.05836 4:0.101293 5:10.1889 6:-0.106981 7:7.5115 8:-4.21921 9:3.95894 10:-4.24816 11:2.79777 12:-2.88616 13:4.88707 14:88.104 15:7.42062 16:0.0797571 17:0.742548 18:4.05829 19:-1.8133 20:3.06409 21:-1.39423 22:1.2537 23:-1.56879 24:-0.467284 25:-1.2225 26:2.75985
-0.041007970657107415 1:302.825 2:19.5078 3:1.24949 4:2.63794 5:9.62328 6:-0.605305 7:9.33629 8:-5.90901 9:5.57878 10:-6.78677 11:2.14701 12:-4.61601 13:4.90421 14:88.104 15:7.42062 16:0.0797571 17:0.742548 18:4.05829 19:-1.8133 20:3.06409 21:-1.39423 22:1.2537 23:-1.56879 24:-0.467284 25:-1.2225 26:2.75985
-0.25821544212610298 1:312.292 2:23.1212 3:-2.11331 4:4.70555 5:10.1079 6:-4.00547 7:11.6636 8:-5.01015 9:5.26762 10:-4.56943 11:2.61722 12:-6.23954 13:5.38742 14:88.104 15:7.42062 16:0.0797571 17:0.742548 18:4.05829 19:-1.8133 20:3.06409 21:-1.39423 22:1.2537 23:-1.56879 24:-0.467284 25:-1.2225 26:2.75985
-0.2261907768712631 1:340.803 2:25.0807 3:1.50578 4:-2.69263 5:0.546997 6:-10.439 7:13.4615 8:-5.61 9:-0.513163 10:-0.512446 11:4.45553 12:-7.74368 13:10.362 14:88.104 15:7.42062 16:0.0797571 17:0.742548 18:4.05829 19:-1.8133 20:3.06409 21:-1.39423 22:1.2537 23:-1.56879 24:-0.467284 25:-1.2225 26:2.75985
-0.14307793376079939 1:341.474 2:23.3089 3:-0.455305 4:-1.87495 5:1.83402 6:-8.42642 7:11.0236 8:-6.4599 9:-2.37334 10:0.427999 11:5.18998 12:-5.77431 13:9.51169 14:88.104 15:7.42062 16:0.0797571 17:0.742548 18:4.05829 19:-1.8133 20:3.06409 21:-1.39423 22:1.2537 23:-1.56879 24:-0.467284 25:-1.2225 26:2.75985
-0.084842711387428146 1:309.644 2:28.2951 3:11.8384 4:3.1655 5:2.95935 6:-18.0281 7:8.25721 8:-4.48735 9:4.37904 10:-2.64761 11:4.44421 12:-8.24483 13:6.31944 14:88.104 15:7.42062 16:0.0797571 17:0.742548 18:4.05829 19:-1.8133 20:3.06409 21:-1.39423 22:1.2537 23:-1.56879 24:-0.467284 25:-1.2225 26:2.75985
-0.61225903441652807 1:320.855 2:22.3104 3:13.4121 4:2.41683 5:-0.692328 6:-15.0908 7:6.29159 8:-3.80447 9:4.04263 10:-1.92218 11:4.06843 12:-7.29945 13:5.36327 14:88.104 15:7.42062 16:0.0797571 17:0.742548 18:4.05829 19:-1.8133 20:3.06409 21:-1.39423 22:1.2537 23:-1.56879 24:-0.467284 25:-1.2225 26:2.75985
-0.10001234715308445 1:331.592 2:16.771 3:-0.367968 4:11.2257 5:10.0202 6:-5.85496 7:9.32818 8:-10.0995 9:-0.59404 10:-3.86512 11:-0.141943 12:-3.98 13:6.66025 14:88.104 15:7.42062 16:0.0797571 17:0.742548 18:4.05829 19:-1.8133 20:3.06409 21:-1.39423 22:1.2537 23:-1.56879 24:-0.467284 25:-1.2225 26:2.75985
-1 1:324.342 2:6.49971 3:6.72653 4:9.8783 5:10.1464 6:-0.900738 7:4.12046 8:-6.23957 9:-0.996513 10:-0.231623 11:-0.674732 12:-4.0176 13:5.24914 14:88.104 15:7.42062 16:0.0797571 17:0.742548 18:4.05829 19:-1.8133 20:3.06409 21:-1.39423 22:1.2537 23:-1.56879 24:-0.467284 25:-1.2225 26:2.75985
-0.42098630742671589 1:311.362 2:5.33106 3:8.68002 4:9.37771 5:10.7626 6:-0.0223319 7:5.08481 8:-5.46521 9:0.520449 10:-0.34064 11:-0.614854 12:-4.43417 13:4.67668 14:88.104 15:7.42062 16:0.0797571 17:0.742548 18:4.05829 19:-1.8133 20:3.06409 21:-1.39423 22:1.2537 23:-1.56879 24:-0.467284 25:-1.2225 26:2.75985
-0.028863142105187246 1:304.39 2:-11.6828 3:16.8125 4:10.6376 5:6.3149 6:4.57574 7:1.37929 8:-3.55877 9:3.12576 10:-4.66549 11:-0.164031 12:-3.02491 13:-0.440271 14:88.104 15:7.42062 16:0.0797571 17:0.742548 18:4.05829 19:-1.8133 20:3.06409 21:-1.39423 22:1.2537 23:-1.56879 24:-0.467284 25:-1.2225 26:2.75985
-0.18279326314035443 1:306.461 2:-19.338 3:16.134 4:10.7387 5:4.20867 6:5.01732 7:0.90528 8:-4.08874 9:1.48307 10:-4.99125 11:-0.278733 12:-1.4093 13:0.138625 14:88.104 15:7.42062 16:0.0797571 17:0.742548 18:4.05829 19:-1.8133 20:3.06409 21:-1.39423 22:1.2537 23:-1.56879 24:-0.467284 25:-1.2225 26:2.75985
-0.95285484053903102 1:304.867 2:-20.5908 3:8.15404 4:1.74402 5:0.549962 6:0.287189 7:-3.29957 8:-2.57814 9:4.26643 10:-4.81262 11:-0.50706 12:1.0634 13:1.81468 14:88.104 15:7.42062 16:0.0797571 17:0.742548 18:4.05829 19:-1.8133 20:3.06409 21:-1.39423 22:1.2537 23:-1.56879 24:-0.467284 25:-1.2225 26:2.75985
-0.1311346737340969 1:279.412 2:-10.23 3:9.81789 4:7.44614 5:3.58279 6:-0.49305 7:0.245298 8:-4.36929 9:5.79764 10:-4.35462 11:-2.25931 12:1.16148 13:2.12039 14:88.104 15:7.42062 16:0.0797571 17:0.742548 18:4.05829 19:-1.8133 20:3.06409 21:-1.39423 22:1.2537 23:-1.56879 24:-0.467284 25:-1.2225 26:2.75985
-0.43259758121834135 1:250.759 2:-3.19637 3:9.06664 4:1.90816 5:7.31524 6:3.356 7:-0.903232 8:-0.144601 9:6.10872 10:-3.38365 11:0.454936 12:0.708568 13:2.55716 14:88.104 15:7.42062 16:0.0797571 17:0.742548 18:4.05829 19:-1.8133 20:3.06409 21:-1.39423 22:1.2537 23:-1.56879 24:-0.467284 25:-1.2225 26:2.75985
-0.78316251601340736 1:279.975 2:9.23486 3:9.5684 4:5.91485 5:8.66728 6:-3.00093 7:3.89257 8:-4.52685 9:-1.55817 10:-0.146542 11:1.80148 12:-4.3485 13:5.71387 14:88.104 15:7.42062 16:0.0797571 17:0.742548 18:4.05829 19:-1.8133 20:3.06409 21:-1.39423 22:1.2537 23:-1.56879 24:-0.467284 25:-1.2225 26:2.75985
-0.061104089876017981 1:325.12 2:11.7254 3:6.77863 4:7.37202 5:10.6117 6:0.428286 7:4.13212 8:-5.76515 9:-3.81569 10:0.0606089 11:0.963233 12:-6.77955 13:6.78742 14:88.104 15:7.42062 16:0.0797571 17:0.742548 18:4.05829 19:-1.8133 20:3.06409 21:-1.39423 22:1.2537 23:-1.56879 24:-0.467284 25:-1.2225 26:2.75985
-0.43141103457975061 1:312.627 2:5.98942 3:14.6504 4:5.52121 5:8.01517 6:6.00715 7:4.76511 8:-6.28854 9:1.79973 10:-4.98225 11:2.13741 12:-5.89455 13:3.5974 14:88.104 15:7.42062 16:0.0797571 17:0.742548 18:4.05829 19:-1.8133 20:3.06409 21:-1.39423 22:1.2537 23:-1.56879 24:-0.467284 25:-1.2225 26:2.75985
-0.74126055046685613 1:312.064 2:-1.85829 3:21.1831 4:5.30979 5:2.7384 6:8.61985 7:2.35172 8:-3.52079 9:3.24584 10:-4.99175 11:3.28628 12:-4.89989 13:4.03848 14:88.104 15:7.42062 16:0.0797571 17:0.742548 18:4.05829 19:-1.8133 20:3.06409 21:-1.39423 22:1.2537 23:-1.56879 24:-0.467284 25:-1.2225 26:2.75985
-0.38378391773701892 1:309.533 2:-15.4775 3:23.9791 4:10.2467 5:1.24265 6:7.73788 7:3.43024 8:0.580454 9:-0.439883 10:-8.11025 11:0.931446 12:-2.25241 13:2.70505 14:88.104 15:7.42062 16:0.0797571 17:0.742548 18:4.05829 19:-1.8133 20:3.06409 21:-1.39423 22:1.2537 23:-1.56879 24:-0.467284 25:-1.2225 26:2.75985
-0.2901579812169448 1:299.362 2:-21.5508 3:23.3013 4:17.0271 5:-2.29611 6:8.519 7:4.41923 8:-6.63786 9:1.69856 10:-3.81173 11:3.3981 12:-1.78279 13:1.49544 14:88.104 15:7.42062 16:0.0797571 17:0.742548 18:4.05829 19:-1.8133 20:3.06409 21:-1.39423 22:1.2537 23:-1.56879 24:-0.467284 25:-1.2225 26:2.75985
-0.063084475973282414 1:299.724 2:-20.0994 3:20.0343 4:15.5858 5:-3.50686 6:9.85349 7:6.09895 8:-7.28416 9:3.48502 10:-4.82796 11:3.12777 12:-1.73732 13:2.33476 14:88.104 15:7.42062 16:0.0797571 17:0.742548 18:4.05829 19:-1.8133 20:3.06409 21:-1.39423 22:1.2537 23:-1.56879 24:-0.467284 25:-1.2225 26:2.75985
-0.4197415198909018 1:279.243 2:-7.97845 3:19.3758 4:14.9323 5:4.44412 6:1.80831 7:8.76624 8:-2.20783 9:0.472788 10:-4.98677 11:2.28513 12:-5.18033 13:3.32163 14:88.104 15:7.42062 16:0.0797571 17:0.742548 18:4.05829 19:-1.8133 20:3.06409 21:-1.39423 22:1.2537 23:-1.56879 24:-0.467284 25:-1.2225 26:2.75985
-0.38219063834301159 1:259.68 2:1.08606 3:15.1598 4:11.1534 5:8.61134 6:2.10933 7:9.34751 8:-2.07062 9:2.2274 10:-3.96643 11:3.23823 12:-4.00152 13:2.65276 14:88.104 15:7.42062 16:0.0797571 17:0.742548 18:4.05829 19:-1.8133 20:3.06409 21:-1.39423 22:1.2537 23:-1.56879 24:-0.467284 25:-1.2225 26:2.75985
-0.24457979243945432 1:255.216 2:8.82153 3:15.6193 4:1.44878 5:10.7561 6:5.53983 7:7.3464 8:-0.779596 9:5.51624 10:-6.23887 11:1.25362 12:-3.61977 13:3.84131 14:88.104 15:7.42062 16:0.0797571 17:0.742548 18:4.05829 19:-1.8133 20:3.06409 21:-1.39423 22:1.2537 23:-1.56879 24:-0.467284 25:-1.2225 26:2.75985
-0.079551366603107188 1:280.455 2:20.3041 3:12.5493 4:1.64416 5:8.6517 6:1.97436 7:5.10855 8:-7.03855 9:7.9829 10:-4.45071 11:-1.37669 12:-6.35761 13:8.02252 14:88.104 15:7.42062 16:0.0797571 17:0.742548 18:4.05829 19:-1.8133 20:3.06409 21:-1.39423 22:1.2537 23:-1.56879 24:-0.467284 25:-1.2225 26:2.75985
-0.46946203870522879 1:288.207 2:21.5008 3:10.6167 4:-0.466344 5:9.87851 6:1.31612 7:6.06301 8:-8.096 9:7.63662 10:-2.28357 11:-3.41532 12:-5.93964 13:7.43177 14:88.104 15:7.42062 16:0.0797571 17:0.742548 18:4.05829 19:-1.8133 20:3.06409 21:-1.39423 22:1.2537 23:-1.56879 24:-0.467284 25:-1.2225 26:2.75985
-0.11520336998366881 1:277.384 2:20.4307 3:13.4499 4:1.74774 5:10.9781 6:0.808452 7:9.54661 8:-8.99474 9:0.229895 10:-1.80821 11:4.20492 12:-6.80129 13:4.45019 14:88.104 15:7.42062 16:0.0797571 17:0.742548 18:4.05829 19:-1.8133 20:3.06409 21:-1.39423 22:1.2537 23:-1.56879 24:-0.467284 25:-1.2225 26:2.75985
-0.11568612346471915 1:245.986 2:17.1476 3:19.7234 4:3.16107 5:12.1844 6:0.874949 7:5.82111 8:-4.0666 9:2.44797 10:-4.74941 11:2.85218 12:-3.95344 13:5.63225 14:88.104 15:7.42062 16:0.0797571 17:0.742548 18:4.05829 19:-1.8133 20:3.06409 21:-1.39423 22:1.2537 23:-1.56879 24:-0.467284 25:-1.2225 26:2.75985
